tree
version=v4
num_class=1
num_tree_per_iteration=1
label_index=0
max_feature_idx=10
objective=binary sigmoid:1
feature_names=Column_0 Column_1 Column_2 Column_3 Column_4 Column_5 Column_6 Column_7 Column_8 Column_9 Column_10
feature_infos=[0:100] [-0.095368572542245289:0.096228583390320921] [-3.0100334448160635:2.6827012025901862] [-3.2957502168256636:3.5662824207492871] [0:57.161902002235664] [-0.022036059005645679:0.021247975645802015] [-0.041542099861675112:0.030753099010327717] [0:0.0082234583030757653] [0:0.048195504503387068] [-0.25836156433471946:1.2631052177564484] [0:2.4530968982914194]
tree_sizes=1556 1605 1617 1815 1512 1810 1613 1820

Tree=0
num_leaves=14
num_cat=0
split_feature=7 1 2 9 7 4 9 1 4 4 10 9 6
split_gain=11.7581 12.5209 12.3906 12.3311 9.99884 7.18465 6.20615 6.05281 5.50966 4.67998 0.918144 0.583169 0.187447
threshold=0.0053683758261051364 0.023931227925393376 0.94958167289115425 0.54549839712385462 0.0044608468879902864 26.697090942908169 0.2602387295318489 0.038360999139729131 17.024445235608642 26.697090942908169 0.84173125240670099 0.32096551427215608 0.0011950031885558392
decision_type=2 2 2 2 2 2 2 2 2 2 2 2 2
left_child=4 2 3 5 -1 6 8 -3 -2 -9 11 -6 -12
right_child=1 7 -4 -5 10 -7 -8 9 -10 -11 12 -13 -14
leaf_value=-1.236972590553536 -1.1782973649277564 -1.3231514498953816 -1.3164528866397545 -1.1435849222865506 -1.2872944348211417 -1.1706606275466909 -1.2934083037508508 -1.2338372731536851 -1.2647629038703956 -1.3045244290775946 -1.3310321125490607 -1.3164528866397545 -1.3164528866397545
leaf_weight=5.3157829940319088 3.6010142862796872 6.3446442186832455 3.4295374155044547 4.8013523817062369 3.4295374155044582 3.4295374155044547 5.3157829940319061 6.1731673479080182 3.7724911570549011 3.7724911570549011 6.1731673479080182 3.4295374155044556 3.4295374155044556
leaf_count=31 21 37 20 28 20 20 31 36 22 22 36 20 20
internal_value=-1.26695 -1.25106 -1.22836 -1.21392 -1.29659 -1.23487 -1.25223 -1.28499 -1.22254 -1.26065 -1.31585 -1.30187 -1.32583
internal_weight=62.4176 40.64 24.3497 20.9202 21.7776 16.1188 12.6893 16.2903 7.37351 9.94566 16.4618 6.85907 9.6027
internal_count=364 237 142 122 127 94 74 95 43 58 96 40 56
is_linear=0
shrinkage=1


Tree=1
num_leaves=14
num_cat=0
split_feature=7 1 2 0 8 7 1 4 2 4 3 3 2
split_gain=10.6821 11.0545 10.9228 12.383 9.57556 9.28563 5.68343 4.22176 3.31064 6.10415 0.891798 0.646067 0.199195
threshold=0.0053683758261051364 0.023931227925393376 0.94958167289115425 53.111490829626426 0.020851154744525785 0.0044608468879902864 0.038360999139729131 26.697090942908169 -1.3071897906673702 22.581001565516733 -1.0000000180025095e-35 0.63666828124261821 -0.90953610763215853
decision_type=2 2 2 2 2 2 2 2 2 2 2 2 2
left_child=5 2 3 4 -2 -1 -3 -8 -6 -10 12 -12 -7
right_child=1 6 -4 -5 8 10 7 -9 9 -11 11 -13 -14
leaf_value=0.027993843861224433 -0.031904630303469364 -0.055177532158740251 -0.048408598684384588 0.12621528536841306 0.091209170736740189 -0.04818614955137749 0.030867275594248723 -0.036486726928203775 -0.0023175774744476391 0.080522130614122486 -0.018362971530813236 -0.049122676194364674 -0.06352153069249733
leaf_weight=5.4050008505582836 4.5655790716409781 6.1446158885955837 3.3343052864074698 4.1698792427778235 3.849738657474524 3.3146648705005681 6.2875989675521833 3.6929869055747986 4.8375933319330127 4.1156588941812515 3.3314986228942844 3.5010205507278442 5.8630861341953278
leaf_count=31 26 37 20 23 22 20 36 22 28 23 20 21 35
internal_value=-5.06121e-05 0.0148994 0.0358043 0.0488411 0.0302649 -0.0286712 -0.0173461 0.00594515 0.0524347 0.0357624 -0.0478011 -0.0341244 -0.057983
internal_weight=62.4132 40.998 24.8728 21.5384 17.3686 21.4153 16.1252 9.98059 12.803 8.95325 16.0103 6.83252 9.17775
internal_count=364 237 142 122 99 127 95 58 73 51 96 41 55
is_linear=0
shrinkage=0.05


Tree=2
num_leaves=14
num_cat=0
split_feature=1 5 8 8 8 10 2 1 10 1 2 2 1
split_gain=4.81611 8.86831 11.9055 17.7284 6.11014 5.04305 4.23402 3.53066 3.5078 4.12606 2.56132 0.177712 0.00166706
threshold=0.023931227925393376 -0.00071529084444080942 0.025794438412178416 0.018071717803273098 0.020106407337942587 0.64249714695501214 -1.3071897906673702 0.063958190863536948 1.0313080164968171 -0.017827495741732587 0.25851737334765185 -0.59778011143198329 0.041603710562545089
decision_type=2 2 2 2 2 2 2 2 2 2 2 2 2
left_child=1 5 3 -3 -2 -1 -7 10 9 -8 -6 -10 -12
right_child=4 2 -4 -5 7 6 8 -9 11 -11 12 -13 -14
leaf_value=0.038951787919400134 0.039739185239654438 0.0038875136103341985 -0.024276776106940873 0.13496632410133913 -0.01458645814188814 0.016077619741012791 0.017155911404615493 0.010960811458507101 -0.064089992109782182 -0.050386571467508634 -0.062642185770273112 -0.048372477075265236 -0.064095204088232077
leaf_weight=4.8372320681810406 3.3795817792415646 5.0906443148851377 4.909649357199668 5.2294290512800217 4.059831663966178 6.8063617199659374 5.5184296518564269 3.3533385396003714 3.9176885336637497 3.8306924998760197 4.6712662875652295 3.3245427757501593 3.4187155067920685
leaf_count=28 20 29 28 29 24 39 32 20 23 23 29 20 20
internal_value=-9.46399e-05 0.00906489 0.0398166 0.0703083 -0.0211782 -0.00752237 -0.0171304 -0.0344578 -0.0307535 -0.0105188 -0.0469933 -0.0568749 -0.0632562
internal_weight=62.3474 43.4647 15.2297 10.3201 18.8827 28.2349 23.3977 15.5032 16.5914 9.34912 12.1498 7.24223 8.08998
internal_count=364 251 86 58 113 165 137 93 98 55 73 43 49
is_linear=0
shrinkage=0.05


Tree=3
num_leaves=16
num_cat=0
split_feature=1 1 1 8 8 9 1 2 4 4 6 9 4 10 0
split_gain=4.4092 7.12033 5.57653 5.29727 6.47437 16.8042 11.0648 7.18566 4.34561 4.31937 5.67277 2.48818 2.00114 1.17196 0.178969
threshold=-0.065254305791406772 0.023931227925393376 0.038360999139729131 0.018913705958678823 0.025794438412178416 0.44701321518664078 -0.046941909716560197 -0.61765731598334994 10.754198464105999 28.447380434857937 0.0087364722959548165 0.12523020714344049 13.420094179856994 0.91375490848871987 57.491636184766229
decision_type=2 2 2 2 2 2 2 2 2 2 2 2 2 2 2
left_child=11 3 14 8 5 -5 -6 -8 -2 10 -4 -1 -10 -9 -3
right_child=1 2 9 4 6 -7 7 13 12 -11 -12 -13 -14 -15 -16
leaf_value=-0.0054545787883923565 0.032694915760639591 -0.062310086634840112 0.064463818798969938 -0.0011815473554550263 0.084280470531356066 0.12396502770747674 0.040220455459284626 -0.063446286762773405 -0.063357278039791395 -0.047636433253369172 -0.018512472614902593 -0.063984632810172623 -0.0098307477851270943 -0.024056025938512308 -0.046340708626437715
leaf_weight=3.4063529670238486 3.5719614028930646 3.959350839257243 3.8679891973733884 5.5338159650564211 3.658579379320142 5.2057034522294998 3.8178911805152858 3.8136373162269628 3.3039267510175705 3.2651957422494879 4.406274288892746 3.8886692225933075 3.7034117430448532 3.7403301447629929 3.1504901051521301
leaf_count=20 20 25 22 32 20 27 22 23 20 20 26 23 22 22 20
internal_value=-0.000129461 0.00471523 -0.0204014 0.0176015 0.0298313 0.05948 0.00864682 -0.0156862 -0.0121889 0.00106002 0.0202766 -0.0366545 -0.0350683 -0.0439423 -0.0552338
internal_weight=62.2936 54.9986 18.6493 36.3493 25.77 10.7395 15.0304 11.3719 10.5793 11.5395 8.27426 7.29502 7.00734 7.55397 7.10984
internal_count=364 321 113 208 146 59 87 67 62 68 48 43 42 45 45
is_linear=0
shrinkage=0.05


Tree=4
num_leaves=13
num_cat=0
split_feature=7 5 7 7 1 4 9 9 1 3 2 2
split_gain=9.17169 8.77266 8.26709 6.19888 5.85522 7.07478 7.04774 3.51704 1.48665 0.821197 0.836862 0.00011942
threshold=0.0053683758261051364 0.0089449795975654889 0.0044608468879902864 0.0057252937311526352 -0.046941909716560197 14.262734728813962 0.61442249214148037 0.9115821708437124 -0.020145317199476761 0.42789909417955313 -1.0425748246712521 -0.53692145812013059
decision_type=2 2 2 2 2 2 2 2 2 2 2 2
left_child=2 3 -1 -2 -5 -6 8 -3 -7 10 -4 -12
right_child=1 7 9 4 5 6 -8 -9 -10 -11 11 -13
leaf_value=0.025155127466537777 0.069617390049166047 0.0020886890792950271 -0.031931169316074828 0.070274985747439928 0.046162548463963844 -0.016006545432225374 0.030339165648325644 -0.063768508718928099 -0.055049215641886529 -0.027381241277047288 -0.062356149156906217 -0.061964993317896983
leaf_weight=5.5311942696571377 6.2765244394540778 3.8010405600070936 3.2373854964971542 3.9978907257318488 7.1013437658548417 4.126572772860527 5.7365988940000525 4.3442558199167252 5.9592467993497831 4.2113561034202567 3.6476645320653915 4.1956759095191938
leaf_count=31 35 23 20 21 39 24 33 26 36 26 23 27
internal_value=-0.000167484 0.0134622 -0.0272285 0.0248707 0.0144385 0.00470061 -0.0139081 -0.0330359 -0.0390751 -0.0461759 -0.053319 -0.0621469
internal_weight=62.1668 41.3435 20.8233 33.1982 26.9217 22.9238 15.8224 8.1453 10.0858 15.2921 11.0807 7.84334
internal_count=364 237 127 188 153 132 93 49 60 96 70 50
is_linear=0
shrinkage=0.05


Tree=5
num_leaves=16
num_cat=0
split_feature=1 1 1 8 8 9 0 10 4 4 10 9 8 1 0
split_gain=4.0182 6.11043 5.37749 4.42804 5.62578 13.53 9.03081 7.12804 3.94371 3.71023 2.4908 2.38501 2.0193 1.4467 0.183738
threshold=-0.065254305791406772 0.023931227925393376 0.038360999139729131 0.018913705958678823 0.025794438412178416 0.44701321518664078 44.440858665524068 0.91791888755100481 28.447380434857937 10.754198464105999 0.89621802788237992 0.12523020714344049 0.01485794460509283 0.05198100321180555 57.491636184766229
decision_type=2 2 2 2 2 2 2 2 2 2 2 2 2 2 2
left_child=11 3 14 9 5 -5 7 -6 13 -2 -8 -1 -11 -4 -3
right_child=1 2 8 4 6 -7 10 -9 -10 12 -12 -13 -14 -15 -16
leaf_value=-0.0051982967237425518 0.029048458459145516 -0.061587072009707748 0.039872360962963628 -0.0011381388362528206 0.095745371850759639 0.10943075852336798 -0.063023733253457725 -0.0012598509905536691 -0.046087645595401162 -0.062559857826523249 -0.0054218885704682626 -0.063188302149544726 -0.0077913970820147633 -0.0019081391638161721 -0.04510254087382537
leaf_weight=3.385768085718154 3.6742573380470258 3.8088788986206081 4.3107899576425535 5.5262679606676119 3.6882420480251294 5.5407920032739639 3.3989259153604507 3.8921965658664703 3.1277716755866996 3.1579920947551727 4.1906697154045105 3.7224142104387283 3.6032466739416122 3.989325076341629 3.0391650348901749
leaf_count=20 20 25 25 32 20 27 21 22 20 20 24 23 22 23 20
internal_value=-0.000192022 0.00438405 -0.0192348 0.0161546 0.0271119 0.0542189 0.00733645 0.0459378 0.00176039 -0.0113944 -0.0312183 -0.0355665 -0.0333723 0.0197912 -0.0542712
internal_weight=62.0567 54.9485 18.2759 36.6726 26.2371 11.0671 15.17 7.58044 11.4279 10.4355 7.5896 7.10818 6.76124 8.30012 6.84804
internal_count=364 321 113 208 146 59 87 42 68 62 45 43 42 48 45
is_linear=0
shrinkage=0.05


Tree=6
num_leaves=14
num_cat=0
split_feature=7 5 7 7 2 0 6 9 0 3 3 9 1
split_gain=8.14437 7.69878 7.5638 5.17724 5.2761 4.78144 4.677 3.45456 1.65645 0.754703 0.628205 0.5568 0.192475
threshold=0.0053683758261051364 0.0089449795975654889 0.0044608468879902864 0.0057252937311526352 -1.3071897906673702 56.687541571812268 -0.0069998423366554006 0.9115821708437124 52.427857427217695 -1.0000000180025095e-35 0.63666828124261821 0.35177700507813242 -0.069354187151062327
decision_type=2 2 2 2 2 2 2 2 2 2 2 2 2
left_child=2 3 -1 -2 -5 6 -6 -3 11 12 -11 -8 -4
right_child=1 7 9 4 5 -7 8 -9 -10 10 -12 -13 -14
leaf_value=0.023239210240773134 0.062932325449967158 0.0030009687919557988 -0.045365397648172975 0.061671660408946498 0.024778056262541585 0.036940133309044582 -0.033449755497855081 -0.063089061112464304 -0.0043979888871705066 -0.016631041375924839 -0.047597092984705193 -0.062686962267894983 -0.061137256643412789
leaf_weight=5.6162217557430294 6.5219659805297843 3.7522229105234137 3.1391592174768448 4.6667152047157314 5.4031124264001873 7.1584054976701728 3.3242248743772489 4.1798024773597717 3.3240276724100113 3.2344841361045811 3.3179088234901428 3.192143127322197 5.0404262691736221
leaf_count=31 35 23 21 25 29 39 20 26 20 20 21 20 34
internal_value=-0.000219284 0.0124799 -0.0261333 0.0229421 0.0133068 0.0032315 -0.0125982 -0.0318254 -0.0331205 -0.0449554 -0.0323112 -0.0477721 -0.0550843
internal_weight=61.8708 41.5226 20.3482 33.5906 27.0686 22.4019 15.2435 7.93203 9.8404 14.732 6.55239 6.51637 8.17959
internal_count=364 237 127 188 153 128 89 49 60 96 41 40 55
is_linear=0
shrinkage=0.05


Tree=7
num_leaves=16
num_cat=0
split_feature=1 1 1 4 6 5 2 4 10 1 9 6 10 5 4
split_gain=3.63629 5.41565 5.07768 3.61104 4.71148 3.39283 5.25222 5.44408 5.22867 8.95741 5.38801 2.44153 1.42441 1.32653 0.205719
threshold=-0.065254305791406772 0.023931227925393376 0.038360999139729131 28.447380434857937 0.0087364722959548165 -0.00071529084444080942 0.94958167289115425 15.671000088840449 1.0313080164968171 -0.024181799871734629 0.28038939049208395 -0.02700805010082916 0.88397787083838752 -0.007065903062803019 18.927090369301734
decision_type=2 2 2 2 2 2 2 2 2 2 2 2 2 2 2
left_child=11 5 14 4 -4 8 7 12 9 -2 -11 -1 -7 -10 -3
right_child=1 2 3 -5 -6 6 -8 -9 13 10 -12 -13 -14 -15 -16
leaf_value=-0.0038875209254040873 0.06618620511093054 -0.043322572180774038 0.057565968344282209 -0.044998937737182949 -0.017508292258884693 0.00069307449798053757 -0.021575210596708458 0.093708647021588667 -0.0089339374456523842 0.023857066002423131 -0.061528475083515159 -0.063355901973183359 0.042794759239967221 -0.050892219509893782 -0.061138940352277488
leaf_weight=3.3615711778402328 5.9761745780706388 2.874877572059634 4.0377281755208951 3.0292934179306021 4.332015261054039 3.6572495251893979 3.4986948519945136 4.2436310797929755 3.5249066203832626 3.9520621150732076 3.469569131731987 3.5472403168678275 4.4576477855443954 4.0459066480398169 3.7125381082296371
leaf_count=21 32 20 22 20 26 20 21 21 20 23 23 22 23 25 25
internal_value=-0.000237038 0.00407165 -0.0184168 0.00177862 0.018709 0.0150555 0.0325075 0.0478183 0.00185759 0.0206263 -0.0160602 -0.0344208 0.0238202 -0.0313568 -0.0533635
internal_weight=61.7211 54.8123 17.9865 11.399 8.36974 36.8258 15.8572 12.3585 20.9686 13.3978 7.42163 6.90881 8.1149 7.57081 6.58742
internal_count=364 321 113 68 48 208 85 64 123 78 46 43 43 45 45
is_linear=0
shrinkage=0.05


end of trees

feature_importances:
Column_1=23
Column_4=14
Column_2=12
Column_9=12
Column_7=10
Column_8=9
Column_10=8
Column_0=6
Column_3=5
Column_5=5
Column_6=5

parameters:
[boosting: gbdt]
[objective: binary]
[metric: auc]
[tree_learner: serial]
[device_type: cpu]
[data_sample_strategy: bagging]
[data: ]
[valid: ]
[num_iterations: 100]
[learning_rate: 0.05]
[num_leaves: 31]
[num_threads: 0]
[seed: 0]
[deterministic: 0]
[force_col_wise: 0]
[force_row_wise: 0]
[histogram_pool_size: -1]
[max_depth: -1]
[min_data_in_leaf: 20]
[min_sum_hessian_in_leaf: 0.001]
[bagging_fraction: 1]
[pos_bagging_fraction: 1]
[neg_bagging_fraction: 1]
[bagging_freq: 0]
[bagging_seed: 3]
[bagging_by_query: 0]
[feature_fraction: 0.8]
[feature_fraction_bynode: 1]
[feature_fraction_seed: 2]
[extra_trees: 0]
[extra_seed: 6]
[early_stopping_round: 0]
[early_stopping_min_delta: 0]
[first_metric_only: 0]
[max_delta_step: 0]
[lambda_l1: 0]
[lambda_l2: 0]
[linear_lambda: 0]
[min_gain_to_split: 0]
[drop_rate: 0.1]
[max_drop: 50]
[skip_drop: 0.5]
[xgboost_dart_mode: 0]
[uniform_drop: 0]
[drop_seed: 4]
[top_rate: 0.2]
[other_rate: 0.1]
[min_data_per_group: 100]
[max_cat_threshold: 32]
[cat_l2: 10]
[cat_smooth: 10]
[max_cat_to_onehot: 4]
[top_k: 20]
[monotone_constraints: ]
[monotone_constraints_method: basic]
[monotone_penalty: 0]
[feature_contri: ]
[forcedsplits_filename: ]
[refit_decay_rate: 0.9]
[cegb_tradeoff: 1]
[cegb_penalty_split: 0]
[cegb_penalty_feature_lazy: ]
[cegb_penalty_feature_coupled: ]
[path_smooth: 0]
[interaction_constraints: ]
[verbosity: -1]
[saved_feature_importance_type: 0]
[use_quantized_grad: 0]
[num_grad_quant_bins: 4]
[quant_train_renew_leaf: 0]
[stochastic_rounding: 1]
[linear_tree: 0]
[max_bin: 255]
[max_bin_by_feature: ]
[min_data_in_bin: 3]
[bin_construct_sample_cnt: 200000]
[data_random_seed: 1]
[is_enable_sparse: 1]
[enable_bundle: 1]
[use_missing: 1]
[zero_as_missing: 0]
[feature_pre_filter: 1]
[pre_partition: 0]
[two_round: 0]
[header: 0]
[label_column: ]
[weight_column: ]
[group_column: ]
[ignore_column: ]
[categorical_feature: ]
[forcedbins_filename: ]
[precise_float_parser: 0]
[parser_config_file: ]
[objective_seed: 5]
[num_class: 1]
[is_unbalance: 0]
[scale_pos_weight: 1]
[sigmoid: 1]
[boost_from_average: 1]
[reg_sqrt: 0]
[alpha: 0.9]
[fair_c: 1]
[poisson_max_delta_step: 0.7]
[tweedie_variance_power: 1.5]
[lambdarank_truncation_level: 30]
[lambdarank_norm: 1]
[label_gain: ]
[lambdarank_position_bias_regularization: 0]
[eval_at: ]
[multi_error_top_k: 1]
[auc_mu_weights: ]
[num_machines: 1]
[local_listen_port: 12400]
[time_out: 120]
[machine_list_filename: ]
[machines: ]
[gpu_platform_id: -1]
[gpu_device_id: -1]
[gpu_use_dp: 0]
[num_gpu: 1]

end of parameters

pandas_categorical:null
