tree
version=v4
num_class=1
num_tree_per_iteration=1
label_index=0
max_feature_idx=10
objective=binary sigmoid:1
feature_names=Column_0 Column_1 Column_2 Column_3 Column_4 Column_5 Column_6 Column_7 Column_8 Column_9 Column_10
feature_infos=[0:100] [-3.2749508801990146:2.7425056183574128] [-11.965924849765571:13.706811824298779] [-15.214950802350932:11.052916741918015] [0:85.988668744672864] [-0.092924008281764475:0.067636068452236464] [-0.093917456141185324:0.10482649360034457] [0:0.037725911319665614] [0:0.24589152872386311] [-0.22798404624222046:1.3149522848453619] [0:2.6645578130175265]
tree_sizes=1584 1697 1599 1600 1700

Tree=0
num_leaves=14
num_cat=0
split_feature=6 7 7 6 1 8 6 6 2 6 9 1 7
split_gain=12.884 15.3079 15.1095 10.0859 11.3267 10.5855 12.7051 5.57643 2.50584 4.16898 2.49482 1.75095 1.23921
threshold=-0.060232977273237391 0.015964407706570229 0.019166249552702994 0.0017876313822055973 1.0178942183474009 0.065965902203916252 -0.0084757757813653939 -0.026279968816935072 -2.75158919182793 -0.022064263562633305 0.28058184413088966 -1.0193137346423951 0.016706073249965998
decision_type=2 2 2 2 2 2 2 2 2 2 2 2 2
left_child=-1 3 8 5 -5 6 7 -2 -3 -10 -4 -7 -11
right_child=1 2 10 4 -6 11 -8 -9 9 12 -12 -13 -14
leaf_value=-0.3571728298026024 -0.41592451477489578 -0.5065415204101279 -0.38107182029980646 -0.48630447200523741 -0.40198343698486005 -0.32879277858717254 -0.35197739708581893 -0.48562990372507442 -0.43049927791902404 -0.46781630432669541 -0.42658533896727602 -0.37016141159456112 -0.49879647719344145
leaf_weight=6.6948436498641959 7.1730467677116421 5.4993358552455929 4.7820311784744254 7.4121483266353634 8.6076561212539655 4.7820311784744263 5.4993358552455929 4.7820311784744254 5.2602342963218716 6.4557420909404737 8.1294530034065229 5.4993358552455884 6.4557420909404755
leaf_count=28 30 23 20 31 36 20 23 20 22 27 34 23 27
internal_value=-0.423814 -0.429368 -0.453237 -0.409411 -0.440998 -0.391167 -0.414874 -0.443807 -0.47697 -0.46802 -0.409728 -0.35092 -0.483306
internal_weight=87.033 80.3381 36.5825 43.7556 16.0198 27.7358 17.4544 11.9551 23.6711 18.1717 12.9115 10.2814 12.9115
internal_count=364 336 153 183 67 116 73 50 99 76 54 43 54
is_linear=0
shrinkage=1


Tree=1
num_leaves=15
num_cat=0
split_feature=0 7 2 9 4 7 4 7 9 2 2 0 4 2
split_gain=13.8035 11.7202 10.5475 16.7026 12.7221 7.54743 7.0964 6.00967 5.48582 3.52901 5.16868 2.85292 1.67651 0.885065
threshold=39.62919848814817 0.015964407706570229 -1.3165832293699238 0.60754199610626125 16.690899092063059 0.019166249552702994 28.196311387121796 0.017304001287076879 0.43692784533881662 3.3355049964820291 1.7996324045164627 35.916021670893763 25.865999366047962 0.47652263259590394
decision_type=2 2 2 2 2 2 2 2 2 2 2 2 2 2
left_child=6 2 -2 4 -4 12 7 11 -7 10 -5 -1 13 -3
right_child=1 5 3 9 -6 8 -8 -9 -10 -11 -12 -13 -14 -15
leaf_value=0.010289780542563826 -0.051127578349239346 -0.080670342680976323 0.0060335682371313454 -0.0010387056548008882 0.098880493713018144 -0.041742210459980528 0.07806667683611708 -0.030813731339745028 0.030700313746315207 0.017077232775958379 -0.072140712393723549 0.06166284211619049 -0.031119628650961934 -0.054025858992808401
leaf_weight=5.2992138564586657 6.4275627434253684 5.4183129817247444 6.7113347351551083 5.4989906102418882 8.1940233260393125 4.8010206222534162 6.4888759553432456 4.7842984050512305 5.7351075410842896 5.015171840786933 4.7757927030324936 5.5149218440055847 4.9735618382692328 7.3373663127422333
leaf_count=22 27 23 28 23 34 20 27 20 24 21 20 23 21 31
internal_value=-1.58471e-05 -0.0116372 0.00703115 0.0194112 0.0570749 -0.0358253 0.0341253 0.0158459 -0.00230973 -0.0173052 -0.0340874 0.0364887 -0.0557429 -0.0653438
internal_weight=86.9756 64.8882 36.6229 30.1953 14.9054 28.2654 22.0873 15.5984 10.5361 15.29 10.2748 10.8141 17.7292 12.7557
internal_count=364 272 153 126 62 119 92 65 44 64 43 45 75 54
is_linear=0
shrinkage=0.05


Tree=2
num_leaves=14
num_cat=0
split_feature=0 2 9 4 1 6 5 10 4 0 4 0 9
split_gain=12.4737 11.671 11.9468 9.06787 4.99925 6.95815 4.75095 4.62996 3.90979 4.39401 3.87428 3.02094 1.2974
threshold=40.710870412045573 -1.3165832293699238 0.58618058886306379 28.196311387121796 -0.4224153748772323 -0.00059439407619995101 0.041504606898808673 0.99746159489552988 19.307130770645411 55.511966487248515 28.196311387121796 34.775596140596903 0.1436439920163621
decision_type=2 2 2 2 2 2 2 2 2 2 2 2 2
left_child=3 7 4 11 -3 -6 8 -2 9 -4 -10 -1 -13
right_child=1 2 6 -5 5 -7 -8 -9 10 -11 -12 12 -14
leaf_value=-0.016438955547853226 -0.080120723056970405 0.060684964584003923 0.026494459440080977 0.074874376697337708 -0.038966942621723268 0.037215600757103243 0.021758561921434105 -0.016834651759427926 -0.068974107433481688 -0.039940741705191379 -0.016888236656008412 0.044745850903596181 0.0084938634308651915
leaf_weight=6.7152465283870759 7.4988910704851133 7.5087370276451137 5.0227329730987602 7.774288445711135 4.7219912856817254 8.2058500349521601 5.2585948556661597 4.7022288292646408 8.4763704687356931 4.9336031228303909 6.1681879162788382 5.0494809001684171 4.8276535123586655
leaf_count=28 32 31 21 32 20 34 22 20 36 21 26 21 20
internal_value=-3.05184e-05 -0.0118614 -0.0012193 0.030314 0.0282362 0.00938935 -0.0213794 -0.0557307 -0.0306004 -0.00642577 -0.0470359 0.00943548 0.0270269
internal_weight=86.8639 62.4972 50.2961 24.3667 20.4366 12.9278 29.8595 12.2011 24.6009 9.95634 14.6446 16.5924 9.87713
internal_count=364 263 211 101 85 54 126 52 104 42 62 69 41
is_linear=0
shrinkage=0.05


Tree=3
num_leaves=14
num_cat=0
split_feature=0 2 9 0 6 1 6 2 2 1 6 10 6
split_gain=11.3228 8.99962 10.8849 5.64668 14.6929 4.22244 6.27851 3.90987 6.94512 3.62175 3.24863 2.964 2.27571
threshold=39.62919848814817 -1.3165832293699238 0.58618058886306379 34.775596140596903 -0.061897063691113439 -0.4224153748772323 -0.00059439407619995101 3.5694396017464443 1.8262776382341166 1.1861078712089042 -0.031224965402577461 0.99746159489552988 1.0000000180025095e-35
decision_type=2 2 2 2 2 2 2 2 2 2 2 2 2
left_child=3 11 5 4 -1 -3 -7 8 12 -9 -5 -2 -4
right_child=1 2 7 10 -6 6 -8 9 -10 -11 -12 -13 -14
leaf_value=0.062586181184935905 -0.066059449398047837 0.05501808927631318 0.017377385726595532 0.032243941975689444 -0.055011965030120048 -0.037376027962739193 0.035121412218168634 -0.028231300007567628 -0.067920314387391795 0.030930323759369188 0.085672738824276201 -0.018827521661079424 -0.028575778074139066
leaf_weight=5.3567386120557785 8.0667607486247999 8.0561667978763598 5.0050537139177376 6.7868447452783585 5.2684158831834811 4.6779691129922858 8.258954241871832 4.7202491164207441 8.4040459394454938 5.723737895488739 4.8985117971897107 5.646687686443328 5.8352179676294327
leaf_count=22 35 33 21 28 22 20 34 20 36 24 20 24 25
internal_value=-4.15731e-05 -0.0106769 -0.000953824 0.0306553 0.00427588 0.026602 0.00890646 -0.020439 -0.0338062 0.00419172 0.0546413 -0.0466111 -0.00735878
internal_weight=86.7054 64.3948 50.6814 22.3105 10.6252 20.9931 12.9369 29.6883 19.2443 10.444 11.6854 13.7134 10.8403
internal_count=364 272 213 92 44 87 54 126 82 44 48 59 46
is_linear=0
shrinkage=0.05


Tree=4
num_leaves=15
num_cat=0
split_feature=0 7 4 2 9 4 7 5 2 2 4 8 3 7
split_gain=10.2229 12.9356 8.03543 6.3668 12.9753 10.63 4.7268 4.26548 3.02164 4.33022 2.62012 2.55374 1.80824 1.26982
threshold=40.710870412045573 0.015964407706570229 28.196311387121796 -1.3165832293699238 0.60754199610626125 16.690899092063059 0.017304001287076879 0.012465985492554092 3.3355049964820291 1.7996324045164627 21.853109904754387 0.06882398618209086 -2.6026696071429094 0.018049990156436463
decision_type=2 2 2 2 2 2 2 2 2 2 2 2 2 2
left_child=2 3 6 -2 5 -5 11 12 9 -6 -9 -1 -3 -14
right_child=1 7 -4 4 8 -7 -8 10 -10 -11 -12 -13 13 -15
leaf_value=-0.0027393468799147749 -0.040912483733228686 -0.025997024752701315 0.068904495398241991 0.0036871766491472766 -0.00097163891474173021 0.087954379052248066 -0.033029273848151228 0.016046126231482598 0.016586000840341918 -0.066789937032936647 -0.036926863946382442 0.044743177170231387 -0.077468415741253224 -0.045145120690084542
leaf_weight=4.8390688747167641 5.4742636084556571 4.6507992446422604 7.8687708377838126 6.7538724392652538 5.4950999468564969 8.3934491723775846 5.0076712965965262 4.6719128191471082 5.0170946717262259 4.583190456032753 4.6651961207389832 6.8263058811426163 6.615807309746744 5.6191172748804092
leaf_count=20 24 20 32 28 23 34 21 20 21 20 20 28 29 24
internal_value=-5.1967e-05 -0.0108729 0.0272583 0.00870569 0.0176871 0.0503814 0.00760359 -0.0375399 -0.0151196 -0.0309031 -0.0104213 0.0250463 -0.0525354 -0.0626233
internal_weight=86.4816 61.9398 24.5418 35.717 30.2427 15.1473 16.673 26.2228 15.0954 10.0783 9.33711 11.6654 16.8857 12.2349
internal_count=364 263 101 150 126 62 69 113 64 43 40 48 73 53
is_linear=0
shrinkage=0.05


end of trees

feature_importances:
Column_2=12
Column_6=10
Column_4=9
Column_7=9
Column_0=8
Column_9=7
Column_1=5
Column_5=2
Column_8=2
Column_10=2
Column_3=1

parameters:
[boosting: gbdt]
[objective: binary]
[metric: auc]
[tree_learner: serial]
[device_type: cpu]
[data_sample_strategy: bagging]
[data: ]
[valid: ]
[num_iterations: 100]
[learning_rate: 0.05]
[num_leaves: 31]
[num_threads: 0]
[seed: 0]
[deterministic: 0]
[force_col_wise: 0]
[force_row_wise: 0]
[histogram_pool_size: -1]
[max_depth: -1]
[min_data_in_leaf: 20]
[min_sum_hessian_in_leaf: 0.001]
[bagging_fraction: 1]
[pos_bagging_fraction: 1]
[neg_bagging_fraction: 1]
[bagging_freq: 0]
[bagging_seed: 3]
[bagging_by_query: 0]
[feature_fraction: 0.8]
[feature_fraction_bynode: 1]
[feature_fraction_seed: 2]
[extra_trees: 0]
[extra_seed: 6]
[early_stopping_round: 0]
[early_stopping_min_delta: 0]
[first_metric_only: 0]
[max_delta_step: 0]
[lambda_l1: 0]
[lambda_l2: 0]
[linear_lambda: 0]
[min_gain_to_split: 0]
[drop_rate: 0.1]
[max_drop: 50]
[skip_drop: 0.5]
[xgboost_dart_mode: 0]
[uniform_drop: 0]
[drop_seed: 4]
[top_rate: 0.2]
[other_rate: 0.1]
[min_data_per_group: 100]
[max_cat_threshold: 32]
[cat_l2: 10]
[cat_smooth: 10]
[max_cat_to_onehot: 4]
[top_k: 20]
[monotone_constraints: ]
[monotone_constraints_method: basic]
[monotone_penalty: 0]
[feature_contri: ]
[forcedsplits_filename: ]
[refit_decay_rate: 0.9]
[cegb_tradeoff: 1]
[cegb_penalty_split: 0]
[cegb_penalty_feature_lazy: ]
[cegb_penalty_feature_coupled: ]
[path_smooth: 0]
[interaction_constraints: ]
[verbosity: -1]
[saved_feature_importance_type: 0]
[use_quantized_grad: 0]
[num_grad_quant_bins: 4]
[quant_train_renew_leaf: 0]
[stochastic_rounding: 1]
[linear_tree: 0]
[max_bin: 255]
[max_bin_by_feature: ]
[min_data_in_bin: 3]
[bin_construct_sample_cnt: 200000]
[data_random_seed: 1]
[is_enable_sparse: 1]
[enable_bundle: 1]
[use_missing: 1]
[zero_as_missing: 0]
[feature_pre_filter: 1]
[pre_partition: 0]
[two_round: 0]
[header: 0]
[label_column: ]
[weight_column: ]
[group_column: ]
[ignore_column: ]
[categorical_feature: ]
[forcedbins_filename: ]
[precise_float_parser: 0]
[parser_config_file: ]
[objective_seed: 5]
[num_class: 1]
[is_unbalance: 0]
[scale_pos_weight: 1]
[sigmoid: 1]
[boost_from_average: 1]
[reg_sqrt: 0]
[alpha: 0.9]
[fair_c: 1]
[poisson_max_delta_step: 0.7]
[tweedie_variance_power: 1.5]
[lambdarank_truncation_level: 30]
[lambdarank_norm: 1]
[label_gain: ]
[lambdarank_position_bias_regularization: 0]
[eval_at: ]
[multi_error_top_k: 1]
[auc_mu_weights: ]
[num_machines: 1]
[local_listen_port: 12400]
[time_out: 120]
[machine_list_filename: ]
[machines: ]
[gpu_platform_id: -1]
[gpu_device_id: -1]
[gpu_use_dp: 0]
[num_gpu: 1]

end of parameters

pandas_categorical:null
