tree
version=v4
num_class=1
num_tree_per_iteration=1
label_index=0
max_feature_idx=10
objective=binary sigmoid:1
feature_names=Column_0 Column_1 Column_2 Column_3 Column_4 Column_5 Column_6 Column_7 Column_8 Column_9 Column_10
feature_infos=[0:75.318632029209027] [-0.28973809081608515:0.31267819988622758] [-15.701929474384562:11.647727272727277] [-18.829008649367932:13.204747774480708] [0:48.22389789215584] [-0.12878920623795342:0.092956963081415669] [-0.15895731237855468:0.10871781064292164] [0:0.028258137178141223] [0:0.28260737307423101] [-0.21808034913767241:1.3258802131792475] [0:3.5093110138606045]
tree_sizes=2419 2439

Tree=0
num_leaves=22
num_cat=0
split_feature=8 6 1 4 10 7 7 6 6 4 8 6 5 6 6 8 1 1 7 1 6
split_gain=13.4924 14.7709 11.149 7.82464 7.09683 6.35333 7.87102 5.00277 5.1942 3.83574 3.80412 3.75237 8.4637 9.67782 6.76942 3.54572 2.94152 5.06208 2.58206 1.71968 1.4313
threshold=0.041675952013993302 -0.12168641484149591 0.0070832234357687271 17.010748155588001 0.56332980628162754 0.018442850946401305 0.015487918291815094 -0.029920237256416148 -0.0069576051899989484 22.315970871178148 0.11073783084092009 1.0000000180025095e-35 0.0081801528738980143 0.027545770457833487 -0.024360382520105972 0.057561607467583091 0.017500835260432893 0.065575207721294784 0.021427250025781209 -0.10409371216329609 -0.037783218604686648
decision_type=2 2 2 2 2 2 2 2 2 2 2 2 2 2 2 2 2 2 2 2 2
left_child=2 -2 3 -1 7 6 11 19 -9 -10 -7 14 -13 -14 -6 -16 20 -18 -12 -3 -8
right_child=1 4 -4 -5 5 10 16 8 9 -11 18 12 13 -15 15 -17 17 -19 -20 -21 -22
leaf_value=-0.50203773310844513 -0.44844651959053661 -0.51275597581202681 -0.54397868281811257 -0.4134957281658137 -0.51896127421936356 -0.49608315382867751 -0.57674063680007515 -0.57349268446565638 -0.4825500191019329 -0.54031717133552259 -0.56456081554600501 -0.46631025742983945 -0.59135642230495933 -0.4973776275851487 -0.54397868281811257 -0.59661046284593067 -0.52347421851560849 -0.58704448558512756 -0.51601804967833431 -0.47202665353841633 -0.60922016014426206
leaf_weight=4.6649438142776471 4.664943814277648 4.6649438142776489 5.3646853864192954 5.3646853864192963 8.8633932471275276 8.3968988656997698 7.6971572935581207 5.5979325771331832 5.1314381957054103 6.5309213399887085 5.5979325771331769 4.8981910049915305 5.5979325771331769 5.3646853864192963 5.3646853864193016 7.9304044842720032 5.8311797678470594 6.7641685307025909 5.3646853864192963 5.8311797678470629 6.0644269585609454
leaf_count=20 20 20 23 23 38 36 33 24 22 28 24 21 24 23 23 34 25 29 23 25 26
internal_value=-0.529784 -0.535613 -0.485798 -0.454678 -0.53926 -0.546523 -0.554076 -0.51735 -0.533903 -0.5149 -0.521408 -0.539519 -0.520952 -0.545367 -0.552808 -0.575373 -0.575074 -0.557614 -0.540806 -0.490129 -0.591054
internal_weight=131.551 116.157 15.3943 10.0296 111.492 83.7357 64.3762 27.7564 17.2603 11.6624 19.3595 38.0193 15.8608 10.9626 22.1585 13.2951 26.3569 12.5953 10.9626 10.4961 13.7616
internal_count=564 498 66 43 478 359 276 119 74 50 83 163 68 47 95 57 113 54 47 45 59
is_linear=0
shrinkage=1


Tree=1
num_leaves=22
num_cat=0
split_feature=8 0 5 9 1 7 8 9 1 4 7 0 1 4 4 3 5 8 3 8 3
split_gain=12.0614 10.4431 17.5084 13.8814 9.8595 9.36271 9.75824 10.528 13.9604 8.10748 7.05299 9.53823 7.90116 6.14296 6.19801 3.80941 3.74037 2.65675 2.08903 0.126685 0.00085139
threshold=0.041675952013993302 53.191450400666895 -0.0012710027190252955 0.97749829864608218 0.0074142858106753815 0.018545834091447218 0.10311767279841068 0.17183432322418093 -0.1624286099212657 17.010748155588001 0.015182200248836137 36.603350862648661 0.016409731564717148 20.787185682703285 27.64562331895473 -7.7859843426056612 -0.01544260057386441 0.074023630731554699 2.4289648339603658 0.10376437079675989 4.1933907454217376
decision_type=2 2 2 2 2 2 2 2 2 2 2 2 2 2 2 2 2 2 2 2 2
left_child=4 2 5 13 9 10 -7 -8 -9 -1 11 -2 15 18 20 -12 -13 -4 -3 -17 -15
right_child=1 3 17 -5 -6 6 7 8 -10 -11 12 16 -14 14 -16 19 -18 -19 -20 -21 -22
leaf_value=0.021211508399047438 0.056720095945819442 0.013046236134427021 0.083878811607224865 0.039644385774035479 -0.017546253463480793 -0.040259960688733054 0.087576051674341474 -0.05070271747981453 0.065729803053500083 0.10861989933558847 -0.022016408710638775 -0.041828574996756691 0.0069977036448239591 -0.078932430819273244 -0.019438871700416825 -0.078344446938146448 0.0051647154874903999 0.036194494488067379 -0.032206811231638113 -0.067410545395518912 -0.078107919605496817
leaf_weight=4.9301053434610349 5.8543816357851055 4.8813794553279894 6.097187474370001 6.295835703611373 4.8799960166215888 4.9481101781129864 6.8325683623552349 5.1478276550769841 5.150073558092112 5.7434368431568146 5.3149053901433954 8.110736176371578 6.9716395437717429 7.6565601974725741 6.7273631542921057 6.2282159030437505 8.8595687896013224 5.6075306832790375 5.3403783589601517 4.6101686358451843 5.2970228940248489
leaf_count=21 25 21 26 27 21 21 29 22 22 24 23 35 30 33 29 27 38 24 23 20 23
internal_value=-1.61434e-05 -0.00556297 0.00454841 -0.0278349 0.0413283 -0.00517034 0.0215894 0.0394545 0.00752624 0.068246 -0.0180283 0.0016893 -0.0374898 -0.0420422 -0.0583744 -0.0566903 -0.0172951 0.0610341 -0.0105963 -0.0736936 -0.0785953
internal_weight=131.485 115.931 79.7329 36.1985 15.5535 68.0282 22.0786 17.1305 10.2979 10.6735 45.9496 22.8247 23.1249 29.9027 19.6809 16.1533 16.9703 11.7047 10.2218 10.8384 12.9536
internal_count=564 498 342 156 66 292 94 73 44 45 198 98 100 129 85 70 73 50 44 47 56
is_linear=0
shrinkage=0.05


end of trees

feature_importances:
Column_1=7
Column_6=7
Column_8=7
Column_4=5
Column_7=5
Column_3=3
Column_5=3
Column_0=2
Column_9=2
Column_10=1

parameters:
[boosting: gbdt]
[objective: binary]
[metric: auc]
[tree_learner: serial]
[device_type: cpu]
[data_sample_strategy: bagging]
[data: ]
[valid: ]
[num_iterations: 100]
[learning_rate: 0.05]
[num_leaves: 31]
[num_threads: 0]
[seed: 0]
[deterministic: 0]
[force_col_wise: 0]
[force_row_wise: 0]
[histogram_pool_size: -1]
[max_depth: -1]
[min_data_in_leaf: 20]
[min_sum_hessian_in_leaf: 0.001]
[bagging_fraction: 1]
[pos_bagging_fraction: 1]
[neg_bagging_fraction: 1]
[bagging_freq: 0]
[bagging_seed: 3]
[bagging_by_query: 0]
[feature_fraction: 0.8]
[feature_fraction_bynode: 1]
[feature_fraction_seed: 2]
[extra_trees: 0]
[extra_seed: 6]
[early_stopping_round: 0]
[early_stopping_min_delta: 0]
[first_metric_only: 0]
[max_delta_step: 0]
[lambda_l1: 0]
[lambda_l2: 0]
[linear_lambda: 0]
[min_gain_to_split: 0]
[drop_rate: 0.1]
[max_drop: 50]
[skip_drop: 0.5]
[xgboost_dart_mode: 0]
[uniform_drop: 0]
[drop_seed: 4]
[top_rate: 0.2]
[other_rate: 0.1]
[min_data_per_group: 100]
[max_cat_threshold: 32]
[cat_l2: 10]
[cat_smooth: 10]
[max_cat_to_onehot: 4]
[top_k: 20]
[monotone_constraints: ]
[monotone_constraints_method: basic]
[monotone_penalty: 0]
[feature_contri: ]
[forcedsplits_filename: ]
[refit_decay_rate: 0.9]
[cegb_tradeoff: 1]
[cegb_penalty_split: 0]
[cegb_penalty_feature_lazy: ]
[cegb_penalty_feature_coupled: ]
[path_smooth: 0]
[interaction_constraints: ]
[verbosity: -1]
[saved_feature_importance_type: 0]
[use_quantized_grad: 0]
[num_grad_quant_bins: 4]
[quant_train_renew_leaf: 0]
[stochastic_rounding: 1]
[linear_tree: 0]
[max_bin: 255]
[max_bin_by_feature: ]
[min_data_in_bin: 3]
[bin_construct_sample_cnt: 200000]
[data_random_seed: 1]
[is_enable_sparse: 1]
[enable_bundle: 1]
[use_missing: 1]
[zero_as_missing: 0]
[feature_pre_filter: 1]
[pre_partition: 0]
[two_round: 0]
[header: 0]
[label_column: ]
[weight_column: ]
[group_column: ]
[ignore_column: ]
[categorical_feature: ]
[forcedbins_filename: ]
[precise_float_parser: 0]
[parser_config_file: ]
[objective_seed: 5]
[num_class: 1]
[is_unbalance: 0]
[scale_pos_weight: 1]
[sigmoid: 1]
[boost_from_average: 1]
[reg_sqrt: 0]
[alpha: 0.9]
[fair_c: 1]
[poisson_max_delta_step: 0.7]
[tweedie_variance_power: 1.5]
[lambdarank_truncation_level: 30]
[lambdarank_norm: 1]
[label_gain: ]
[lambdarank_position_bias_regularization: 0]
[eval_at: ]
[multi_error_top_k: 1]
[auc_mu_weights: ]
[num_machines: 1]
[local_listen_port: 12400]
[time_out: 120]
[machine_list_filename: ]
[machines: ]
[gpu_platform_id: -1]
[gpu_device_id: -1]
[gpu_use_dp: 0]
[num_gpu: 1]

end of parameters

pandas_categorical:null
