tree
version=v4
num_class=1
num_tree_per_iteration=1
label_index=0
max_feature_idx=10
objective=binary sigmoid:1
feature_names=Column_0 Column_1 Column_2 Column_3 Column_4 Column_5 Column_6 Column_7 Column_8 Column_9 Column_10
feature_infos=[0:100] [-0.36584428526419543:0.30347885411676145] [-3.4011116949266333:3.1015378911551954] [-4.5752287534061127:3.8468584746447156] [0:46.581246682211457] [-0.029158504312114739:0.021883224614494622] [-0.034000525552496615:0.022562371547016413] [0:0.0089412637421547245] [0:0.057761007738339337] [-0.25550696993884142:1.3418596075046618] [0:2.6626299691444877]
tree_sizes=1567 1718 1607 1709 1705

Tree=0
num_leaves=14
num_cat=0
split_feature=1 9 1 9 1 1 10 1 1 7 6 5 1
split_gain=27.8137 5.17573 5.09521 10.6383 5.68631 4.9266 4.29691 2.89545 2.04007 1.7828 0.812582 0.222428 1.77636e-15
threshold=-0.11319512024406107 0.30874588643377648 0.062448619352021957 0.73074415822040939 -0.0027578037936351048 0.005561306914351861 0.60746063062887601 -0.079775211102212737 -0.024995386350184386 0.0060318004076009802 -0.0082345438333479189 0.0096330014279691362 -0.056226620071051052
decision_type=2 2 2 2 2 2 2 2 2 2 2 2 2
left_child=1 -1 3 4 7 -6 -4 -2 10 11 -9 -8 -12
right_child=2 -3 6 -5 5 -7 9 8 -10 -11 12 -13 -14
leaf_value=-1.2733525230682434 -1.3948936193597437 -1.353341107807094 -1.3836398141475676 -1.3320275350710367 -1.3512023755948253 -1.4246036651198881 -1.4624164506327992 -1.43240630340033 -1.4098986929759783 -1.4151504687416603 -1.4624164506327992 -1.4466611233357529 -1.4624164506327992
leaf_weight=3.9669122546911222 4.4429417252540597 4.1255887448787689 3.1735298037529018 4.6016182154417029 5.3950006663799304 3.966912254691124 7.6164715290069562 3.3322062939405432 3.8082357645034799 3.1735298037528983 3.6495592743158332 3.1735298037528992 3.3322062939405441
leaf_count=25 28 26 20 29 34 25 48 21 24 20 23 20 21
internal_value=-1.40009 -1.31413 -1.41409 -1.40247 -1.41408 -1.3823 -1.43616 -1.4301 -1.44117 -1.44809 -1.45272 -1.45778 -1.46242
internal_weight=57.7582 8.0925 49.6657 32.5287 27.9271 9.36191 17.1371 18.5651 14.1222 13.9635 10.314 10.79 6.98177
internal_count=364 51 313 205 176 59 108 117 89 88 65 68 44
is_linear=0
shrinkage=1


Tree=1
num_leaves=15
num_cat=0
split_feature=1 1 3 1 7 2 1 3 0 7 5 1 7 0
split_gain=24.0122 4.74832 13.1992 4.44865 5.5162 4.26853 3.65324 3.33053 2.11067 2.04463 2.2312 0.613211 0.224055 2.24534e-05
threshold=-0.11319512024406107 0.062448619352021957 0.6101306210720524 -0.024995386350184386 0.0040632294427261212 -1.0050802678793465 -0.079775211102212737 -0.27556609391477893 53.354104914280498 0.006264216251129366 0.0081677659560869288 -0.06086479695747115 0.0049641258460172916 56.166789602145307
decision_type=2 2 2 2 2 2 2 2 2 2 2 2 2 2
left_child=5 2 3 6 -5 -1 -2 -6 -9 10 12 -8 -3 -14
right_child=1 9 -4 4 7 -7 11 8 -10 -11 -12 -13 13 -15
leaf_value=0.11302641194003299 0.0024837286090544338 -0.045482307389791275 0.080530468822932758 0.0575005877349987 0.027487675548908515 0.042218949767729393 -0.036086016589581112 -0.062171790476562121 -0.0067101733680810646 0.0012133989656296054 -0.012258161957346837 -0.061732659258816304 -0.06176052218089817 -0.061946592543629747
leaf_weight=4.2407519221305847 4.6221085339784596 3.0769562870264071 4.1895480006933203 3.7391396760940578 3.3382596522569647 4.2731068432331067 3.8754776120185817 3.3054215908050528 3.5662370771169662 3.1537228077650061 4.0308463275432578 5.8472589701414144 3.0814719647169113 3.4215727895498276
leaf_count=25 29 20 26 23 21 26 25 21 22 20 26 38 20 22
internal_value=-4.6701e-05 -0.0134507 -0.00229721 -0.0145617 0.00554372 0.0774881 -0.0341124 -0.0134842 -0.0333885 -0.035062 -0.0434672 -0.0515099 -0.0565987 -0.0618584
internal_weight=57.7619 49.248 32.4835 28.2939 13.9491 8.51386 14.3448 10.2099 6.87166 16.7646 13.6108 9.72274 9.58 6.50304
internal_count=364 313 205 179 87 51 92 64 43 108 88 63 62 42
is_linear=0
shrinkage=0.05


Tree=2
num_leaves=14
num_cat=0
split_feature=1 6 9 6 9 4 0 10 2 8 4 6 2
split_gain=20.8862 4.5724 6.00182 5.57847 6.22578 5.44597 5.2959 4.52931 3.37813 2.11932 0.789259 0.22899 0.000376489
threshold=-0.11319512024406107 0.0049313004899915599 0.73074415822040939 -0.0069143191606209952 0.23031770544179125 24.02721486353656 65.279647149826417 0.80317736344730617 -1.0050802678793465 0.018779219102645871 12.973800372065964 0.007654635448519141 0.61698597989121284
decision_type=2 2 2 2 2 2 2 2 2 2 2 2 2
left_child=8 2 3 10 5 -5 11 -6 -1 -9 -2 -3 -13
right_child=1 6 -4 4 7 -7 -8 9 -10 -11 -12 12 -14
leaf_value=0.10076600680293922 -0.02914579881074271 -0.044928382407661699 0.047239826416159099 0.073162959545580927 0.016050807080452239 -0.0087949740345369259 0.018506458703884437 -0.061946049371722316 0.03911552636805958 -0.013928962567209623 -0.061834866289764437 -0.061124119598467808 -0.061870772825468823
leaf_weight=4.5112962126731873 3.0701753646135286 3.0234467536210996 4.9740551561117163 4.4069136679172605 5.7633589208126059 3.7530916631221771 3.1066780984401694 5.1152939051389676 4.3786794841289503 4.1723429262638092 4.6329752653837204 3.7194741666316986 3.0916649997234344
leaf_count=25 20 20 30 27 37 24 20 33 26 27 30 25 20
internal_value=-8.96544e-05 -0.0129232 -0.00373538 -0.0119372 0.000298669 0.0354674 -0.0384026 -0.0187683 0.0704006 -0.040375 -0.0488063 -0.0563798 -0.061463
internal_weight=57.7194 48.8295 35.8882 30.9142 23.211 8.16001 12.9413 15.051 8.88998 9.28764 7.70315 9.83459 6.81114
internal_count=364 313 228 198 148 51 85 97 51 60 50 65 45
is_linear=0
shrinkage=0.05


Tree=3
num_leaves=15
num_cat=0
split_feature=1 6 9 6 9 0 4 10 10 1 8 3 3 9
split_gain=18.2776 4.2738 5.32186 5.23034 5.56137 5.0239 4.63047 4.21054 3.19828 2.07517 1.29878 0.80127 0.237252 0.000213929
threshold=-0.11319512024406107 0.0049313004899915599 0.73074415822040939 -0.0069143191606209952 0.23031770544179125 65.279647149826417 24.02721486353656 0.8456816823160791 0.79858169173933768 0.012868990283546823 0.018779219102645871 -0.4564720498766266 1.7094935717692681 0.6825314352534908
decision_type=2 2 2 2 2 2 2 2 2 2 2 2 2 2
left_child=8 2 3 11 6 12 -5 9 -1 -6 -9 -2 13 -3
right_child=1 5 -4 4 7 -7 -8 10 -10 -11 -12 -13 -14 -15
leaf_value=0.098276842776914355 -0.061220986282077616 -0.060553726630812654 0.043651406986755348 0.066562115575000899 0.037637452231531393 0.017378181010673396 -0.0084015290255600398 -0.061260063013543455 0.038809040583431806 -0.017313467315301857 -0.020839536225913079 -0.027801328307687823 -0.043705072420770541 -0.061124375793307296
leaf_weight=3.9661550968885404 4.4810982495546341 3.3081241995096189 5.1101238578557959 4.5965314656496137 3.497073382139205 3.1420194506645194 3.7329347878694534 4.3307987004518491 5.2588250041007996 3.3773489445447922 3.6726545244455338 2.9904997944831804 2.918623298406601 3.2616769075393677
leaf_count=22 30 23 30 27 22 20 24 29 29 22 24 20 20 22
internal_value=-0.000126408 -0.0124156 -0.00359089 -0.0114599 0.000254161 -0.037421 0.0329664 -0.01806 0.0643764 0.0106405 -0.0427117 -0.0478448 -0.0555673 -0.060837
internal_weight=57.6445 48.4195 35.7891 30.6789 23.2073 12.6304 8.32947 14.8779 9.22498 6.87442 8.00345 7.4716 9.48842 6.5698
internal_count=364 313 228 198 148 85 51 97 51 44 53 50 65 45
is_linear=0
shrinkage=0.05


Tree=4
num_leaves=15
num_cat=0
split_feature=1 1 3 8 4 1 4 9 7 4 4 1 3 3
split_gain=16.059 4.02645 11.327 3.60483 4.16633 4.40458 3.65338 2.76239 1.91421 1.88596 2.47373 1.57 0.215547 0.20096
threshold=-0.11319512024406107 0.062448619352021957 0.6101306210720524 0.025382316717083065 18.914636889298304 -0.024995386350184386 23.903665949028156 0.30874588643377648 0.0040632294427261212 28.863827081385512 27.054995277237207 -0.067885114928099441 1.1477766717865203 1.8305044931785313
decision_type=2 2 2 2 2 2 2 2 2 2 2 2 2 2
left_child=7 2 3 4 5 11 -6 -1 -7 10 12 -2 -3 -11
right_child=1 9 -4 -5 6 8 -8 -9 -10 13 -12 -13 -14 -15
leaf_value=0.085376606366197524 -0.017438738162681999 -0.045438940345758114 0.072908896595227021 -0.061362793359544913 0.060788674466117298 0.034306850298254178 -0.01323571757786071 0.031531586730103062 -0.013607000332437141 -0.043830744882511541 0.017427185321114671 -0.060464262972573395 -0.026809994371138096 -0.061608604157796898
leaf_weight=4.8837660998105985 3.4284023642539987 3.3028991520404798 4.3852704167366019 3.4534996896982184 3.6250251829624167 3.5250775218010002 3.0855619013309479 4.6498020887374878 5.1009259074926376 2.9227008372545233 3.1951067894697189 5.5567186772823343 2.9304041713476181 3.4851174801588058
leaf_count=25 23 23 26 23 22 20 20 26 32 20 22 39 20 23
internal_value=-0.000158512 -0.0119319 -0.00176969 -0.0135603 -0.00677268 -0.019547 0.0267519 0.0591148 0.00597333 -0.0325696 -0.0183448 -0.0440473 -0.0366811 -0.0534999
internal_weight=57.5303 47.9967 32.1605 27.7752 24.3217 17.6111 6.71059 9.53357 8.626 15.8362 9.42841 8.98512 6.2333 6.40782
internal_count=364 313 205 179 156 114 42 51 52 108 65 62 43 43
is_linear=0
shrinkage=0.05


end of trees

feature_importances:
Column_1=19
Column_9=8
Column_3=7
Column_4=7
Column_6=6
Column_7=5
Column_0=4
Column_10=4
Column_2=3
Column_8=3
Column_5=2

parameters:
[boosting: gbdt]
[objective: binary]
[metric: auc]
[tree_learner: serial]
[device_type: cpu]
[data_sample_strategy: bagging]
[data: ]
[valid: ]
[num_iterations: 100]
[learning_rate: 0.05]
[num_leaves: 31]
[num_threads: 0]
[seed: 0]
[deterministic: 0]
[force_col_wise: 0]
[force_row_wise: 0]
[histogram_pool_size: -1]
[max_depth: -1]
[min_data_in_leaf: 20]
[min_sum_hessian_in_leaf: 0.001]
[bagging_fraction: 1]
[pos_bagging_fraction: 1]
[neg_bagging_fraction: 1]
[bagging_freq: 0]
[bagging_seed: 3]
[bagging_by_query: 0]
[feature_fraction: 0.8]
[feature_fraction_bynode: 1]
[feature_fraction_seed: 2]
[extra_trees: 0]
[extra_seed: 6]
[early_stopping_round: 0]
[early_stopping_min_delta: 0]
[first_metric_only: 0]
[max_delta_step: 0]
[lambda_l1: 0]
[lambda_l2: 0]
[linear_lambda: 0]
[min_gain_to_split: 0]
[drop_rate: 0.1]
[max_drop: 50]
[skip_drop: 0.5]
[xgboost_dart_mode: 0]
[uniform_drop: 0]
[drop_seed: 4]
[top_rate: 0.2]
[other_rate: 0.1]
[min_data_per_group: 100]
[max_cat_threshold: 32]
[cat_l2: 10]
[cat_smooth: 10]
[max_cat_to_onehot: 4]
[top_k: 20]
[monotone_constraints: ]
[monotone_constraints_method: basic]
[monotone_penalty: 0]
[feature_contri: ]
[forcedsplits_filename: ]
[refit_decay_rate: 0.9]
[cegb_tradeoff: 1]
[cegb_penalty_split: 0]
[cegb_penalty_feature_lazy: ]
[cegb_penalty_feature_coupled: ]
[path_smooth: 0]
[interaction_constraints: ]
[verbosity: -1]
[saved_feature_importance_type: 0]
[use_quantized_grad: 0]
[num_grad_quant_bins: 4]
[quant_train_renew_leaf: 0]
[stochastic_rounding: 1]
[linear_tree: 0]
[max_bin: 255]
[max_bin_by_feature: ]
[min_data_in_bin: 3]
[bin_construct_sample_cnt: 200000]
[data_random_seed: 1]
[is_enable_sparse: 1]
[enable_bundle: 1]
[use_missing: 1]
[zero_as_missing: 0]
[feature_pre_filter: 1]
[pre_partition: 0]
[two_round: 0]
[header: 0]
[label_column: ]
[weight_column: ]
[group_column: ]
[ignore_column: ]
[categorical_feature: ]
[forcedbins_filename: ]
[precise_float_parser: 0]
[parser_config_file: ]
[objective_seed: 5]
[num_class: 1]
[is_unbalance: 0]
[scale_pos_weight: 1]
[sigmoid: 1]
[boost_from_average: 1]
[reg_sqrt: 0]
[alpha: 0.9]
[fair_c: 1]
[poisson_max_delta_step: 0.7]
[tweedie_variance_power: 1.5]
[lambdarank_truncation_level: 30]
[lambdarank_norm: 1]
[label_gain: ]
[lambdarank_position_bias_regularization: 0]
[eval_at: ]
[multi_error_top_k: 1]
[auc_mu_weights: ]
[num_machines: 1]
[local_listen_port: 12400]
[time_out: 120]
[machine_list_filename: ]
[machines: ]
[gpu_platform_id: -1]
[gpu_device_id: -1]
[gpu_use_dp: 0]
[num_gpu: 1]

end of parameters

pandas_categorical:null
