tree
version=v4
num_class=1
num_tree_per_iteration=1
label_index=0
max_feature_idx=10
objective=binary sigmoid:1
feature_names=Column_0 Column_1 Column_2 Column_3 Column_4 Column_5 Column_6 Column_7 Column_8 Column_9 Column_10
feature_infos=[0:85.718196926639465] [-0.060223960167404833:0.086346211212450896] [-5.9210526315789389:7.1428571428571379] [-6.5934065934065895:11.386138613861386] [0:55.353164914990415] [-0.04464981627881099:0.063006862133499555] [-0.051064940878063327:0.10197368421052636] [0:0.017602140833022781] [0:0.12141657739358884] [-0.30593920457488299:1.3631793783981432] [0:2.6732945887478397]
tree_sizes=1569 1512

Tree=0
num_leaves=14
num_cat=0
split_feature=7 5 7 5 5 7 1 8 8 4 1 2 1
split_gain=10.1776 12.1103 15.6409 9.62357 9.1557 6.25589 6.14192 4.97663 4.13017 8.73703 0.20985 0.14478 3.55271e-15
threshold=0.012657667562655009 0.013423918231820689 0.0062759632763535076 -0.015630228824505259 -0.010962641421929062 0.015099007598661991 -1.0000000180025095e-35 0.05109358617180474 0.024209320646290836 22.527064503379464 -0.025248246831843787 0.22857172711408771 -0.0099097474365024123
decision_type=2 2 2 2 2 2 2 2 2 2 2 2 2
left_child=1 2 6 -4 -2 7 -1 -6 9 11 -10 -5 -12
right_child=4 -3 3 8 5 -7 -8 -9 10 -11 12 -13 -14
leaf_value=-1.1327992261432436 -1.0396444271937182 -1.0749005719681777 -1.0968731112276151 -1.1807827357908294 -1.1293542562198271 -1.1697096181798481 -1.0477002667255166 -1.0525337704445958 -1.1807827357908294 -1.1070016403112082 -1.1943165462042511 -1.1943165462042509 -1.1943165462042509
leaf_weight=4.0638962686061859 5.1722316145896938 6.2805669605731955 4.6180639415979341 3.6944511532783562 4.6180639415979368 4.063896268606185 4.4333413839340192 3.8791737109422684 3.6944511532783499 5.7263992875814438 7.3889023065567008 4.2486188262701035 5.3569541722536114
leaf_count=22 28 34 25 20 25 22 24 21 20 31 40 23 29
internal_value=-1.12813 -1.13978 -1.1492 -1.16408 -1.09563 -1.11869 -1.0884 -1.09428 -1.17439 -1.15408 -1.19128 -1.18802 -1.19432
internal_weight=67.239 49.5056 43.2251 34.7278 17.7334 12.5611 8.49724 8.49724 30.1098 13.6695 16.4403 7.94307 12.7459
internal_count=364 268 234 188 96 68 46 46 163 74 89 43 69
is_linear=0
shrinkage=1


Tree=1
num_leaves=13
num_cat=0
split_feature=7 5 7 5 5 7 1 8 3 8 1 1
split_gain=9.08663 10.8233 14.248 8.92826 7.72995 5.65501 5.22309 4.00449 11.8857 2.47757 0.208989 0.164908
threshold=0.012657667562655009 0.013423918231820689 0.0062759632763535076 -0.015630228824505259 -0.010962641421929062 0.014811697313059214 -1.0000000180025095e-35 0.024209320646290836 -0.25455840917187578 0.050498385913223587 -0.025248246831843787 0.00052680735679055968
decision_type=2 2 2 2 2 2 2 2 2 2 2 2
left_child=1 2 6 -4 -2 9 -1 8 -5 -6 -9 -10
right_child=4 -3 3 7 5 -7 -8 10 11 -11 -12 -13
leaf_value=-0.0044421457280572436 0.0803721682883594 0.049206204658042652 0.02922093161012217 0.038217184625931405 0.0077047232086442947 -0.034218567641196754 0.073345728680674377 -0.05144201493415293 -0.065870590405882806 0.063820277099410336 -0.06514554411293122 -0.051972313482757299
leaf_weight=4.0542050898075104 5.4035365581512478 6.4503484368324271 4.6915754675865129 4.7916682809591284 4.0613634884357435 4.7443832159042358 4.6137607097625715 3.5945615172386125 4.9331311881542259 3.8143042176961899 12.312169075012209 3.7619115561246872
leaf_count=22 28 34 25 26 22 26 24 20 27 20 69 21
internal_value=-4.14217e-05 -0.011167 -0.0202758 -0.0348318 0.0303308 0.00890453 0.0369626 -0.0450554 -0.0250127 0.0348823 -0.0620489 -0.0598575
internal_weight=67.2269 49.2033 42.753 34.085 18.0236 12.6201 8.66797 29.3934 13.4867 7.87567 15.9067 8.69504
internal_count=364 268 234 188 96 68 46 163 74 42 89 48
is_linear=0
shrinkage=0.05


end of trees

feature_importances:
Column_1=6
Column_5=6
Column_7=6
Column_8=4
Column_2=1
Column_3=1
Column_4=1

parameters:
[boosting: gbdt]
[objective: binary]
[metric: auc]
[tree_learner: serial]
[device_type: cpu]
[data_sample_strategy: bagging]
[data: ]
[valid: ]
[num_iterations: 100]
[learning_rate: 0.05]
[num_leaves: 31]
[num_threads: 0]
[seed: 0]
[deterministic: 0]
[force_col_wise: 0]
[force_row_wise: 0]
[histogram_pool_size: -1]
[max_depth: -1]
[min_data_in_leaf: 20]
[min_sum_hessian_in_leaf: 0.001]
[bagging_fraction: 1]
[pos_bagging_fraction: 1]
[neg_bagging_fraction: 1]
[bagging_freq: 0]
[bagging_seed: 3]
[bagging_by_query: 0]
[feature_fraction: 0.8]
[feature_fraction_bynode: 1]
[feature_fraction_seed: 2]
[extra_trees: 0]
[extra_seed: 6]
[early_stopping_round: 0]
[early_stopping_min_delta: 0]
[first_metric_only: 0]
[max_delta_step: 0]
[lambda_l1: 0]
[lambda_l2: 0]
[linear_lambda: 0]
[min_gain_to_split: 0]
[drop_rate: 0.1]
[max_drop: 50]
[skip_drop: 0.5]
[xgboost_dart_mode: 0]
[uniform_drop: 0]
[drop_seed: 4]
[top_rate: 0.2]
[other_rate: 0.1]
[min_data_per_group: 100]
[max_cat_threshold: 32]
[cat_l2: 10]
[cat_smooth: 10]
[max_cat_to_onehot: 4]
[top_k: 20]
[monotone_constraints: ]
[monotone_constraints_method: basic]
[monotone_penalty: 0]
[feature_contri: ]
[forcedsplits_filename: ]
[refit_decay_rate: 0.9]
[cegb_tradeoff: 1]
[cegb_penalty_split: 0]
[cegb_penalty_feature_lazy: ]
[cegb_penalty_feature_coupled: ]
[path_smooth: 0]
[interaction_constraints: ]
[verbosity: -1]
[saved_feature_importance_type: 0]
[use_quantized_grad: 0]
[num_grad_quant_bins: 4]
[quant_train_renew_leaf: 0]
[stochastic_rounding: 1]
[linear_tree: 0]
[max_bin: 255]
[max_bin_by_feature: ]
[min_data_in_bin: 3]
[bin_construct_sample_cnt: 200000]
[data_random_seed: 1]
[is_enable_sparse: 1]
[enable_bundle: 1]
[use_missing: 1]
[zero_as_missing: 0]
[feature_pre_filter: 1]
[pre_partition: 0]
[two_round: 0]
[header: 0]
[label_column: ]
[weight_column: ]
[group_column: ]
[ignore_column: ]
[categorical_feature: ]
[forcedbins_filename: ]
[precise_float_parser: 0]
[parser_config_file: ]
[objective_seed: 5]
[num_class: 1]
[is_unbalance: 0]
[scale_pos_weight: 1]
[sigmoid: 1]
[boost_from_average: 1]
[reg_sqrt: 0]
[alpha: 0.9]
[fair_c: 1]
[poisson_max_delta_step: 0.7]
[tweedie_variance_power: 1.5]
[lambdarank_truncation_level: 30]
[lambdarank_norm: 1]
[label_gain: ]
[lambdarank_position_bias_regularization: 0]
[eval_at: ]
[multi_error_top_k: 1]
[auc_mu_weights: ]
[num_machines: 1]
[local_listen_port: 12400]
[time_out: 120]
[machine_list_filename: ]
[machines: ]
[gpu_platform_id: -1]
[gpu_device_id: -1]
[gpu_use_dp: 0]
[num_gpu: 1]

end of parameters

pandas_categorical:null
