tree
version=v4
num_class=1
num_tree_per_iteration=1
label_index=0
max_feature_idx=10
objective=binary sigmoid:1
feature_names=Column_0 Column_1 Column_2 Column_3 Column_4 Column_5 Column_6 Column_7 Column_8 Column_9 Column_10
feature_infos=[0:100] [-0.049375642595739677:0.043646922623440609] [-3.4156154394199607:3.7442883736672976] [-4.0466702271886952:4.3522352742330668] [0:82.729612268124924] [-0.026455026455026516:0.023287885911299086] [-0.041244726104094659:0.037059588718828869] [0:0.0091309194099075206] [0:0.057144461835213718] [-0.21944371983849792:1.2696934345315731] [0:3.3768271186825869]
tree_sizes=1570 1609 1612 1713 1720 1596 1607 1613 1402 1714

Tree=0
num_leaves=14
num_cat=0
split_feature=5 9 7 9 1 6 1 1 9 6 1 10 10
split_gain=17.3153 7.20126 15.3299 8.28204 5.30056 12.4003 4.4116 7.89582 3.47593 6.02486 2.71343 1.83163 0.604013
threshold=-0.01487451113391663 0.38180529709671701 0.005539376046899182 0.92897696344472191 -0.008475221163202205 -0.0075960208896292559 -0.0076653379420363868 -0.0027192595988041464 0.77491562178833484 0.015673730887405844 0.0061862072598368742 1.2188568170692895 0.97106226548679342
decision_type=2 2 2 2 2 2 2 2 2 2 2 2 2
left_child=-1 2 -2 6 5 -4 -3 -8 9 10 -9 -6 -10
right_child=1 3 4 -5 11 -7 7 8 12 -11 -12 -13 -14
leaf_value=-0.96582056653483184 -0.97491948307486231 -1.1366779993420677 -1.1023922268723882 -1.0315349637683842 -1.1185498897603983 -0.97896344598154239 -1.0334125179750571 -1.0827584939196659 -1.1366779993420677 -1.0315349637683842 -1.1281987222796739 -1.074092859119637 -1.1103922404486468
leaf_weight=3.8043412566184989 4.9456436336040523 5.7065118849277487 4.3749924451112747 5.7065118849277487 5.5162948220968211 3.8043412566185033 5.3260777592658988 7.4184654504060834 5.1358606964349729 3.8043412566184989 5.8967289477586746 3.9945583194494247 3.8043412566184998
leaf_count=20 26 30 23 30 29 20 28 39 27 20 31 21 20
internal_value=-1.06952 -1.07555 -1.05274 -1.08761 -1.0745 -1.04498 -1.09624 -1.08889 -1.10022 -1.08703 -1.10288 -1.09988 -1.12549
internal_weight=69.239 65.4347 22.6358 42.7988 17.6902 8.17933 37.0923 31.3858 26.0597 17.1195 13.3152 9.51085 8.9402
internal_count=364 344 119 225 93 43 195 165 137 90 70 50 47
is_linear=0
shrinkage=1


Tree=1
num_leaves=14
num_cat=0
split_feature=0 9 7 5 5 3 4 4 2 8 4 2 7
split_gain=15.7358 6.86304 6.98675 6.47226 7.83725 5.55202 3.29644 5.71489 5.1019 3.88611 1.51006 0.613798 0.000294676
threshold=46.24779782675153 0.92897696344472191 0.004573432007444425 -0.01487451113391663 -0.0079981484120441575 -1.2739370334307007 14.665920063577849 18.385979560007993 -0.35569740796952792 0.04775796599741175 10.854746602001802 0.49757299705850694 0.0062181478732168732
decision_type=2 2 2 2 2 2 2 2 2 2 2 2 2
left_child=3 2 -2 -1 -5 -6 10 -8 -9 11 -4 -10 -13
right_child=1 -3 6 4 5 -7 7 8 9 -11 -12 12 -14
leaf_value=0.093713886522629547 0.038434960112843725 0.035413591643958138 -0.027363991130372724 -0.017309003221156923 0.0073297882586217241 0.084414838224608407 0.019038206172429864 0.016028657934189148 -0.043329039667288231 -0.0011509705831394214 -0.066638032796124042 -0.066198316224720763 -0.066785030322504088
leaf_weight=3.9939188957214382 4.2391745299100867 5.8118945360183707 3.7846037447452527 7.0235636979341551 4.0137487947940862 5.5878279656171728 6.9803442507982281 4.1988966763019588 4.2983626723289516 3.7912630140781394 6.9274961948394775 4.4353260993957502 4.135504737496376
leaf_count=20 22 30 20 37 21 29 37 22 23 20 37 24 22
internal_value=-4.08295e-05 -0.0155681 -0.0224925 0.0365599 0.0228296 0.052191 -0.0291921 -0.0201228 -0.0332276 -0.0456415 -0.0527624 -0.0587484 -0.0664814
internal_weight=69.2219 48.6029 42.791 20.6191 16.6251 9.60158 38.5518 27.8397 20.8594 16.6605 10.7121 12.8692 8.57083
internal_count=364 257 227 107 87 50 205 148 111 89 57 69 46
is_linear=0
shrinkage=0.05


Tree=2
num_leaves=14
num_cat=0
split_feature=8 0 6 9 8 6 5 8 6 8 2 1 2
split_gain=14.342 9.38292 11.5074 7.06095 7.44428 5.59489 5.50829 3.34605 3.14616 6.9063 2.2001 2.10163 0.715664
threshold=0.051963902223188217 46.24779782675153 -0.011054161854510176 0.92897696344472191 0.011536799650155726 -0.0022845402794956678 -0.0078376930118200638 0.033923099427846846 0.0041606387615543026 0.023103552466630088 0.030955118882393207 0.019282422454984353 0.87950988990058787
decision_type=2 2 2 2 2 2 2 2 2 2 2 2 2
left_child=1 2 -1 4 -3 -4 -7 8 9 10 -6 12 -10
right_child=-2 3 5 -5 7 6 -8 -9 11 -11 -12 -13 -14
leaf_value=-0.029776256009193248 0.090761771098569186 0.031435482031409404 0.099370878709358457 0.033075905760576362 -0.012943867659105619 -0.015544400731429354 0.066324488342064211 -0.066155974762154263 -0.066349897684662262 0.030098586442702011 -0.0661538435436093 -0.015971083402557842 -0.038357743625759957
leaf_weight=6.5565418303012875 4.0890081375837317 5.0294347852468482 4.1621601581573495 5.9089221060276023 3.730771556496622 3.8382416367530823 4.4211392998695338 6.4457321614027014 6.1145824342966062 6.1942654550075531 4.0532047748565674 4.9770086854696265 3.644244596362114
leaf_count=34 21 26 21 30 20 20 22 35 33 33 22 27 20
internal_value=-6.91059e-05 -0.00577638 0.0238135 -0.0179582 -0.0254616 0.0521001 0.028279 -0.0336005 -0.0262924 -0.00929924 -0.0406509 -0.0424119 -0.0558968
internal_weight=69.1653 65.0762 18.9781 46.0982 40.1892 12.4215 8.25938 35.1598 28.7141 13.9782 7.78398 14.7358 9.75883
internal_count=364 343 97 246 216 63 42 190 155 75 42 80 53
is_linear=0
shrinkage=0.05


Tree=3
num_leaves=15
num_cat=0
split_feature=0 6 9 4 1 4 4 2 10 3 3 1 0 8
split_gain=12.7588 6.75367 5.64275 6.1319 4.51141 4.09708 5.2719 4.84046 5.80716 4.03077 1.34715 0.706385 0.175706 0.000593283
threshold=46.24779782675153 -0.011054161854510176 0.92897696344472191 10.516027489217228 -0.010612107712642425 14.665920063577849 18.385979560007993 -0.35569740796952792 0.65241120965337107 -1.8572027874624368 -0.45539680136137645 0.022877640170937855 52.855069694307495 0.029311111084514962
decision_type=2 2 2 2 2 2 2 2 2 2 2 2 2 2
left_child=1 9 3 -2 -3 12 -7 -8 -9 -1 -6 13 -5 -10
right_child=2 4 -4 5 10 6 7 8 11 -11 -12 -13 -14 -15
leaf_value=0.030781368306924198 0.03072360430008822 0.097013240989389321 0.030941390843968269 -0.065476915816489775 0.017468807744743058 0.018637213705590763 0.017205786937520829 0.011147190595458968 -0.065644046063662517 -0.040706727761086414 0.056119592374544475 -0.039708453965819096 -0.050701697170347962 -0.064863269824978559
leaf_weight=3.9939237684011459 5.0549592822790137 4.1639882773160943 5.9983313083648673 4.6863075792789441 5.1889792680740356 7.0014216750860241 4.1543433666229275 3.8722968250513103 5.4339845180511457 3.8944867849350002 3.9864331483840907 3.7164947092533103 3.5261573046445847 4.4056366086006165
leaf_count=20 26 20 30 26 26 37 22 21 30 21 20 20 20 25
internal_value=-0.000100046 0.0321621 -0.0144126 -0.0209129 0.0538498 -0.0280065 -0.0190636 -0.0312937 -0.0428544 -0.00451211 0.0342614 -0.0582799 -0.0591329 -0.0652945
internal_weight=69.0777 21.2278 47.8499 41.8516 13.3394 36.7966 28.5842 21.5828 17.4284 7.88841 9.17541 13.5561 8.21246 9.83962
internal_count=364 107 257 227 66 201 155 118 96 41 46 75 46 55
is_linear=0
shrinkage=0.05


Tree=4
num_leaves=15
num_cat=0
split_feature=8 0 7 8 7 4 8 1 7 0 8 3 4 8
split_gain=12.3416 7.54547 5.88685 14.779 10.4234 5.23784 5.17964 4.73436 4.48062 3.19206 1.53715 1.24888 0.181514 0.00217646
threshold=0.051963902223188217 46.24779782675153 0.0060257869298175823 0.014283395393730835 0.0051318479497211881 14.665920063577849 0.027722430748919225 -0.00415289153008258 0.0066016895181440953 58.95640482777781 0.026474669397657167 -0.10623203903331908 23.434079660763171 0.031751618680853723
decision_type=2 2 2 2 2 2 2 2 2 2 2 2 2 2
left_child=1 7 3 -3 12 -6 -7 8 -1 10 11 -4 -5 -12
right_child=-2 2 9 4 5 6 -8 -9 -10 -11 13 -13 -14 -15
leaf_value=-0.027289103193924604 0.082272384355607742 0.084437338673330128 -0.012489291271333577 -0.065357844530398376 -0.038310160791995701 0.067004544088190066 -0.0085224250002973838 0.058083137848577916 0.030480909994524782 -0.00094869940051447348 -0.066362173080690881 -0.05315914693917162 -0.050738921506966232 -0.064620892254534532
leaf_weight=6.140351742506029 4.2637378722429267 4.2190886139869717 3.7043904811143884 5.3447844684124011 3.8202946633100501 4.8205993324518186 4.2904462665319443 5.8596176356077185 7.4029283225536346 4.5243602693080893 3.7028053104877472 3.8488425612449655 3.5228846818208694 3.4821207225322723
leaf_count=32 21 21 20 30 22 25 23 29 36 24 20 21 20 20
internal_value=-0.000122236 -0.00555344 -0.0167322 -0.00121997 -0.0177985 0.0108327 0.0314384 0.0205345 0.00428872 -0.0376847 -0.048962 -0.0332131 -0.0595501 -0.0655183
internal_weight=68.9473 64.6835 45.2806 26.0181 21.799 12.9313 9.11105 19.4029 13.5433 19.2625 14.7382 7.55323 8.86767 7.18493
internal_count=364 343 246 141 120 70 48 97 68 105 81 41 50 40
is_linear=0
shrinkage=0.05


Tree=5
num_leaves=14
num_cat=0
split_feature=8 0 9 4 3 3 8 4 0 5 9 9 3
split_gain=10.7857 6.8369 5.69965 6.07005 4.17928 5.0378 3.19719 4.895 4.06178 3.91743 2.51536 2.05522 0.172642
threshold=0.051963902223188217 46.24779782675153 0.92897696344472191 10.516027489217228 -1.2739370334307007 -1.8775941616516254 0.033923099427846846 14.665920063577849 55.282722835674001 0.002892533028340295 0.75367609912206668 0.22535093238707957 0.40963586445637828
decision_type=2 2 2 2 2 2 2 2 2 2 2 2 2
left_child=1 4 3 -3 5 -1 7 12 9 -9 -10 -6 -5
right_child=-2 2 -4 6 11 -7 -8 8 10 -11 -12 -13 -14
leaf_value=0.03157367892160462 0.075495642643720134 0.027278135218517324 0.028903858906130848 -0.06387456268172241 0.021984749290079271 -0.037866897865333066 -0.064100893072237028 -0.012375266555220504 -0.0039739891166283119 0.051838742733053791 -0.055636269147681619 0.069614798431731878 -0.048833974853665953
leaf_weight=5.3644885569810867 4.4101214557886115 5.1692302674055091 6.0821574777364722 4.4144719094038036 4.8783505409955961 5.0902539938688296 5.9707827419042578 6.3916441947221774 4.0821023583412153 3.7795572131872177 5.5723111778497696 4.2275006324052811 3.3601227700710297
leaf_count=26 21 26 30 26 24 27 35 34 23 20 32 20 20
internal_value=-0.000149559 -0.00533112 -0.0160947 -0.0231594 0.0193333 -0.00223587 -0.0309258 -0.023749 -0.0105629 0.0114863 -0.0337923 0.0440976 -0.0573741
internal_weight=68.7931 64.383 44.8224 38.7402 19.5606 10.4547 33.571 27.6002 19.8256 10.1712 9.65441 9.10585 7.77459
internal_count=364 343 246 216 97 53 190 155 109 54 55 44 46
is_linear=0
shrinkage=0.05


Tree=6
num_leaves=14
num_cat=0
split_feature=5 4 5 9 7 3 0 9 9 6 0 6 0
split_gain=10.0692 4.57826 3.6563 5.83122 3.92746 11.6541 7.49797 7.547 4.95962 4.82675 2.48579 1.29589 0.988681
threshold=-0.014204890941309486 33.910750927278578 0.011706888157759037 0.69582486616752726 0.0060257869298175823 -0.80502115697704302 46.669107623259514 0.24805935432179979 0.2749724491059064 0.0041606387615543026 61.247056602937164 -0.0040690907580252867 56.758633098651551
decision_type=2 2 2 2 2 2 2 2 2 2 2 2 2
left_child=-1 2 3 4 5 -2 7 -6 -7 -10 12 -8 -5
right_child=1 -3 -4 10 6 8 11 -9 9 -11 -12 -13 -14
leaf_value=0.068710942504781297 -0.053591799160587851 -0.048579356771594417 0.034754977964796291 -0.031040791772178552 -0.030184442080930754 0.084810518842461768 -0.025299314826248503 0.050747903036647148 0.051256588290138176 -0.023516647601626004 -0.0040065448859303143 -0.064848876072979192 -0.063880237601959378
leaf_weight=4.9248973280191413 3.9919802397489574 5.6218699514865866 6.2644619345664969 4.3180257081985456 5.1383857727050799 4.7463301867246619 3.8023796230554581 6.5553855001926422 5.4555881768465024 3.570930153131485 4.7736001759767523 4.549257963895796 4.8846481591463089
leaf_count=23 22 31 32 24 26 22 22 32 29 20 26 26 29
internal_value=-0.000168571 -0.00549619 -0.00132386 -0.00568821 0.00451255 0.0216304 -0.0106578 0.0151852 0.0434331 0.021676 -0.0332845 -0.0468425 -0.0484715
internal_weight=68.5977 63.6728 58.051 51.7865 37.8102 17.7648 20.0454 11.6938 13.7728 9.02652 13.9763 8.35164 9.20267
internal_count=364 341 310 278 199 93 106 58 71 49 79 48 53
is_linear=0
shrinkage=0.05


Tree=7
num_leaves=14
num_cat=0
split_feature=5 4 10 10 3 4 6 10 6 5 4 1 10
split_gain=8.88748 4.25148 4.34776 4.40493 6.66237 6.41526 9.6503 5.45534 4.41448 4.11133 2.36814 2.35334 0.15294
threshold=-0.014204890941309486 33.910750927278578 1.7591184964021276 1.1967774412945646 0.082437844698984367 25.291704842551436 0.0035927527418953774 0.72774730262675835 -0.00064329611891794311 -0.0060298171826994665 14.337681221780338 -1.0000000180025095e-35 0.63526478777938444
decision_type=2 2 2 2 2 2 2 2 2 2 2 2 2
left_child=-1 2 3 5 -5 6 8 -7 9 -2 -11 -10 -8
right_child=1 -3 -4 4 -6 7 12 -9 11 10 -12 -13 -14
leaf_value=0.06367839054882321 0.026855440031935976 -0.047361113685591955 -0.046719123134515247 -0.013540723327981502 0.059174723614055957 0.074439343846358447 -0.050908020752443134 -0.0071617103175165859 0.0040364400879657298 -0.055537915271087659 -0.0075336127567634803 0.056925347334955037 -0.064244742994418499
leaf_weight=5.045133873820304 4.1899875849485353 5.4817426353693 4.8271480053663245 5.4777581989765149 7.4128690361976624 4.1482467800378782 3.5023615807294828 4.0457941591739655 4.1788291931152344 5.2189640104770678 5.0600576549768448 4.2346153110265785 5.5655529946088791
leaf_count=23 22 31 26 29 38 21 20 21 22 30 28 20 33
internal_value=-0.000189418 -0.00527628 -0.00128925 0.00284569 0.0282749 -0.0053198 -0.015442 0.034149 0.00185634 -0.0148902 -0.0319068 0.0306562 -0.0590936
internal_weight=68.3891 63.3439 57.8622 53.035 12.8906 40.1444 31.9504 8.19404 22.8825 14.469 10.279 8.41344 9.06791
internal_count=364 341 310 284 67 217 175 42 122 80 58 42 53
is_linear=0
shrinkage=0.05


Tree=8
num_leaves=12
num_cat=0
split_feature=8 0 9 8 9 7 10 10 1 7 7
split_gain=9.98193 6.07564 4.81466 5.28372 5.68343 4.09019 4.39147 6.20984 3.71621 4.15858 0.948159
threshold=0.052427922289588667 46.24779782675153 0.92897696344472191 0.027722430748919225 0.80376173845722199 0.006670534439129538 1.1331336616462608 0.5705491925594911 -0.00415289153008258 0.0066016895181440953 0.0058906781988410616
decision_type=2 2 2 2 2 2 2 2 2 2 2
left_child=1 8 3 4 5 6 7 -3 9 -1 -5
right_child=-2 2 -4 10 -6 -7 -8 -9 -10 -11 -12
leaf_value=-0.027372108206754904 0.07700172570548576 0.044238149710321376 0.025451908279966948 -0.034426789282644768 -0.063048755824950092 -0.033520381533046963 0.050309217898569042 -0.034921835979000622 0.05041753483562892 0.027591055148391403 -0.063525470169216544
leaf_weight=6.0969668477773684 3.944084867835044 3.9788865596056038 6.2211298793554297 5.0407907664775831 4.2197827994823447 6.4119106829166403 5.4253254830837241 6.5655426234006882 6.0988397747278205 7.9014540612697601 6.2960498034954071
leaf_count=32 18 21 30 30 26 37 28 38 29 37 38
internal_value=-0.000207414 -0.00494652 -0.0153185 -0.0220041 -0.00982278 0.000212315 0.0137561 -0.00505122 0.0178438 0.00365203 -0.0505871
internal_weight=68.2008 64.2567 44.1594 37.9383 26.6014 22.3817 15.9698 10.5444 20.0973 13.9984 11.3368
internal_count=364 346 248 218 150 124 87 59 98 69 68
is_linear=0
shrinkage=0.05


Tree=9
num_leaves=15
num_cat=0
split_feature=8 0 8 9 7 9 7 8 1 7 2 4 8 10
split_gain=8.80079 5.51137 4.5603 4.68756 4.78558 8.00345 5.45573 9.63254 3.26052 3.75366 1.89229 2.12008 1.63127 0.632833
threshold=0.052427922289588667 46.24779782675153 0.033923099427846846 0.94228507454462229 0.0060459571434980279 0.69313765970221697 0.0053043097324873634 0.014943841197053125 -0.00415289153008258 0.0066016895181440953 0.55654932245893141 16.760949294783892 0.023103552466630088 0.84001401299963485
decision_type=2 2 2 2 2 2 2 2 2 2 2 2 2 2
left_child=1 8 3 4 5 6 7 -3 9 -1 11 -6 -7 -4
right_child=-2 2 13 -5 10 12 -8 -9 -10 -11 -12 -13 -14 -15
leaf_value=-0.026352233290478477 0.071326312837035805 0.049524838055680698 -0.034677500153429686 0.040665232853461894 -0.049800089514512133 -0.062563752547226056 0.072110590181798523 -0.063377327684286722 0.046981537207879717 0.025947423378186896 -0.063466741390990372 0.0044350207350294449 -0.017107216945339988 -0.064171470778099537
leaf_weight=6.0183219611644763 4.0423313230276099 4.4522242695093208 3.34579974412918 4.4384917318820944 3.6367920786142331 3.6646247059106818 4.2547141909599304 3.281703308224678 6.2145119607448569 7.9797807037830353 4.7928231507539749 3.5713939964771271 4.2772743403911591 3.9847093671560287
leaf_count=32 18 21 20 21 22 23 22 20 29 37 29 20 26 24
internal_value=-0.000221748 -0.00474697 -0.0147325 -0.00748118 -0.0141735 0.000846696 0.0266352 0.00161756 0.0168422 0.00346179 -0.0391182 -0.0229286 -0.0380822 -0.0507098
internal_weight=67.9555 63.9132 43.7006 36.37 31.9316 19.9305 11.9886 7.73393 20.2126 13.9981 12.001 7.20819 7.9419 7.33051
internal_count=364 346 248 204 183 112 63 41 98 69 71 42 49 44
is_linear=0
shrinkage=0.05


end of trees

feature_importances:
Column_8=19
Column_9=16
Column_4=15
Column_0=13
Column_7=13
Column_1=11
Column_6=10
Column_10=10
Column_3=9
Column_5=9
Column_2=6

parameters:
[boosting: gbdt]
[objective: binary]
[metric: auc]
[tree_learner: serial]
[device_type: cpu]
[data_sample_strategy: bagging]
[data: ]
[valid: ]
[num_iterations: 100]
[learning_rate: 0.05]
[num_leaves: 31]
[num_threads: 0]
[seed: 0]
[deterministic: 0]
[force_col_wise: 0]
[force_row_wise: 0]
[histogram_pool_size: -1]
[max_depth: -1]
[min_data_in_leaf: 20]
[min_sum_hessian_in_leaf: 0.001]
[bagging_fraction: 1]
[pos_bagging_fraction: 1]
[neg_bagging_fraction: 1]
[bagging_freq: 0]
[bagging_seed: 3]
[bagging_by_query: 0]
[feature_fraction: 0.8]
[feature_fraction_bynode: 1]
[feature_fraction_seed: 2]
[extra_trees: 0]
[extra_seed: 6]
[early_stopping_round: 0]
[early_stopping_min_delta: 0]
[first_metric_only: 0]
[max_delta_step: 0]
[lambda_l1: 0]
[lambda_l2: 0]
[linear_lambda: 0]
[min_gain_to_split: 0]
[drop_rate: 0.1]
[max_drop: 50]
[skip_drop: 0.5]
[xgboost_dart_mode: 0]
[uniform_drop: 0]
[drop_seed: 4]
[top_rate: 0.2]
[other_rate: 0.1]
[min_data_per_group: 100]
[max_cat_threshold: 32]
[cat_l2: 10]
[cat_smooth: 10]
[max_cat_to_onehot: 4]
[top_k: 20]
[monotone_constraints: ]
[monotone_constraints_method: basic]
[monotone_penalty: 0]
[feature_contri: ]
[forcedsplits_filename: ]
[refit_decay_rate: 0.9]
[cegb_tradeoff: 1]
[cegb_penalty_split: 0]
[cegb_penalty_feature_lazy: ]
[cegb_penalty_feature_coupled: ]
[path_smooth: 0]
[interaction_constraints: ]
[verbosity: -1]
[saved_feature_importance_type: 0]
[use_quantized_grad: 0]
[num_grad_quant_bins: 4]
[quant_train_renew_leaf: 0]
[stochastic_rounding: 1]
[linear_tree: 0]
[max_bin: 255]
[max_bin_by_feature: ]
[min_data_in_bin: 3]
[bin_construct_sample_cnt: 200000]
[data_random_seed: 1]
[is_enable_sparse: 1]
[enable_bundle: 1]
[use_missing: 1]
[zero_as_missing: 0]
[feature_pre_filter: 1]
[pre_partition: 0]
[two_round: 0]
[header: 0]
[label_column: ]
[weight_column: ]
[group_column: ]
[ignore_column: ]
[categorical_feature: ]
[forcedbins_filename: ]
[precise_float_parser: 0]
[parser_config_file: ]
[objective_seed: 5]
[num_class: 1]
[is_unbalance: 0]
[scale_pos_weight: 1]
[sigmoid: 1]
[boost_from_average: 1]
[reg_sqrt: 0]
[alpha: 0.9]
[fair_c: 1]
[poisson_max_delta_step: 0.7]
[tweedie_variance_power: 1.5]
[lambdarank_truncation_level: 30]
[lambdarank_norm: 1]
[label_gain: ]
[lambdarank_position_bias_regularization: 0]
[eval_at: ]
[multi_error_top_k: 1]
[auc_mu_weights: ]
[num_machines: 1]
[local_listen_port: 12400]
[time_out: 120]
[machine_list_filename: ]
[machines: ]
[gpu_platform_id: -1]
[gpu_device_id: -1]
[gpu_use_dp: 0]
[num_gpu: 1]

end of parameters

pandas_categorical:null
