tree
version=v4
num_class=1
num_tree_per_iteration=1
label_index=0
max_feature_idx=10
objective=binary sigmoid:1
feature_names=Column_0 Column_1 Column_2 Column_3 Column_4 Column_5 Column_6 Column_7 Column_8 Column_9 Column_10
feature_infos=[0:76.483342493420608] [-0.084216236840048975:0.059558386278782738] [-7.6661514683152943:7.1832391087462497] [-8.6834733893557399:9.6602265156562304] [0:72.835940893120323] [-0.059946813623402019:0.048780880859910031] [-0.070007749935417238:0.071243074792243705] [0:0.017459788015771728] [0:0.15899818112697986] [-0.28508113365384929:1.3239550192026364] [0:2.2648094402464096]
tree_sizes=1493 1700 1601 1699 1488 1703 1794 1713 1493 1712 1608 1717 1611 1399 1711 1713

Tree=0
num_leaves=13
num_cat=0
split_feature=8 2 6 7 7 1 6 5 7 1 6 5
split_gain=10.5938 14.7551 10.1963 12.0105 8.37823 5.43042 10.6965 5.74956 4.68973 4.09376 1.86301 1.57631
threshold=0.059226228064531698 0.33171466657705034 0.042186240591225214 0.012787809998226653 0.0094249653765567046 -0.00065054374729966991 -0.019044590293534298 -0.0085395511284695833 0.00914173878859364 -0.0037567926945234471 0.017627089129214891 0.010690579123196329
decision_type=2 2 2 2 2 2 2 2 2 2 2 2
left_child=1 4 3 11 -1 6 -6 -8 -3 -10 -11 -2
right_child=2 8 -4 -5 5 -7 7 -9 9 10 -12 -13
leaf_value=-0.48425767974843403 -0.47606905750513007 -0.54771950213404019 -0.57264139591800889 -0.53953087989073611 -0.58198710608699722 -0.57411703436574391 -0.45559750189686993 -0.53143531017292422 -0.55394997558003234 -0.61936994676295043 -0.58198710608699722 -0.43666131295922939
leaf_weight=8.1413777172565442 5.5826590061187797 9.0718208849430102 5.3500482141971579 8.1413777172565442 5.3500482141971579 8.8392100930213946 4.8848266303539249 5.1174374222755441 5.3500482141971633 8.8392100930213875 5.3500482141971597 4.652215838432312
leaf_count=35 24 39 23 35 23 38 21 22 23 38 23 20
internal_value=-0.54024 -0.551275 -0.511894 -0.494208 -0.528132 -0.542897 -0.524922 -0.494398 -0.577428 -0.591222 -0.605275 -0.458156
internal_weight=84.6703 60.944 23.7263 18.3763 32.3329 24.1915 15.3523 10.0023 28.6111 19.5393 14.1893 10.2349
internal_count=364 262 102 79 139 104 66 43 123 84 61 44
is_linear=0
shrinkage=1


Tree=1
num_leaves=15
num_cat=0
split_feature=0 4 4 4 3 8 8 4 2 4 8 1 7 0
split_gain=13.4306 9.79839 6.45882 11.8717 11.3133 6.33176 7.42432 6.95427 6.01869 5.41258 2.91975 2.62376 4.29458 2.43499
threshold=48.069731633138737 14.022866266334946 41.583655978390361 16.286818518459416 -1.7782930082395285 0.022631273554835633 0.059226228064531698 23.847365097827133 -1.0094945275940743 13.69523848196477 0.049102590043187899 0.021607430299171785 0.010260081582465871 52.311084062424207
decision_type=2 2 2 2 2 2 2 2 2 2 2 2 2 2
left_child=2 13 3 4 -1 -3 10 -8 -5 -6 11 12 -7 -2
right_child=1 5 -4 8 9 6 7 -9 -10 -11 -12 -13 -14 -15
leaf_value=-0.058186797316890783 -0.031629194892135164 0.045148328921315678 -0.027772928168455276 0.042782671907462017 0.07215059136178581 0.029194825470676391 0.059150038252694583 -0.013824351097465389 0.11355585763947572 -0.0012648117714977082 -0.056879691105572144 -0.047671789747105731 -0.036603571255122945 -0.07774926613472577
leaf_weight=4.8630189746618262 5.3199650049209577 5.6057851761579505 4.8792175501584998 7.7328891307115555 4.9239047169685382 5.0959223210811633 5.6875576078891736 7.6640616357326508 4.9123558998107892 5.12223120033741 6.9364579170942298 4.8572940975427619 4.8306622505187988 6.1940869241952896
leaf_count=21 23 24 21 33 21 22 24 33 21 22 30 21 21 27
internal_value=-1.73135e-05 -0.0157196 0.0252507 0.0346399 0.00441477 -0.00419355 -0.0120802 0.0172615 0.0702763 0.0347182 -0.0301167 -0.0175597 -0.00282523 -0.0564399
internal_weight=84.6254 52.1918 32.4336 27.5544 14.9092 40.6777 35.072 13.3516 12.6452 10.0461 21.7203 14.7839 9.92658 11.5141
internal_count=364 225 139 118 64 175 151 57 54 43 94 64 43 50
is_linear=0
shrinkage=0.05


Tree=2
num_leaves=14
num_cat=0
split_feature=0 4 10 6 4 8 8 8 0 10 1 4 0
split_gain=12.1018 9.04844 10.4057 6.38012 9.52952 7.6667 5.32688 7.60374 4.28386 4.11921 3.32803 2.59225 2.31797
threshold=48.069731633138737 14.022866266334946 1.4368178963439171 -0.019044590293534298 41.583655978390361 0.052119130175022295 0.059226228064531698 0.049102590043187899 44.415112231602386 0.72147869075650328 0.018446252952096568 24.379113065781009 52.311084062424207
decision_type=2 2 2 2 2 2 2 2 2 2 2 2 2
left_child=3 12 6 -1 5 8 7 9 -5 -3 -11 -8 -2
right_child=1 2 -4 4 -6 -7 11 -9 -10 10 -12 -13 -14
leaf_value=-0.015378441895410495 -0.030321596853059508 0.02915903122843598 0.057868071606336641 0.061117197174196058 -0.026589667586147822 0.1003996393990268 0.041989399570213089 -0.076861544801333864 0.0060113772516259406 -0.0027501175308400723 -0.053202439235951263 -0.0068814929179069617 -0.075674632384868476
leaf_weight=7.8682903051376334 5.2731277346611005 4.6301863193512025 5.8210147172212592 6.6453582346439415 4.8424823731183997 5.7341629266738883 4.792044445872305 5.9098878353834143 7.5152580738067627 7.1982249617576581 5.9874343723058701 6.255482941865921 6.0493640154600143
leaf_count=34 23 20 25 28 21 24 20 26 32 31 26 27 27
internal_value=-3.50087e-05 -0.0150284 -0.00400437 0.0238385 0.0363125 0.0516231 -0.0143618 -0.0277156 0.0318717 -0.0114129 -0.0256599 0.0143171 -0.0545527
internal_weight=84.5223 51.9168 40.5943 32.6056 24.7373 19.8948 34.7733 23.7257 14.1606 17.8158 13.1857 11.0475 11.3225
internal_count=364 225 175 139 105 84 150 103 60 77 57 47 50
is_linear=0
shrinkage=0.05


Tree=3
num_leaves=15
num_cat=0
split_feature=0 4 10 6 4 1 2 8 4 10 8 4 0 3
split_gain=10.9207 8.36602 9.30297 5.72448 9.52007 7.13576 5.31846 4.89141 4.86762 7.16703 4.465 3.04795 2.21777 2.04561
threshold=48.069731633138737 14.022866266334946 1.4368178963439171 -0.013787935533466944 41.583655978390361 -0.0092412874866099042 -1.0094945275940743 0.077426009445670449 19.585654059678198 0.84617343296213166 0.026208930741693899 15.583014719842945 52.311084062424207 3.1039594266839226
decision_type=2 2 2 2 2 2 2 2 2 2 2 2 2 2
left_child=3 12 7 11 5 -5 -7 8 9 -3 -10 -1 -2 -12
right_child=1 2 -4 4 -6 6 -8 -9 10 -11 13 -13 -14 -15
leaf_value=-0.037124622679331858 -0.029069996432495589 0.044600298554401008 0.054181256745458518 0.10222600103115267 -0.025457115170005269 -0.002448687178892719 0.063867398381443272 0.03258190870175065 0.0047806743693407112 -0.034869883694085495 -0.070445937285888965 0.017017746348853054 -0.073804390202220266 -0.031718838432114711
leaf_weight=4.8281136006116849 5.2263643592596036 5.6054392307996768 5.9040042757987967 5.3313110172748592 4.805969461798667 5.6825660020113009 6.4606942385435104 4.8953760117292395 4.6954553425312069 5.7445693165063858 7.0599611252546293 5.6311511397361755 5.8963982462882996 6.5951658636331558
leaf_count=21 23 24 25 22 21 24 27 21 20 25 31 24 27 29
internal_value=-4.94028e-05 -0.0143759 -0.00382742 0.0225399 0.0368647 0.0540048 0.0328341 -0.0137269 -0.0213598 0.00437813 -0.0372789 -0.00797498 -0.0527846 -0.0517415
internal_weight=84.3625 51.6227 40.5 32.7398 22.2805 17.4746 12.1433 34.596 29.7006 11.35 18.3506 10.4593 11.1228 13.6551
internal_count=364 225 175 139 94 73 51 150 129 49 80 45 50 60
is_linear=0
shrinkage=0.05


Tree=4
num_leaves=13
num_cat=0
split_feature=0 4 8 8 4 4 4 1 2 8 2 0
split_gain=9.86425 7.7442 5.18199 5.76728 5.86177 4.66451 9.10016 9.76382 4.73392 2.36803 3.22133 2.13117
threshold=48.069731633138737 14.022866266334946 0.022631273554835633 0.059226228064531698 22.76506552362034 41.583655978390361 16.286818518459416 -0.0080741389494789467 -1.0094945275940743 0.048013929406124763 1.1654094490858533 52.311084062424207
decision_type=2 2 2 2 2 2 2 2 2 2 2 2
left_child=5 11 -3 9 -5 6 7 -1 -8 10 -4 -2
right_child=1 2 3 4 -6 -7 8 -9 -10 -11 -12 -13
leaf_value=-0.038456069327810725 -0.027870760096353083 0.040494034230412874 -0.039445974276097716 0.055436828869627246 -0.012007102696706703 -0.024372326124399407 0.035383572266981737 0.042264980414261244 0.096982723929920023 -0.049195276411772265 0.009460141069049792 -0.072111658751191438
leaf_weight=7.3802715986967078 5.1798896193504316 5.7067981660366049 6.601470038294794 5.3284060955047599 8.1484195142984372 4.7698229402303687 7.9348443597555161 7.6078229099512127 5.1389580368995649 7.7461120486259452 6.8721445202827454 5.7371046394109726
leaf_count=32 23 24 29 22 35 21 33 32 21 35 30 27
internal_value=-6.26189e-05 -0.0137548 -0.0036586 -0.0109207 0.0146586 0.02134 0.02911 0.00251721 0.0595965 -0.0271663 -0.0145017 -0.0511203
internal_weight=84.1521 51.3203 40.4034 34.6966 13.4768 32.8317 28.0619 14.9881 13.0738 21.2197 13.4736 10.917
internal_count=364 225 175 151 57 139 118 64 54 94 59 50
is_linear=0
shrinkage=0.05


Tree=5
num_leaves=15
num_cat=0
split_feature=0 4 10 8 1 1 4 4 3 10 4 10 0 5
split_gain=8.91668 7.1756 8.21063 4.40648 4.4756 6.12872 4.19684 8.10271 9.18298 5.72109 3.99136 2.35086 2.05562 1.3977
threshold=48.069731633138737 14.022866266334946 1.4368178963439171 0.077426009445670449 0.0004683419182327509 0.021607430299171785 41.583655978390361 16.286818518459416 -1.7782930082395285 0.7866176291819228 13.69523848196477 0.73507570699163882 52.311084062424207 0.012707174408850211
decision_type=2 2 2 2 2 2 2 2 2 2 2 2 2 2
left_child=6 12 3 4 -3 11 7 8 -1 -9 -10 -6 -2 -13
right_child=1 2 -4 -5 5 -7 -8 9 10 -11 -12 13 -14 -15
leaf_value=-0.055257049189906565 -0.026720690773920242 -0.055782917111456491 0.050616933142085943 0.030838091066542807 -0.018185510318192606 -0.044128985598468617 -0.023332671523306012 0.090058210035622283 0.060250041855375761 0.024151063987819188 -0.0021601626387553904 0.0049999814208994036 -0.070574052608291499 0.043289924273804757
leaf_weight=4.7281771153211585 5.1338863074779493 6.8086511045694378 5.9710592925548545 4.9286678731441489 4.8683082461357143 8.1691616326570493 4.7341654300689688 6.3974170833826047 5.1129161417484301 6.7848165482282639 5.1344238519668579 4.6758867204189283 5.5731506943702698 4.8610647916793823
leaf_count=21 23 30 25 21 21 37 21 26 21 28 22 20 27 21
internal_value=-7.22205e-05 -0.0131653 -0.00349514 -0.0129119 -0.0202505 -0.00953358 0.0202249 0.0275483 0.0023837 0.0561362 0.0289794 0.0100853 -0.0495469 0.0245167
internal_weight=83.8818 50.9898 40.2828 34.3117 29.3831 22.5744 32.8919 28.1578 14.9755 13.1822 10.2473 14.4053 10.707 9.53695
internal_count=364 225 175 150 129 99 139 118 64 54 43 62 50 41
is_linear=0
shrinkage=0.05


Tree=6
num_leaves=16
num_cat=0
split_feature=0 4 6 4 0 4 2 4 9 4 5 5 7 7 0
split_gain=8.06969 6.65401 4.61938 6.24009 5.74775 4.54586 9.15289 4.68836 4.41553 6.92099 3.52708 4.46419 6.91763 2.83396 1.9891
threshold=48.069731633138737 14.022866266334946 -0.019044590293534298 41.583655978390361 40.513881346736902 19.585654059678198 2.0003455889011854 16.452934357240395 0.23852639846173951 16.286818518459416 0.026515416682316207 0.015070112068630518 0.010556923382894707 0.0088312203285556487 52.311084062424207
decision_type=2 2 2 2 2 2 2 2 2 2 2 2 2 2 2
left_child=2 14 -1 4 -4 6 7 -3 -6 -10 11 12 13 -7 -2
right_child=1 5 3 -5 8 10 -8 -9 9 -11 -12 -13 -14 -15 -16
leaf_value=-0.014505680797931903 -0.025616955598067516 0.011814343593316982 0.085816403697442367 -0.022335781638463701 -0.010887254170959841 -0.01318077609974449 -0.037485065585474486 0.082890574929237654 0.002464009165230686 0.086953636160671838 0.020391018747633105 -0.065621794035736425 -0.052627982790403177 0.041521572151837292 -0.069172791734762637
leaf_weight=7.7650952935218802 5.0885089635848981 4.5066542476415616 5.3990864157676759 4.6990993022918692 5.3303728103637686 4.5729910433292442 4.6567081212997428 4.782023087143898 4.730063930153845 4.971236988902092 5.4030102193355551 5.0950100272893897 6.2457225620746604 4.9096714854240417 5.4059838652610779
leaf_count=34 23 20 22 21 22 20 20 20 20 20 23 23 28 21 27
internal_value=-8.2504e-05 -0.0126024 0.0192012 0.0296166 0.0415657 -0.0033411 0.0197249 0.048406 0.0256717 0.045759 -0.015606 -0.0249461 -0.0117697 0.0151415 -0.0480537
internal_weight=83.5612 50.6663 32.895 25.1299 20.4308 40.1718 13.9454 9.28868 15.0317 9.7013 26.2264 20.8234 15.7284 9.48266 10.4945
internal_count=364 225 139 105 84 175 60 40 62 40 115 92 69 41 50
is_linear=0
shrinkage=0.05


Tree=7
num_leaves=15
num_cat=0
split_feature=0 10 4 10 9 6 1 6 1 3 6 2 0 0
split_gain=7.3925 5.82579 5.46136 7.94265 7.3265 5.31248 4.75314 4.58402 3.32865 2.77932 4.13709 2.24185 3.76559 1.57125
threshold=50.470271167015241 1.4588525103233365 16.286818518459416 0.63783190836370995 0.10412262366423831 -0.0099787944996514357 0.0026167091680908698 -0.0064392608352564209 -0.0027867003137669317 3.3125080871779509 0.040587596262422136 0.33171466657705034 58.637803691245431 53.590706083443116
decision_type=2 2 2 2 2 2 2 2 2 2 2 2 2 2
left_child=2 6 4 -4 -1 -6 13 -5 -9 11 -11 -8 -13 -2
right_child=1 -3 3 7 5 -7 9 8 -10 10 -12 12 -14 -15
leaf_value=0.041701975779836378 -0.02788876562860463 0.03611053361101231 0.082331817365991725 0.051794226886146003 -0.066301742214370324 -0.00073446914833100901 0.0069800912888654549 0.022616194367819465 -0.033051843472879226 0.040616812290216436 -0.024143467743501418 -0.072331374000545609 -0.014055161171272014 -0.067230765657301184
leaf_weight=5.9244364947080639 4.4469790607690793 4.9616056084632865 5.7849762290716198 5.3602598607540175 4.9309983551502237 8.2714880108833277 4.6112656295299592 5.4494196921587026 5.294124200940125 5.3124349713325483 4.6028858125209808 4.2007089853286734 8.1501256525516492 5.9116973727941513
leaf_count=25 21 21 24 22 22 36 20 23 23 23 20 20 37 27
internal_value=-9.17014e-05 -0.0147843 0.0150244 0.0320796 -0.00449357 -0.0252232 -0.0215659 0.0140274 -0.00481549 -0.0104758 0.0105538 -0.0227688 -0.0338758 -0.0503412
internal_weight=83.2134 42.1977 41.0157 21.8888 19.1269 13.2025 37.2361 16.1038 10.7435 26.8774 9.91532 16.9621 12.3508 10.3587
internal_count=364 189 175 92 83 58 168 68 46 120 43 77 57 48
is_linear=0
shrinkage=0.05


Tree=8
num_leaves=13
num_cat=0
split_feature=0 4 10 8 7 3 4 4 2 3 10 0
split_gain=6.72183 6.0462 6.59781 4.11229 7.03862 7.28991 3.46521 6.55669 4.46773 2.72247 2.3503 1.87749
threshold=48.069731633138737 14.022866266334946 1.4368178963439171 0.059226228064531698 0.01062761304302484 2.0909114422663237 41.583655978390361 23.984391490877204 -1.7216015974438275 -1.6406334298193348 0.80249914114880883 52.311084062424207
decision_type=2 2 2 2 2 2 2 2 2 2 2 2
left_child=6 11 3 4 5 -3 7 8 -1 -10 -5 -2
right_child=1 2 -4 10 -6 -7 -8 -9 9 -11 -12 -13
leaf_value=-0.015073891472307656 -0.024324565580953916 0.026914264711780773 0.045176734962938787 -0.0071987378771206957 -0.065300894603772572 -0.041090467519390057 -0.02229810168034627 0.074754727500599541 -0.00030716611120108197 0.04606993685571982 0.039274492030699264 -0.067277913397696773
leaf_weight=8.9153550863266009 5.0338290780782682 8.3728051036596316 6.0625028908252707 6.06481024622917 7.0036228299140921 7.4448273926973334 4.6954506933689109 5.2069039791822425 4.8138874471187618 9.2353397458791715 4.9337184280157089 5.1435272395610809
leaf_count=38 23 36 25 26 33 34 21 21 21 38 21 27
internal_value=-9.95901e-05 -0.0116342 -0.00285621 -0.0114665 -0.0235704 -0.00509327 0.0174688 0.0240969 0.0126109 0.0301791 0.0136482 -0.0460327
internal_weight=82.9266 50.0596 39.8823 33.8198 22.8213 15.8176 32.8669 28.1715 22.9646 14.0492 10.9985 10.1774
internal_count=364 225 175 150 103 70 139 118 97 59 47 50
is_linear=0
shrinkage=0.05


Tree=9
num_leaves=15
num_cat=0
split_feature=0 7 8 4 0 0 2 7 4 2 4 7 7 9
split_gain=6.25957 7.73148 7.81936 5.43369 5.23641 5.13991 5.44098 4.70587 6.99229 3.41194 3.69023 3.33027 2.24285 0.509557
threshold=53.144065643341129 0.0091730094765647627 0.036097782987108799 14.261802975557307 48.151578839670925 58.637803691245431 0.41274832061537975 0.0087507114134886248 32.593345395716334 -1.0000000180025095e-35 25.188275561300291 0.011440923071408251 0.0096063786594745796 0.76672620085384713
decision_type=2 2 2 2 2 2 2 2 2 2 2 2 2 2
left_child=1 -1 4 -4 -3 6 -2 -7 12 10 11 -5 -9 -8
right_child=5 2 3 9 -6 7 13 8 -10 -11 -12 -13 -14 -15
leaf_value=0.070253369668298982 0.0012712625426512013 0.0047769331224331519 -0.033740527129348372 -0.02645475545034609 -0.065648869655400885 -0.039190794593522517 -0.072437315108874342 0.012020150895453474 -0.035908123397544997 0.057470903970383715 0.042090364105610956 0.024510202510809917 0.059536451364689914 -0.04914123147525476
leaf_weight=5.0425396710634223 5.4634625613689414 4.993361368775366 4.5055962353944805 6.4064082354307228 5.5989935547113419 5.4859389066696194 4.9763522744178754 4.4641214758157712 4.6094758659601203 6.3999105989933005 8.1399099081754667 6.4150040745735168 5.5973092317581177 4.4430122375488281
leaf_count=21 24 21 20 28 26 25 24 20 20 27 35 27 24 22
internal_value=-0.000106404 0.0117194 0.00476782 0.0171386 -0.0324493 -0.0161382 -0.0384244 0.000316885 0.0150901 0.0255169 0.0157607 -0.000955192 0.0384541 -0.0614488
internal_weight=82.5414 47.5017 42.4592 31.8668 10.5924 35.0397 14.8828 20.1568 14.6709 27.3612 20.9613 12.8214 10.0614 9.41936
internal_count=364 205 184 137 47 159 70 89 64 117 90 55 44 46
is_linear=0
shrinkage=0.05


Tree=10
num_leaves=14
num_cat=0
split_feature=0 7 8 5 4 0 2 9 2 4 7 8 5
split_gain=5.67916 6.89441 7.10526 4.93699 4.90714 4.8927 3.82854 3.79241 3.04615 3.29646 3.01042 2.2946 2.62291
threshold=53.144065643341129 0.0091730094765647627 0.036097782987108799 0.031904352069869378 14.261802975557307 48.151578839670925 2.2001740215736514 0.88134515406378433 -1.0000000180025095e-35 25.188275561300291 0.011440923071408251 0.032047546205644199 0.011686464635407989
decision_type=2 2 2 2 2 2 2 2 2 2 2 2 2
left_child=1 -1 5 6 -4 -3 7 11 9 10 -6 -2 -13
right_child=3 2 4 -5 8 -7 -8 -9 -10 -11 -12 12 -14
leaf_value=0.066126383750372483 0.0039761974788578101 0.0045340409304194381 -0.032384782153165759 0.031984831436859103 -0.025307083348643591 -0.063912103457942723 -0.053970083945860316 0.028102664486525781 0.054240283613371257 0.039691362379733225 0.023175947138111178 -0.057131530102223771 -0.011357783644327832
leaf_weight=5.0881246328353873 5.4897463023662665 4.9977021366357786 4.4606684297323254 4.7353086918592444 6.3632124215364509 5.4669469445943832 7.4709124714136115 4.5517234951257697 6.4409155547618857 8.1987174451351148 6.444321796298027 6.4124152362346631 6.1131761372089386
leaf_count=21 25 21 20 20 28 26 35 20 27 35 27 31 28
internal_value=-0.000114741 0.0111324 0.0045287 -0.0154655 0.0162542 -0.0312236 -0.0229458 -0.0126751 0.0241589 0.0149354 -0.000912048 -0.0229779 -0.0347914
internal_weight=82.2339 47.4606 42.3725 34.7733 31.9078 10.4646 30.038 22.5671 27.4472 21.0063 12.8075 18.0153 12.5256
internal_count=364 205 184 159 137 47 139 104 117 90 55 84 59
is_linear=0
shrinkage=0.05


Tree=11
num_leaves=15
num_cat=0
split_feature=0 7 1 4 4 6 6 8 5 5 5 8 4 7
split_gain=5.15213 6.16817 6.78765 7.06568 4.70492 4.66926 3.79496 4.32008 3.30445 4.18238 6.06899 5.61776 2.47449 2.25671
threshold=53.144065643341129 0.0091730094765647627 -0.0037567926945234471 16.286818518459416 14.022866266334946 -0.019044590293534298 -0.0019793117289545821 0.03698274108209116 0.031904352069869378 0.015070112068630518 0.011686464635407989 0.038998537293638426 19.821052893538305 0.012787809998226653
decision_type=2 2 2 2 2 2 2 2 2 2 2 2 2 2
left_child=1 -1 3 5 -2 -3 -4 -8 9 10 11 -6 -11 -5
right_child=4 2 6 13 8 -7 7 -9 -10 12 -12 -13 -14 -15
leaf_value=0.062410952752965813 -0.065183563308287534 -0.050184117014003049 0.01430649029525894 0.057605547182134342 0.011977828450244867 0.015810196966950615 -0.072476541865421559 -0.0087829732561681226 0.030195973777583318 -0.013594311655141507 0.042066971534367503 -0.062679196608287788 -0.063904942654852595 0.018775890124442356
leaf_weight=5.1205729544162741 4.0868466198444358 4.471768394112587 4.9657467752695075 9.0708779245614988 5.4667147696018272 6.6901076287031191 5.0036310553550702 5.6891145706176758 4.7642679810523978 4.5283560007810575 5.6949255615472785 4.6743039637804031 5.3098317533731461 6.3693164885044089
leaf_count=21 23 21 21 37 24 29 24 25 20 20 25 22 25 27
internal_value=-0.000120384 0.0105842 0.00430453 0.0196783 -0.014811 -0.010629 -0.0218138 -0.0385881 -0.00804762 -0.0151444 0.000761939 -0.0224339 -0.0407478 0.0415877
internal_weight=81.9064 47.3811 42.2606 26.6021 34.5252 11.1619 15.6585 10.6927 30.4384 25.6741 15.8359 10.141 9.83819 15.4402
internal_count=364 205 184 114 159 50 70 49 136 116 71 46 45 64
is_linear=0
shrinkage=0.05


Tree=12
num_leaves=14
num_cat=0
split_feature=0 7 1 4 4 9 1 1 8 4 9 5 7
split_gain=4.68395 5.53286 6.15732 6.35666 4.46018 3.43858 3.18031 4.39294 5.14923 3.03169 6.95701 2.51504 2.03363
threshold=53.144065643341129 0.0091730094765647627 -0.0037567926945234471 16.286818518459416 14.022866266334946 0.22060123307491433 0.0026167091680908698 0.021607430299171785 0.078842211634851736 14.261802975557307 0.23852639846173951 0.011686464635407989 0.012787809998226653
decision_type=2 2 2 2 2 2 2 2 2 2 2 2 2
left_child=1 -1 3 5 -2 -3 -6 11 -9 -4 -11 -8 -5
right_child=4 2 9 12 6 -7 7 8 -10 10 -12 -13 -14
leaf_value=0.059040363546024426 -0.064228558854316067 0.02076690700085838 -0.049246318175834608 0.054612743572370281 -0.041012050652998538 -0.035201837188486428 -0.0051858199206598612 -0.04352184403798514 0.021802990254213596 -0.046971210521171869 0.038002111328608583 0.042370497158377214 0.017793330155717293
leaf_weight=5.1416606009006491 3.9438569545745841 4.9656464606523532 5.8747193515300742 9.0890264511108381 5.7939710170030621 6.1345444619655609 4.7339446395635623 8.2707071900367719 4.7486910223960868 4.7277965098619443 4.9108022898435593 6.7361743897199631 6.3845763653516761
leaf_count=21 23 22 28 37 27 28 21 39 20 21 21 29 27
internal_value=-0.000129208 0.0100778 0.00409616 0.0187084 -0.0142134 -0.0101643 -0.00769983 0.000181503 -0.0196953 -0.0209341 -0.00367787 0.0227431 0.0394207
internal_weight=81.4561 47.2288 42.0871 26.5738 34.2273 11.1002 30.2835 24.4895 13.0194 15.5133 9.6386 11.4701 15.4736
internal_count=364 205 184 114 159 50 136 109 59 70 42 50 64
is_linear=0
shrinkage=0.05


Tree=13
num_leaves=12
num_cat=0
split_feature=8 2 7 7 0 2 8 3 8 10 1
split_gain=4.28279 6.8942 4.29378 4.10138 3.97726 3.89472 3.71242 3.62799 3.08704 2.71984 1.92922
threshold=0.059226228064531698 0.33171466657705034 0.010053752730313713 0.0094249653765567046 48.069731633138737 -1.7216015974438275 0.066222667130892685 2.0909114422663237 0.077426009445670449 0.76501355409001748 -0.0037567926945234471
decision_type=2 2 2 2 2 2 2 2 2 2 2
left_child=1 3 7 -1 5 -5 -2 -3 -8 -10 -4
right_child=6 2 10 4 -6 -7 8 -9 9 -11 -12
leaf_value=0.037844114550896223 0.056067510475979999 0.014576943786053165 -0.025460431614106521 -0.01575961585259773 -0.03828952658756294 0.031659012813148847 -0.021189424105914276 -0.035869304654920039 0.04829796453249062 0.0017527142813969746 -0.068168971393317193
leaf_weight=8.4110050052404421 4.9645313024520901 7.601029500365259 4.4762730002403259 8.2361778765916878 5.9184296131134024 9.1311691999435407 6.2791185826063183 6.710690438747406 5.4706831723451597 7.3625240921974182 6.4604852497577649
leaf_count=35 21 36 21 36 29 39 27 32 23 31 34
internal_value=-0.00013425 -0.00760911 -0.0271019 0.00791809 -0.00289142 0.00917151 0.0175449 -0.00907704 0.0075384 0.0215945 -0.0506889
internal_weight=81.0221 56.9453 25.2485 31.6968 23.2858 17.3673 24.0769 14.3117 19.1123 12.8332 10.9368
internal_count=364 262 123 139 104 75 102 68 81 54 55
is_linear=0
shrinkage=0.05


Tree=14
num_leaves=15
num_cat=0
split_feature=0 7 1 4 4 10 1 10 10 4 9 10 1 2
split_gain=3.99896 4.67542 5.34965 5.62011 4.14679 4.55816 4.33575 3.23838 3.00532 2.80347 6.36882 2.66313 5.43083 1.62808
threshold=53.144065643341129 0.0091730094765647627 -0.0037567926945234471 16.286818518459416 14.022866266334946 1.3525277165850507 0.0026167091680908698 0.80249914114880883 0.85979662149989367 14.261802975557307 0.23852639846173951 0.85832735628301304 0.021607430299171785 2.2001740215736514
decision_type=2 2 2 2 2 2 2 2 2 2 2 2 2 2
left_child=1 -1 3 7 -2 6 -6 -3 -5 -4 -11 13 -13 -8
right_child=4 2 9 8 5 -7 11 -9 -10 10 -12 12 -14 -15
leaf_value=0.054228163909432164 -0.062967181939729958 -0.04218063572461677 -0.047473494095854801 0.054984890946718823 -0.060112486083093365 0.037734132245830582 0.026439871203778598 0.012780157440168145 0.010111149359970796 -0.045202034846482886 0.036374825707041751 0.013581250549799116 -0.061693776646387088 -0.012553302076744911
leaf_weight=5.153331220149993 3.7336893528699866 4.5614726841449755 5.7240151166915885 9.1991193890571576 4.4900395423173967 4.7695653140544882 6.6434842646121997 6.4983985424041748 6.2772444784641257 4.6518534719943982 4.9262916594743729 4.6483201235532743 4.945248931646347 4.483530193567276
leaf_count=21 23 21 28 38 22 20 30 29 26 21 21 20 24 20
internal_value=-0.000137033 0.00929023 0.00375512 0.0173321 -0.0132771 -0.00708879 -0.0155688 -0.00988757 0.036784 -0.0197893 -0.00324491 -0.0059164 -0.0252212 0.0107279
internal_weight=80.7056 46.9917 41.8384 26.5362 33.7139 29.9802 25.2106 11.0599 15.4764 15.3022 9.57815 20.7206 9.59357 11.127
internal_count=364 205 184 114 159 136 116 50 64 70 42 94 44 50
is_linear=0
shrinkage=0.05


Tree=15
num_leaves=15
num_cat=0
split_feature=5 10 8 8 4 10 2 10 4 9 2 2 6 6
split_gain=3.87139 3.79794 4.2165 6.06327 4.6957 2.95259 2.3569 2.73285 4.09868 3.23149 3.12538 2.17235 1.75444 0.591297
threshold=-0.016726996660013312 1.5487998334993434 0.019895081113833989 0.058682144779403145 21.083512592433419 0.98085459705878419 2.2001740215736514 0.76896958900696077 14.022866266334946 0.38894414653091669 1.4160159939092924 1.8994483012721053 -0.0021992614215928532 0.016685262224010712
decision_type=2 2 2 2 2 2 2 2 2 2 2 2 2 2
left_child=5 2 -2 6 -5 -1 7 8 -4 -10 12 -6 -9 -14
right_child=1 -3 3 4 11 -7 -8 10 9 -11 -12 -13 13 -15
leaf_value=0.049881285447320164 0.026466293000455044 0.029649351917153878 -0.046343544042674822 0.05285304569574354 -0.028857368311463613 -0.00079795078972738067 -0.057802007594059783 -0.022770242635532654 -0.020252405298497388 0.033767571739076505 0.0049493007277620262 0.017402060525961476 -0.070638106507826079 -0.044065357591374262
leaf_weight=6.2585614919662458 7.4909571111202231 7.2207877784967414 4.2023944705724707 5.009271800518035 5.2047644853591901 5.3143562972545624 4.5639342665672293 5.8819627612829128 4.7224732190370542 6.690652459859848 4.2864040583372107 4.9529693126678467 4.5299427658319562 3.8923199027776718
leaf_count=26 32 31 23 21 23 23 24 26 21 30 20 21 23 20
internal_value=-0.000142723 -0.00465258 -0.00868472 -0.0135666 0.0132361 0.0266091 -0.0240519 -0.0195488 -0.00412847 0.0114154 -0.0325014 -0.00630101 -0.0437239 -0.0583576
internal_weight=80.2218 68.6488 61.428 53.9371 15.167 11.5729 38.7701 34.2061 15.6155 11.4131 18.5906 10.1577 14.3042 8.42226
internal_count=364 315 284 252 65 49 187 163 74 51 89 44 69 43
is_linear=0
shrinkage=0.05


end of trees

feature_importances:
Column_4=45
Column_0=28
Column_8=25
Column_7=20
Column_10=19
Column_1=18
Column_2=18
Column_6=13
Column_5=12
Column_9=8
Column_3=7

parameters:
[boosting: gbdt]
[objective: binary]
[metric: auc]
[tree_learner: serial]
[device_type: cpu]
[data_sample_strategy: bagging]
[data: ]
[valid: ]
[num_iterations: 100]
[learning_rate: 0.05]
[num_leaves: 31]
[num_threads: 0]
[seed: 0]
[deterministic: 0]
[force_col_wise: 0]
[force_row_wise: 0]
[histogram_pool_size: -1]
[max_depth: -1]
[min_data_in_leaf: 20]
[min_sum_hessian_in_leaf: 0.001]
[bagging_fraction: 1]
[pos_bagging_fraction: 1]
[neg_bagging_fraction: 1]
[bagging_freq: 0]
[bagging_seed: 3]
[bagging_by_query: 0]
[feature_fraction: 0.8]
[feature_fraction_bynode: 1]
[feature_fraction_seed: 2]
[extra_trees: 0]
[extra_seed: 6]
[early_stopping_round: 0]
[early_stopping_min_delta: 0]
[first_metric_only: 0]
[max_delta_step: 0]
[lambda_l1: 0]
[lambda_l2: 0]
[linear_lambda: 0]
[min_gain_to_split: 0]
[drop_rate: 0.1]
[max_drop: 50]
[skip_drop: 0.5]
[xgboost_dart_mode: 0]
[uniform_drop: 0]
[drop_seed: 4]
[top_rate: 0.2]
[other_rate: 0.1]
[min_data_per_group: 100]
[max_cat_threshold: 32]
[cat_l2: 10]
[cat_smooth: 10]
[max_cat_to_onehot: 4]
[top_k: 20]
[monotone_constraints: ]
[monotone_constraints_method: basic]
[monotone_penalty: 0]
[feature_contri: ]
[forcedsplits_filename: ]
[refit_decay_rate: 0.9]
[cegb_tradeoff: 1]
[cegb_penalty_split: 0]
[cegb_penalty_feature_lazy: ]
[cegb_penalty_feature_coupled: ]
[path_smooth: 0]
[interaction_constraints: ]
[verbosity: -1]
[saved_feature_importance_type: 0]
[use_quantized_grad: 0]
[num_grad_quant_bins: 4]
[quant_train_renew_leaf: 0]
[stochastic_rounding: 1]
[linear_tree: 0]
[max_bin: 255]
[max_bin_by_feature: ]
[min_data_in_bin: 3]
[bin_construct_sample_cnt: 200000]
[data_random_seed: 1]
[is_enable_sparse: 1]
[enable_bundle: 1]
[use_missing: 1]
[zero_as_missing: 0]
[feature_pre_filter: 1]
[pre_partition: 0]
[two_round: 0]
[header: 0]
[label_column: ]
[weight_column: ]
[group_column: ]
[ignore_column: ]
[categorical_feature: ]
[forcedbins_filename: ]
[precise_float_parser: 0]
[parser_config_file: ]
[objective_seed: 5]
[num_class: 1]
[is_unbalance: 0]
[scale_pos_weight: 1]
[sigmoid: 1]
[boost_from_average: 1]
[reg_sqrt: 0]
[alpha: 0.9]
[fair_c: 1]
[poisson_max_delta_step: 0.7]
[tweedie_variance_power: 1.5]
[lambdarank_truncation_level: 30]
[lambdarank_norm: 1]
[label_gain: ]
[lambdarank_position_bias_regularization: 0]
[eval_at: ]
[multi_error_top_k: 1]
[auc_mu_weights: ]
[num_machines: 1]
[local_listen_port: 12400]
[time_out: 120]
[machine_list_filename: ]
[machines: ]
[gpu_platform_id: -1]
[gpu_device_id: -1]
[gpu_use_dp: 0]
[num_gpu: 1]

end of parameters

pandas_categorical:null
