tree
version=v4
num_class=1
num_tree_per_iteration=1
label_index=0
max_feature_idx=10
objective=binary sigmoid:1
feature_names=Column_0 Column_1 Column_2 Column_3 Column_4 Column_5 Column_6 Column_7 Column_8 Column_9 Column_10
feature_infos=[0:79.742939161142942] [-1.4310485501091321:0.64381854139794825] [-10.149812734082401:8.5561497326203284] [-11.6235294117647:8.4981293425975402] [0:70.213171151648254] [-0.086521528048815438:0.066157228095886075] [-0.10818447316559675:0.060944375123136468] [0:0.018596527825054263] [0:0.17793701769074763] [-0.40399313496353767:1.3652691485001678] [0:3.316021626776811]
tree_sizes=2611 2330 2343 2339 2333 2545 2438 2340

Tree=0
num_leaves=24
num_cat=0
split_feature=7 7 4 8 7 6 6 7 10 9 8 7 5 2 8 7 5 4 10 10 10 9 1
split_gain=16.3435 7.8271 11.2157 9.57294 16.5267 13.1334 9.49028 13.3542 7.9339 7.6603 7.28001 7.99558 4.28344 3.48041 3.15112 2.8456 2.68588 1.88902 1.47928 3.01982 1.07371 0.140925 0.134214
threshold=0.015514764157203124 0.011547574361287208 15.99929554244345 0.045452294456423244 0.009936114133280995 -0.032509219818148992 -0.052713178221190475 0.0138646131280827 0.92994512778587091 0.27411930478441326 0.052555435694926933 0.010895778736110981 0.002756205369968073 -2.6366934852343298 0.083756534441190078 0.010137319249906738 0.0009273030085774702 25.304627167274301 0.6869118481548091 0.43695820369508354 1.4949494073803316 0.25063312989855785 0.098366314382460032
decision_type=2 2 2 2 2 2 2 2 2 2 2 2 2 2 2 2 2 2 2 2 2 2 2
left_child=1 2 15 4 -4 8 7 -3 13 -2 -7 17 -6 -5 18 -1 -13 21 19 -8 22 -12 -20
right_child=9 6 3 5 12 10 14 -9 -10 -11 11 16 -14 -15 -16 -17 -18 -19 20 -21 -22 -23 -24
leaf_value=-0.94614307859014102 -0.7751292275593793 -0.79666187367764796 -0.75603153698885273 -0.84865533625590639 -0.9000069042344333 -0.84388091361327489 -0.94161334510794414 -0.920749118159644 -0.88780560192548574 -0.86584325776938031 -0.94161334510794426 -0.8552687957682924 -0.83289974153522206 -0.789414300106133 -0.88121689867865416 -0.89329618796451216 -0.90767629425720031 -0.90976794608159128 -0.95369263439380225 -0.88121689867865416 -0.92148119629818093 -0.95369263439380225 -0.94161334510794426
leaf_weight=6.6229062080383283 4.760213837027548 4.1393163800239545 4.553248018026351 4.7602138370275506 5.5880771130323392 4.5532480180263617 4.1393163800239616 4.5532480180263519 6.829872027039527 4.5532480180263519 4.1393163800239581 5.5880771130323392 4.1393163800239563 5.1741454750299392 4.1393163800239554 4.1393163800239563 4.3462821990251541 4.553248018026351 5.1741454750299436 4.1393163800239563 6.2089745700359336 5.7950429320335388 4.1393163800239563
leaf_count=32 23 20 22 23 27 22 20 22 33 22 20 27 20 25 20 20 21 22 25 20 30 28 20
internal_value=-0.883016 -0.888525 -0.878815 -0.870387 -0.83465 -0.881545 -0.907286 -0.86166 -0.846321 -0.819478 -0.901924 -0.912746 -0.871451 -0.817801 -0.921481 -0.925817 -0.878197 -0.936437 -0.928484 -0.911415 -0.937587 -0.94866 -0.948324
internal_weight=116.729 107.415 70.7823 60.0201 14.2806 45.7394 36.6329 8.69256 16.7642 9.31346 28.9752 24.422 9.72739 9.93436 27.9404 10.7622 9.93436 14.4876 23.8011 8.27863 15.5224 9.93436 9.31346
internal_count=564 519 342 290 69 221 177 42 81 45 140 118 47 48 135 52 48 70 115 40 75 48 45
is_linear=0
shrinkage=1


Tree=1
num_leaves=21
num_cat=0
split_feature=7 7 4 8 7 1 0 4 4 8 7 9 0 5 7 0 8 4 1 7
split_gain=14.4018 7.14023 10.2344 8.41492 13.8285 10.9253 8.6122 8.55251 11.2603 14.5338 13.5316 6.40229 4.79294 12.7715 4.71014 11.2192 4.41146 4.06747 2.90909 1.26085
threshold=0.015514764157203124 0.011547574361287208 15.99929554244345 0.045452294456423244 0.009936114133280995 -0.43434504202022944 30.927085518157337 20.586513461908659 27.676245467483302 0.057590997419697178 0.010829735298388172 0.27411930478441326 57.229263027553579 0.0087144757758130225 0.0138646131280827 34.285903901254507 0.062259467245404564 21.809963269395436 -1.0000000180025095e-35 0.010555207192473328
decision_type=2 2 2 2 2 2 2 2 2 2 2 2 2 2 2 2 2 2 2 2
left_child=1 2 18 4 -4 6 -5 19 9 -9 -11 -2 13 14 15 -3 -17 -6 -1 -7
right_child=11 12 3 5 17 7 -8 8 -10 10 -12 -13 -14 -15 -16 16 -18 -19 -20 -21
leaf_value=-0.062161032118144478 0.098132538671253544 0.05324483778353855 0.11467824326902232 -0.0026744644321479646 0.04382801949342386 -0.033607625472118791 0.080817472279069352 0.089146502370056446 -0.054758250436383639 -0.049621436866151863 0.059354202272615397 0.016196192073128782 -0.057565282615499147 0.0636882589459946 -0.069869797369006781 -0.063493297489544312 -0.0072669970618393911 -0.020699283396276788 -0.0082311709165050189 -0.07073788558980687
leaf_weight=6.5066106915473938 4.9659756422042829 4.4083151668310263 4.7833018898963919 5.8436501175165088 4.7892374694347364 4.0966655462980324 6.5512352287769318 5.6192195713520112 6.3817110210657111 7.490479648113249 4.5966866016387939 4.5855244100093842 7.9737928062677375 4.4881530106067649 5.290844500064849 7.739603251218794 6.3513158708810806 4.9833291471004486 4.0614233016967756 5.1740568280220032
leaf_count=32 23 21 22 28 23 20 31 27 31 37 22 22 39 22 26 38 31 24 20 25
internal_value=-3.36108e-05 -0.00527878 0.00395295 0.0119063 0.0450191 0.00137194 0.0414547 -0.0135213 0.00218476 0.0227081 -0.00817857 0.0587962 -0.0233281 -0.013674 -0.0282688 -0.0163708 -0.03815 0.0109236 -0.0414351 -0.0543303
internal_weight=116.681 107.13 70.8776 60.3096 14.5559 45.7537 12.3949 33.3588 24.0881 17.7064 12.0872 9.5515 36.252 28.2782 23.7901 18.4992 14.0909 9.77257 10.568 9.27072
internal_count=564 519 342 290 69 221 59 162 117 86 59 45 177 138 116 90 69 47 52 45
is_linear=0
shrinkage=0.05


Tree=2
num_leaves=21
num_cat=0
split_feature=6 8 8 0 4 5 6 4 1 1 4 4 10 9 9 4 10 10 10 1
split_gain=8.76113 7.2964 7.81813 7.15318 15.6408 10.733 9.45804 8.37382 7.01563 6.42282 5.99639 6.44293 4.85775 4.57262 13.5494 3.71496 4.57443 2.56549 0.163805 0.00160005
threshold=-0.051250222699712474 0.099388989985322668 0.03233821074015026 46.736056507202697 28.231383703486358 0.022784183512322528 -0.027807668066267794 20.586513461908659 -0.76490032400876007 -1.0523292273831399 19.832605345678804 23.960173390724108 0.69067545282215115 0.17589172740948519 0.055569983332655934 25.086046085949754 0.77651559708292794 0.73478815315125645 1.5299225910703111 -0.11934647591633406
decision_type=2 2 2 2 2 2 2 2 2 2 2 2 2 2 2 2 2 2 2 2
left_child=8 2 -2 6 5 10 7 12 9 -1 -5 -12 -4 14 -9 18 -17 -6 19 -8
right_child=1 -3 3 4 17 -7 15 13 -10 -11 11 -13 -14 -15 -16 16 -18 -19 -20 -21
leaf_value=0.042602488291138378 0.03792748732985575 0.058449751346668799 0.0020359901222402228 0.082414425048380952 -0.02017909356091558 -0.038625107605273545 -0.068835532429045262 0.060454480498217958 0.067504472104268007 -0.038195596059917479 -0.0044292582458478882 0.073184587892524147 -0.062599507480790698 0.04575127468873727 -0.060780445050707212 0.0076697930431353367 -0.059460993487494743 -0.069618757156153135 -0.057353501473353288 -0.070159926140644424
leaf_weight=5.1749917566776285 8.1939164698123914 4.2197947055101386 4.7789207249879819 6.7830015271902147 5.054449260234831 4.8396627306938163 5.1641671359539023 4.1759645342826861 7.8684343546628943 4.6874879449605951 7.4899635165929777 4.1584573537111282 7.4208942651748657 7.6282064318656913 5.1429599523544312 5.1235297024250013 5.0280195474624634 5.4568400382995605 4.0413627028465262 4.0841562300920549
leaf_count=24 39 20 23 32 25 24 26 20 37 23 36 20 37 36 25 25 25 27 20 20
internal_value=-6.9346e-05 -0.00587807 -0.0087486 -0.0131767 0.00477622 0.0276414 -0.0247096 -0.00569356 0.0322928 0.00420038 0.0450414 0.0232787 -0.0372804 0.017045 -0.00645307 -0.0483542 -0.0255798 -0.0458452 -0.0657509 -0.0694204
internal_weight=116.515 98.7843 94.5645 86.3706 33.7824 23.2711 52.5882 29.1469 17.7309 9.86248 18.4314 11.6484 12.1998 16.9471 9.31892 23.4412 10.1515 10.5113 13.2897 9.24832
internal_count=564 480 460 421 164 112 257 141 84 47 88 56 60 81 45 116 50 52 66 46
is_linear=0
shrinkage=0.05


Tree=3
num_leaves=21
num_cat=0
split_feature=4 1 0 8 6 4 9 3 10 10 8 4 8 10 10 1 1 1 0 10
split_gain=8.02869 7.64277 10.8324 11.4215 9.41699 11.7355 8.30986 6.23486 5.87533 7.57438 5.61804 9.10959 7.01255 6.20231 4.75661 4.40788 2.38183 1.06078 0.452546 0.167559
threshold=44.129765921556064 -0.43434504202022944 44.223282610092561 0.052555435694926933 -0.024638750545345273 20.586513461908659 0.80312637690523547 -2.8343490671709111 0.60922962754306198 1.1867441784257713 0.073947584107145498 27.676245467483302 0.089586297337617721 0.75367679456628733 0.69067545282215115 0.15881956114804655 0.31237213224734367 -0.34725448803652265 38.029202847317471 1.299330630121889
decision_type=2 2 2 2 2 2 2 2 2 2 2 2 2 2 2 2 2 2 2 2
left_child=1 10 4 8 5 17 14 -7 -4 -10 11 13 -12 -1 -5 -16 -8 -3 -6 -20
right_child=-2 2 3 6 18 7 16 -9 9 -11 12 -13 -14 -15 15 -17 -18 -19 19 -21
leaf_value=0.048037964858850778 0.060578045655070828 -0.033391627671121846 -0.0093205135257103319 0.042123124585633012 -0.04746903390160722 -0.003923794906687701 -0.069273411049848049 0.072132345951810548 0.092155475918324098 0.013827011773539975 -0.051608820868737998 0.099902043997689677 0.023436027219124266 -0.021139435040355183 0.018992330408450837 -0.048185144382685077 -0.020306663640537046 -0.068672237604603004 -0.068752965818918876 -0.055751837065343403
leaf_weight=7.0376069396734291 5.2082276344299308 4.182179793715477 4.804745793342593 6.1971827000379589 6.8316224664449718 6.7509308904409409 6.2029996365308744 4.4846744537353498 6.6496550142765027 5.7596554607152939 5.169759199023245 4.3281455785036078 7.8244474679231644 6.0047803223133087 4.9909755140542966 4.7810102701187134 4.1414852887392044 4.3430775403976458 6.7193405479192716 3.9263994544744492
leaf_count=33 24 21 23 30 34 33 31 21 31 27 25 20 37 29 24 24 21 22 34 20
internal_value=-9.58561e-05 -0.00293939 -0.0109793 0.00595751 -0.0307766 -0.00713015 -0.0147582 0.0264339 0.0376238 0.0558001 0.0184455 0.0370469 -0.00642065 0.0161883 0.00785647 -0.0138747 -0.0496692 -0.0513649 -0.0575126 -0.0639578
internal_weight=116.339 111.131 80.7659 43.5277 37.2382 19.7609 26.3137 11.2356 17.2141 12.4093 30.3647 17.3705 12.9942 13.0424 15.9692 9.77199 10.3445 8.52526 17.4774 10.6457
internal_count=564 540 396 211 185 97 130 54 81 58 144 82 62 62 78 48 52 43 88 54
is_linear=0
shrinkage=0.05


Tree=4
num_leaves=21
num_cat=0
split_feature=7 7 4 8 7 1 4 4 8 7 2 0 0 5 7 0 8 4 7 7
split_gain=11.4259 6.15681 8.68334 6.60496 10.6477 8.43284 7.41827 9.58611 11.7221 11.2449 6.97667 5.00749 4.25544 11.0643 4.42413 9.68394 4.25295 3.4884 2.65821 1.27434
threshold=0.015514764157203124 0.011547574361287208 15.99929554244345 0.045452294456423244 0.009936114133280995 -0.43434504202022944 20.586513461908659 27.676245467483302 0.057590997419697178 0.010829735298388172 -2.6366934852343298 35.860177116363552 57.229263027553579 0.0087144757758130225 0.0138646131280827 34.285903901254507 0.062259467245404564 21.809963269395436 0.010137319249906738 0.010555207192473328
decision_type=2 2 2 2 2 2 2 2 2 2 2 2 2 2 2 2 2 2 2 2
left_child=1 2 18 4 -4 10 19 8 -8 -10 -5 -2 13 14 15 -3 -17 -6 -1 -7
right_child=11 12 3 5 17 6 7 -9 9 -11 -12 -13 -14 -15 -16 16 -18 -19 -20 -21
leaf_value=-0.059667649860262253 0.081974649654222256 0.048016727066399173 0.098452334894679971 0.001141783108544431 0.039241415835145461 -0.030055908117862698 0.078490483723579238 -0.051927737589839075 -0.04719282838136566 0.051753465674999832 0.075174002417396246 0.010160950041622159 -0.055048571941376037 0.05772868080159526 -0.068193476603091108 -0.061841663207121061 -0.0059465416086586231 -0.020234723459712726 -0.0074164704427428126 -0.068359610449748892
leaf_weight=6.1731402575969678 5.6675825864076597 4.5264286696910956 5.0829260051250449 6.7981452494859695 4.9081497341394407 3.9045155197382027 5.896113768219954 6.0736171305179587 7.1838013082742673 4.783331111073494 5.9831826984882266 4.2459660470485687 7.6032766699790946 4.6313246786594382 5.0711128413677207 7.4548255056142789 6.2616123110055923 4.9535117745399475 4.0186716318130493 4.8919950872659683
leaf_count=32 25 21 22 32 23 20 27 31 37 22 27 20 39 22 26 38 31 24 20 25
internal_value=-0.000118995 -0.00491111 0.0036285 0.0108254 0.0396662 0.00135567 -0.0120928 0.00233655 0.0207868 -0.00764343 0.0357977 0.0512169 -0.0218832 -0.0128596 -0.026882 -0.0153983 -0.0363253 0.00936656 -0.0390648 -0.0513577
internal_weight=116.113 106.2 70.6511 60.4593 14.9446 45.5147 32.7334 23.9369 17.8632 11.9671 12.7813 9.91355 35.5486 27.9453 23.314 18.2429 13.7164 9.86166 10.1918 8.79651
internal_count=564 519 342 290 69 221 162 117 86 59 59 45 177 138 116 90 69 47 52 45
is_linear=0
shrinkage=0.05


Tree=5
num_leaves=23
num_cat=0
split_feature=5 4 3 3 9 4 2 5 10 10 8 8 10 8 4 10 10 8 0 5 9 1
split_gain=6.82156 7.96109 16.9217 14.5135 13.6492 12.159 13.8681 10.9445 5.92818 4.14354 4.05274 5.21685 3.97929 3.9761 5.86576 2.51372 4.24578 3.07157 2.44419 0.947012 0.179799 0.00241422
threshold=-0.029510083796929491 24.525157392776467 0.054486839241435624 -2.6415067405914416 0.58813983438710904 21.914503391823114 2.7647242733924871 -0.011905272670336845 1.3416174882230512 0.76435459296172525 0.063122851902298091 0.076282326971453887 0.21626299786651063 0.092064337402632687 30.104934329392822 0.59862002528153802 1.0672075720179193 0.056407209997452877 42.183790491956081 -0.040399414075918169 0.60564057988032205 -0.35203793529887401
decision_type=2 2 2 2 2 2 2 2 2 2 2 2 2 2 2 2 2 2 2 2 2 2
left_child=8 4 3 10 12 6 -6 -5 19 -9 -3 -12 -2 14 -4 -14 17 -17 21 -1 -16 -18
right_child=1 2 13 7 5 -7 -8 9 -10 -11 11 -13 15 -15 20 16 18 -19 -20 -21 -22 -23
leaf_value=0.039241699664081732 0.012853374866791107 -0.034238994013848799 0.0069281039775096562 0.0071258344390529365 0.10010846479427452 -0.041902157254014381 -0.01514291558355855 0.13707625996420619 -0.014648138528183932 0.070170035758141347 0.056050275430280572 -0.01530401005263763 -0.069233909327700072 0.015978088787790373 -0.053851000440944222 0.0083694090133644827 -0.06859798655830214 -0.038351275385196892 -0.025796761798211873 0.071443537330694584 -0.067878654640941685 -0.066958361748820736
leaf_weight=4.3598718941211692 4.132139414548873 5.3827479779720333 4.4927867799997356 4.4774228483438483 6.2281792610883695 5.1119021326303473 4.493169978260994 4.4549646973609907 4.3759057074785224 4.8153755068778992 4.9784343093633634 5.276561975479126 5.7547114044427863 4.0607545822858802 3.7750667482614499 7.5330300629138964 3.9072560667991576 6.6001051366329193 5.6219958215951911 4.7932391464710227 5.7846756726503372 5.2773494273424193
leaf_count=20 20 26 22 22 28 25 22 20 21 22 23 25 29 20 20 37 20 34 28 22 30 28
internal_value=-0.000143435 -0.00456182 0.0104113 0.0338419 -0.0175733 0.021553 0.0518082 0.0713185 0.0332201 0.102323 0.000894642 0.0193359 -0.0335287 -0.0276006 -0.0401935 -0.0390529 -0.0330513 -0.0134489 -0.0517622 0.0561049 -0.0623392 -0.0676559
internal_weight=115.688 102.159 47.4988 29.3855 54.6598 15.8333 10.7213 13.7478 13.529 9.27034 15.6377 10.255 38.8266 18.1133 14.0525 34.6944 28.9397 14.1331 14.8066 9.15311 9.55974 9.18461
internal_count=564 501 230 138 271 75 50 64 63 42 74 48 196 92 72 176 147 71 76 42 50 48
is_linear=0
shrinkage=0.05


Tree=6
num_leaves=22
num_cat=0
split_feature=7 7 4 6 7 6 0 7 3 1 6 7 3 0 0 0 9 6 9 9 3
split_gain=9.42266 5.33242 7.66424 7.25911 9.84011 5.14159 11.8342 11.8204 9.40891 6.81468 5.19634 5.03118 5.26315 4.30723 9.15785 4.12985 2.48986 1.38913 1.11415 0.648159 0.0012631
threshold=0.015514764157203124 0.011547574361287208 15.99929554244345 -0.052713178221190475 0.0138646131280827 -0.032509219818148992 44.469366644610581 0.010137319249906738 1.0134471207671039 -0.17383278352778572 -0.024638750545345273 0.01015757313633687 -3.9549215585065647 46.736056507202697 57.229263027553579 35.860177116363552 0.28101618706729098 0.029806628039681343 0.16433690139840201 0.28101618706729098 -0.3282439644660472
decision_type=2 2 2 2 2 2 2 2 2 2 2 2 2 2 2 2 2 2 2 2 2
left_child=1 2 16 4 -3 11 10 -8 9 -9 -7 -4 -13 18 -15 -2 -1 -10 -5 -12 -20
right_child=15 3 5 13 -6 6 7 8 17 -11 19 12 -14 14 -16 -17 -18 -19 20 -21 -22
leaf_value=-0.057962748319006857 0.073164138165908596 0.071132131964907794 -0.0093161363985027161 -0.036202622917687728 -0.034813815090803835 0.0019902008790799153 0.08116044742879619 -0.011463893231549539 -0.057916280849406636 0.068462569955908936 -0.067335196255135274 0.011136891297538216 0.07335396825082463 0.02814964699469065 -0.053204014500447629 0.0085641366248518421 -0.0068394906913901363 -0.01677716719110264 -0.067907639978423862 -0.040748705555543538 -0.066615912106400305
leaf_weight=5.9293920993804914 5.8549749553203565 4.4351026713848096 5.4989152699708965 4.662088483572008 4.3326929062604904 6.1168367415666571 6.1989889889955547 4.8578295111656162 4.3644680231809598 5.913091287016873 5.8644303083419782 5.871042028069497 8.0732289105653727 6.5619505643844587 7.3159277737140656 4.2844859808683395 3.9804720282554626 3.8728001564741135 3.846322774887085 3.7637090384960175 3.7255819141864777
leaf_count=32 25 20 26 24 22 30 27 23 22 27 31 27 37 32 39 20 20 20 20 20 20
internal_value=-0.000165561 -0.00460295 0.00332659 -0.0205861 0.0187779 0.0100138 -3.84587e-05 0.0212043 0.00165126 0.0324147 -0.0340474 0.0311862 0.0471583 -0.0338037 -0.0147371 0.045867 -0.0374282 -0.0385745 -0.0554322 -0.0569423 -0.0672721
internal_weight=115.324 105.185 70.3052 34.8797 8.7678 60.3953 40.9522 25.2072 19.0082 10.7709 15.745 19.4432 13.9443 26.1119 13.8779 10.1395 9.90986 8.23727 12.234 9.62814 7.5719
internal_count=564 519 342 177 42 290 200 119 92 50 81 90 64 135 71 45 52 42 64 51 40
is_linear=0
shrinkage=0.05


Tree=7
num_leaves=21
num_cat=0
split_feature=4 1 0 6 4 4 4 4 6 4 5 10 1 4 4 3 3 1 0 10
split_gain=7.21393 5.67627 8.58981 7.99907 9.54386 7.99091 9.45467 8.22973 5.64363 5.58769 4.36754 6.93086 4.11475 6.0936 4.10108 2.95867 1.92458 1.03876 0.51961 0.187556
threshold=46.713950175077152 -0.43434504202022944 44.223282610092561 -0.024638750545345273 20.586513461908659 28.751118179591284 25.086046085949754 20.895529394693025 -0.0016118477166669782 23.521238921341549 -0.0092992898429372518 1.4108897043169257 -0.51707891740332801 35.283428644674707 33.979954814069622 1.3951184755880333 -4.7546916635622241 -0.34725448803652265 38.029202847317471 1.299330630121889
decision_type=2 2 2 2 2 2 2 2 2 2 2 2 2 2 2 2 2 2 2 2
left_child=1 10 3 4 17 6 7 8 -4 -6 11 12 13 16 -7 -9 -1 -3 -5 -20
right_child=-2 2 5 18 9 14 -8 15 -10 -11 -12 -13 -14 -15 -16 -17 -18 -19 19 -21
leaf_value=-0.047562577671990305 0.064618885018488378 -0.030058656291809635 -0.0031498168723237104 -0.042575734676808294 0.068735218343183191 -0.058381126338497381 0.078425786984750445 0.00029350897726786282 0.060409838926102778 -0.0037579833837541065 0.058620818976149174 -0.043022811216971157 0.049841795274998796 0.04371822860326316 -0.0012841683335143338 -0.051503222812680341 0.0007692752575235687 -0.066110301446216269 -0.066083596577790199 -0.051805888336375498
leaf_weight=4.1383020132780128 4.1398910731077185 3.9765319973230362 6.4351936429739007 6.2859085798263576 4.2216505557298643 5.9689106196165067 5.4907691627740851 5.3641168773174268 7.6375035792589232 7.1772529482841492 4.9022776484489432 5.4543571174144736 7.5419428497552898 5.705183118581771 6.6473268568515778 5.672359824180603 4.1007656455039978 4.0158073157072094 6.3736518919467908 3.5989395827054977
leaf_count=20 18 21 31 34 20 32 25 25 35 34 23 27 34 25 34 29 20 22 35 20
internal_value=-0.000183274 -0.00260651 -0.00980054 -0.0279687 -0.00628177 0.00518672 0.0189921 0.00599543 0.0313451 0.0230903 0.0152111 0.00731199 0.0200897 0.00399783 -0.0282975 -0.0263282 -0.0235067 -0.0481731 -0.0538344 -0.060931
internal_weight=114.849 110.709 78.8659 35.6497 19.3912 43.2162 30.5999 25.1092 14.0727 11.3989 31.8428 26.9406 21.4862 13.9443 12.6162 11.0365 8.23907 7.99234 16.2585 9.97259
internal_count=564 546 397 186 97 211 145 120 66 54 149 126 99 65 66 54 40 43 89 55
is_linear=0
shrinkage=0.05


end of trees

feature_importances:
Column_4=30
Column_7=24
Column_10=20
Column_8=18
Column_0=16
Column_1=16
Column_6=11
Column_9=11
Column_5=9
Column_3=8
Column_2=3

parameters:
[boosting: gbdt]
[objective: binary]
[metric: auc]
[tree_learner: serial]
[device_type: cpu]
[data_sample_strategy: bagging]
[data: ]
[valid: ]
[num_iterations: 100]
[learning_rate: 0.05]
[num_leaves: 31]
[num_threads: 0]
[seed: 0]
[deterministic: 0]
[force_col_wise: 0]
[force_row_wise: 0]
[histogram_pool_size: -1]
[max_depth: -1]
[min_data_in_leaf: 20]
[min_sum_hessian_in_leaf: 0.001]
[bagging_fraction: 1]
[pos_bagging_fraction: 1]
[neg_bagging_fraction: 1]
[bagging_freq: 0]
[bagging_seed: 3]
[bagging_by_query: 0]
[feature_fraction: 0.8]
[feature_fraction_bynode: 1]
[feature_fraction_seed: 2]
[extra_trees: 0]
[extra_seed: 6]
[early_stopping_round: 0]
[early_stopping_min_delta: 0]
[first_metric_only: 0]
[max_delta_step: 0]
[lambda_l1: 0]
[lambda_l2: 0]
[linear_lambda: 0]
[min_gain_to_split: 0]
[drop_rate: 0.1]
[max_drop: 50]
[skip_drop: 0.5]
[xgboost_dart_mode: 0]
[uniform_drop: 0]
[drop_seed: 4]
[top_rate: 0.2]
[other_rate: 0.1]
[min_data_per_group: 100]
[max_cat_threshold: 32]
[cat_l2: 10]
[cat_smooth: 10]
[max_cat_to_onehot: 4]
[top_k: 20]
[monotone_constraints: ]
[monotone_constraints_method: basic]
[monotone_penalty: 0]
[feature_contri: ]
[forcedsplits_filename: ]
[refit_decay_rate: 0.9]
[cegb_tradeoff: 1]
[cegb_penalty_split: 0]
[cegb_penalty_feature_lazy: ]
[cegb_penalty_feature_coupled: ]
[path_smooth: 0]
[interaction_constraints: ]
[verbosity: -1]
[saved_feature_importance_type: 0]
[use_quantized_grad: 0]
[num_grad_quant_bins: 4]
[quant_train_renew_leaf: 0]
[stochastic_rounding: 1]
[linear_tree: 0]
[max_bin: 255]
[max_bin_by_feature: ]
[min_data_in_bin: 3]
[bin_construct_sample_cnt: 200000]
[data_random_seed: 1]
[is_enable_sparse: 1]
[enable_bundle: 1]
[use_missing: 1]
[zero_as_missing: 0]
[feature_pre_filter: 1]
[pre_partition: 0]
[two_round: 0]
[header: 0]
[label_column: ]
[weight_column: ]
[group_column: ]
[ignore_column: ]
[categorical_feature: ]
[forcedbins_filename: ]
[precise_float_parser: 0]
[parser_config_file: ]
[objective_seed: 5]
[num_class: 1]
[is_unbalance: 0]
[scale_pos_weight: 1]
[sigmoid: 1]
[boost_from_average: 1]
[reg_sqrt: 0]
[alpha: 0.9]
[fair_c: 1]
[poisson_max_delta_step: 0.7]
[tweedie_variance_power: 1.5]
[lambdarank_truncation_level: 30]
[lambdarank_norm: 1]
[label_gain: ]
[lambdarank_position_bias_regularization: 0]
[eval_at: ]
[multi_error_top_k: 1]
[auc_mu_weights: ]
[num_machines: 1]
[local_listen_port: 12400]
[time_out: 120]
[machine_list_filename: ]
[machines: ]
[gpu_platform_id: -1]
[gpu_device_id: -1]
[gpu_use_dp: 0]
[num_gpu: 1]

end of parameters

pandas_categorical:null
