tree
version=v4
num_class=1
num_tree_per_iteration=1
label_index=0
max_feature_idx=10
objective=binary sigmoid:1
feature_names=Column_0 Column_1 Column_2 Column_3 Column_4 Column_5 Column_6 Column_7 Column_8 Column_9 Column_10
feature_infos=[0:81.874054288364633] [-2.0246160786646925:1.5114452192565579] [-6.391506878994698:6.6384330333509745] [-8.3429008802143123:6.5330363771343682] [0:69.1697371579058] [-0.053569569033486544:0.053824302887529145] [-0.076422795701005936:0.052470253852369912] [0:0.014072254852134891] [0:0.12516173375921746] [-0.43306165303905864:1.5368581827836312] [0:3.9575460716745314]
tree_sizes=1464 1603 1506 1705 1711 1708 1719 1711 1604 1603 1715 1835 1612 1503 1616 1713 1717 1727

Tree=0
num_leaves=13
num_cat=0
split_feature=1 1 2 7 8 6 7 5 5 2 5 2
split_gain=22.2593 16.523 17.8972 10.8326 22.8023 7.15112 6.64068 6.45256 2.91897 0.757223 0.564721 0.145895
threshold=-0.99901731379222258 -0.36827658958864612 1.1917498553058075 0.0068333006018709815 0.039168653660645737 -0.012130806129256728 0.0093664854397742404 -0.014898116984265177 0.00085316668513148283 0.9882762549047831 0.014221077591134198 -0.047320068981789337
decision_type=2 2 2 2 2 2 2 2 2 2 2 2
left_child=6 7 3 8 5 -5 -1 -2 -3 -9 -4 -7
right_child=1 2 10 4 -6 11 -8 9 -10 -11 -12 -13
leaf_value=-1.1055453091772578 -1.1382904690932421 -1.0385309459981358 -1.2090060804011655 -1.1250798603873662 -1.0565812543466917 -1.2090060804011655 -1.0180739298697721 -1.2090060804011655 -1.097422356064637 -1.1842096972152703 -1.1830289170635611 -1.1953680696489231
leaf_weight=5.3160246312618238 4.9494022428989437 4.399468660354616 4.5827798545360547 4.7660910487174979 6.232580602169036 4.2161574661731711 3.6662238836288452 13.015094786882402 4.0328462719917297 4.0328462719917288 3.8495350778102875 3.6662238836288488
leaf_count=29 27 24 25 26 34 23 20 71 22 22 21 20
internal_value=-1.14306 -1.15445 -1.13347 -1.11381 -1.13486 -1.17343 -1.06984 -1.18855 -1.0667 -1.20314 -1.19715 -1.20266
internal_weight=66.7253 57.743 35.7457 27.3134 18.8811 12.6485 8.98225 21.9973 8.43231 17.0479 8.43231 7.88238
internal_count=364 315 195 149 103 69 49 120 46 93 46 43
is_linear=0
shrinkage=1


Tree=1
num_leaves=14
num_cat=0
split_feature=1 1 2 3 0 3 7 1 5 2 2 3 0
split_gain=19.4598 15.2766 16.2833 11.5923 10.6159 9.46257 7.53174 6.40516 6.1506 2.53444 0.748641 0.616118 3.55271e-15
threshold=-0.99901731379222258 -0.36827658958864612 1.1917498553058075 0.69669562709858412 35.407598049185658 -5.0354446413195815 0.0082949947319130388 -0.23543294203241769 -0.014898116984265177 -0.37845270408818305 0.9882762549047831 2.4534077981476572 40.830708385350981
decision_type=2 2 2 2 2 2 2 2 2 2 2 2 2
left_child=5 8 3 4 -3 -1 -5 -6 -2 -9 12 -4 -10
right_child=1 2 11 6 7 -7 -8 9 10 -11 -12 -13 -14
leaf_value=0.017406938102288105 0.0045234616947092679 0.075932480005716105 -0.064985834510242771 0.10457033458075488 0.03573050252175413 0.11819401315462624 0.017378327976950918 -0.014861624860898795 -0.064924691848504926 -0.066036645363163907 -0.039962618127403038 -0.037348419973483885 -0.06492469184850494
leaf_weight=4.7361540794372559 4.9615993201732662 3.8355636298656526 4.6127939820289594 6.1396965682506544 3.9122789204120627 4.5817632079124433 4.1514315903186798 4.90953381359577 7.6124423742294329 4.7700240463018417 3.9468320608139029 3.5828387290239334 4.9569392204284668
leaf_count=25 27 20 26 33 21 24 22 27 43 26 22 20 28
internal_value=-5.54565e-05 -0.0109367 0.00901224 0.0273191 0.00247148 0.0669655 0.0693972 -0.0182589 -0.0442943 -0.0400803 -0.0589596 -0.0529037 -0.0649247
internal_weight=66.7099 57.392 35.9142 27.7185 17.4274 9.31792 10.2911 13.5918 21.4778 9.67956 16.5162 8.19563 12.5694
internal_count=364 315 195 149 94 49 55 74 120 53 93 46 71
is_linear=0
shrinkage=0.05


Tree=2
num_leaves=13
num_cat=0
split_feature=1 1 2 8 8 2 6 5 8 4 4 0
split_gain=17.2684 15.7626 14.8416 8.73839 11.6622 6.34091 4.63596 3.42701 1.40031 0.806862 0.604339 4.6757e-05
threshold=-0.96476396506309203 -0.36827658958864612 1.1917498553058075 0.039168653660645737 0.030453743860259171 -3.1729184677225857 -0.0059769413906504464 -0.014898116984265177 0.021155463084727055 23.365406700119248 20.482344137868157 42.710703157870576
decision_type=2 2 2 2 2 2 2 2 2 2 2 2
left_child=5 7 3 4 6 -1 -3 -2 -8 11 -4 -9
right_child=1 2 10 -5 -6 -7 8 9 -10 -11 -12 -13
leaf_value=0.018599212818684607 -0.0070783402873875233 0.0034272362462619763 -0.036716439724850197 0.07585720607935359 -0.043699428633958037 0.095627023808360301 0.039933968673216767 -0.063986496401244611 0.081220854543090276 -0.037236185973545992 -0.064375677858090105 -0.064204717687597987
leaf_weight=5.2086246311664581 4.2363838255405453 6.4004447460174569 3.6278101354837409 6.6055890619754782 6.8574999719858161 5.4855584204196912 4.1876115500927007 8.5402831435203534 4.0302740037441254 3.6633373200893393 4.3344006091356277 3.4447701573371878
leaf_count=27 23 34 21 34 38 28 22 50 21 21 25 20
internal_value=-0.00010351 -0.0112347 0.00848107 0.0255656 0.0100968 0.0581105 0.0353328 -0.046972 0.0601822 -0.0577722 -0.0517733 -0.0640492
internal_weight=66.6226 55.9284 36.0436 28.0814 21.4758 10.6942 14.6183 19.8848 8.21789 15.6484 7.96221 11.9851
internal_count=364 309 195 149 115 55 77 114 43 91 46 70
is_linear=0
shrinkage=0.05


Tree=3
num_leaves=15
num_cat=0
split_feature=1 1 2 3 0 1 3 0 4 0 2 3 4 9
split_gain=15.2602 14.6318 13.552 9.25177 8.75288 5.85901 5.3293 3.97388 3.04766 3.94624 2.44221 0.632559 0.000898676 5.43875e-05
threshold=-0.96476396506309203 -0.36827658958864612 1.1917498553058075 0.69669562709858412 35.407598049185658 -0.23543294203241769 -5.0354446413195815 52.159117905431593 18.730154330547411 43.364299579115958 -0.37845270408818305 2.4534077981476572 16.054143939334246 0.15800089011500099
decision_type=2 2 2 2 2 2 2 2 2 2 2 2 2 2
left_child=6 8 3 4 -3 -6 -1 -5 12 -10 -7 -4 13 -2
right_child=1 2 11 7 5 10 -8 -9 9 -11 -12 -13 -14 -15
leaf_value=0.017416475567168941 -0.063434510874734382 0.065965434595997005 -0.063368436907245293 0.091110441492785854 0.033039888116300729 -0.014468883666125646 0.087152069513071348 0.030593590520154021 0.0047419873530924039 -0.063916376684337056 -0.06517478929722724 -0.034563743307719171 -0.064238898876231007 -0.063151502908845747
leaf_weight=5.261796310544014 3.330742299556734 4.0532478094101014 4.3270292729139319 5.3212879002094251 3.9884779751300803 4.8757825642824164 5.7157188355922681 5.533689558506012 5.0474008023738843 3.5752975940704346 4.6293398290872565 3.4064157009124756 3.9473056048154831 3.4623113721609116
leaf_count=27 20 20 26 27 21 27 28 28 29 21 26 20 23 21
internal_value=-0.000138952 -0.0107934 0.00799979 0.0239777 0.00153245 -0.0178221 0.0537261 0.0602599 -0.0458652 -0.0237264 -0.0391645 -0.0506806 -0.0636389 -0.0632903
internal_weight=66.4758 55.4983 36.1353 28.4018 17.5468 13.4936 10.9775 10.855 19.3631 8.6227 9.50512 7.73344 10.7404 6.79305
internal_count=364 309 195 149 94 74 55 55 114 50 53 46 64 41
is_linear=0
shrinkage=0.05


Tree=4
num_leaves=15
num_cat=0
split_feature=1 1 2 3 0 3 7 5 1 2 2 3 4 4
split_gain=13.59 12.1883 12.3916 8.02472 7.73662 6.32138 6.03622 5.53611 5.36237 2.35701 0.787462 0.625552 0.00109331 4.90222e-08
threshold=-0.99901731379222258 -0.36827658958864612 1.1917498553058075 0.69669562709858412 35.407598049185658 -5.0354446413195815 0.0082949947319130388 -0.014898116984265177 -0.23543294203241769 -0.37845270408818305 0.9882762549047831 2.4534077981476572 18.730154330547411 14.703560257001007
decision_type=2 2 2 2 2 2 2 2 2 2 2 2 2 2
left_child=5 7 3 4 -3 -1 -5 -2 -6 -10 12 -4 13 -9
right_child=1 2 11 6 8 -7 -8 10 9 -11 -12 -13 -14 -15
leaf_value=0.012756963219994925 0.0048279944172137891 0.060905846007156983 -0.06254766678246558 0.085404719344193497 0.030879519155393026 0.091971401320925933 0.010139837976698067 -0.062314530241345215 -0.013853007371684368 -0.06421909857484992 -0.035951640768525542 -0.033506445687621997 -0.063388951218214654 -0.062306555755242313
leaf_weight=4.9222985208034515 4.9432218074798611 4.1673539131879869 4.1686327010393134 6.746955141425131 4.0524274706840506 5.1571987122297269 4.4019406586885452 4.9155366867780668 4.8388842642307273 4.4674246609210959 3.6532089859247199 3.3399244844913483 3.32086157798767 3.1700708270072937
leaf_count=25 27 20 26 33 21 24 22 31 27 26 22 20 20 20
internal_value=-0.000172946 -0.00976337 0.00755138 0.0225243 0.00142794 0.0532872 0.0556877 -0.0410843 -0.0171266 -0.0380309 -0.0561546 -0.0496297 -0.0626251 -0.0623114
internal_weight=66.2659 56.1864 36.1835 28.675 17.5261 10.0795 11.1489 20.0029 13.3587 9.30631 15.0597 7.50856 11.4065 8.08561
internal_count=364 315 195 149 94 49 55 120 74 53 93 46 71 51
is_linear=0
shrinkage=0.05


Tree=5
num_leaves=15
num_cat=0
split_feature=1 1 2 3 0 1 2 0 5 2 4 4 4 1
split_gain=12.1656 12.6543 11.3468 6.995 6.86203 4.91193 4.6991 3.29225 3.12111 2.27787 0.830824 0.64398 0.000245666 1.46967e-05
threshold=-0.96476396506309203 -0.36827658958864612 1.1917498553058075 0.69669562709858412 35.407598049185658 -0.23543294203241769 -3.1729184677225857 52.159117905431593 -0.014898116984265177 -0.37845270408818305 23.365406700119248 20.482344137868157 18.252522688500203 -0.50703016175990701
decision_type=2 2 2 2 2 2 2 2 2 2 2 2 2 2
left_child=6 8 3 4 -3 -6 -1 -5 -2 -7 12 -4 13 -10
right_child=1 2 11 7 5 9 -8 -9 10 -11 -12 -13 -14 -15
leaf_value=0.01306836827330809 -0.0058138481923210193 0.056450617477345491 -0.032447749733729291 0.078743513113227456 0.028902528604758955 -0.013259906672670296 0.077304584584622901 0.025019322241923426 -0.061568525758796247 -0.063336253159781405 -0.033455787264277337 -0.062277782798360118 -0.062150326613876941 -0.061709878759850803
leaf_weight=5.431532621383667 4.1763914227485683 4.2686877399683061 3.3385938555002204 5.6565130203962308 4.1115583032369605 4.80348116159439 5.9833342283964139 5.7507991045713425 4.5777465105056763 4.3072699457406989 3.4064417183399192 3.9497677385807037 3.1435027271509171 3.0734676420688611
leaf_count=27 23 20 21 27 21 27 28 28 30 26 21 25 20 20
internal_value=-0.00020184 -0.0100219 0.00713762 0.0211984 0.00133237 -0.016462 0.0467391 0.0516594 -0.0438102 -0.0369344 -0.0549845 -0.0486135 -0.0617782 -0.0616253
internal_weight=65.9791 54.5642 36.1867 28.8983 17.491 13.2223 11.4149 11.4073 18.3776 9.11075 14.2012 7.28836 10.7947 7.65121
internal_count=364 309 195 149 94 74 55 55 114 53 91 46 70 50
is_linear=0
shrinkage=0.05


Tree=6
num_leaves=15
num_cat=0
split_feature=1 1 2 7 3 1 2 4 4 0 5 3 5 7
split_gain=10.8475 11.7556 10.4017 7.0606 8.55627 4.36658 4.03599 3.74267 3.02899 3.80756 2.41703 0.646771 0.00357123 1.1633e-05
threshold=-0.96476396506309203 -0.36827658958864612 1.1917498553058075 0.0068333006018709815 1.8034689574216678 -0.23543294203241769 -3.1729184677225857 21.354858359826007 18.730154330547411 43.364299579115958 0.00085316668513148283 2.4534077981476572 -0.013314577659148548 0.0077952738935956603
decision_type=2 2 2 2 2 2 2 2 2 2 2 2 2 2
left_child=6 8 3 10 5 -5 -1 -7 12 -10 -3 -4 -2 -14
right_child=1 2 11 4 -6 7 -8 -9 9 -11 -12 -13 13 -15
leaf_value=0.012343112660442725 -0.062931529198888739 0.079549546554156358 -0.061263340149334169 0.024917415493859923 0.055979151163945778 -0.057529612593816476 0.071402148432120338 0.0075277609167374755 0.0076054876607451185 -0.062034830761803252 0.028928296904489555 -0.030868294341031735 -0.061010762713738148 -0.060873479850309144
leaf_weight=5.4623289108276367 3.5343702286481857 4.9590069800615328 3.8986848890781394 4.2274008989334098 5.4723920971155158 6.6065739989280718 6.1495002061128599 3.3224573731422424 4.888275131583212 3.2795750200748444 4.4959330558776855 3.1759134382009506 2.9565545767545718 3.2277870923280716
leaf_count=27 22 24 26 21 26 38 28 18 29 21 22 20 20 22
internal_value=-0.000225024 -0.00964538 0.00675577 0.0199823 0.00288417 -0.0176405 0.0436201 -0.0357601 -0.0428009 -0.0203567 0.0554786 -0.0476185 -0.0616637 -0.0609391
internal_weight=65.6568 54.0449 36.1584 29.0838 19.6288 14.1564 11.6118 9.92903 17.8866 8.16785 9.45494 7.0746 9.71871 6.18434
internal_count=364 309 195 149 103 77 55 56 114 50 46 46 64 42
is_linear=0
shrinkage=0.05


Tree=7
num_leaves=15
num_cat=0
split_feature=1 1 2 3 0 5 3 1 0 2 2 10 4 5
split_gain=9.74099 9.74597 9.54177 5.83015 5.56052 5.00207 4.94207 4.18608 2.75666 2.2439 0.8349 0.680875 0.0030903 5.80764e-08
threshold=-0.99901731379222258 -0.36827658958864612 1.1917498553058075 0.69669562709858412 35.407598049185658 -0.014898116984265177 -5.0354446413195815 -0.23543294203241769 52.159117905431593 -0.37845270408818305 0.9882762549047831 0.82412223275350815 18.730154330547411 -0.01106706564473108
decision_type=2 2 2 2 2 2 2 2 2 2 2 2 2 2
left_child=6 5 3 4 -3 -2 -1 -6 -5 -9 12 -4 13 -7
right_child=1 2 11 8 7 10 -8 9 -10 -11 -12 -13 -14 -15
leaf_value=0.0081759251477250446 0.0050630763768070193 0.048888158685013644 -0.029554140274448193 0.07024569399636714 0.025023773856278093 -0.060223261075630613 0.076503001646168717 -0.01192446399677264 0.021833045528620421 -0.062446185156904643 -0.032156583728040158 -0.061154156318364739 -0.062116228378248928 -0.060232292154720292
leaf_weight=5.1015820801258087 4.9223396629095104 4.438762038946158 3.1495371162891379 5.8866380304098112 4.2278085350990287 3.2415929734706879 5.499114587903021 4.7145030200481406 5.8749635964632034 4.1170998364686957 3.3801336437463751 3.7157198637723923 3.1026071012020111 3.9485901892185193
leaf_count=25 27 20 21 27 21 23 24 27 28 26 22 25 20 28
internal_value=-0.000247813 -0.00874623 0.00639305 0.0188403 0.000541972 -0.0381573 0.0436206 -0.0158904 0.0460634 -0.0354766 -0.0537169 -0.0466572 -0.0607973 -0.0602282
internal_weight=65.321 54.7203 36.125 29.2598 17.4982 18.5953 10.6007 13.0594 11.7616 8.8316 13.6729 6.86526 10.2928 7.19018
internal_count=364 315 195 149 94 120 49 74 55 53 93 46 71 51
is_linear=0
shrinkage=0.05


Tree=8
num_leaves=14
num_cat=0
split_feature=1 1 2 7 8 3 2 4 0 9 2 4 9
split_gain=8.76959 10.1833 8.76326 6.0922 13.5692 5.13786 3.33361 2.99303 3.63279 1.99303 0.868135 0.692803 0.00217523
threshold=-0.96476396506309203 -0.36827658958864612 1.1917498553058075 0.0068333006018709815 0.039168653660645737 0.69669562709858412 -3.1729184677225857 18.730154330547411 43.364299579115958 0.52321430592535767 -0.18423765463139138 20.482344137868157 0.15298351840923102
decision_type=2 2 2 2 2 2 2 2 2 2 2 2 2
left_child=6 7 3 9 5 10 -1 12 -9 -3 -5 -4 -2
right_child=1 2 11 4 -6 -7 -8 8 -10 -11 -12 -13 -14
leaf_value=0.010172518672488967 -0.061435889607233188 0.071571612363153583 -0.028256226464760583 -0.064968120970617882 0.055648579938868681 0.016724559842475402 0.063216141456277838 0.0086191757535001128 -0.060889223028133488 0.026179304662149253 -0.031791632629584475 -0.060603082300926293 -0.05986847074793198
leaf_weight=5.5432132929563522 3.8475245833396929 5.1401244103908557 3.0679633915424338 5.2028651833534232 7.3383942097425452 3.9591055065393439 6.3610489964485151 4.8293949216604224 3.0777449160814285 4.5665109008550644 3.1751592159271267 3.595067098736763 5.211875319480896
leaf_count=27 26 24 21 30 34 19 28 29 21 22 20 25 38
internal_value=-0.000264562 -0.00897318 0.00606171 0.0178018 0.00181045 -0.0302136 0.0385164 -0.0409146 -0.018436 0.0502167 -0.0523947 -0.0457091 -0.0605342
internal_weight=64.916 53.0117 36.0452 29.3822 19.6755 12.3371 11.9043 16.9665 7.90714 9.70664 8.37802 6.66303 9.0594
internal_count=364 309 195 149 103 69 55 114 50 46 50 46 64
is_linear=0
shrinkage=0.05


Tree=9
num_leaves=14
num_cat=0
split_feature=1 1 2 7 3 7 1 3 8 3 4 10 4
split_gain=7.86952 8.39397 8.05204 5.83763 6.63314 5.3427 5.34734 4.16706 2.55001 4.04097 0.809008 0.704394 0.00257041
threshold=-0.99901731379222258 -0.36827658958864612 1.1917498553058075 0.0089568619999292488 1.2182252582368502 0.0068333006018709815 -0.22453373449112488 -5.0354446413195815 0.038334190625809748 -2.4793708621458914 19.911964222309081 0.82412223275350815 16.054143939334246
decision_type=2 2 2 2 2 2 2 2 2 2 2 2 2
left_child=7 8 3 4 5 -3 -7 -1 12 -10 -11 -4 -2
right_child=1 2 11 -5 -6 6 -8 -9 9 10 -12 -13 -14
leaf_value=0.0061429614655089046 -0.059276655265933953 0.04280165752879006 -0.026986359985804304 -0.021794689744177601 0.076834721418291271 0.027241266052008863 -0.052299581294068802 0.068193945408414419 0.015865014571535836 -0.02674894094019277 -0.062366925966560786 -0.060084437642827504 -0.061230148670320367
leaf_weight=5.1783810257911682 3.9426330775022533 8.09815452992917 2.989868998527526 7.3455616235733023 5.5722226351499549 4.0743402242660549 4.3893351852893785 5.6661713421344739 4.3810727596282968 2.8934655040502522 3.5504870861768723 3.4767829030752182 2.9392870515584946
leaf_count=25 30 38 21 39 25 20 27 24 27 20 23 25 20
internal_value=-0.00028358 -0.00813557 0.0057448 0.0168282 0.0296459 0.0137693 -0.0140093 0.038564 -0.0363136 -0.0211846 -0.0463737 -0.0447815 -0.060111
internal_weight=64.4978 53.6532 35.9463 29.4796 22.1341 16.5618 8.46368 10.8446 17.7069 10.825 6.44395 6.46665 6.88192
internal_count=364 315 195 149 110 85 47 49 120 70 43 46 50
is_linear=0
shrinkage=0.05


Tree=10
num_leaves=15
num_cat=0
split_feature=1 1 2 7 10 4 0 2 10 5 8 4 5 4
split_gain=7.15345 8.82329 7.4027 5.23385 3.28399 2.9717 3.43697 2.7834 2.4518 5.44657 3.23292 0.71708 0.00331413 5.19815e-05
threshold=-0.96476396506309203 -0.36827658958864612 1.1917498553058075 0.0089568619999292488 0.65374112590807976 18.730154330547411 43.364299579115958 -3.1729184677225857 0.99582364334083551 -1.0000000180025095e-35 0.027922417344222905 20.482344137868157 -0.013314577659148548 14.703560257001007
decision_type=2 2 2 2 2 2 2 2 2 2 2 2 2 2
left_child=7 5 3 4 -3 12 -7 -1 9 -6 -10 -4 -2 -14
right_child=1 2 11 -5 8 6 -8 -9 10 -11 -12 -13 13 -15
leaf_value=0.0084519074849700344 -0.060817012336987601 -0.0126262007810387 -0.02571597660680491 -0.020917424978170028 0.018464869509392867 0.0094187254001239888 -0.059791321265481014 0.056516011016418372 -0.013961110187077156 0.092847981507583277 0.048246311533948483 -0.059604198674786814 -0.058616500631333605 -0.058929090109189508
leaf_weight=5.6016995906829834 3.1310762688517579 4.0788694918155732 2.9136473387479773 7.2728406190872184 5.1683881580829647 4.7850724309682837 2.8695413246750832 6.5157803595066053 4.1863628625869733 4.6980887502431861 4.1679842472076416 3.3625600039958954 2.7581729143857965 2.5684470906853676
leaf_count=27 22 20 21 39 28 29 21 28 20 21 21 25 22 20
internal_value=-0.000297467 -0.00836496 0.00544805 0.0159153 0.0279279 -0.0390979 -0.0165266 0.0342968 0.0370063 0.0538836 0.0170742 -0.043872 -0.0595261 -0.0587672
internal_weight=64.0785 51.9611 35.8487 29.5725 22.2997 16.1123 7.65461 12.1175 18.2208 9.86648 8.35435 6.27621 8.4577 5.32662
internal_count=364 309 195 149 110 114 50 55 90 49 41 46 64 42
is_linear=0
shrinkage=0.05


Tree=11
num_leaves=16
num_cat=0
split_feature=1 1 7 8 5 4 6 4 0 7 5 6 6 5 4
split_gain=6.43109 8.2034 6.0739 9.88739 9.45669 10.3317 5.61917 2.90587 3.25186 2.65477 2.47464 0.287123 0.0123899 0.00278847 4.36065e-05
threshold=-0.96476396506309203 -0.36827658958864612 0.0068333006018709815 0.039168653660645737 -0.0050449901337932214 22.033925700923543 -0.012130806129256728 18.730154330547411 43.364299579115958 0.0093664854397742404 0.0020979066591101923 0.0063703477147645264 -0.0041520627667194143 -0.013314577659148548 14.703560257001007
decision_type=2 2 2 2 2 2 2 2 2 2 2 2 2 2 2
left_child=9 7 10 6 -5 -6 -4 13 -9 -1 -3 12 -8 -2 -15
right_child=1 2 3 4 5 -7 11 8 -10 -11 -12 -13 -14 14 -16
leaf_value=0.011555369102434772 -0.060185633374026874 0.056601865038060931 0.0072080358735154143 0.095681269962308968 0.05550912898620855 -0.066294618446528536 -0.06569413779031967 0.0088985904151990067 -0.059223490528361115 0.058484407448638621 0.0074952768953097538 -0.044841674078066905 -0.061321599597760616 -0.058125974207378028 -0.058418302554143986
leaf_weight=6.816173702478407 3.0088223293423644 6.3594557046890241 5.1660631969571069 3.5161851644515991 3.5098221004009229 3.4544919207692146 3.2580210864543853 4.8108467310667029 2.7550984099507332 5.4018903821706772 4.3003157526254654 3.0146028846502304 3.2225458770990487 2.6452343463897696 2.4640023186802864
leaf_count=31 22 29 27 16 19 21 19 29 21 24 21 21 22 22 20
internal_value=-0.00030778 -0.00804686 0.00516313 -0.00824689 0.0288389 -0.00490889 -0.0347575 -0.038201 -0.0159077 0.0323038 0.0367915 -0.0575897 -0.0635198 -0.0589781 -0.058267
internal_weight=63.7036 51.4855 35.8015 25.1417 10.4805 6.96431 14.6612 15.684 7.56595 12.2181 10.6598 9.49517 6.48057 8.11806 5.10924
internal_count=364 309 195 145 56 40 89 114 50 55 50 62 41 64 42
is_linear=0
shrinkage=0.05


Tree=12
num_leaves=14
num_cat=0
split_feature=1 1 2 7 3 5 0 3 1 2 3 4 8
split_gain=5.80703 6.72549 6.4481 4.60317 5.49658 4.51906 4.20764 3.51159 3.47667 0.990239 0.744926 0.00876743 6.73503e-05
threshold=-0.99901731379222258 -0.36827658958864612 1.1917498553058075 0.0089568619999292488 1.2182252582368502 -0.014898116984265177 45.313928528217801 -5.0354446413195815 -0.15068746036217104 0.9882762549047831 2.4534077981476572 18.730154330547411 0.037631779443323271
decision_type=2 2 2 2 2 2 2 2 2 2 2 2 2
left_child=7 5 3 4 6 -2 -3 -1 -8 11 -4 12 -7
right_child=1 2 10 -5 -6 9 8 -9 -10 -11 -12 -13 -14
leaf_value=0.0030478798575915853 0.0072313405245065469 0.039086895840348385 -0.058641437329030481 -0.020445727676387828 0.067616856655976471 -0.057587164694574026 -0.045119232762923789 0.059341370397321624 0.016284917686190763 -0.025178509744442679 -0.023217621213184884 -0.061087686318482694 -0.057931770607144717
leaf_weight=5.2942915707826614 4.7808595150709179 7.4353343546390631 3.2515242472290984 7.1759288907051078 5.7721719145774832 3.5461453869938833 4.1920208036899602 5.8109690397977811 5.121521636843676 2.9098647087812415 2.7302875965833664 2.8846327140927315 2.3624443039298058
leaf_count=25 27 36 26 39 25 31 22 24 27 22 20 20 20
internal_value=-0.000325824 -0.00731521 0.00488809 0.0144279 0.0255398 -0.0337287 0.0110388 0.0325042 -0.0113531 -0.0504614 -0.0424729 -0.0588281 -0.0577249
internal_weight=63.268 52.1627 35.6788 29.697 22.521 16.4839 16.7489 11.1053 9.31354 11.7031 5.98181 8.79322 5.90859
internal_count=364 315 195 149 110 120 85 49 49 93 46 71 51
is_linear=0
shrinkage=0.05


Tree=13
num_leaves=13
num_cat=0
split_feature=8 7 3 5 5 10 8 1 9 1 10 1
split_gain=5.50348 10.0161 7.27034 5.35518 5.26252 5.25645 5.09296 6.24928 4.03974 5.72757 0.436052 0.0159224
threshold=0.039168653660645737 0.0068333006018709815 -0.10615422669785153 -0.015546412016902903 -0.024955751990037679 1.0138437532894649 0.07380221754320325 -0.25514994679371478 0.38921091581280659 -0.15068746036217104 0.90121456359606389 -0.36827658958864612
decision_type=2 2 2 2 2 2 2 2 2 2 2 2
left_child=1 2 -1 4 -2 6 7 -5 11 -10 -4 -3
right_child=3 8 10 5 -6 -7 -8 -9 9 -11 -12 -13
leaf_value=-0.038116837702113222 0.014888467355458616 -0.058523541494862642 0.055432089062362688 4.729638722595802e-05 0.081744336241413515 -0.042754066406155325 -0.032480681523829262 0.08534468229512171 0.023011742512611295 -0.053269794988909228 0.033300241657115356 -0.062731749356504718
leaf_weight=3.82412115484476 7.8900565952062607 3.718310512602331 4.4296881705522555 5.0403640940785426 4.6948926299810427 5.6276785358786574 3.8668024912476531 3.7411682307720184 4.9073255881667137 4.935850188136099 4.4728312194347382 5.6836538165807724
leaf_count=26 37 31 20 33 22 35 22 19 29 33 20 37
internal_value=-0.000331891 -0.0148703 0.019544 0.0147298 0.0398295 -0.00255391 0.0153325 0.0363863 -0.0376282 -0.0152396 0.0443125 -0.0610675
internal_weight=62.8327 31.9718 12.7266 30.861 12.5849 18.276 12.6483 8.78153 19.2451 9.84318 8.90252 9.40196
internal_count=364 196 66 168 59 109 74 52 130 62 40 68
is_linear=0
shrinkage=0.05


Tree=14
num_leaves=14
num_cat=0
split_feature=0 3 8 0 7 8 4 8 7 3 2 1 4
split_gain=5.16473 4.28257 7.14849 6.69392 5.14892 4.63724 4.41598 9.71089 2.68937 1.69313 0.709105 0.0260754 0.00233201
threshold=22.219231151268243 0.69669562709858412 0.039168653660645737 59.073707359643329 0.0082949947319130388 0.019842501939727041 30.837862002327352 0.04618083360861492 0.0084830734581637871 0.10891778169731402 0.11537947165589336 -0.36827658958864612 14.119737984283965
decision_type=2 2 2 2 2 2 2 2 2 2 2 2 2
left_child=-1 2 5 4 -3 -2 7 -4 -9 10 11 12 -7
right_child=1 3 6 -5 -6 9 -8 8 -10 -11 -12 -13 -14
leaf_value=0.053250375461285374 0.013502675999593672 0.060558095126072409 0.042617395026701949 -0.037473991530403976 -0.0068969388001305643 -0.0570809354064871 0.036891238514449372 -0.0093090195874742983 -0.066949799705001062 -0.0090484118076768223 -0.035706307122407611 -0.063404373694892366 -0.05926598435983256
leaf_weight=4.1935516595840445 4.0850097388029125 7.7951664030551928 5.3664905577898052 4.1400637477636328 4.4404654204845428 2.4770337194204348 7.9579356983304015 3.4102471396327001 4.9769149571657181 2.5833364129066458 4.0491300448775283 4.5972784906625748 2.4083038941025734
leaf_count=19 23 34 32 30 22 23 35 20 32 15 31 29 19
internal_value=-0.000343669 -0.00419955 -0.0126712 0.0174826 0.0360778 -0.0340793 0.00724656 -0.009906 -0.0435129 -0.0461409 -0.0532222 -0.0607015 -0.0581581
internal_weight=62.4809 58.2874 41.9117 16.3757 12.2356 20.2001 21.7116 13.7537 8.38716 16.1151 13.5317 9.48262 4.88534
internal_count=364 345 259 86 56 140 119 84 52 117 102 71 42
is_linear=0
shrinkage=0.05


Tree=15
num_leaves=15
num_cat=0
split_feature=8 8 4 5 1 4 8 6 10 10 4 4 1 6
split_gain=4.78246 8.69164 5.52611 9.81126 4.37763 3.35375 3.097 2.69585 2.61867 3.44899 2.25809 0.821112 0.00825633 0.0148079
threshold=0.039168653660645737 0.030453743860259171 20.482344137868157 -1.0000000180025095e-35 -0.48278286469507486 30.837862002327352 0.058138365878555032 -0.020594130762359289 1.2738057278285229 0.80327614078371401 35.98208797911645 13.20121847868961 -0.30706529069368566 0.00076279244903646761
decision_type=2 2 2 2 2 2 2 2 2 2 2 2 2 2
left_child=1 8 4 5 -2 6 -4 -3 9 -1 -7 -11 -9 -14
right_child=2 7 3 -5 -6 10 -8 12 -10 11 -12 -13 13 -15
leaf_value=-0.0083520840646619642 0.0074032809859785878 -0.010507489791253932 0.024972870023567365 -0.062068429014026608 0.082525971144825017 0.058511956305132486 -0.036720382339245704 -0.058411387741831924 -0.030132129512936579 0.05529509900500245 0.01086259939405939 0.022716288919512828 -0.063990017267242183 -0.059131829689994614
leaf_weight=6.9425577074289375 3.4433565139770508 3.8016130030155173 4.0731340646743863 4.8388617560267404 4.4395993873477009 5.5918015688657743 4.0639117509126663 2.6957431957125655 3.6343990564346305 4.156726635992527 4.4771164506673813 3.6170209869742393 3.3537152931094161 2.9465826973319054
leaf_count=39 23 29 21 36 24 24 20 23 20 21 20 20 21 23
internal_value=-0.000352633 -0.0141816 0.013575 0.00121369 0.0497116 0.0180331 -0.0058388 -0.0458091 0.00787517 0.0172616 0.0373248 0.0401366 -0.0607271 -0.0617179
internal_weight=62.0761 31.1484 30.9278 23.0448 7.88296 18.206 8.13705 12.7977 18.3507 14.7163 10.0689 7.77375 8.99604 6.3003
internal_count=364 196 168 121 47 85 41 96 100 80 44 41 67 44
is_linear=0
shrinkage=0.05


Tree=16
num_leaves=15
num_cat=0
split_feature=1 7 8 3 9 4 5 1 7 7 0 9 4 1
split_gain=4.48161 4.44938 5.27575 10.3424 7.567 6.62886 7.05584 3.79334 3.52064 6.26267 0.604166 2.58147 0.0153292 0.0110914
threshold=-1.5733196247030887 0.006138495190175005 0.039168653660645737 0.47921418243244918 0.70085124474269134 20.482344137868157 -1.0000000180025095e-35 -0.42788266311204376 0.0086706126881145821 0.0098594833046671011 45.313928528217801 0.26750868063982103 15.610930447518331 -0.36827658958864612
decision_type=2 2 2 2 2 2 2 2 2 2 2 2 2 2
left_child=-1 -2 3 10 -5 7 8 -4 -7 -10 11 13 -12 -3
right_child=1 2 5 4 -6 6 -8 -9 9 -11 12 -13 -14 -15
leaf_value=0.060179742478779691 0.046049721963869139 -0.05764635071892979 0.011214846388592034 0.055469103899337263 -0.02964523736668135 -0.023359302487761802 -0.061410399846661058 0.079955839808662818 0.076271703371724175 -0.0052277498771869102 -0.063375050115410544 -0.0066163260488633305 -0.058304248554204012 -0.06178336932708911
leaf_weight=2.9127662628889075 4.2293231561779967 3.6415801420807847 3.9300106465816498 5.560708820819853 4.9232773333787918 5.4562920480966595 4.6509359031915656 4.1013243868947047 3.872678726911543 6.0234072208404541 3.0973957329988471 3.5625380724668503 2.8726943284273148 2.9186434000730559
leaf_count=13 19 33 26 25 29 25 36 21 18 29 20 26 24 20
internal_value=-0.000360247 -0.00335713 -0.00718338 -0.0231446 0.0154994 0.00794785 -0.00745797 0.0463185 0.00888669 0.0266658 -0.04832 -0.04088 -0.0609351 -0.0594869
internal_weight=61.7536 58.8408 54.6115 26.5768 10.484 28.0346 20.0033 8.03134 15.3524 9.89609 16.0929 10.1228 5.97009 6.56022
internal_count=364 351 332 177 54 155 108 47 72 47 123 79 44 53
is_linear=0
shrinkage=0.05


Tree=17
num_leaves=15
num_cat=0
split_feature=5 3 0 7 6 7 7 5 5 0 8 10 7 6
split_gain=4.21302 5.58421 5.4433 5.37288 4.95661 6.07353 4.27069 3.64115 4.64163 2.2039 2.63222 0.21143 0.0340225 0.00488089
threshold=-0.015546412016902903 0.69669562709858412 59.073707359643329 0.0062039458845673861 -0.022031009082591972 0.0086049355070841275 0.0082949947319130388 -1.0000000180025095e-35 -0.0025530972247099141 45.14779613793133 0.049388984970719391 1.1589658326124572 0.0087574121572848353 -0.01480382631255996
decision_type=2 2 2 2 2 2 2 2 2 2 2 2 2 2
left_child=4 3 6 -2 5 -1 -3 8 9 10 11 13 -9 -5
right_child=1 2 -4 7 -6 -7 -8 12 -10 -11 -12 -13 -14 -15
leaf_value=-0.038843538888639673 0.030763380191990694 0.054067828319361903 -0.035595831309943898 -0.057636058869507449 0.063939039964887645 0.040276296186022971 -0.0072749586435247029 -0.064098330478575397 0.035541441569119842 0.0061453820237159576 -0.0038087275716131401 -0.041713979451980077 -0.057021344001863233 -0.060440760985725511
leaf_weight=4.6602664887905103 4.398288860917094 7.9533187150955218 3.895336613059043 3.223873324692252 4.9175715148448935 5.0582417547702789 4.4109268635511398 3.2707472890615454 3.3581571429967871 3.4569222629070273 3.72168194502592 2.478786326944828 3.5324371010065079 2.9897130578756359
leaf_count=24 21 34 30 30 24 23 22 21 21 23 17 19 33 22
internal_value=-0.000372663 -0.00771007 0.0159458 -0.0203498 0.0230342 0.00233637 0.0321839 -0.0289856 -0.0178629 -0.0291628 -0.0389951 -0.0540603 -0.0604237 -0.0589856
internal_weight=61.3263 46.6902 16.2596 30.4306 14.6361 9.71851 12.3642 26.0323 19.2291 15.871 12.4141 8.69237 6.80318 6.21359
internal_count=364 293 86 207 71 47 56 186 132 111 88 71 54 52
is_linear=0
shrinkage=0.05


end of trees

feature_importances:
Column_1=44
Column_4=31
Column_2=30
Column_3=26
Column_5=24
Column_7=23
Column_0=21
Column_8=19
Column_6=9
Column_10=9
Column_9=6

parameters:
[boosting: gbdt]
[objective: binary]
[metric: auc]
[tree_learner: serial]
[device_type: cpu]
[data_sample_strategy: bagging]
[data: ]
[valid: ]
[num_iterations: 100]
[learning_rate: 0.05]
[num_leaves: 31]
[num_threads: 0]
[seed: 0]
[deterministic: 0]
[force_col_wise: 0]
[force_row_wise: 0]
[histogram_pool_size: -1]
[max_depth: -1]
[min_data_in_leaf: 20]
[min_sum_hessian_in_leaf: 0.001]
[bagging_fraction: 1]
[pos_bagging_fraction: 1]
[neg_bagging_fraction: 1]
[bagging_freq: 0]
[bagging_seed: 3]
[bagging_by_query: 0]
[feature_fraction: 0.8]
[feature_fraction_bynode: 1]
[feature_fraction_seed: 2]
[extra_trees: 0]
[extra_seed: 6]
[early_stopping_round: 0]
[early_stopping_min_delta: 0]
[first_metric_only: 0]
[max_delta_step: 0]
[lambda_l1: 0]
[lambda_l2: 0]
[linear_lambda: 0]
[min_gain_to_split: 0]
[drop_rate: 0.1]
[max_drop: 50]
[skip_drop: 0.5]
[xgboost_dart_mode: 0]
[uniform_drop: 0]
[drop_seed: 4]
[top_rate: 0.2]
[other_rate: 0.1]
[min_data_per_group: 100]
[max_cat_threshold: 32]
[cat_l2: 10]
[cat_smooth: 10]
[max_cat_to_onehot: 4]
[top_k: 20]
[monotone_constraints: ]
[monotone_constraints_method: basic]
[monotone_penalty: 0]
[feature_contri: ]
[forcedsplits_filename: ]
[refit_decay_rate: 0.9]
[cegb_tradeoff: 1]
[cegb_penalty_split: 0]
[cegb_penalty_feature_lazy: ]
[cegb_penalty_feature_coupled: ]
[path_smooth: 0]
[interaction_constraints: ]
[verbosity: -1]
[saved_feature_importance_type: 0]
[use_quantized_grad: 0]
[num_grad_quant_bins: 4]
[quant_train_renew_leaf: 0]
[stochastic_rounding: 1]
[linear_tree: 0]
[max_bin: 255]
[max_bin_by_feature: ]
[min_data_in_bin: 3]
[bin_construct_sample_cnt: 200000]
[data_random_seed: 1]
[is_enable_sparse: 1]
[enable_bundle: 1]
[use_missing: 1]
[zero_as_missing: 0]
[feature_pre_filter: 1]
[pre_partition: 0]
[two_round: 0]
[header: 0]
[label_column: ]
[weight_column: ]
[group_column: ]
[ignore_column: ]
[categorical_feature: ]
[forcedbins_filename: ]
[precise_float_parser: 0]
[parser_config_file: ]
[objective_seed: 5]
[num_class: 1]
[is_unbalance: 0]
[scale_pos_weight: 1]
[sigmoid: 1]
[boost_from_average: 1]
[reg_sqrt: 0]
[alpha: 0.9]
[fair_c: 1]
[poisson_max_delta_step: 0.7]
[tweedie_variance_power: 1.5]
[lambdarank_truncation_level: 30]
[lambdarank_norm: 1]
[label_gain: ]
[lambdarank_position_bias_regularization: 0]
[eval_at: ]
[multi_error_top_k: 1]
[auc_mu_weights: ]
[num_machines: 1]
[local_listen_port: 12400]
[time_out: 120]
[machine_list_filename: ]
[machines: ]
[gpu_platform_id: -1]
[gpu_device_id: -1]
[gpu_use_dp: 0]
[num_gpu: 1]

end of parameters

pandas_categorical:null
