tree
version=v4
num_class=1
num_tree_per_iteration=1
label_index=0
max_feature_idx=10
objective=binary sigmoid:1
feature_names=Column_0 Column_1 Column_2 Column_3 Column_4 Column_5 Column_6 Column_7 Column_8 Column_9 Column_10
feature_infos=[0:100] [-1.747741627011294:3.138636415346312] [-12.05188679245283:20.464601769911503] [-17.32160312805474:23.721881390593058] [0:74.987463355968131] [-0.095067645452890953:0.13693309947381607] [-0.14122137404580146:0.14804299582191702] [0:0.036518629427173079] [0:0.27118481058858029] [-0.41489322172404236:1.2511568083951172] [0:3.2520409613345258]
tree_sizes=1486 1602 1603 1598 1706 1590 1605 1496

Tree=0
num_leaves=13
num_cat=0
split_feature=7 4 6 10 8 8 2 8 4 7 5 1
split_gain=24.2511 10.1536 8.93908 6.09475 6.52109 12.365 12.1628 5.86652 5.71963 3.16767 9.01218 4.49058
threshold=0.010538392389423138 15.253444512103499 0.059441834648372723 1.4357415990986049 0.083364761665764162 0.051203842370180969 1.0000000180025095e-35 0.045275782969185364 26.446122874996799 0.018492159861347866 -0.028117280912344309 -1.3149000943458871
decision_type=2 2 2 2 2 2 2 2 2 2 2 2
left_child=-1 -2 3 4 5 7 -7 -3 -6 10 -10 -11
right_child=1 2 -4 -5 8 6 -8 -9 9 11 -12 -13
leaf_value=-0.61457401788482491 -0.78426665097774861 -0.68527928167354313 -0.77483928247258615 -0.74757635193062999 -0.76002484625018807 -0.58752156913088061 -0.68827889892518568 -0.75194424467433452 -0.63342875489514983 -0.76271838010880588 -0.72256023894395816 -0.69942033443128682
leaf_weight=6.1876583099365225 5.3037071228027335 7.0716094970703143 5.3037071228027335 8.1765484809875471 6.1876583099365261 5.0827193260192853 7.2925972938537598 6.1876583099365234 4.6407437324523908 4.6407437324523926 7.2925972938537633 7.0716094970703107
leaf_count=28 24 32 24 37 28 23 33 28 21 21 33 32
internal_value=-0.709676 -0.717602 -0.712474 -0.707276 -0.701336 -0.682841 -0.646896 -0.71639 -0.717228 -0.706028 -0.687898 -0.724501
internal_weight=80.4396 74.2519 68.9482 63.6445 55.4679 25.6346 12.3753 13.2593 29.8334 23.6457 11.9333 11.7124
internal_count=364 336 312 288 251 116 56 60 135 107 54 53
is_linear=0
shrinkage=1


Tree=1
num_leaves=14
num_cat=0
split_feature=7 4 8 8 0 7 7 5 0 2 2 0 2
split_gain=21.2662 9.45328 5.90235 10.6663 5.74412 4.73181 4.55997 5.14222 6.67096 3.80755 4.86955 2.14349 1.15964
threshold=0.010538392389423138 15.253444512103499 0.080746846039973355 0.071798110052310557 25.0318856818276 0.028978714839436415 0.018492159861347866 -0.025664811831323266 56.704658478120791 2.0835461330972693 1.0000000180025095e-35 37.666016302808465 -4.4044476213221868
decision_type=2 2 2 2 2 2 2 2 2 2 2 2 2
left_child=-1 -2 3 9 -4 6 7 -6 -9 10 11 -3 -8
right_child=1 2 4 -5 5 -7 12 8 -10 -11 -12 -13 -14
leaf_value=0.087571690164264498 -0.072822714883050435 -0.01062145755964636 0.038566851607717133 0.083314304931437072 0.020808321386144621 0.016210653943987418 -0.073720835768612034 -0.067141390310315768 0.0057557098686134714 0.034149628375916931 -0.03855676985721284 0.036737917947503716 -0.039115565689819533
leaf_weight=6.3785096406936637 5.1643399000167838 4.6585973352193921 4.416339397430419 4.7106790095567694 6.2405967861413947 6.6167086958885184 5.4540319591760635 7.0344877243042045 5.6664469838142395 6.4250176399946204 8.3708900958299619 4.9044504016637802 4.3531770557165128
leaf_count=28 24 21 20 21 28 30 25 32 26 29 38 22 20
internal_value=-2.84046e-05 -0.00757758 -0.00268374 0.014442 -0.015198 -0.021912 -0.0306861 -0.0163574 -0.0346188 0.00112302 -0.0107091 0.013667 -0.0583604
internal_weight=80.3943 74.0158 68.8514 29.0696 39.7818 35.3654 28.7487 18.9415 12.7009 24.359 17.9339 9.56305 9.80721
internal_count=364 336 312 131 181 161 131 86 58 110 81 43 45
is_linear=0
shrinkage=0.05


Tree=2
num_leaves=14
num_cat=0
split_feature=6 0 5 1 4 10 6 6 0 8 0 0 2
split_gain=8.86512 12.9147 6.52516 6.01403 7.12218 4.62853 5.59264 6.85154 5.48323 6.82197 4.50629 2.5558 2.5449
threshold=0.059441834648372723 59.12572154176852 0.022758976211066085 0.042975435499609922 30.676576604590515 1.4357415990986049 -0.020206327451914922 1.0000000180025095e-35 25.0318856818276 0.082158569318799266 35.942341698275122 43.041206385265291 -4.0557407619164829
decision_type=2 2 2 2 2 2 2 2 2 2 2 2 2
left_child=1 3 -3 5 -5 6 8 -8 -1 10 -10 -12 -11
right_child=-2 2 -4 4 -6 -7 7 -9 9 12 11 -13 -14
leaf_value=0.046672795063470905 -0.063338735972256283 0.085376211992868323 0.014785818687919653 -0.072804475882215919 0.0037879408774395338 -0.039270360303826558 0.065340131588674966 -0.0044695505933579037 0.044971004019579645 -0.023410562197316079 -0.0402873014768238 0.011633536108083129 -0.073588068166181492
leaf_weight=4.4869010597467378 5.1763413548469535 6.4274345487356168 6.6719620525836945 6.440677732229231 5.7402352094650269 5.8577848374843589 7.7962337732315117 6.4001411497592926 5.3756221979856518 6.0335463434457779 4.3923532366752607 5.1483333557844162 4.3478817045688611
leaf_count=20 24 28 30 30 26 27 35 29 24 28 20 23 20
internal_value=-4.93856e-05 0.00431179 0.0494222 -0.00521613 -0.0367104 0.00248127 0.00804213 0.0338679 -0.00426731 -0.0133022 0.00835893 -0.0122698 -0.0444256
internal_weight=80.2954 75.1191 13.0994 62.0197 12.1809 49.8388 43.981 14.1964 29.7846 25.2977 14.9163 9.54069 10.3814
internal_count=364 340 58 282 56 226 199 64 135 115 67 43 48
is_linear=0
shrinkage=0.05


Tree=3
num_leaves=14
num_cat=0
split_feature=6 0 1 4 3 0 0 4 1 8 0 1 9
split_gain=8.1899 11.4991 5.51424 6.70635 5.03866 5.11986 4.35325 3.06538 6.55996 5.02694 5.89971 3.11029 1.43375
threshold=0.059441834648372723 59.12572154176852 0.042975435499609922 30.676576604590515 0.38319997369734199 25.0318856818276 65.379273084970706 39.16947121374055 -0.65160912320722619 0.051203842370180969 43.498583623315213 -0.19912900506159301 0.23192190211283348
decision_type=2 2 2 2 2 2 2 2 2 2 2 2 2
left_child=1 2 4 -4 5 -1 -3 8 12 11 -11 -10 -7
right_child=-2 6 3 -5 -6 7 -8 -9 9 10 -12 -13 -14
leaf_value=0.042636544305453078 -0.061690337500652365 0.083178405977540573 -0.071206095115407445 0.0035937901557376063 0.037857104565280457 -0.064659751258065931 0.024072497878592267 0.024950794974890458 -0.053972471989729653 0.05558914194151468 -0.019580502394099294 0.0010004885042681079 -0.027141513456424793
leaf_weight=5.0069629549980155 5.0520878732204428 4.9921280890703192 6.2605558037757856 5.7476309537887573 8.319127753376959 6.2099055051803536 8.2859046757221204 5.0330345928668967 5.0198793113231659 6.0587075948715192 4.5861027389764786 5.2786864191293805 4.3163567185401917
leaf_count=22 24 22 30 26 37 29 36 23 23 27 21 24 20
internal_value=-6.78663e-05 0.00407674 -0.00498853 -0.0354037 0.00234119 -0.00477671 0.0462945 -0.0112802 -0.0170748 -0.000890681 0.0232038 -0.0257952 -0.0492752
internal_weight=80.1671 75.115 61.837 12.0082 49.8288 41.5096 13.278 36.5027 31.4696 20.9434 10.6448 10.2986 10.5263
internal_count=364 340 282 56 226 189 58 167 144 95 48 47 49
is_linear=0
shrinkage=0.05


Tree=4
num_leaves=15
num_cat=0
split_feature=7 4 8 8 5 5 0 0 9 2 2 2 0 7
split_gain=16.2972 8.62758 4.63945 8.91596 4.69709 6.5432 5.33554 5.90672 3.98387 7.51301 3.40231 2.60195 1.69302 0.498821
threshold=0.010538392389423138 15.253444512103499 0.080097036556858084 0.068889873322191111 -0.025664811831323266 -0.05230208559408582 51.76601275365509 69.01759540709979 0.85150124196357901 2.0506861301282124 1.0000000180025095e-35 -4.0557407619164829 38.930185884359517 0.016500749110966207
decision_type=2 2 2 2 2 2 2 2 2 2 2 2 2 2
left_child=-1 -2 3 8 5 -4 13 -8 9 10 12 -7 -3 -6
right_child=1 2 4 -5 6 11 7 -9 -10 -11 -12 -13 -14 -15
leaf_value=0.074682494456905349 -0.070678106527097925 -0.0095159992221794873 -0.029681104364992161 0.074757348731218518 -0.071606432302569634 0.052698329925165557 0.019449588180149201 -0.051451758187122276 -0.042091026136081254 0.066631339538298071 -0.037640312112246228 0.0037527993570314194 0.033535802319923598 -0.04751098275798555
leaf_weight=6.6800176203250876 4.9442308694124213 4.6063260585069745 7.9752031564712551 4.8625231534242621 4.4130233526229876 5.8299162238836297 7.4427151530981046 4.8528022617101669 4.4691901952028266 4.5289348959922782 5.6110348105430594 5.082383215427396 4.5287186354398727 4.1846586018800735
leaf_count=28 24 21 37 21 21 26 34 23 20 20 26 23 20 20
internal_value=-8.40131e-05 -0.00689474 -0.00228337 0.013074 -0.013327 0.0047432 -0.0296625 -0.0085338 0.000442024 0.0103039 -0.0069958 0.029902 0.011827 -0.0598787
internal_weight=80.0117 73.3317 68.3874 28.6067 39.7807 18.8875 20.8932 12.2955 23.7442 19.275 14.7461 10.9123 9.13504 8.59768
internal_count=364 336 312 128 184 86 98 57 107 87 67 49 41 41
is_linear=0
shrinkage=0.05


Tree=5
num_leaves=14
num_cat=0
split_feature=8 0 0 1 2 3 4 0 10 4 0 2 0
split_gain=5.69201 5.3608 7.63311 5.56012 5.27379 3.40944 4.47871 8.5253 4.71193 2.87731 2.55868 3.03168 2.3544
threshold=0.03629894321063306 69.01759540709979 59.12572154176852 0.042975435499609922 -1.8686177644934536 0.8898780877082012 33.222285144772449 36.189955399009982 1.0154881249209202 29.599833301635503 36.952631823604662 -1.3384082684502598 60.260668266448327
decision_type=2 2 2 2 2 2 2 2 2 2 2 2 2
left_child=12 2 3 5 -5 6 9 8 -8 10 -2 -12 -1
right_child=1 -3 -4 4 -6 -7 7 -9 -10 -11 11 -13 -14
leaf_value=0.010410586788174872 -0.036947102934785044 -0.0530412706341305 0.049440038819010601 0.0018335801295558251 -0.063754372918162536 0.03977573279369534 0.062856113287056078 -0.036749412458270819 -0.00071942562709988763 -0.052650158471733578 0.036836641307958086 -0.016344518167768881 0.057675037649055738
leaf_weight=5.2499202340841276 5.55480924248696 5.4220296889543524 6.6512617468833914 5.2495597898960114 7.3646525442600232 5.0621869117021552 7.4720933288335818 5.5266700685024253 4.7781665474176407 4.9245415329933158 4.4120808839797947 6.8256224393844613 5.2894907891750336
leaf_count=24 26 26 29 24 36 22 33 26 22 23 20 31 22
internal_value=-0.00010024 -0.00531058 -0.00125557 -0.00715355 -0.0364591 0.0011431 -0.00380868 0.0148016 0.0380587 -0.0190425 -0.0091868 0.00453516 0.0341315
internal_weight=79.7831 69.2437 63.8216 57.1704 12.6142 44.5562 39.494 17.7769 12.2503 21.7171 16.7925 11.2377 10.5394
internal_count=364 318 292 263 60 203 181 81 55 100 77 51 46
is_linear=0
shrinkage=0.05


Tree=6
num_leaves=14
num_cat=0
split_feature=7 4 6 4 2 5 1 4 0 5 2 3 3
split_gain=13.5796 8.00207 6.55578 3.98054 8.92005 9.25909 6.35515 9.34795 6.09357 3.64312 4.60129 3.84947 3.05745
threshold=0.010538392389423138 15.253444512103499 0.059441834648372723 26.446122874996799 1.0891785129581526 -0.012227653124237637 0.014723148461335713 20.544878234185571 65.379273084970706 -0.05230208559408582 -2.5400431989677128 -3.9853918132795285 -0.35554012408177638
decision_type=2 2 2 2 2 2 2 2 2 2 2 2 2
left_child=-1 -2 3 6 5 9 7 12 -6 -5 11 -11 -3
right_child=1 2 -4 4 8 -7 -8 -9 -10 10 -12 -13 -14
leaf_value=0.067337199708228199 -0.069099158835464261 -0.00099916417658283828 -0.058527616723992419 -0.022166558196143087 0.072632220069864389 -0.052554661290011899 -0.070238687917537332 -0.049592720945535407 0.0022432893195461746 0.076987647833080708 -0.01002676408988365 0.015777302820315413 0.054629108815205746
leaf_weight=6.8226132541894904 4.7613697350025168 4.6512498557567632 4.7769309580326071 5.8182752579450598 7.9729650914669019 7.4262304753065136 4.2641771882772437 6.2337492257356635 5.0047308951616287 4.8138942867517489 6.2524035722017315 5.5069166421890259 5.267281502485277
leaf_count=28 24 21 24 27 35 35 21 29 22 21 29 25 23
internal_value=-0.000111373 -0.00643679 -0.00204844 0.0022197 0.010886 -0.00417372 -0.0159459 -0.00161272 0.0454874 0.011872 0.0238218 0.0443274 0.0285425
internal_weight=79.5728 72.7502 67.9888 63.2119 42.7954 29.8177 20.4165 16.1523 12.9777 22.3915 16.5732 10.3208 9.91853
internal_count=364 336 312 288 194 137 94 73 57 102 75 46 44
is_linear=0
shrinkage=0.05


Tree=7
num_leaves=13
num_cat=0
split_feature=6 0 5 1 4 10 6 2 0 5 0 0
split_gain=6.42713 7.6814 4.49304 4.34348 5.70324 4.05627 4.52181 5.73646 4.14373 4.68951 4.57542 9.35439
threshold=0.059441834648372723 59.12572154176852 0.022758976211066085 0.042975435499609922 30.676576604590515 1.4357415990986049 -0.020206327451914922 -0.82154346953118673 25.0318856818276 -0.045381733084683573 35.942341698275122 41.604196411514152
decision_type=2 2 2 2 2 2 2 2 2 2 2 2
left_child=1 3 -3 5 -5 6 8 -8 -1 -10 -11 -12
right_child=-2 2 -4 4 -6 -7 7 -9 9 10 11 -13
leaf_value=0.039685319548373621 -0.057163251180298996 0.065956870307080362 0.0087208593978315482 -0.067404813244795983 0.0031734757586783986 -0.037378660631533174 0.064673738698327807 0.0012147054853603877 -0.058477600482958206 0.025543970294512761 -0.069935179746230286 0.020041542589304948
leaf_weight=4.615515828132625 4.6496447622776023 6.8317877799272519 6.8835895359516144 5.6959787011146528 5.7536313831806183 5.7144067734479895 6.6013435870409012 7.7327857166528755 4.4386969357728914 8.7485502213239759 5.462399020791052 6.1307318359613419
leaf_count=20 24 28 30 30 26 27 29 35 22 39 27 27
internal_value=-0.000128316 0.00342609 0.0372308 -0.00418786 -0.031938 0.0022381 0.00741501 0.0304397 -0.00381237 -0.0119141 -0.00175363 -0.0223533
internal_weight=79.2591 74.6094 13.7154 60.894 11.4496 49.4444 43.73 14.3341 29.3959 24.7804 20.3417 11.5931
internal_count=364 340 58 282 56 226 199 64 135 115 93 54
is_linear=0
shrinkage=0.05


end of trees

feature_importances:
Column_0=24
Column_2=13
Column_4=13
Column_8=10
Column_5=9
Column_1=8
Column_6=8
Column_7=8
Column_3=4
Column_10=4
Column_9=2

parameters:
[boosting: gbdt]
[objective: binary]
[metric: auc]
[tree_learner: serial]
[device_type: cpu]
[data_sample_strategy: bagging]
[data: ]
[valid: ]
[num_iterations: 100]
[learning_rate: 0.05]
[num_leaves: 31]
[num_threads: 0]
[seed: 0]
[deterministic: 0]
[force_col_wise: 0]
[force_row_wise: 0]
[histogram_pool_size: -1]
[max_depth: -1]
[min_data_in_leaf: 20]
[min_sum_hessian_in_leaf: 0.001]
[bagging_fraction: 1]
[pos_bagging_fraction: 1]
[neg_bagging_fraction: 1]
[bagging_freq: 0]
[bagging_seed: 3]
[bagging_by_query: 0]
[feature_fraction: 0.8]
[feature_fraction_bynode: 1]
[feature_fraction_seed: 2]
[extra_trees: 0]
[extra_seed: 6]
[early_stopping_round: 0]
[early_stopping_min_delta: 0]
[first_metric_only: 0]
[max_delta_step: 0]
[lambda_l1: 0]
[lambda_l2: 0]
[linear_lambda: 0]
[min_gain_to_split: 0]
[drop_rate: 0.1]
[max_drop: 50]
[skip_drop: 0.5]
[xgboost_dart_mode: 0]
[uniform_drop: 0]
[drop_seed: 4]
[top_rate: 0.2]
[other_rate: 0.1]
[min_data_per_group: 100]
[max_cat_threshold: 32]
[cat_l2: 10]
[cat_smooth: 10]
[max_cat_to_onehot: 4]
[top_k: 20]
[monotone_constraints: ]
[monotone_constraints_method: basic]
[monotone_penalty: 0]
[feature_contri: ]
[forcedsplits_filename: ]
[refit_decay_rate: 0.9]
[cegb_tradeoff: 1]
[cegb_penalty_split: 0]
[cegb_penalty_feature_lazy: ]
[cegb_penalty_feature_coupled: ]
[path_smooth: 0]
[interaction_constraints: ]
[verbosity: -1]
[saved_feature_importance_type: 0]
[use_quantized_grad: 0]
[num_grad_quant_bins: 4]
[quant_train_renew_leaf: 0]
[stochastic_rounding: 1]
[linear_tree: 0]
[max_bin: 255]
[max_bin_by_feature: ]
[min_data_in_bin: 3]
[bin_construct_sample_cnt: 200000]
[data_random_seed: 1]
[is_enable_sparse: 1]
[enable_bundle: 1]
[use_missing: 1]
[zero_as_missing: 0]
[feature_pre_filter: 1]
[pre_partition: 0]
[two_round: 0]
[header: 0]
[label_column: ]
[weight_column: ]
[group_column: ]
[ignore_column: ]
[categorical_feature: ]
[forcedbins_filename: ]
[precise_float_parser: 0]
[parser_config_file: ]
[objective_seed: 5]
[num_class: 1]
[is_unbalance: 0]
[scale_pos_weight: 1]
[sigmoid: 1]
[boost_from_average: 1]
[reg_sqrt: 0]
[alpha: 0.9]
[fair_c: 1]
[poisson_max_delta_step: 0.7]
[tweedie_variance_power: 1.5]
[lambdarank_truncation_level: 30]
[lambdarank_norm: 1]
[label_gain: ]
[lambdarank_position_bias_regularization: 0]
[eval_at: ]
[multi_error_top_k: 1]
[auc_mu_weights: ]
[num_machines: 1]
[local_listen_port: 12400]
[time_out: 120]
[machine_list_filename: ]
[machines: ]
[gpu_platform_id: -1]
[gpu_device_id: -1]
[gpu_use_dp: 0]
[num_gpu: 1]

end of parameters

pandas_categorical:null
