tree
version=v4
num_class=1
num_tree_per_iteration=1
label_index=0
max_feature_idx=10
objective=binary sigmoid:1
feature_names=Column_0 Column_1 Column_2 Column_3 Column_4 Column_5 Column_6 Column_7 Column_8 Column_9 Column_10
feature_infos=[0:100] [-0.022172305975916018:0.034194021216702009] [-3.6295369211514421:4.1532517707662588] [-3.376871615164061:3.8572806171648875] [0:75.303986453684161] [-0.018561300087628498:0.030687763174684066] [-0.025524294467938129:0.044059909844408815] [0:0.0089186261313388606] [0:0.066945397934892154] [-0.12027114479612024:1.3334450661691077] [0:2.8647531100467458]
tree_sizes=1553 1821 1610 1614 1708 1714 1608 1808 1601 1712 1611 1616 1825 1616 1702 1729 1726 1505 1618 1829 1710 1726 1707 1614 1813 1614 1714 1622 1725 1612 1612 1719 1406 1494 1613 1512 1521 1725 1830

Tree=0
num_leaves=14
num_cat=0
split_feature=6 4 8 6 5 6 2 7 8 7 4 2 8
split_gain=18.2272 9.75876 10.7295 8.46628 7.90054 7.88621 5.54088 5.53173 4.34401 6.16538 0.820934 0.144501 0.144501
threshold=0.000763981094027788 16.727426070416232 0.024710395586075434 -0.0056408927354319313 -0.0028036386390739437 -0.007968559361458764 -0.98443960388051599 0.0053706854143977661 0.016801683812692481 0.0050367399579342078 19.640911651350294 0.70298105294050672 0.027026714862356412
decision_type=2 2 2 2 2 2 2 2 2 2 2 2 2
left_child=1 2 3 -1 5 -3 -7 8 -2 11 -9 -10 -6
right_child=7 4 -4 -5 12 6 -8 10 9 -11 -12 -13 -14
leaf_value=-1.2606325829602587 -1.2224150938914775 -1.2754463089018453 -1.1268289208190987 -1.175468863500182 -1.2864084660986193 -1.2364898825000863 -1.150164512367285 -1.2864084660986193 -1.3153086987082963 -1.2310163535967384 -1.3153086987082963 -1.3008585824034578 -1.3008585824034578
leaf_weight=6.4013327509164801 4.8442518115043667 5.0172608047723761 3.9792068451642981 5.3632787913084021 3.4601798653602627 3.8061978518962851 3.633188858628273 3.4601798653602591 3.4601798653602582 4.152215838432312 8.4774406701326352 3.46017986536026 3.46017986536026
leaf_count=37 28 29 23 31 20 22 21 20 20 24 49 20 20
internal_value=-1.251 -1.22704 -1.1978 -1.22181 -1.2508 -1.227 -1.19433 -1.2812 -1.26191 -1.27918 -1.30693 -1.30808 -1.29363
internal_weight=62.9753 35.1208 15.7438 11.7646 19.377 12.4566 7.43939 27.8544 15.9168 11.0726 11.9376 6.92036 6.92036
internal_count=364 203 91 68 112 72 43 161 92 64 69 40 40
is_linear=0
shrinkage=1


Tree=1
num_leaves=16
num_cat=0
split_feature=4 9 0 2 0 8 2 1 5 2 7 3 5 7 7
split_gain=14.7962 10.3881 10.3342 9.63315 7.71158 6.47549 5.21938 6.35831 1.77649 1.72618 2.69066 0.596556 1.4354 0.452276 0.000140492
threshold=17.663961677500026 0.3827745582672108 44.978056835862539 0.16015376402896875 59.620644862935663 0.029809168627597041 -0.032943524239723208 -0.0067735956634211716 0.004264586079027217 1.050001190086951 0.0052793510653693374 0.86747366276154003 0.0043440354739757133 0.006288718489273099 0.0050995239106004916
decision_type=2 2 2 2 2 2 2 2 2 2 2 2 2 2 2
left_child=3 2 5 6 8 -2 7 -1 13 11 -11 14 -13 -5 -3
right_child=1 9 -4 4 -6 -7 -8 -9 -10 10 -12 12 -14 -15 -16
leaf_value=0.081970108894172763 -0.064007213330323484 -0.06415158128318843 0.077713438087202241 -0.020159628119919431 0.063631198106183354 0.017237465765074858 0.10899670170943335 -0.0013952470623622827 -0.050380261869254234 0.0090998706817434338 -0.05119636482765693 -0.019516843381817327 -0.063957185526710356 0.0053165393410653386 -0.063697313677439665
leaf_weight=4.4230942577123633 4.0969396382570249 3.4340582489967364 4.212037816643714 3.4190600365400297 3.5062191635370246 6.1106048077344894 3.7340294271707561 4.7365628629922858 3.6129162311553955 3.4188209325075141 4.032522976398468 3.3872584849596024 3.9195704460144043 3.551909402012825 3.3746167719364166
leaf_count=25 24 20 24 20 20 35 21 27 21 20 24 20 23 20 20
internal_value=-4.70983e-05 -0.0210345 0.0118193 0.0279424 -0.000635755 -0.0153712 0.0591724 0.0388609 -0.021926 -0.0430006 -0.0235313 -0.0532781 -0.0433558 -0.00717879 -0.0639264
internal_weight=62.9702 35.9864 14.4196 26.9838 14.0901 10.2075 12.8937 9.15966 10.5839 21.5668 7.45134 14.1155 7.30683 6.97097 6.80868
internal_count=364 210 83 154 81 59 73 52 61 127 44 83 43 40 40
is_linear=0
shrinkage=0.05


Tree=2
num_leaves=14
num_cat=0
split_feature=6 2 6 4 5 8 4 10 6 5 0 6 4
split_gain=15.2211 8.01676 9.28368 8.442 8.29607 4.36183 4.27433 4.05955 3.23899 1.92849 1.5515 0.909246 0.000436058
threshold=0.000763981094027788 -1.6991432370112147 -0.0069540695798290869 16.727426070416232 -0.0028036386390739437 0.016801683812692481 18.071704602834192 0.5545360870385293 -0.0092971043290696349 0.00037876339658216783 67.016667825807474 0.0049392758129506954 26.957343301294916
decision_type=2 2 2 2 2 2 2 2 2 2 2 2 2
left_child=1 -1 6 9 -5 -2 8 -7 -3 -4 11 -9 -13
right_child=5 2 3 4 -6 7 -8 10 -10 -11 -12 12 -14
leaf_value=0.088951338599459931 0.0083878521059769003 0.022719666021160982 0.093478025897054354 0.047848780327248 -0.042796534354237858 0.01099550551540744 -0.063509276205172813 -0.033490433335579661 -0.037493999993853742 0.046246864233609436 -0.018382154536326568 -0.063627480310130172 -0.062981187980937089
leaf_weight=3.8964854627847663 6.193678259849551 5.6922473013401023 4.6830412745475787 5.2783548980951283 4.8376056700944909 3.3515112400054958 3.8458354026079169 3.3335379958152798 3.6754297316074362 4.0134083330631256 3.3305675685405722 6.3843762278556806 4.4145912677049637
leaf_count=22 36 32 25 29 29 20 23 20 21 22 20 38 27
internal_value=-8.81849e-05 0.0212338 0.0129949 0.0355563 0.00450082 -0.0284476 -0.0191264 -0.0394085 -0.000905305 0.0716809 -0.049082 -0.056317 -0.0633633
internal_weight=62.9307 35.9224 32.0259 18.8124 10.116 27.0083 13.2135 20.8146 9.36768 8.69645 17.4631 14.1325 10.799
internal_count=364 203 181 105 58 161 76 125 53 47 105 85 65
is_linear=0
shrinkage=0.05


Tree=3
num_leaves=14
num_cat=0
split_feature=6 4 4 4 10 1 8 1 10 9 8 10 9
split_gain=14.0235 9.51001 6.32736 10.5832 5.49514 4.77473 4.31009 3.70463 5.79844 3.05538 3.37206 0.840628 0.000267673
threshold=0.0055509218902023523 16.727426070416232 13.235596061429838 10.821603823356241 0.5545360870385293 0.00055446785747670379 0.020240770129208094 -0.0078100430886673946 0.85525193773318153 0.98491621638934557 0.016801683812692481 0.71076811578346999 0.761212361714935
decision_type=2 2 2 2 2 2 2 2 2 2 2 2 2
left_child=1 2 3 -1 -3 7 -4 -6 -9 10 -2 -12 -13
right_child=9 4 6 -5 5 -7 -8 8 -10 -11 11 12 -14
leaf_value=0.074541698839469275 -0.0030209720295639548 0.047751575939542733 0.035905509619457342 -0.025491109965384662 -0.032228743600949211 -0.062710523634429041 0.10709042649890128 -0.026080412794250531 0.057567851600067554 0.0092125084549696014 -0.033738726203053723 -0.062312624876251901 -0.062840506089852199
leaf_weight=4.5752699822187441 4.0963974744081559 4.0011436343193081 3.9478888213634473 6.2641438543796539 6.2120338380336788 4.3500604480504981 4.608870804309845 3.8624665439128858 4.4686457961797714 3.4120345115661612 3.4228117167949668 4.5933002829551679 5.0325195342302322
leaf_count=24 24 23 22 35 36 27 25 22 25 20 21 29 31
internal_value=-0.00012138 0.0163455 0.0421055 0.0167323 -0.00547839 -0.0167513 0.0742474 -0.00300419 0.0187869 -0.0339975 -0.0425968 -0.0550209 -0.0625886
internal_weight=62.8476 42.2905 19.3962 10.8394 22.8944 18.8932 8.55676 14.5431 8.33111 20.5571 17.145 13.0486 9.62582
internal_count=364 239 106 59 133 110 47 83 47 125 105 81 60
is_linear=0
shrinkage=0.05


Tree=4
num_leaves=15
num_cat=0
split_feature=4 9 9 0 2 8 8 5 1 2 7 3 5 8
split_gain=11.2136 8.76894 8.80521 6.78422 13.3362 5.6869 4.20792 2.67833 2.73059 1.75315 2.59704 0.64559 1.43301 0.000458836
threshold=17.663961677500026 0.3827745582672108 0.2833121140745733 62.413401165166547 0.16015376402896875 0.032289348883342811 0.021856701883126304 0.0058005409713722976 -0.001411236086554579 1.050001190086951 0.0052793510653693374 0.86747366276154003 0.0043440354739757133 0.024551492398575618
decision_type=2 2 2 2 2 2 2 2 2 2 2 2 2 2
left_child=3 2 5 4 6 -2 -1 8 -6 11 -11 13 -13 -3
right_child=1 9 -4 -5 7 -7 -8 -9 -10 10 -12 12 -14 -15
leaf_value=0.01950678040118627 -0.047116562337137916 -0.062942280479610799 0.064582047741302814 0.08089912896182852 -0.039530218921996471 0.032484324123484253 0.078791765858848603 -0.062796133440123622 0.018164823620602979 0.011977487592949414 -0.048741098253583817 -0.016186395504680092 -0.062116936394590483 -0.062094376405983379
leaf_weight=5.8430512100458198 6.0189794003963453 3.2603089958429354 4.9644282758235923 4.341022700071334 3.9967358261346835 3.5773620009422302 6.1364535838365555 3.3824992626905432 4.2120411843061412 3.3178458511829367 3.7532071620225906 3.2214554846286774 3.5913853794336319 3.1246837675571442
leaf_count=32 36 20 27 22 23 20 32 21 24 20 24 20 23 20
internal_value=-0.000153922 -0.0190767 0.0105233 0.0234588 0.01288 -0.0174426 0.0498753 -0.0253543 -0.00992607 -0.0403408 -0.020251 -0.0511043 -0.0403987 -0.0625273
internal_weight=62.7415 34.8297 14.5608 27.9118 23.5708 9.59634 11.9795 11.5913 8.20878 20.2689 7.07105 13.1978 6.81284 6.38499
internal_count=364 210 83 154 132 56 64 68 47 127 44 83 43 40
is_linear=0
shrinkage=0.05


Tree=5
num_leaves=15
num_cat=0
split_feature=4 9 0 0 2 8 10 2 8 5 1 4 8 2
split_gain=10.1232 8.15245 8.0364 5.80503 11.8288 5.36417 4.47908 3.74378 8.23808 2.56905 2.50959 1.61258 0.000707038 0.000331071
threshold=17.663961677500026 0.3827745582672108 44.978056835862539 62.413401165166547 0.16015376402896875 0.029809168627597041 0.56627220442299497 -0.14496838569041437 0.022388471096292845 0.0058005409713722976 -0.001411236086554579 31.318944367329411 0.025279895637545763 0.98765434774928362
decision_type=2 2 2 2 2 2 2 2 2 2 2 2 2 2
left_child=3 2 5 4 7 -2 -3 8 -1 10 -6 12 -8 -14
right_child=1 6 -4 -5 9 -7 11 -9 -10 -11 -12 -13 13 -15
leaf_value=-0.026689502012259187 -0.062223511384753585 0.014507218581715019 0.065279251157690218 0.074108000855799203 -0.038411161915585475 0.013168921236290404 -0.062381204785981706 0.086924214287610574 0.072773133983706939 -0.06202026739193648 0.017084321969717351 -0.029427358430311964 -0.061198497991269633 -0.06188643983509106
leaf_weight=3.8222960978746396 3.7586365193128568 3.2331014871597317 4.526463881134986 4.4975848793983451 3.9097535759210604 6.3372658342123032 3.3200274854898471 3.870349168777472 4.5719902962446213 3.2567586898803702 4.2534107714891398 6.1051782369613639 4.0226036161184311 3.0940292626619339
leaf_count=21 24 20 24 22 23 35 21 20 23 21 24 39 27 20
internal_value=-0.000184007 -0.0183868 0.00992066 0.0220331 0.0121443 -0.0148992 -0.0393184 0.0462411 0.0274833 -0.0244745 -0.00949528 -0.0498386 -0.0617787 -0.0614976
internal_weight=62.5794 34.3973 14.6224 28.1821 23.6846 10.0959 19.7749 12.2646 8.39429 11.4199 8.16316 16.5418 10.4367 7.11663
internal_count=364 210 83 154 132 59 127 64 44 68 47 107 68 47
is_linear=0
shrinkage=0.05


Tree=6
num_leaves=14
num_cat=0
split_feature=6 4 2 1 5 0 2 9 4 3 2 7 1
split_gain=11.023 6.12252 3.78176 6.87683 3.67314 7.15134 3.714 3.83133 3.42501 2.59974 2.22376 1.33282 0.000765492
threshold=0.0082353467265076832 16.727426070416232 0.16015376402896875 0.0023458749126141769 -0.0019204228571366984 44.806468779958102 -1.5140494183118343 0.20716579686628142 13.394747659830442 0.38947242695733159 1.7927265284205529 0.0050603000587382497 0.01648186233415672
decision_type=2 2 2 2 2 2 2 2 2 2 2 2 2
left_child=1 2 8 -4 5 6 -3 -8 -1 -6 11 -2 -13
right_child=10 4 3 -5 9 -7 7 -9 -10 -11 -12 12 -14
leaf_value=0.028918507756987222 -0.02847144871739396 0.032704628690089985 -0.020344162855402189 0.063535585279084789 -0.053176105839872978 0.066943338217971091 -0.062652918518928416 0.0053617600563915409 0.085597003446880801 0.00056758819069695112 0.00096494344261836926 -0.061762113465795965 -0.060692417478635942
leaf_weight=6.5792096704244631 5.7946324199438077 3.5672813057899448 6.7412062734365445 3.8327967077493668 5.2285545468330401 4.0598735660314551 4.1016179621219635 4.1813221871852875 4.4806621968746185 3.9501789212226868 3.1537978798151007 3.3586129397153854 3.3313995450735092
leaf_count=33 36 20 39 21 33 21 26 23 22 25 20 22 23
internal_value=-0.000213277 0.0119484 0.0314399 0.01006 -0.00485886 0.00967241 -0.00994855 -0.0283183 0.0518805 -0.0300469 -0.0365487 -0.0460251 -0.0612294
internal_weight=62.3611 46.7227 21.6339 10.574 25.0888 15.9101 11.8502 8.28294 11.0599 9.17873 15.6384 12.4846 6.69001
internal_count=364 263 115 60 148 90 69 49 55 58 101 81 45
is_linear=0
shrinkage=0.05


Tree=7
num_leaves=16
num_cat=0
split_feature=6 4 10 5 9 3 3 0 2 10 10 5 6 5 6
split_gain=10.1149 5.4348 4.058 4.55377 4.46473 3.88133 3.65492 3.3372 8.54948 2.61877 2.51079 2.49571 1.52702 1.39 0.000601554
threshold=0.0082353467265076832 16.727426070416232 0.5545360870385293 0.00059725038975637281 0.069293287044037838 -0.4049010344611717 -1.4355560334271185 61.757873471846189 0.16015376402896875 1.0687762061034307 0.88401654303062105 0.011093255350164567 -0.001790187227118125 0.0053372895492445104 0.017239983798240963
decision_type=2 2 2 2 2 2 2 2 2 2 2 2 2 2 2
left_child=1 7 -3 4 -4 6 -6 8 10 11 -1 13 -10 -2 -11
right_child=9 2 3 -5 5 -7 -8 -9 12 14 -12 -13 -14 -15 -16
leaf_value=0.081024583722934793 -0.013803160392157288 0.036032405437103926 -0.0497209141039174 -0.061327025709000199 0.027378873872475146 0.051046149527422549 -0.04081983735802714 0.069382604856034924 -0.038901227852449947 -0.061884675773795174 0.028934238311911682 0.017365068638282379 0.0038144067341196668 -0.061239823527385766 -0.060880966293028964
leaf_weight=4.2829828858375603 3.1023979634046537 4.9181804358959225 3.8057145029306438 4.1450516134500495 3.74838711321354 4.2230236083269093 4.1281707733869553 4.2239688932895652 4.028602838516238 3.0488793104887 5.030281275510788 3.1339289546012878 4.3528780043125108 3.074830636382103 2.924855500459671
leaf_count=21 20 28 24 28 21 23 24 20 24 20 25 20 25 21 20
internal_value=-0.000232415 0.0112824 -0.00466703 -0.0146503 -0.00248591 0.012371 -0.00836465 0.0294511 0.0199189 -0.0355548 0.0528895 -0.0189777 -0.0167171 -0.0374156 -0.0613932
internal_weight=62.1721 46.8872 24.9685 20.0503 15.9053 12.0996 7.87656 21.9187 17.6947 15.2849 9.31326 9.31116 8.38148 6.17723 5.97373
internal_count=364 263 148 120 92 68 45 115 95 101 46 61 49 41 40
is_linear=0
shrinkage=0.05


Tree=8
num_leaves=14
num_cat=0
split_feature=2 4 10 0 2 0 9 9 3 4 4 4 7
split_gain=9.38614 8.76723 5.7029 5.40135 6.52713 5.14127 3.21585 8.70143 2.10418 2.10402 1.62007 2.44886 0.00136842
threshold=-1.6991432370112147 17.663961677500026 0.5545360870385293 62.413401165166547 0.16015376402896875 44.667021581297398 0.3827745582672108 0.25352087793268957 -0.16559796247871741 13.394747659830442 31.318944367329411 41.654225480899704 0.0051526609989067098
decision_type=2 2 2 2 2 2 2 2 2 2 2 2 2
left_child=-1 3 -3 4 5 -2 7 -4 -6 -10 12 -12 -8
right_child=1 2 6 -5 8 -7 10 -9 9 -11 11 -13 -14
leaf_value=0.071222216127182089 -0.0023165471984157803 0.024152623260987466 -0.061858272187291896 0.063252388810166024 0.0099815730621724465 0.063250346149285375 -0.060974456356867969 0.035730873833935896 -0.061863454199988156 -0.0095786169940094562 0.0038956567508404449 -0.060566317092729888 -0.059784315644494136
leaf_weight=4.2762288749217978 6.0121396780014091 5.0363720059394863 4.3539856821298617 4.7422004491090766 3.3760337382555035 5.947390079498291 5.4122282266616804 4.8048763126134872 4.1018347442150072 3.6242613196372986 3.0479700267314902 2.8518285602331161 4.3616741448640823
leaf_count=22 31 29 29 22 20 29 37 25 27 21 20 20 32
internal_value=-0.000252307 -0.00555188 -0.0243606 0.0146538 0.00466038 0.0302894 -0.0341997 -0.0106615 -0.0229479 -0.037337 -0.0479541 -0.0272638 -0.0604433
internal_weight=61.949 57.6728 29.8689 27.8039 23.0617 11.9595 24.8326 9.15886 11.1021 7.7261 15.6737 5.8998 9.7739
internal_count=364 342 192 150 128 60 163 54 68 48 109 40 69
is_linear=0
shrinkage=0.05


Tree=9
num_leaves=15
num_cat=0
split_feature=2 4 10 0 2 2 8 9 9 3 7 4 4 7
split_gain=8.22843 8.01793 5.27769 4.73199 5.87435 4.65115 5.95019 3.07825 8.05991 1.96111 2.06841 1.6025 2.34018 0.00114403
threshold=-1.6991432370112147 17.663961677500026 0.5545360870385293 62.413401165166547 0.16015376402896875 -0.14496838569041437 0.022388471096292845 0.3827745582672108 0.25352087793268957 -0.16559796247871741 0.0053706854143977661 31.318944367329411 41.654225480899704 0.0051526609989067098
decision_type=2 2 2 2 2 2 2 2 2 2 2 2 2 2
left_child=-1 3 -3 4 5 6 -2 8 -4 -6 -11 13 -13 -9
right_child=1 2 7 -5 9 -7 -8 11 -10 10 -12 12 -14 -15
leaf_value=0.065518218581739326 -0.040094259958817019 0.02264306903449316 -0.061158263228997728 0.058759818383652934 0.0094281398755199433 0.071026190804006045 0.046753982997801688 -0.060327722527611455 0.033375519820063378 -0.0099767144850712013 -0.062316137760278417 0.0036917051885926085 -0.059948049078574962 -0.059217417886138435
leaf_weight=4.4123707860708228 3.7265408039093018 5.1017821282148388 4.1878379359841365 4.8466948270797721 3.3949950784444836 4.1877884566783958 4.1892703622579575 5.2020583748817426 4.8846252411603928 3.74957655370235 3.8013215884566307 3.0553460717201224 2.7400096207857132 4.1876622587442398
leaf_count=22 20 29 29 22 20 20 20 37 25 23 25 20 20 32
internal_value=-0.000273576 -0.00534379 -0.0235824 0.0138514 0.00440839 0.0284126 0.00586828 -0.0333044 -0.0102612 -0.0221347 -0.0363258 -0.0470719 -0.0263968 -0.0598325
internal_weight=61.6679 57.2555 29.3593 27.8962 23.0495 12.1036 7.91581 24.2575 9.07246 10.9459 7.5509 15.1851 5.79536 9.38972
internal_count=364 342 192 150 128 60 40 163 54 68 48 109 40 69
is_linear=0
shrinkage=0.05


Tree=10
num_leaves=14
num_cat=0
split_feature=2 4 10 0 2 2 9 9 2 5 4 4 7
split_gain=7.24555 7.33509 4.88743 4.16267 5.3362 3.20238 2.94551 7.47776 2.57791 2.35041 1.58601 2.23751 0.000958125
threshold=-1.6991432370112147 17.663961677500026 0.5545360870385293 62.413401165166547 0.22650370252174865 -0.032943524239723208 0.3827745582672108 0.25352087793268957 -0.5588431080987587 0.0036996513035816893 31.318944367329411 41.654225480899704 0.0051526609989067098
decision_type=2 2 2 2 2 2 2 2 2 2 2 2 2
left_child=-1 3 -3 4 5 8 7 -4 -2 -6 12 -12 -8
right_child=1 2 6 -5 9 -7 10 -9 -10 -11 11 -13 -14
leaf_value=0.060536529453729615 0.030789961054396572 0.021249479169259712 -0.060506455553680429 0.054761216182122666 -0.00028847618252468511 0.060524729238286806 -0.059725277450549556 0.031224516662539017 -0.021584996229522552 -0.050611031759363379 0.0034988986162447396 -0.059371631979241557 -0.058688247163735476
leaf_weight=4.5334064960479727 5.4032927453517932 5.1629204303026226 4.0254169479012507 4.9380880445241919 4.7037526220083219 4.1704949885606792 4.9969960898160917 4.9580950140953064 4.1568777710199356 4.5794058293104172 3.0623393207788459 2.6310391873121262 4.0184325203299522
leaf_count=22 27 29 29 22 28 21 37 25 21 31 20 20 32
internal_value=-0.000293935 -0.00514842 -0.0228318 0.0131064 0.00416852 0.0239653 -0.0324378 -0.00987916 0.0080167 -0.0251127 -0.0462156 -0.025555 -0.059263
internal_weight=61.3406 56.8072 28.8552 27.9519 23.0138 13.7307 23.6923 8.98351 9.56017 9.28316 14.7088 5.69338 9.01543
internal_count=364 342 192 150 128 69 163 54 48 59 109 40 69
is_linear=0
shrinkage=0.05


Tree=11
num_leaves=14
num_cat=0
split_feature=6 4 8 4 4 6 3 0 5 5 7 7 6
split_gain=7.40986 3.99362 4.41261 3.10269 3.43454 2.81236 3.87606 2.51745 7.96352 4.85075 2.30239 3.32375 0.194859
threshold=0.0082353467265076832 16.727426070416232 0.024710395586075434 20.381264939309187 18.071704602834192 -0.0056408927354319313 0.45716334171635004 44.978056835862539 -0.0012685137895709811 -0.010918234660104791 0.0052296363027261421 0.0044912738276092663 0.021720228924201453
decision_type=2 2 2 2 2 2 2 2 2 2 2 2 2
left_child=1 2 5 4 -3 -1 -7 9 -9 -5 11 -2 -12
right_child=10 3 -4 7 -6 6 -8 8 -10 -11 12 -13 -14
leaf_value=-0.013998277851526972 -0.046424722587988909 -0.00093150956779364897 0.061652322390963105 0.035251800793708495 -0.061939212880706696 0.054966393889965853 -0.0082621550539668815 0.077441359761612719 -0.028706268511632705 -0.043419578910302459 -0.042593627133618535 0.022281193546696706 -0.059602266856972119
leaf_weight=6.6222596317529723 3.5211003050208074 5.3395175188779849 5.8830268681049338 3.4068662151694271 4.0619225203990936 5.7003339529037476 4.2169145792722702 4.0193978250026703 3.1530538275837889 4.6116071343421945 2.854295551776886 3.5199830010533333 4.1067246496677399
leaf_count=37 25 30 29 19 28 26 23 20 23 28 22 23 31
internal_value=-0.000308771 0.00920009 0.0244615 -0.00471475 -0.0272901 0.0112328 0.028081 0.0092568 0.0307782 -0.00999391 -0.0322367 -0.0120772 -0.052628
internal_weight=61.017 47.0149 22.4225 24.5924 9.40144 16.5395 9.91725 15.1909 7.17245 8.01847 14.0021 7.04108 6.96102
internal_count=364 263 115 148 58 86 49 90 43 47 101 48 53
is_linear=0
shrinkage=0.05


Tree=12
num_leaves=16
num_cat=0
split_feature=5 4 9 9 3 0 2 2 5 1 2 7 3 5 7
split_gain=6.92721 7.02333 3.19284 7.09423 6.85371 3.05487 6.02765 2.81298 2.30169 2.12718 1.85433 2.51182 0.771904 1.5006 0.00144017
threshold=-0.013551867330602941 17.663961677500026 0.1605389987682487 0.3827745582672108 -1.0110147518666983 62.413401165166547 0.16015376402896875 -0.14496838569041437 0.0058005409713722976 -0.001411236086554579 1.050001190086951 0.0052793510653693374 0.86747366276154003 0.0043440354739757133 0.0050995239106004916
decision_type=2 2 2 2 2 2 2 2 2 2 2 2 2 2 2
left_child=-1 5 -3 4 -4 6 7 -2 9 -8 12 -12 14 -14 -5
right_child=1 2 3 10 -6 -7 8 -9 -10 -11 11 -13 13 -15 -16
leaf_value=0.07293643352140089 0.012140573508880006 -0.061823446814340634 -0.022191218059169793 -0.060329023108056594 0.066938520596611095 0.048941667860009128 -0.035389829732053311 0.062291855003014977 -0.059965434342221603 0.016587567548692003 0.021292537609455736 -0.042965505948167788 -0.0069309758699161606 -0.058707469454415101 -0.058668450193636527
leaf_weight=3.0642302110791197 7.7972513288259506 4.1498406976461437 4.3149356842041016 2.7682882249355334 4.3124703764915484 5.0573030561208716 3.6601629704237011 4.3592286556959206 2.8309425786137581 4.2587152123451189 3.0019400119781485 3.0823496356606483 2.7962441295385361 2.8013225868344307 2.4712828248739243
leaf_count=15 39 29 23 20 21 22 23 20 21 24 20 24 20 23 20
internal_value=-0.000319883 -0.0042128 -0.0211454 -0.0145382 0.0223609 0.0137704 0.00600525 0.0301245 -0.0212701 -0.00743676 -0.0333512 -0.0112611 -0.0457532 -0.0328427 -0.0595458
internal_weight=60.7265 57.6623 29.6987 25.5488 8.62741 27.9636 22.9063 12.1565 10.7498 7.91888 16.9214 6.08429 10.8371 5.59757 5.23957
internal_count=364 349 200 171 44 149 127 59 68 47 127 44 83 43 40
is_linear=0
shrinkage=0.05


Tree=13
num_leaves=14
num_cat=0
split_feature=2 10 7 10 7 9 0 10 3 7 1 8 8
split_gain=5.58793 4.30661 4.15749 4.1006 3.1856 3.79068 4.19498 4.3267 5.86841 1.81369 1.38762 0.935755 0.0153737
threshold=-1.6991432370112147 0.49598969545674548 0.0038280816078601217 0.38073733288973438 0.0073095631670488893 1.0012147549388948 51.422023579910636 0.85525193773318153 -0.4049010344611717 0.0052113651958190363 0.0075012129864824315 0.023913792713002553 0.024551492398575618
decision_type=2 2 2 2 2 2 2 2 2 2 2 2 2
left_child=-1 3 -3 -2 5 6 7 -4 11 10 -8 -9 -11
right_child=1 2 4 -5 -6 -7 9 8 -10 12 -12 -13 -14
leaf_value=0.051860382719756473 -0.00043494696991486947 0.050034006604002139 -0.040815801961876633 0.067484332764312635 0.018337210118896264 0.028447905953228103 -0.0070095322592786244 0.0013918047259553557 0.056627709558920103 -0.061839299951303155 -0.047466237519744686 -0.036791760639131692 -0.057528129067373437
leaf_weight=4.7264565080404273 5.6563036739826185 2.6310559362173072 6.304126754403117 3.660428449511528 6.2578441277146331 3.6168008968234053 4.310503229498865 3.0308677479624757 4.2963531687855694 4.3480232506990415 4.1697577983140945 3.409533679485321 3.9433207213878632
leaf_count=22 30 11 39 20 36 21 26 19 22 30 32 21 35
internal_value=-0.000333762 -0.00476791 -0.011007 0.0262497 -0.0146832 -0.0202039 -0.025408 -0.00793619 0.0113692 -0.0431603 -0.0269022 -0.0188225 -0.0597889
internal_weight=60.3614 55.6349 46.3182 9.31673 43.6871 37.4293 33.8125 17.0409 10.7368 16.7716 8.48026 6.4404 8.29134
internal_count=364 342 292 50 281 245 224 101 62 123 58 40 65
is_linear=0
shrinkage=0.05


Tree=14
num_leaves=15
num_cat=0
split_feature=2 4 0 9 9 10 4 4 0 10 7 2 3 2
split_gain=4.96763 6.26632 3.83645 5.10957 5.24582 4.30258 4.72254 3.27095 2.78428 1.52758 2.84134 2.76438 0.241252 0.00146416
threshold=-1.6991432370112147 40.393967073125623 39.957644673378674 0.3827745582672108 0.20716579686628142 0.43265991826869576 17.628524676563995 30.285485273516283 44.806468779958102 1.2962398401819579 0.0049011763975089018 0.61306541765755418 0.65735416730133556 1.0314435071073997
decision_type=2 2 2 2 2 2 2 2 2 2 2 2 2 2
left_child=-1 2 -2 4 -4 -5 9 12 -6 10 -7 -12 -8 -14
right_child=1 -3 3 5 8 6 7 -9 -10 -11 11 -13 13 -15
leaf_value=0.048401654534723421 -0.038315125065053655 -0.060034502567854933 -0.011221561530317083 0.038862878742911153 0.025312987511267461 -0.034714346115103469 -0.04015828035780613 0.0088563653964920629 0.082566246362014817 0.03181748684765557 0.044120829894648939 -0.018302510668234285 -0.05762473053709808 -0.0591901347910328
leaf_weight=4.8087708353996268 5.6475063934922209 4.6646751165390006 4.6215403899550429 4.68042725324631 4.1011250615119916 4.633888244628908 2.6125645637512189 2.8634540364146224 4.4036479741334915 3.9188109934329978 3.8756487742066383 3.2699040621519089 3.1551815569400787 2.8367164880037308
leaf_count=22 35 36 25 26 20 26 21 20 20 21 20 22 28 22
internal_value=-0.000341802 -0.00458157 0.000528418 0.00540623 0.0316573 -0.00541376 -0.0130421 -0.037433 0.0549579 0.00477593 -0.00422032 0.015555 -0.0528375 -0.0583658
internal_weight=60.0939 55.2851 50.6204 44.9729 13.1263 31.8466 27.1662 11.4679 8.50477 15.6983 11.7794 7.14555 8.60446 5.9919
internal_count=364 342 306 271 65 206 180 91 40 89 68 42 71 50
is_linear=0
shrinkage=0.05


Tree=15
num_leaves=15
num_cat=0
split_feature=6 6 6 6 10 8 10 8 2 9 6 5 1 6
split_gain=5.83869 4.40155 4.68184 3.88451 5.6379 4.31226 2.68915 3.20787 2.54394 3.44423 2.50942 1.64512 1.4415 0.00328307
threshold=-0.02026061981320414 0.0082353467265076832 -0.0069540695798290869 -0.0045116756564436864 0.49598969545674548 0.015856655598880002 1.0687762061034307 0.034950135250999943 0.16015376402896875 0.1605389987682487 0.000763981094027788 0.00037876339658216783 0.0023458749126141769 0.017239983798240963
decision_type=2 2 2 2 2 2 2 2 2 2 2 2 2 2
left_child=-1 2 8 -4 -5 -6 7 -3 9 -2 11 -7 -12 -8
right_child=1 6 3 4 5 10 13 -9 -10 -11 12 -13 -14 -15
leaf_value=0.072484377666524005 -0.049436565359351196 0.0094433683026982195 0.062822960858156543 0.053690989890954936 0.038497905068385865 0.014274722333756387 -0.060264661153938116 -0.05821956952923471 -0.061166647752966458 0.011901504218605365 -0.062198496028264688 -0.026725199610894382 -0.014811827056739016 -0.057644690248233044
leaf_weight=2.6304430589079848 3.4806373417377454 5.5693600773811323 3.655857026576995 5.4052590280771318 4.8143773674964931 6.9193464070558566 2.549759365618228 2.5554076954722404 3.0508183240890494 6.6826170906424522 3.3845364078879348 3.7849935069680214 3.052153654396534 2.2516101002693176
leaf_count=12 22 39 18 26 24 35 20 22 21 35 24 25 21 20
internal_value=-0.000351077 -0.00370308 0.0037978 0.0144157 0.00794766 -0.00331402 -0.0293696 -0.011838 -0.0211249 -0.00910511 -0.0150577 -0.000222616 -0.0397287 -0.059036
internal_weight=59.7872 57.1567 44.2306 31.0165 27.3607 21.9554 12.9261 8.12477 13.2141 10.1633 17.141 10.7043 6.43669 4.80137
internal_count=364 352 251 173 155 129 101 61 78 57 105 60 45 40
is_linear=0
shrinkage=0.05


Tree=16
num_leaves=15
num_cat=0
split_feature=6 6 3 5 5 4 7 9 9 7 7 7 1 8
split_gain=5.17645 4.06074 5.26569 3.35797 2.96284 4.05974 2.63596 3.47494 2.31641 1.70665 1.53984 2.97638 1.13635 0.00038816
threshold=-0.02026061981320414 0.0082353467265076832 -0.46767848626900416 -0.0012685137895709811 0.006846558544682105 10.821603823356241 0.0054332615536783167 0.23331603134131468 1.0012147549388948 0.0050603000587382497 0.0065078666552739108 0.0049011763975089018 -0.0059026675624693761 0.02739922208220626
decision_type=2 2 2 2 2 2 2 2 2 2 2 2 2 2
left_child=-1 2 6 -4 5 -5 12 -8 9 -3 11 -7 -2 -11
right_child=1 8 3 4 -6 10 7 -9 -10 13 -12 -13 -14 -15
leaf_value=0.067538021146662852 -0.023275765100094881 -0.016159169062380158 0.047669572202549193 0.0385844273184704 0.050261826412747193 -0.032497578976998939 -0.03450335639707186 0.02122684048963322 0.014165497162885735 -0.057980104897343704 -0.04632172214398951 0.028193426670426187 -0.065245336540618162 -0.057145242845419143
leaf_weight=2.6805697605013838 3.470414474606514 4.4685893878340703 6.9451169818639746 4.4838280379772284 3.2997549176216117 4.6086219400167447 4.9245297387242299 6.474618636071682 2.5392785593867293 2.4891791343688965 3.3037940412759772 3.5967037975788116 3.0131031051278105 3.159396305680275
leaf_count=12 21 33 35 19 20 28 31 35 16 22 23 20 19 30
internal_value=-0.000359665 -0.00356527 0.00359653 0.0178569 0.00712469 -0.0017756 -0.0173265 -0.00284908 -0.0285314 -0.0392478 -0.0174994 -0.00589442 -0.0427804 -0.0575131
internal_weight=59.4575 56.7769 44.1205 26.2378 19.2927 15.9929 17.8827 11.3991 12.6564 10.1172 11.5091 8.20533 6.48352 5.64858
internal_count=364 352 251 145 110 90 106 66 101 85 71 48 40 52
is_linear=0
shrinkage=0.05


Tree=17
num_leaves=13
num_cat=0
split_feature=6 4 8 10 10 8 6 10 7 7 5 1
split_gain=4.69012 2.86399 3.28685 3.0899 2.77278 2.8913 2.74302 2.66308 3.07214 2.409 2.73502 0.00315801
threshold=0.0082353467265076832 16.727426070416232 0.024710395586075434 1.2962398401819579 1.2370180817679597 0.021856701883126304 -0.0056408927354319313 1.0687762061034307 0.0052296363027261421 0.0051883750438041672 -0.0071928505150923219 0.012786880459748186
decision_type=2 2 2 2 2 2 2 2 2 2 2 2
left_child=1 2 3 6 5 -3 -1 8 -2 -7 -11 -9
right_child=7 4 -4 -5 -6 9 -8 11 -10 10 -12 -13
leaf_value=-0.034766985445158029 0.018185127938136154 -0.036256185591529211 0.0510631160488937 0.042651339662052597 -0.037397059558606886 -0.015610131232013075 0.014124240779851993 -0.059640355522150558 -0.044484524381246088 -0.002112209559592018 0.04978980538944127 -0.056984822781810475
leaf_weight=4.7651298195123708 4.3161704167723638 3.6351622343063417 6.0831845775246611 4.66107054054737 5.217986933887004 4.86583238095045 7.2090305089950579 2.4084141105413437 3.5754963457584381 4.5142107605934152 5.7987402528524372 2.0920823514461517
leaf_count=28 29 24 29 23 35 30 35 20 32 26 33 20
internal_value=-0.000364327 0.00688492 0.0196132 0.00811253 -0.00514763 0.00379664 -0.00533207 -0.0277127 -0.0102088 0.0133889 0.0270711 -0.0584059
internal_weight=59.1425 46.7503 22.7184 16.6352 24.0319 18.8139 11.9742 12.3922 7.89167 15.1788 10.313 4.5005
internal_count=364 263 115 86 148 113 63 101 61 89 59 40
is_linear=0
shrinkage=0.05


Tree=18
num_leaves=14
num_cat=0
split_feature=5 4 10 0 5 7 6 7 7 4 10 5 4
split_gain=4.51593 4.91276 4.07419 2.96062 8.07753 2.80535 2.67815 3.46739 2.8661 1.46018 1.06097 0.637524 0.00108725
threshold=-0.013551867330602941 17.663961677500026 1.0483171542114289 44.978056835862539 -0.0012685137895709811 0.0052296363027261421 0.0053229337918348904 0.0049011763975089018 0.006525761014304801 11.228339640711459 0.85525193773318153 -0.0019204228571366984 29.7964357362528
decision_type=2 2 2 2 2 2 2 2 2 2 2 2 2
left_child=-1 6 3 -3 -5 -6 7 9 -9 -2 -10 -4 -13
right_child=1 2 11 4 5 -7 -8 8 10 -11 -12 12 -14
leaf_value=0.056937717523009579 0.016032799407685729 -0.036343163795044729 -0.030886981971001506 0.070344485936333453 0.0085750496508286318 -0.046515336369766291 -0.026916676466205571 0.057899056435182297 0.031253345682598195 -0.022525053794609621 -0.0060245925601489364 -0.056472370574416314 -0.057918361331978675
leaf_weight=3.248569779098033 4.4457172453403526 5.3293899968266549 4.1331955716013908 3.7039916217327145 4.9821531102061218 4.3099568784236908 3.9818764552474013 6.4371073693037015 3.8153748288750648 5.4845022708177567 3.8194850161671638 2.6009711325168592 2.5989929139614105
leaf_count=15 19 34 26 18 35 38 27 32 20 31 20 26 23
internal_value=-0.000365114 -0.00371061 -0.0186547 -0.00495967 0.00790995 -0.0169775 0.0110597 0.0173598 0.033324 -0.00526287 0.0126043 -0.0455445 -0.0571951
internal_weight=58.8913 55.6427 27.6587 18.3255 12.9961 9.29211 27.9841 24.0022 14.072 9.93022 7.63486 9.33316 5.19996
internal_count=364 349 200 125 91 73 149 122 72 50 40 75 49
is_linear=0
shrinkage=0.05


Tree=19
num_leaves=16
num_cat=0
split_feature=6 10 10 6 3 1 5 6 2 3 6 6 3 0 2
split_gain=4.05325 3.43668 4.30788 3.71175 3.02184 3.9507 2.73726 2.43674 2.13847 3.5287 1.46868 3.13996 0.573772 0.267141 0.0056991
threshold=-0.02026061981320414 0.49598969545674548 0.38073733288973438 0.0092780163180422957 -0.46767848626900416 -0.001964393549625187 0.01432525168625177 0.0041776409914572547 0.70298105294050672 0.45716334171635004 -0.00070871751054475956 -0.007968559361458764 -1.3317881529085127 59.620644862935663 1.0314435071073997
decision_type=2 2 2 2 2 2 2 2 2 2 2 2 2 2 2
left_child=-1 2 -2 4 10 -6 13 8 9 -7 11 12 -3 -5 -15
right_child=1 3 -4 6 5 7 -8 -9 -10 -11 -12 -13 -14 14 -16
leaf_value=0.058850383329316518 -0.0040445090657573969 -0.04802739160470567 0.063538482026215912 -0.037157034170537791 0.047675693430329839 -0.0016278510172154277 0.015073786735475561 0.028650164084482812 0.020674816875254087 -0.066593286160214288 -0.048462959898005614 0.019115021647466982 -0.017996489822689539 -0.056248180188778141 -0.059666640544848486
leaf_weight=2.7536409944295874 5.7466511577367765 3.3955417647957793 3.9985836297273636 2.3229648545384389 5.25993892550468 5.4306888058781748 1.9777577370405195 4.6808306053280822 3.27498785406351 3.398106686770916 3.3562516272067979 4.9430216252803794 2.992074191570282 2.9645997956395149 2.0709194839000702
leaf_count=12 30 23 21 20 26 29 16 30 20 21 24 26 18 31 17
internal_value=-0.000368531 -0.00329021 0.0236856 -0.00899672 -0.00184141 0.00986439 -0.0371477 -0.00198486 -0.0138322 -0.0266323 -0.0194114 -0.0108061 -0.0339604 -0.0511835 -0.0576541
internal_weight=58.5666 55.8129 9.74523 46.0677 36.7314 22.0446 9.33624 16.7846 12.1038 8.8288 14.6869 11.3306 6.38762 7.35848 5.03552
internal_count=364 352 51 301 217 126 84 100 70 50 91 67 41 68 48
is_linear=0
shrinkage=0.05


Tree=20
num_leaves=15
num_cat=0
split_feature=6 7 9 6 7 6 0 9 5 7 2 0 2 1
split_gain=3.73008 3.36827 3.04615 3.47361 2.44457 2.48896 4.48886 2.34979 2.271 1.97844 1.09333 0.72951 0.300485 0.00346975
threshold=0.0055509218902023523 0.0052296363027261421 0.71414355238165228 0.000763981094027788 0.0071948796864178682 -0.007968559361458764 35.238403381730684 0.20716579686628142 -0.0045178802741543877 0.0076991033654255107 0.9773622586286107 42.475480900811675 1.6051405721823746 0.015793468242096157
decision_type=2 2 2 2 2 2 2 2 2 2 2 2 2 2
left_child=2 10 3 4 5 6 -1 -7 -9 -6 -2 -8 13 -3
right_child=1 12 -4 -5 9 7 11 8 -10 -11 -12 -13 -14 -15
leaf_value=0.023596085941352804 -0.016371973635200935 -0.058520536805789392 0.048067032993630875 -0.040535338709159562 0.057827085708854892 -0.012334834560732038 -0.062780515458911987 0.055496395819830291 0.0068520094721526694 0.010753294359256134 0.019174185056792331 -0.027835772808799671 -0.03380816997443483 -0.055643174092206163
leaf_weight=3.6685058400034851 5.3459251523017866 2.4012390449643126 4.114672638475894 4.128193035721778 3.7800193354487401 6.0567039251327577 3.2252204269170761 4.1301874369382796 5.7253642678260848 5.4504812508821487 3.633572481572628 2.781575009226799 2.0092051774263382 1.8587585389614103
leaf_count=20 39 22 23 28 21 30 22 19 32 26 25 18 18 21
internal_value=-0.000372189 -0.0216234 0.00715328 0.00283074 0.00797243 1.51016e-05 -0.0199835 0.012175 0.0272375 0.0300307 -0.00198815 -0.0465986 -0.0497474 -0.0572651
internal_weight=58.3096 15.2487 43.0609 38.9463 34.8181 25.5876 9.6753 15.9123 9.85555 9.2305 8.9795 6.0068 6.2692 4.26
internal_count=364 125 239 216 188 141 60 81 51 47 64 40 61 43
is_linear=0
shrinkage=0.05


Tree=21
num_leaves=15
num_cat=0
split_feature=6 10 10 6 3 1 0 6 2 3 6 6 0 9
split_gain=3.5251 3.1214 3.72343 3.19147 2.95748 3.46283 2.39136 2.21808 1.91178 3.32695 1.20368 3.18671 0.283031 0.00560288
threshold=-0.019119326295810115 0.49598969545674548 0.38073733288973438 0.0092780163180422957 -0.46767848626900416 -0.001964393549625187 68.972435888881293 0.0041776409914572547 0.70298105294050672 0.45716334171635004 -0.007968559361458764 -0.00070871751054475956 59.620644862935663 0.80162172819748723
decision_type=2 2 2 2 2 2 2 2 2 2 2 2 2 2
left_child=-1 2 -2 4 10 -6 12 8 9 -7 -3 -12 -5 -14
right_child=1 3 -4 6 5 7 -8 -9 -10 -11 11 -13 13 -15
leaf_value=0.04950907391079977 -0.0038800878145553923 -0.038229245418124995 0.058575719779336149 -0.035444570142059359 0.044081740503159404 -0.0018477631093945489 0.010802914669639677 0.026826825521765608 0.01869556515336826 -0.065557730332661684 0.016625389950027328 -0.047111384067664269 -0.055603650593488443 -0.059100048191117006
leaf_weight=3.3383231759071341 5.7319575548171979 5.6484210193157187 4.0885303169488907 2.204282231628893 5.3341464474797204 5.4392670989036684 2.1044838726520538 4.7369181811809531 3.3269541785120955 3.2877310067415237 5.0221533477306357 3.2175314500927881 2.4617492035031319 2.1434571519494057
leaf_count=15 30 38 21 20 26 29 17 30 20 21 26 24 28 19
internal_value=-0.000372293 -0.00341389 0.0221219 -0.00899569 -0.00236565 0.00898655 -0.0357816 -0.00216254 -0.0135547 -0.0258493 -0.0204507 -0.00826331 -0.0501786 -0.057231
internal_weight=58.0859 54.7476 9.82049 44.9271 36.0131 22.125 8.91397 16.7909 12.054 8.727 13.8881 8.23968 6.80949 4.60521
internal_count=364 349 51 298 214 126 84 100 70 50 88 50 67 47
is_linear=0
shrinkage=0.05


Tree=22
num_leaves=15
num_cat=0
split_feature=4 6 0 9 9 5 6 4 9 0 4 3 3 8
split_gain=3.27673 2.71823 3.11713 6.42313 3.32039 4.5045 2.91188 4.78241 1.84565 1.79171 1.53946 1.29902 1.56539 0.0030608
threshold=40.393967073125623 -0.019119326295810115 44.667021581297398 0.3827745582672108 1.0012147549388948 0.004264586079027217 -0.0069540695798290869 13.739270402381949 0.20716579686628142 54.669091892361628 22.34433377563796 1.0901568516157483 0.70757802887197763 0.026027589622834042
decision_type=2 2 2 2 2 2 2 2 2 2 2 2 2 2
left_child=1 -1 8 -4 5 6 -5 -8 10 -9 -3 12 -7 -13
right_child=-2 2 3 4 -6 11 7 9 -10 -11 -12 13 -14 -15
leaf_value=0.04655781576821965 -0.041078093856424018 -0.063088863786725 0.047441925764612668 -0.029254877120860848 0.038665216332505747 -0.045429974575452614 0.061692164738937606 -0.026992886572988435 -0.0025217096129125753 0.025347241780779552 -0.013294107801021006 -0.058829264172968222 0.006290535954553686 -0.056110877091809674
leaf_weight=3.3715429902076712 4.5547740980982772 3.4219588339328748 7.9208569303154936 4.0296800211071959 4.0529970899224272 3.092993997037409 4.2911702543497139 4.0298235267400742 6.5377814024686813 2.7514771074056625 2.8406837433576584 2.1523135676980019 2.7760168686509132 1.9956251755356786
leaf_count=15 39 24 35 25 23 23 20 28 35 18 19 19 19 22
internal_value=-0.000373835 0.00310686 0.000170659 0.00751229 -0.00332947 -0.0101054 0.00713869 0.0203836 -0.0211039 -0.00575615 -0.0405024 -0.0361035 -0.0209664 -0.0575214
internal_weight=57.8197 53.2649 49.8934 37.093 29.1721 25.1191 15.1022 11.0725 12.8004 6.7813 6.26264 10.0169 5.86901 4.14794
internal_count=364 325 310 232 197 174 91 66 78 46 43 83 42 41
is_linear=0
shrinkage=0.05


Tree=23
num_leaves=14
num_cat=0
split_feature=6 7 4 4 4 4 10 9 7 7 2 2 6
split_gain=3.08693 3.12073 4.23251 2.77593 3.90056 3.72847 3.14503 2.90587 4.39806 2.30091 0.808454 0.322427 0.00460541
threshold=0.0055509218902023523 0.0052296363027261421 28.845001622616753 16.727426070416232 13.235596061429838 10.821603823356241 1.2370180817679597 0.1483124395353545 0.0052296363027261421 0.006405922049839175 0.9773622586286107 1.6296093211617073 0.016547053383068364
decision_type=2 2 2 2 2 2 2 2 2 2 2 2 2
left_child=3 2 10 4 5 -1 7 -5 -9 -6 -2 12 -3
right_child=1 11 -4 6 9 -7 -8 8 -10 -11 -12 -13 -14
leaf_value=0.029200806080453941 -0.044486150308993763 -0.058419838034992011 0.045394548900760848 -0.031627118144370907 0.020050732736697868 -0.027350576481987937 -0.043590467897475463 -0.016405578290477851 0.043004778802059551 0.068851592878351922 -0.0068471007591580715 -0.031258468367033991 -0.055015371548959871
leaf_weight=5.5806858092546481 3.0684354156255704 1.8993038535118096 3.1177746206521988 4.3603494316339555 5.2422911375761014 6.1010290756821632 4.4781684800982466 5.7545303851366025 6.7917622476816177 4.4791404753923416 2.6663647964596748 1.8247104585170744 2.0826103463768959
leaf_count=24 25 18 20 30 27 35 32 34 37 20 19 17 26
internal_value=-0.000376648 -0.0201785 -0.00149446 0.00640747 0.0191374 -0.000334381 -0.00633342 0.00353509 0.0157554 0.0425357 -0.0269861 -0.0486634 -0.0566392
internal_weight=57.4472 14.6592 8.85257 42.788 21.4031 11.6817 21.3848 16.9066 12.5463 9.72143 5.7348 5.80662 3.98191
internal_count=364 125 64 239 106 59 133 101 71 47 44 61 44
is_linear=0
shrinkage=0.05


Tree=24
num_leaves=16
num_cat=0
split_feature=2 4 9 9 1 10 0 4 4 6 0 8 10 2 0
split_gain=3.05816 4.48759 3.07106 5.1061 3.88734 5.23973 3.75942 3.18348 4.03894 2.86249 2.35011 1.41496 0.839515 0.272871 0.00169217
threshold=-1.6991432370112147 40.393967073125623 0.20716579686628142 0.3827745582672108 -0.0071874004296106344 0.4759573292224421 44.667021581297398 17.628524676563995 31.318944367329411 0.0055509218902023523 73.480312947725963 0.018832401814153087 1.152258709425994 1.3889481198075635 59.092255719553116
decision_type=2 2 2 2 2 2 2 2 2 2 2 2 2 2 2
left_child=-1 2 10 6 -5 -6 -4 9 13 11 12 -7 -2 14 -9
right_child=1 -3 3 4 5 7 -8 8 -10 -11 -12 -13 -14 -15 -16
leaf_value=0.037387535992058095 -0.062588627201683511 -0.057752938201228281 0.0067185897270004681 -0.05393077465028049 0.052088297801390938 0.041004401466802939 0.068579919084229488 -0.057589607893616369 0.027805592097787574 -0.032589774584437743 0.0088777141450871854 0.0034013919221900051 -0.023457689678761631 -0.035082432269194885 -0.055672995301407735
leaf_weight=4.9009969234466544 3.2477230280637723 3.6042111515998831 4.984083414077757 3.4887005686759904 4.3953380584716895 4.7340430393815058 4.8418377488851547 2.4631106331944448 2.2241182327270508 3.292764998972415 2.9761460721492767 5.3053882718086243 2.3715193197131157 2.1346536949276924 2.1629157140851021
leaf_count=22 24 36 25 22 23 25 21 23 15 25 12 29 18 19 25
internal_value=-0.000376711 -0.00392055 6.98657e-05 0.00589294 -0.00429331 0.00218948 0.0372015 -0.00763811 -0.0306419 0.00786456 -0.027047 0.0211329 -0.046074 -0.0498699 -0.0566935
internal_weight=57.1276 52.2266 48.6223 40.027 30.201 26.7123 9.82592 22.317 8.9848 13.3322 8.59539 10.0394 5.61924 6.76068 4.62603
internal_count=364 342 306 252 206 184 46 161 82 79 54 54 42 67 48
is_linear=0
shrinkage=0.05


Tree=25
num_leaves=14
num_cat=0
split_feature=5 4 3 5 7 2 4 9 5 9 3 4 3
split_gain=2.95524 3.51646 2.4829 4.2191 2.63863 2.95764 2.98195 2.52966 4.16745 1.84104 1.52503 1.50132 0.00193227
threshold=-0.013551867330602941 40.393967073125623 -0.46767848626900416 -0.0012685137895709811 0.0052296363027261421 -0.14496838569041437 18.071704602834192 1.0012147549388948 0.0041237280120678061 0.5892420174882439 1.0901568516157483 11.014848249132919 1.8612089429639096
decision_type=2 2 2 2 2 2 2 2 2 2 2 2 2
left_child=-1 2 4 -4 -2 6 -6 8 9 11 -10 -5 -12
right_child=1 -3 3 7 5 -7 -8 -9 10 -11 12 -13 -14
leaf_value=0.045360765183902543 -0.046038571705358612 -0.04866113891410101 0.044759048747800338 0.019141474390655527 0.0093623142424524488 0.034547365209176499 -0.051904710261049647 0.035636427577316179 -0.015386320290965844 0.036190242382414209 -0.058037827221973641 -0.022316137698721032 -0.055809975976860049
leaf_weight=3.3238436430692664 4.9302772209048298 3.9447594135999671 6.4070862978696814 4.1176788061857277 4.2071829438209543 3.6976464167237255 3.7618454322218895 4.100819654762744 5.0811447948217374 4.6081901490688315 2.0151453912258153 4.6496487259864807 1.8824616670608518
leaf_count=15 33 38 32 17 22 22 28 23 36 26 20 30 22
internal_value=-0.00038333 -0.00323043 0.000393031 0.00835448 -0.0153707 -0.00241068 -0.0195593 -0.00046224 -0.00708443 0.0106035 -0.0334339 -0.00284508 -0.0569618
internal_weight=56.7277 53.4039 49.4591 32.8622 16.597 11.6667 7.96903 26.4551 22.3543 13.3755 8.97875 8.76733 3.89761
internal_count=364 349 311 206 105 72 50 174 151 73 78 47 42
is_linear=0
shrinkage=0.05


Tree=26
num_leaves=15
num_cat=0
split_feature=2 4 0 7 10 7 10 8 8 3 5 3 4 7
split_gain=2.72736 4.03226 2.8008 2.46904 4.31474 3.46992 2.79908 2.07815 3.67699 2.6322 2.27688 1.91405 1.31006 1.30125
threshold=-1.6991432370112147 40.393967073125623 39.957644673378674 0.0049011763975089018 1.2019867026824067 0.0046173534626465897 0.84008463521491539 0.030864325824119545 0.025480425013043446 0.50368824306473159 -0.003833732750117926 0.16496207668260615 17.663961677500026 0.0042809376661918511
decision_type=2 2 2 2 2 2 2 2 2 2 2 2 2 2
left_child=-1 2 -2 5 7 6 11 8 9 -5 -9 -4 -6 -8
right_child=1 -3 3 4 12 -7 13 10 -10 -11 -12 -13 -14 -15
leaf_value=0.035221858124779737 -0.03532854793222439 -0.057008953175237069 0.0051044573066329237 0.046156270295269849 9.5102088844273313e-05 -0.05156461953670715 0.0030475644217138618 0.036411369271016777 0.078512097386746471 -0.0089744517319955957 -0.023416814710810002 -0.047728343904793878 -0.045059840906197753 0.046569269528414378
leaf_weight=4.9100009799003592 5.0508792474865905 3.3278677985072127 3.4650465399026888 4.5328695550561005 3.3813298195600501 3.9582391381263724 3.5489538535475731 2.8431691974401474 3.8543001040816298 4.1447747573256493 3.6087026782333842 3.3929111436009407 3.0598108693957329 3.3280286267399788
leaf_count=22 35 36 18 26 18 26 20 13 22 27 28 24 29 20
internal_value=-0.000384293 -0.00377918 -0.00010168 0.00402481 0.0140059 -0.0103179 0.0015689 0.0260038 0.0378738 0.0198237 0.00294788 -0.0210341 -0.0213554 0.0241093
internal_weight=56.4069 51.4969 48.169 43.1181 25.425 17.6932 13.7349 18.9838 12.5319 8.67764 6.45187 6.85796 6.44114 6.87698
internal_count=364 342 306 271 163 108 82 116 75 53 41 42 47 40
is_linear=0
shrinkage=0.05


Tree=27
num_leaves=14
num_cat=0
split_feature=5 4 3 5 4 1 9 5 1 9 3 4 8
split_gain=2.53281 3.10066 2.29717 3.67715 2.24846 2.50898 2.24169 3.79258 1.87109 1.64035 1.49406 0.992964 0.00247002
threshold=-0.013551867330602941 40.393967073125623 -0.46767848626900416 -0.0012685137895709811 15.661733168300032 -0.0067735956634211716 1.0012147549388948 0.0041237280120678061 -0.0095422651977241629 0.5892420174882439 1.0901568516157483 11.127624702270223 0.025480425013043446
decision_type=2 2 2 2 2 2 2 2 2 2 2 2 2
left_child=-1 2 4 -4 -2 8 7 9 -6 11 -9 -5 -12
right_child=1 -3 3 6 5 -7 -8 10 -10 -11 12 -13 -14
leaf_value=0.041831144247324793 0.012758421451525349 -0.047345087364228426 0.041649401055352239 0.014184145444361092 -0.033145388108141834 -0.054497494511560218 0.033316337917900833 -0.01460648311796855 0.020660386779265506 0.033909905963484477 -0.057742199198528334 -0.019573728689881692 -0.055158808064164282
leaf_weight=3.3410156220197669 5.0393335670232799 3.6771664731204501 6.4769640862941733 4.3194138407707268 3.3220734521746644 4.8679085820913288 4.14565685391426 5.000690892338751 3.1457856521010399 4.6602311655879012 1.9198803901672366 4.3945476934313774 1.7859683036804197
leaf_count=15 26 38 32 18 24 38 23 36 17 26 19 29 23
internal_value=-0.000386933 -0.00306061 0.000257376 0.00791187 -0.0150297 -0.027383 -0.000420069 -0.00675408 -0.00697577 0.00996528 -0.0324368 -0.00284033 -0.0564972
internal_weight=56.0966 52.7556 49.0785 32.7034 16.3751 11.3358 26.2264 22.0807 6.46786 13.3742 8.70654 8.71396 3.70585
internal_count=364 349 311 206 105 79 174 151 41 73 78 47 42
is_linear=0
shrinkage=0.05


Tree=28
num_leaves=15
num_cat=0
split_feature=2 4 9 9 1 10 3 6 6 4 2 9 10 9
split_gain=2.34527 3.63986 2.68518 4.12431 3.50605 4.42453 3.09548 2.71506 3.03007 2.2949 1.44502 1.31156 0.755851 0.00443817
threshold=-1.6991432370112147 40.393967073125623 0.20716579686628142 0.3827745582672108 -0.0071874004296106344 0.4759573292224421 -0.78241894784842703 0.0076934289824871112 0.013614288562279564 16.485115461804668 -1.0000000180025095e-35 0.66637909628689107 1.152258709425994 0.86549859012273755
decision_type=2 2 2 2 2 2 2 2 2 2 2 2 2 2
left_child=-1 2 10 6 -5 -6 -4 9 13 11 12 -7 -2 -9
right_child=1 -3 3 4 5 7 -8 8 -10 -11 -12 -13 -14 -15
leaf_value=0.032520145139854927 -0.060113998165456095 -0.056346549272889596 0.0026105161353861973 -0.052464994433302048 0.047301990973195984 0.0029063288892723291 0.058806036100381764 -0.057039706693881059 0.0070274174026132676 -0.025047728541333136 9.2693799234956403e-05 0.03934862599208383 -0.02124127379095642 -0.060238716813412196
leaf_weight=4.9356341958045951 2.7981916144490242 3.0708376988768569 4.5000309646129608 3.3254586979746774 4.4767448008060553 5.8199166655540484 5.3807020485401136 2.3880469538271418 2.9580419585108757 4.3557178676128379 3.2233833968639356 4.2881152033805847 2.2608984187245369 1.9857816398143766
leaf_count=22 23 36 23 22 23 32 23 24 28 37 13 22 18 18
internal_value=-0.000385664 -0.00358073 -0.000188103 0.00524214 -0.00409534 0.00202711 0.0332126 -0.00727219 -0.0320583 0.00529221 -0.0260714 0.0183662 -0.0427418 -0.0584921
internal_weight=55.7675 50.8319 47.761 39.4786 29.5978 26.2724 9.88073 21.7956 7.33187 14.4637 8.28247 10.108 5.05909 4.37383
internal_count=364 342 306 252 206 184 46 161 70 91 54 54 41 42
is_linear=0
shrinkage=0.05


Tree=29
num_leaves=14
num_cat=0
split_feature=5 4 4 4 4 4 2 4 5 5 6 6 8
split_gain=2.1722 2.73284 2.27912 3.50496 2.5288 3.20662 2.12735 2.1038 1.73076 2.06856 1.54028 1.28773 0.995885
threshold=-0.013551867330602941 40.393967073125623 30.970826400388514 18.071704602834192 20.381264939309187 23.812699965815927 -0.73985208545437697 27.381785171372929 0.0073301814087009991 0.0041237280120678061 -0.005850485498323091 -0.0092971043290696349 0.019270093649377349
decision_type=2 2 2 2 2 2 2 2 2 2 2 2 2
left_child=-1 2 3 6 -5 -6 -2 -7 9 10 11 -8 -12
right_child=1 -3 -4 4 5 7 8 -9 -10 -11 12 -13 -14
leaf_value=0.038637623743280149 0.04084008994450003 -0.046045001706225136 0.035497088963116839 -0.060022812656677027 0.013324569879324675 -0.059342331297108843 0.0049088261167312226 0.0014282866089552304 0.034218768506524971 -0.037596992952532576 0.02934577392906737 -0.038097549318009509 -0.0023939462760491931
leaf_weight=3.3499907925724974 4.0626544952392569 3.4284632839262477 4.1676512286067 3.4228671155869952 6.3750982806086522 3.9204699471592903 3.8819238394498825 2.2366458289325237 3.5161701329052439 3.7026823833584777 5.9048916846513801 3.1554652228951516 4.2502924650907516
leaf_count=15 20 38 27 31 39 38 21 21 22 25 25 19 23
internal_value=-0.000387737 -0.00290064 0.000143155 -0.0031732 -0.0219341 -0.0115311 0.00733921 -0.0372667 0.00176385 -0.00369753 0.00360323 -0.0143746 0.0160616
internal_weight=55.3753 52.0253 48.5968 44.4292 15.9551 12.5322 28.4741 6.15712 24.4114 20.8953 17.1926 7.03739 10.1552
internal_count=364 349 311 284 129 98 155 59 135 113 88 40 48
is_linear=0
shrinkage=0.05


Tree=30
num_leaves=14
num_cat=0
split_feature=10 8 6 2 4 9 9 4 10 10 2 0 9
split_gain=2.08904 2.97432 2.67135 2.12235 1.70321 1.76751 2.68874 1.56085 2.79633 2.72765 0.979947 0.770438 0.0134671
threshold=0.49598969545674548 0.024275405970210901 0.0082353467265076832 1.7927265284205529 16.727426070416232 0.34216240308857276 0.1483124395353545 13.394747659830442 1.0483171542114289 0.98842772285655356 0.50725895077794636 59.620644862935663 0.83673400890671645
decision_type=2 2 2 2 2 2 2 2 2 2 2 2 2
left_child=1 -1 4 11 7 6 -6 9 -9 -2 -7 -4 -13
right_child=2 -3 3 -5 5 10 -8 8 -10 -11 -12 12 -14
leaf_value=-0.0065594589441438714 0.026034707615402681 0.048060151525088961 -0.021784659628471204 0.016611404055356029 -0.026671642888776499 -0.043375354032245239 0.02205525501732198 -0.0028761760589662813 0.056009576139599185 -0.027424739063272127 -0.0049719304352169452 -0.054473003736312642 -0.060329330096949942
leaf_weight=5.0643471106886846 4.6170120388269442 4.9080083891749382 2.5469536781311017 1.8920481838285921 4.7464662902057189 4.4889039881527415 7.0155942067503929 3.8139492943882924 4.2768696844577789 4.9379731863737106 2.6369259767234325 2.4953547641634941 1.6183003336191175
leaf_count=27 23 25 25 16 37 33 36 21 20 26 24 36 15
internal_value=-0.000386549 0.0203222 -0.00496698 -0.0301211 0.000921677 -0.00951317 0.00239198 0.012091 0.0282513 -0.00159289 -0.0291641 -0.0433962 -0.0567769
internal_weight=55.0587 9.97236 45.0864 8.55266 36.5337 18.8879 11.7621 17.6458 8.09082 9.55499 7.12583 6.66061 4.11366
internal_count=364 52 312 92 220 130 73 90 41 49 57 76 51
is_linear=0
shrinkage=0.05


Tree=31
num_leaves=15
num_cat=0
split_feature=2 9 9 1 6 9 7 8 4 8 8 4 1 9
split_gain=2.06866 2.5116 3.67007 2.8779 3.79946 2.88448 2.62912 2.3413 2.04932 1.19285 1.31115 0.820797 2.34814 0.00628387
threshold=-1.6991432370112147 0.20716579686628142 0.3827745582672108 -0.0071874004296106344 0.0055509218902023523 1.0012147549388948 0.0054332615536783167 0.018832401814153087 17.012662243752231 0.029890995508577652 0.022735609522396935 20.381264939309187 0.013266693532131725 0.79434605654144452
decision_type=2 2 2 2 2 2 2 2 2 2 2 2 2 2
left_child=-1 8 6 -4 7 11 -3 -5 -2 10 -9 -6 -13 -14
right_child=1 2 3 4 5 -7 -8 9 -10 -11 -12 12 13 -15
leaf_value=0.030510916756753138 -0.0079662581037611944 0.0053604895106690561 -0.05170440006782439 0.039397829365617448 -0.058108457715398104 0.021900338418505763 0.056518025277337861 -0.015897283497651744 -0.057480105394111719 -0.026828024225029098 0.028714398762336175 0.0054535968066551773 -0.053420457226045194 -0.057812362281149922
leaf_weight=4.93160256743431 5.2030976712703687 5.7457527816295606 3.2056955583393565 5.8967854157090249 2.9361334927380067 2.7696216925978652 4.4617242515087128 2.7294515371322614 3.4924787506461143 2.9840140715241432 4.1530582904815674 3.0464007891714573 1.6327243782579901 1.6250690110027788
leaf_count=22 24 27 22 30 29 17 21 15 36 24 25 27 28 17
internal_value=-0.000381253 -0.00343542 0.00171978 -0.00684775 -0.00167023 -0.0228573 0.0277216 0.014472 -0.0278529 -0.000425023 0.0110224 -0.0362726 -0.0261026 -0.0556112
internal_weight=54.8136 49.882 41.1864 30.979 27.7733 12.0099 10.2075 15.7633 8.69558 9.86652 6.88251 9.24033 6.30419 3.25779
internal_count=364 342 282 234 212 118 48 94 60 64 40 101 72 45
is_linear=0
shrinkage=0.05


Tree=32
num_leaves=12
num_cat=0
split_feature=5 4 4 4 7 3 1 10 5 4 3
split_gain=1.93556 2.40007 2.13938 4.13378 2.59799 2.42726 2.47984 1.98195 2.61276 1.43814 0.526464
threshold=-0.013551867330602941 40.393967073125623 28.845001622616753 23.812699965815927 0.0051883750438041672 -0.4049010344611717 -0.001964393549625187 0.66761196432168635 0.0017041309891333374 15.661733168300032 1.3344916025481883
decision_type=2 2 2 2 2 2 2 2 2 2 2
left_child=-1 2 3 4 5 -2 -7 -6 -9 -8 -5
right_child=1 -3 -4 10 7 6 9 8 -10 -11 -12
leaf_value=0.036557169350403082 -0.043948326767855594 -0.044853667115193348 0.029984083259510241 -0.059918897284939987 0.035353296803979285 0.033704017747639946 -0.00062912836435828027 0.022585796970575354 -0.026083229944446902 -0.038546235883153326 -0.024459647709949042
leaf_weight=3.3294729962944976 4.3521615564823177 3.1798687092959872 5.2931440845131865 3.1140390820801249 7.3210254907608059 3.7456643730402002 7.5050349533557856 6.5046022646129114 4.7871222570538521 3.7504425048828125 1.5767961181700227
leaf_count=15 30 38 36 28 39 18 38 38 37 25 22
internal_value=-0.000381995 -0.0027874 2.28276e-06 -0.00371805 0.00175307 -0.0110737 -0.00153609 0.0150902 0.00195258 -0.0132635 -0.0479995
internal_weight=54.4594 51.1299 47.95 42.6569 37.9661 19.3533 15.0011 18.6128 11.2917 11.2555 4.69084
internal_count=364 349 311 275 225 111 81 114 75 63 50
is_linear=0
shrinkage=0.05


Tree=33
num_leaves=13
num_cat=0
split_feature=2 4 0 7 10 8 4 2 6 3 1 0
split_gain=1.83344 2.09321 2.28559 2.16589 4.517 2.90667 1.42413 2.59392 3.16407 1.38349 1.33639 0.309908
threshold=-1.6991432370112147 38.51528750199035 39.957644673378674 0.0049011763975089018 1.3309195490156458 0.016801683812692481 13.235596061429838 1.050001190086951 0.000763981094027788 0.13140695230842833 0.0039223212677086403 45.72405917085117
decision_type=2 2 2 2 2 2 2 2 2 2 2 2
left_child=-1 2 -2 5 6 9 -5 8 11 -4 -7 -8
right_child=1 -3 3 4 -6 10 7 -9 -10 -11 -12 -13
leaf_value=0.028710337692958311 -0.033487982057355169 -0.043336404389855476 -0.015863187415772601 0.0011805887318594647 -0.038539121407559211 -0.015468086980392939 0.046174258384662423 0.067408839847144436 -0.022543061101731061 0.020838865054633792 -0.060641637197730081 0.026226386111098073
leaf_weight=4.9247732013463965 4.7495839819312087 3.059780601412057 4.3618770912289637 5.950748145580298 3.6485665477812281 3.5052512288093558 3.7101622074842435 3.5476388595998278 3.3239321820437908 6.2421398311853409 3.0721185579895973 4.0972785651683807
leaf_count=22 35 39 21 37 31 23 17 24 28 36 28 23
internal_value=-0.000378266 -0.00328587 -0.000633893 0.00312984 0.0127436 -0.010455 0.0218135 0.0301779 0.0183121 0.00574177 -0.0365675 0.0357058
internal_weight=54.1939 49.2691 46.2093 41.4597 24.2783 17.1814 20.6298 14.679 11.1314 10.604 6.57737 7.80744
internal_count=364 342 303 268 160 108 129 92 68 57 51 40
is_linear=0
shrinkage=0.05


Tree=34
num_leaves=14
num_cat=0
split_feature=10 10 6 5 5 5 7 10 10 8 4 10 6
split_gain=1.71085 2.69464 2.25669 2.34947 1.26078 4.57014 2.13123 3.78751 5.4191 2.94496 4.43968 2.14863 0.295535
threshold=0.49598969545674548 0.38073733288973438 0.0092780163180422957 0.01432525168625177 0.0038055467605073745 0.006846558544682105 0.0071948796864178682 0.83345602169799993 0.90264665399970268 0.022735609522396935 13.394747659830442 0.62127465295018636 0.013614288562279564
decision_type=2 2 2 2 2 2 2 2 2 2 2 2 2
left_child=1 -1 4 12 6 -6 7 11 -9 10 -10 -2 -4
right_child=2 -3 3 -5 5 -7 -8 8 9 -11 -12 -13 -14
leaf_value=-0.0030796762595592911 -0.0049116815528736334 0.049967959858607566 -0.057504560481429816 0.018692400226381554 -0.060695020651544029 0.020045561451832134 0.03110659371809333 0.077775730849667629 -0.030174140904825453 -0.031387838763670836 0.047888466034737558 -0.05523135196233149 -0.033652527861123625
leaf_weight=5.9232693314552289 4.4951378107070976 4.0176799520850182 3.01328445598483 1.8151540234684942 3.3697683140635482 3.6520270779728889 6.1378038153052321 2.662837926298379 2.9293139874935132 4.8289229907095432 4.8157580904662609 4.0173470005393028 2.282298780977726
leaf_count=31 26 21 33 16 27 25 32 14 15 31 28 30 35
internal_value=-0.000374948 0.0183598 -0.0046058 -0.0303981 0.000363251 -0.0187019 0.0048425 -0.00194522 0.0129794 -0.000742781 0.0183639 -0.0286593 -0.0472248
internal_weight=53.9606 9.94095 44.0197 7.11074 36.9089 7.0218 29.8871 23.7493 15.2368 12.574 7.74507 8.51248 5.29558
internal_count=364 52 312 84 228 52 176 144 88 74 43 56 68
is_linear=0
shrinkage=0.05


Tree=35
num_leaves=13
num_cat=0
split_feature=5 4 3 7 5 10 9 7 2 5 6 10
split_gain=1.64138 2.1779 1.94772 3.05636 5.35529 4.66939 4.37101 2.16653 2.25956 2.03644 1.49943 1.21043
threshold=-0.013551867330602941 40.393967073125623 -0.46767848626900416 0.0049011763975089018 0.00050182358417565694 1.0106323772537655 0.71414355238165228 0.0052296363027261421 -0.14496838569041437 0.0041237280120678061 -0.011282420679609681 0.84008463521491539
decision_type=2 2 2 2 2 2 2 2 2 2 2 2
left_child=-1 2 7 9 -5 6 -6 -2 10 11 -9 -4
right_child=1 -3 3 4 5 -7 -8 8 -10 -11 -12 -13
leaf_value=0.033762300468765716 -0.043892219158752903 -0.04398578122707536 -0.014831201089513277 0.073329729815982778 -0.0143200915920444 -0.0393532237329344 0.061458074581418082 0.010964210638443309 0.029425821878666533 -0.038890760402563604 -0.035511678671225365 0.016708617329468496
leaf_weight=3.3042133823037139 4.4650412090122691 2.992288250476121 5.6625362858176285 3.9408181607723227 3.3918541856110078 3.8248608186841011 4.3352220058441162 2.7409896776080123 3.6748957410454741 4.0239741727709761 4.7305783368647099 6.5733270198106766
leaf_count=15 33 38 32 19 24 34 29 15 22 34 35 34
internal_value=-0.000375829 -0.00261586 -2.2568e-06 0.00710729 0.0229992 0.00582951 0.0281947 -0.0144625 -0.0026736 -0.00803492 -0.0184617 0.00211256
internal_weight=53.6606 50.3564 47.3641 31.7526 15.4928 11.5519 7.72708 15.6115 11.1465 16.2598 7.47157 12.2359
internal_count=364 349 311 206 106 87 53 105 72 100 50 66
is_linear=0
shrinkage=0.05


Tree=36
num_leaves=13
num_cat=0
split_feature=2 5 2 2 2 8 5 5 9 3 7 6
split_gain=1.61249 2.09176 1.77051 4.06655 3.9061 2.15549 2.68742 3.09692 1.37291 2.16778 3.05685 0.94573
threshold=-1.6991432370112147 -0.008701638026910076 -0.38389134131196673 -0.14496838569041437 -0.98443960388051599 0.034700052043211332 0.0094041593735488642 0.004264586079027217 0.64775192004460413 0.19516413592657858 0.0054332615536783167 0.0076934289824871112
decision_type=2 2 2 2 2 2 2 2 2 2 2 2
left_child=-1 -2 4 -4 -3 6 7 8 9 10 -5 -9
right_child=1 2 3 5 -6 -7 -8 11 -10 -11 -12 -13
leaf_value=0.026990001903549634 -0.039588964142866244 -0.023772267409244263 -0.064100726872198588 -0.012739591129880545 0.040643258329231657 -0.041417817432028867 0.038085122098588151 -0.017228403479854791 0.033836825914309469 -0.036529544295880123 0.039235504593994802 -0.058248542426602018
leaf_weight=4.8903654813766471 3.6395776942372313 3.6297963783144951 2.7359718792140439 6.4574413001537483 6.6928498074412328 2.9319669231772414 4.7194443829357615 3.1720038056373587 3.7392610386013976 3.1950032487511626 5.0345129407942295 2.5225424319505692
leaf_count=22 30 25 21 34 36 34 32 24 23 23 31 29
internal_value=-0.000373721 -0.00313455 -0.000175011 -0.00560959 0.0179926 -0.000572791 0.00357961 -0.0031717 0.00678811 -9.84219e-05 0.0100302 -0.0353993
internal_weight=53.3607 48.4704 44.8308 34.5081 10.3226 31.7722 28.8402 24.1208 18.4262 14.687 11.492 5.69455
internal_count=364 342 312 251 61 230 196 164 111 88 65 53
is_linear=0
shrinkage=0.05


Tree=37
num_leaves=15
num_cat=0
split_feature=10 6 6 5 8 2 10 5 9 6 2 9 4 3
split_gain=1.55382 2.42588 2.00223 2.72453 1.19362 2.0315 2.08339 2.31271 2.48761 2.39176 1.52618 1.1393 0.313147 0.00562685
threshold=0.49598969545674548 -0.00091415547081168493 0.0092780163180422957 0.015129083530455606 0.034003824348819711 -0.98443960388051599 1.5277402895805559 0.0017041309891333374 0.20716579686628142 0.0041776409914572547 -1.5140494183118343 0.36629064989029608 31.318944367329411 1.4440509426808685
decision_type=2 2 2 2 2 2 2 2 2 2 2 2 2 2
left_child=1 -1 4 12 5 10 7 8 -7 -9 -2 -10 13 -4
right_child=2 -3 3 -5 -6 6 -8 9 11 -11 -12 -13 -14 -15
leaf_value=-0.012415903871740979 -0.0048033936782031538 0.03798061808397548 -0.058115639151039122 0.02826982806757691 0.021406142246650911 -0.028839489247749275 0.036991717826236191 -0.053917750062099923 0.039298383004696638 0.0037859586125235725 -0.053656644420713578 0.0056555842493750379 -0.030582926395143473 -0.053998522489907698
leaf_weight=4.0230236575007439 3.2604882717132568 5.8748578429222089 1.6268451213836663 1.5752731263637541 5.6063120141625395 3.2946942187845805 3.7857331186532965 3.7431866563856593 4.6721183061599714 3.4516959637403488 3.1365980021655551 5.4542294070124626 1.9044503085315225 1.6940663978457449
leaf_count=23 17 29 17 13 34 23 23 26 21 26 26 32 26 28
internal_value=-0.000372524 0.0174968 -0.00446616 -0.0293698 0.000185952 -0.00367677 0.0028982 -0.00336245 0.00889918 -0.0262348 -0.028757 0.0211778 -0.0467462 -0.0560154
internal_weight=53.1036 9.89788 43.2057 6.80063 36.4051 30.7987 24.4017 20.6159 13.421 7.19488 6.39709 10.1263 5.22536 3.32091
internal_count=364 52 312 84 228 194 151 128 76 52 43 53 71 45
is_linear=0
shrinkage=0.05


Tree=38
num_leaves=16
num_cat=0
split_feature=6 1 1 10 2 4 9 7 7 0 1 3 0 6 9
split_gain=1.46868 2.17105 4.23613 3.30864 2.37923 1.92246 2.56619 3.04695 4.16426 2.07297 2.84795 2.16169 2.02251 0.00381743 0.000158064
threshold=-0.019119326295810115 -0.0078100430886673946 -0.0067735956634211716 0.4759573292224421 -0.89905227651809239 10.821603823356241 0.970211532149995 0.0044268079155573804 0.0046173534626465897 58.417947800868738 -0.0052262847830697448 0.59524226115072498 48.030799719718978 0.0092780163180422957 0.761212361714935
decision_type=2 2 2 2 2 2 2 2 2 2 2 2 2 2 2
left_child=-1 4 -3 -4 -2 -5 7 -7 -9 10 -10 12 -12 -11 -15
right_child=1 2 3 5 -6 6 -8 8 9 13 11 -13 -14 14 -16
leaf_value=0.031859615527126149 0.0055533253507795213 0.063655371140419262 0.027890761626204508 0.021501121564676852 -0.053256974600570633 -0.06115458113826916 0.022996213069956754 0.04455267022322032 -0.065311553177445969 -0.056246489834569716 -0.016516587538743261 -0.03581673360587944 0.033641471759586879 -0.052584776394059674 -0.053464535731630507
leaf_weight=3.3133978545665732 2.9920595735311508 2.5935530290007582 7.3975714370608321 4.4180026203393927 4.044406220316886 3.813990540802485 4.0203973278403273 2.7673620060086277 2.1519845724105879 1.6916239485144609 3.6134781204163975 3.4556823968887338 4.5284900367259979 0.99709902331233058 1.0463220700621603
leaf_count=15 17 12 37 21 30 33 25 17 14 18 29 27 29 22 18
internal_value=-0.0003686 -0.00252448 0.00173511 -0.00228959 -0.0282495 -0.00915823 -0.0139809 -0.0201582 -0.0124376 -0.0214576 -0.0124845 -0.00268231 0.0113809 -0.0544896 -0.0530353
internal_weight=52.8454 49.532 42.4956 39.902 7.03647 32.5044 28.0864 24.066 20.252 17.4847 13.7496 11.5977 8.14197 3.73505 2.04342
internal_count=364 349 302 290 47 253 232 207 174 157 99 85 58 58 40
is_linear=0
shrinkage=0.05


end of trees

feature_importances:
Column_4=77
Column_6=60
Column_2=59
Column_9=52
Column_5=51
Column_10=49
Column_7=47
Column_8=36
Column_3=35
Column_0=34
Column_1=26

parameters:
[boosting: gbdt]
[objective: binary]
[metric: auc]
[tree_learner: serial]
[device_type: cpu]
[data_sample_strategy: bagging]
[data: ]
[valid: ]
[num_iterations: 100]
[learning_rate: 0.05]
[num_leaves: 31]
[num_threads: 0]
[seed: 0]
[deterministic: 0]
[force_col_wise: 0]
[force_row_wise: 0]
[histogram_pool_size: -1]
[max_depth: -1]
[min_data_in_leaf: 20]
[min_sum_hessian_in_leaf: 0.001]
[bagging_fraction: 1]
[pos_bagging_fraction: 1]
[neg_bagging_fraction: 1]
[bagging_freq: 0]
[bagging_seed: 3]
[bagging_by_query: 0]
[feature_fraction: 0.8]
[feature_fraction_bynode: 1]
[feature_fraction_seed: 2]
[extra_trees: 0]
[extra_seed: 6]
[early_stopping_round: 0]
[early_stopping_min_delta: 0]
[first_metric_only: 0]
[max_delta_step: 0]
[lambda_l1: 0]
[lambda_l2: 0]
[linear_lambda: 0]
[min_gain_to_split: 0]
[drop_rate: 0.1]
[max_drop: 50]
[skip_drop: 0.5]
[xgboost_dart_mode: 0]
[uniform_drop: 0]
[drop_seed: 4]
[top_rate: 0.2]
[other_rate: 0.1]
[min_data_per_group: 100]
[max_cat_threshold: 32]
[cat_l2: 10]
[cat_smooth: 10]
[max_cat_to_onehot: 4]
[top_k: 20]
[monotone_constraints: ]
[monotone_constraints_method: basic]
[monotone_penalty: 0]
[feature_contri: ]
[forcedsplits_filename: ]
[refit_decay_rate: 0.9]
[cegb_tradeoff: 1]
[cegb_penalty_split: 0]
[cegb_penalty_feature_lazy: ]
[cegb_penalty_feature_coupled: ]
[path_smooth: 0]
[interaction_constraints: ]
[verbosity: -1]
[saved_feature_importance_type: 0]
[use_quantized_grad: 0]
[num_grad_quant_bins: 4]
[quant_train_renew_leaf: 0]
[stochastic_rounding: 1]
[linear_tree: 0]
[max_bin: 255]
[max_bin_by_feature: ]
[min_data_in_bin: 3]
[bin_construct_sample_cnt: 200000]
[data_random_seed: 1]
[is_enable_sparse: 1]
[enable_bundle: 1]
[use_missing: 1]
[zero_as_missing: 0]
[feature_pre_filter: 1]
[pre_partition: 0]
[two_round: 0]
[header: 0]
[label_column: ]
[weight_column: ]
[group_column: ]
[ignore_column: ]
[categorical_feature: ]
[forcedbins_filename: ]
[precise_float_parser: 0]
[parser_config_file: ]
[objective_seed: 5]
[num_class: 1]
[is_unbalance: 0]
[scale_pos_weight: 1]
[sigmoid: 1]
[boost_from_average: 1]
[reg_sqrt: 0]
[alpha: 0.9]
[fair_c: 1]
[poisson_max_delta_step: 0.7]
[tweedie_variance_power: 1.5]
[lambdarank_truncation_level: 30]
[lambdarank_norm: 1]
[label_gain: ]
[lambdarank_position_bias_regularization: 0]
[eval_at: ]
[multi_error_top_k: 1]
[auc_mu_weights: ]
[num_machines: 1]
[local_listen_port: 12400]
[time_out: 120]
[machine_list_filename: ]
[machines: ]
[gpu_platform_id: -1]
[gpu_device_id: -1]
[gpu_use_dp: 0]
[num_gpu: 1]

end of parameters

pandas_categorical:null
