tree
version=v4
num_class=1
num_tree_per_iteration=1
label_index=0
max_feature_idx=10
objective=binary sigmoid:1
feature_names=Column_0 Column_1 Column_2 Column_3 Column_4 Column_5 Column_6 Column_7 Column_8 Column_9 Column_10
feature_infos=[0:100] [-0.48750149696473244:0.40131026844107964] [-4.0295025567311571:5.0404995360734208] [-5.0562753725356693:5.1060190658248894] [0:36.249646753690882] [-0.03113997525930166:0.039330855018587262] [-0.054117908196467689:0.034372080270391944] [0:0.0098452637881277765] [0:0.082898829385870912] [-0.45916705958784804:1.2992568665881286] [0:2.498809093980602]
tree_sizes=1552 1602 1598 1694 1601 1606 1609 1502 1506 1812 1604 1702

Tree=0
num_leaves=14
num_cat=0
split_feature=7 2 9 9 2 4 4 4 1 7 9 6 9
split_gain=11.6673 16.0317 5.62877 5.17829 4.94074 7.55056 12.4167 10.7141 4.74562 3.80704 3.18195 1.69202 0.606557
threshold=0.0086140735065216249 0.38161057981136653 0.93216063548736916 0.78563301102562744 0.061182126759919693 20.395026498244597 14.249739118003943 28.619816184295338 0.068081263534665495 0.0076894503565598767 0.27032050430467253 0.0062694512483273132 0.051328730274052457
decision_type=2 2 2 2 2 2 2 2 2 2 2 2 2
left_child=2 -2 3 4 5 6 10 11 -6 -10 -1 12 -7
right_child=1 -3 -4 -5 8 7 -8 -9 9 -11 -12 -13 -14
leaf_value=-1.0995798733102995 -1.0102567245817167 -1.1302090231933064 -1.1943165462042511 -1.0815347927590706 -1.1943165462042511 -1.1685378597024956 -1.0319108212431913 -1.0937796688474046 -1.0995798733102995 -1.1697096181798481 -1.1618354012120391 -1.1451026901554451 -1.1943165462042511
leaf_weight=3.6944511532783491 4.6180639415979368 7.0194571912288666 4.063896268606185 4.4333413839340201 6.4652895182371122 3.8791737109422701 4.6180639415979376 6.4652895182371131 3.6944511532783508 4.0638962686061859 4.6180639415979385 4.063896268606185 5.5416767299175262
leaf_count=20 25 38 22 24 35 21 25 35 20 22 25 22 30
internal_value=-1.12813 -1.08261 -1.13766 -1.1332 -1.13806 -1.12741 -1.09765 -1.1467 -1.16268 -1.13631 -1.13417 -1.17207 -1.1837
internal_weight=67.239 11.6375 55.6015 51.5376 47.1043 32.8806 12.9306 19.95 14.2236 7.75835 8.31252 13.4847 9.42085
internal_count=364 63 301 279 255 178 70 108 77 42 45 73 51
is_linear=0
shrinkage=1


Tree=1
num_leaves=14
num_cat=0
split_feature=7 2 9 9 2 4 4 4 1 3 9 3 8
split_gain=10.3311 13.3254 5.3026 4.60189 4.56121 6.76593 10.5344 9.81923 4.53946 6.29977 2.88951 1.65201 0.147088
threshold=0.0086140735065216249 0.38161057981136653 0.93216063548736916 0.78563301102562744 0.061182126759919693 20.395026498244597 14.249739118003943 28.619816184295338 0.068081263534665495 1.1120174708242396 0.27032050430467253 -1.1820068451220875 0.040747026715361075
decision_type=2 2 2 2 2 2 2 2 2 2 2 2 2
left_child=2 -2 3 4 5 6 10 11 -6 -10 -1 12 -7
right_child=1 -3 -4 -5 8 7 -8 -9 9 -11 -12 -13 -14
leaf_value=0.026727965661283017 0.10554839423043756 -0.0019727285046223734 -0.065145544112931247 0.043218710285698951 -0.065145544112931261 -0.065372872528907389 0.087066197316048283 0.032061607632561405 0.037253527631323835 -0.053049555089547354 -0.032593336693938123 -0.022848865289065205 -0.051223907300605581
leaf_weight=3.7481856346130353 4.8919547349214536 7.0120156109333038 3.92561912536621 4.5383398532867423 6.2453031539916974 3.7766604423522887 4.8423815518617621 6.578347533941268 3.8693252801895142 3.8560713529586792 4.5382719486951828 5.827710896730431 3.576114296913147
leaf_count=20 25 38 22 24 35 21 25 35 21 21 25 32 20
internal_value=-4.17535e-05 0.0422132 -0.00913396 -0.00485587 -0.009512 0.000655377 0.0284771 -0.0178309 -0.0334465 -0.00782055 -0.00576073 -0.0427321 -0.0584913
internal_weight=67.2263 11.904 55.3223 51.3967 46.8584 32.8877 13.1288 19.7588 13.9707 7.7254 8.28646 13.1805 7.35277
internal_count=364 63 301 279 255 178 70 108 77 42 45 73 41
is_linear=0
shrinkage=0.05


Tree=2
num_leaves=14
num_cat=0
split_feature=9 9 10 2 9 8 4 1 1 1 10 5 9
split_gain=7.49394 5.14311 6.17567 4.33261 14.5315 7.46973 2.61104 3.20838 5.698 4.8808 4.85306 1.78466 1.25655
threshold=0.96186994107917079 0.87088259159311565 0.60683927832304441 -0.85719749360829323 0.12085333560612856 0.043402532732096134 12.047148689144928 0.24877869260075161 0.20934274589005855 0.046044944969491304 0.89409465075503147 0.0013524620971103361 -1.0000000180025095e-35
decision_type=2 2 2 2 2 2 2 2 2 2 2 2 2
left_child=1 2 -1 4 12 -6 -5 8 9 10 -8 -11 -4
right_child=-2 -3 3 6 5 -7 7 -9 -10 11 -12 -13 -14
leaf_value=0.043422669779311973 -0.06469689453936793 0.055827228172500867 -0.051898563027712598 -0.04356350491166578 0.1152131061720853 0.015426257994852383 0.047336399793127384 -0.052569651602857738 0.054562616578188283 -0.066596454539420188 -0.017530709694121297 -0.021864781374147282 -0.01258127123378127
leaf_weight=7.2641313672065726 4.2055722177028647 4.48721820116043 3.6177232861518851 6.7345499247312537 3.8277135491371146 3.6769899874925613 4.82222120463849 3.6782188564538947 3.7172714918851844 3.71080234646797 7.171641007065773 5.5869962424039841 4.636568382382392
leaf_count=39 24 24 20 37 20 20 26 20 20 20 39 30 25
internal_value=-7.70872e-05 0.00424127 0.000280659 -0.00584253 0.0159678 0.0663217 -0.0155459 -0.0089685 -0.00255581 -0.012528 0.00854959 -0.0397174 -0.0298134
internal_weight=67.1376 62.932 58.4448 51.1807 15.759 7.5047 35.4217 28.6872 25.0089 21.2917 11.9939 9.2978 8.25429
internal_count=364 340 316 277 85 40 192 155 135 115 65 50 45
is_linear=0
shrinkage=0.05


Tree=3
num_leaves=15
num_cat=0
split_feature=9 3 0 10 4 8 0 1 4 9 9 3 6 6
split_gain=7.00178 6.63647 8.02877 13.0963 10.5584 7.73422 6.83354 7.21261 5.3412 5.24395 3.27528 3.05819 1.69202 1.20232
threshold=0.96186994107917079 -2.8843502100326845 47.707327902845456 0.91477322140800144 19.320521149413825 0.019293109532169565 50.52626608656896 0.24192658459221408 30.031218455007782 0.82801187452876246 0.2279891117436694 0.36154801741416048 0.010941249996288078 0.0010159441516384051
decision_type=2 2 2 2 2 2 2 2 2 2 2 2 2 2
left_child=1 8 3 10 -5 13 -7 9 -1 11 -3 -8 -13 -4
right_child=-2 2 5 4 -6 6 7 -9 -10 -11 -12 12 -14 -15
leaf_value=-0.065181426484620386 -0.063777164915208157 0.050993778033649663 -0.026226186596575104 0.064998283162338064 -0.041276274624343995 -0.052766083979011308 -0.01632024790511518 -0.023289383207307245 0.011252825583118827 0.08226533911445294 0.11433029752323041 0.061032798939123029 0.015519356286646482 -0.065439313480856631
leaf_weight=5.6926667988300306 4.0566830635070792 3.8392802774906176 3.7189837992191306 3.776851147413252 6.1309216022491455 3.8052623122930553 3.9435388892889085 6.9860251992940894 3.8189068138599396 4.6577645093202582 4.3582683652639389 3.9127766937017423 4.2711244970560074 4.1206906288862228
leaf_count=32 24 21 20 20 34 21 21 38 20 24 22 21 23 23
internal_value=-0.00010569 0.00399208 0.0108315 0.0379164 -0.000764326 -0.00301481 0.00944344 0.0194018 -0.034493 0.03717 0.084667 0.0198503 0.0372796 -0.0468374
internal_weight=67.0897 63.0331 53.5215 18.1053 9.90777 35.4162 27.5765 23.7712 9.51157 16.7852 8.19755 12.1274 8.1839 7.83967
internal_count=364 340 288 97 54 191 148 127 52 89 43 65 44 43
is_linear=0
shrinkage=0.05


Tree=4
num_leaves=14
num_cat=0
split_feature=7 2 9 3 0 5 4 7 4 3 0 4 4
split_gain=8.54401 10.0018 4.52667 3.748 5.55847 6.71254 6.39421 5.18876 5.06571 4.09918 4.82179 3.99802 1.29899
threshold=0.0086140735065216249 0.38161057981136653 0.93216063548736916 -2.8843502100326845 44.908549848302066 -0.0099789734744754974 12.047148689144928 0.0079821956611900984 30.031218455007782 0.70047093585201292 50.52626608656896 23.196571068543204 23.867498119317606
decision_type=2 2 2 2 2 2 2 2 2 2 2 2 2
left_child=2 -2 3 8 5 -5 -6 9 -1 10 -8 -11 -9
right_child=1 -3 -4 4 6 -7 7 12 -10 11 -12 -13 -14
leaf_value=-0.064225981961294823 0.089675137711611785 -0.0016296176144778953 -0.062934300874060892 -0.0086970032400185138 -0.05072931416905873 0.076553900695156496 0.0077833222912370367 -0.010444883915406898 0.010630628521383127 -0.042927074251955369 0.078199750835602405 0.025869455835673245 -0.052383350038518961
leaf_weight=5.493532255291937 5.2618791759014112 6.9756975620985031 3.58038705587387 4.4229199141263962 6.9268018901348105 4.8311959058046323 5.3631747066974693 3.6023672223091117 3.8397497087717056 4.1369539201259595 4.4467782378196716 4.3139266222715378 3.7878084033727646
leaf_count=32 25 38 22 25 39 25 29 20 20 22 23 23 21
internal_value=-0.000140474 0.0376293 -0.00858336 -0.00478005 0.00161208 0.035809 -0.00810197 0.00340912 -0.0334297 0.0177151 0.0397026 -0.00780846 -0.0319403
internal_weight=66.9832 12.2376 54.7456 51.1652 41.8319 9.25412 32.5778 25.651 9.33328 18.2608 9.80995 8.45088 7.39018
internal_count=364 63 301 279 227 50 177 138 52 97 52 45 41
is_linear=0
shrinkage=0.05


Tree=5
num_leaves=14
num_cat=0
split_feature=1 4 3 3 0 1 8 1 0 9 3 1 8
split_gain=6.38052 6.76433 10.8097 8.59104 15.973 6.62705 6.0246 4.46094 4.45706 4.65186 2.03867 1.34967 0.835769
threshold=0.28966291312277198 28.045656286457838 -2.8843502100326845 -1.4466720716572359 44.908549848302066 -0.039392570387505536 0.020306981674201644 0.23621408050712137 59.485900775070817 0.45123010091740023 0.36154801741416048 -0.18522368492000038 0.014033480462739749
decision_type=2 2 2 2 2 2 2 2 2 2 2 2 2
left_child=1 3 -3 11 -5 -6 12 8 9 -8 -11 -1 -7
right_child=-2 2 -4 4 5 6 7 -9 -10 10 -12 -13 -14
leaf_value=-0.063385069168464189 -0.064537253332961161 -0.0076937954540654803 0.098917556403856188 0.082492514704074024 0.054503805166794143 -0.026710411841990578 0.03891424216254067 -0.05151323874741516 0.044580156056863246 -0.05284077430689145 -0.0069830895712519785 -0.02390274729544993 -0.056255317769647109
leaf_weight=5.4717807024717331 3.6398253887891761 5.0682385116815567 4.4787377864122373 5.8731246888637534 4.0524623841047207 3.8132547140121513 4.1542880386114183 3.535386234521865 6.2464371919631949 3.801048204302786 6.6879861950874329 3.5811628997325879 6.429696649312973
leaf_count=33 21 27 23 29 21 21 21 20 33 21 36 20 38
internal_value=-0.000165192 0.00354251 0.0423204 -0.00335842 0.00565688 -0.00599753 -0.0130697 0.000428075 0.00921863 -0.00586562 -0.0236011 -0.0477667 -0.0452563
internal_weight=66.8334 63.1936 9.54698 53.6466 44.5937 38.7206 34.6681 24.4251 20.8898 14.6433 10.489 9.05294 10.243
internal_count=364 343 50 293 240 211 190 131 111 78 57 53 59
is_linear=0
shrinkage=0.05


Tree=6
num_leaves=14
num_cat=0
split_feature=7 2 9 9 2 4 4 4 1 3 9 7 3
split_gain=7.1257 8.20921 4.19675 3.38698 3.63323 5.71003 8.35188 7.63561 4.24561 5.41989 2.40514 1.45122 2.29013
threshold=0.0086140735065216249 0.38161057981136653 0.93216063548736916 0.78563301102562744 0.061182126759919693 20.395026498244597 28.619816184295338 14.249739118003943 0.068081263534665495 1.1120174708242396 0.27032050430467253 0.0076235250230890497 -1.1820068451220875
decision_type=2 2 2 2 2 2 2 2 2 2 2 2 2
left_child=2 -2 3 4 5 7 11 10 -6 -10 -1 12 -7
right_child=1 -3 -4 -5 8 6 -8 -9 9 -11 -12 -13 -14
leaf_value=0.024366680420414191 0.079519134054944124 -0.0020919425258951554 -0.061878261160942853 0.035675071165901316 -0.063129052851710818 -0.052219996418429664 0.027819576156254622 0.072947558956729719 0.034494448947831352 -0.050388124033535757 -0.030105703929529826 -0.064983937185186399 0.00027543069894157802
leaf_weight=3.8013068139553052 5.5035840868949872 7.0012493580579758 3.3939420878887168 4.7655629962682715 5.7279100418090803 4.7008775770664144 6.7745021879672995 5.1872098147869101 3.9397899955511093 3.5980543792247772 4.3399773687124252 4.205180659890174 3.7229571938514798
leaf_count=20 25 38 22 24 35 29 35 25 21 21 25 24 20
internal_value=-0.000193508 0.0338264 -0.00804866 -0.00444972 -0.00860681 0.000339168 -0.0169691 0.0255364 -0.0306802 -0.00602272 -0.0046716 -0.0409948 -0.0290194
internal_weight=66.6621 12.5048 54.1573 50.7633 45.9978 32.732 19.4035 13.3285 13.2658 7.53784 8.14128 12.629 8.42383
internal_count=364 63 301 279 255 178 108 70 77 42 45 73 49
is_linear=0
shrinkage=0.05


Tree=7
num_leaves=13
num_cat=0
split_feature=9 3 2 1 3 5 10 4 1 0 10 10
split_gain=5.93159 5.02927 6.03071 7.34968 9.75795 4.98107 6.27931 4.48232 4.24678 2.57425 1.28776 0.42137
threshold=0.96186994107917079 -2.8843502100326845 -1.2152152392084477 -0.055316366303035373 -1.1820068451220875 0.010360646321366436 0.60683927832304441 30.031218455007782 0.20934274589005855 46.902501135554822 1.0747222214591743 0.7996761967044117
decision_type=2 2 2 2 2 2 2 2 2 2 2 2
left_child=1 7 -3 4 -4 6 -5 -1 9 -8 11 -11
right_child=-2 2 3 5 -6 -7 8 -9 -10 10 -12 -13
leaf_value=-0.062455672140560095 -0.061926233000027114 0.050840582244840886 -0.013988005939536566 0.043014760225795139 0.096357813296712114 0.031051513925001065 -0.0013783291795004997 0.0089495810226415309 0.012196766931879155 -0.044989141875877547 -0.026448464425158975 -0.065529869164098475
leaf_weight=5.0414780378341657 3.6780397593975058 7.4775884598493567 3.6971912831068039 4.0173834711313274 4.3734206557273847 7.1128025650978079 4.5167330503463807 3.8963307440280914 6.2479671835899344 5.011120334267618 6.3670257180929175 4.9759228229522705
leaf_count=32 24 39 20 21 20 38 24 20 33 29 36 28
internal_value=-0.000213358 0.00340476 0.00917513 0.00244887 0.0458078 -0.00669995 -0.015324 -0.0313274 -0.0239663 -0.0347922 -0.0440206 -0.0552233
internal_weight=66.413 62.735 53.7972 46.3196 8.07061 38.249 31.1362 8.93781 27.1188 20.8708 16.3541 9.98704
internal_count=364 340 288 249 40 209 171 52 150 117 93 57
is_linear=0
shrinkage=0.05


Tree=8
num_leaves=13
num_cat=0
split_feature=7 2 1 1 2 4 4 4 4 2 8 3
split_gain=6.04055 6.86588 4.07507 4.42114 2.82553 6.27154 8.37924 5.96032 3.71466 2.78904 0.607339 0.308363
threshold=0.0086140735065216249 0.38161057981136653 0.24192658459221408 0.20404083352383753 0.061182126759919693 19.320521149413825 12.979756684126864 29.066596612254092 21.979734181367675 0.96657059807153334 0.025767539564008301 -2.6151466266120744
decision_type=2 2 2 2 2 2 2 2 2 2 2 2
left_child=2 -2 3 4 5 6 -1 8 -7 10 -6 -10
right_child=1 -3 -4 -5 9 7 -8 -9 11 -11 -12 -13
leaf_value=-0.0058766889882316126 0.071637384812458113 -0.0023217169681331038 -0.052701765889885566 0.041122099394894647 -0.062651955811738241 -0.0033135027404977459 0.082475260556356456 0.024744416380043533 -0.044086298198202117 -0.0034498167474117446 -0.033338933379500155 -0.064368548587133048
leaf_weight=6.6331130713224429 5.6808962523937208 7.0103722810745239 4.5766310989856711 5.012912154197692 3.8070912659168226 5.3616602420806911 4.5069437026977539 5.8838026523590079 2.9484484791755641 6.3523139208555222 3.297653004527092 5.1425507813692111
leaf_count=37 25 38 28 26 24 28 22 30 20 36 20 30
internal_value=-0.00022943 0.030784 -0.00758327 -0.00336456 -0.00844058 -1.47231e-05 0.0298679 -0.0172306 -0.0355893 -0.0275228 -0.0490464 -0.0569775
internal_weight=66.2144 12.6913 53.5231 48.9465 43.9336 30.4765 11.1401 19.3365 13.4527 13.4571 7.10474 8.091
internal_count=364 63 301 273 247 167 59 108 78 80 44 50
is_linear=0
shrinkage=0.05


Tree=9
num_leaves=16
num_cat=0
split_feature=1 7 10 4 3 0 4 1 4 4 10 1 0 0 10
split_gain=5.82399 8.56074 4.3667 3.33892 6.75121 8.35736 3.69281 4.29756 5.95985 3.67007 2.94773 1.54198 1.44936 0.808836 0.156268
threshold=0.28966291312277198 0.0087350569437407797 0.91477322140800144 28.428452992259711 -0.58893925865549668 47.416684864313943 13.522413195008406 0.23087079445209116 23.196571068543204 19.403865769601541 0.91477322140800144 -0.02512314851053787 55.264860048590705 34.483132145719559 0.7996761967044117
decision_type=2 2 2 2 2 2 2 2 2 2 2 2 2 2 2
left_child=1 3 -3 4 11 -6 14 8 9 12 -5 13 -8 -1 -7
right_child=-2 2 -4 10 5 6 7 -9 -10 -11 -12 -13 -14 -15 -16
leaf_value=-0.031799975839057644 -0.063464504117560036 0.084410534716537811 0.014609575710694392 0.055991790937967606 0.05719136866088817 -0.033484743094901452 0.034987676213681228 -0.04955208813987029 0.056669867909618046 -0.0436889333132576 -0.0050487324235730796 -0.01327937851191938 -0.0091906226176496648 -0.063001583421118612 -0.048707871962650938
leaf_weight=3.2566648423671705 3.4519506841897956 4.3496125191450101 4.6211288124322891 3.980593040585517 5.7466363906860343 3.3047083169221905 3.8585535585880333 3.4417560547590247 5.1435593515634528 4.4467567801475525 3.9310766607522964 3.6806012988090506 3.5780670642852783 5.7342731803655624 3.4411790370941162
leaf_count=21 21 20 23 20 28 20 21 21 26 25 20 20 21 36 21
internal_value=-0.00024123 0.00324982 0.0484537 -0.00432356 -0.00952247 0.00240191 -0.00916744 0.00140613 0.0117066 -0.00775511 0.0256625 -0.0405402 0.0137317 -0.0516999 -0.0412503
internal_weight=65.9671 62.5152 8.97074 53.5444 45.6328 32.9612 27.2146 20.4687 17.0269 11.8834 7.91167 12.6715 7.43662 8.99094 6.74589
internal_count=364 343 43 300 260 183 155 114 93 67 40 77 42 57 41
is_linear=0
shrinkage=0.05


Tree=10
num_leaves=14
num_cat=0
split_feature=9 7 2 9 4 2 4 7 4 8 9 4 8
split_gain=4.9823 5.71478 5.62929 4.66966 3.75061 6.01047 6.75966 4.62033 5.60047 3.88105 2.15909 1.3304 1.40858
threshold=0.93216063548736916 0.0087780374956510452 0.61982647057537066 0.82801187452876246 20.395026498244597 0.061182126759919693 14.249739118003943 0.0075204782542216105 27.470886618530255 0.030832319246763312 0.27032050430467253 23.912267170801581 0.047384750366694879
decision_type=2 2 2 2 2 2 2 2 2 2 2 2 2
left_child=1 3 -3 4 5 6 10 8 9 -6 -1 -9 -13
right_child=-2 2 -4 -5 7 -7 -8 11 -10 -11 -12 12 -14
leaf_value=0.023610385943610836 -0.051037659713287255 0.078238432590785556 -0.0030306511507619022 0.047693655916940692 0.0057429157340038312 -0.031647198846609839 0.065463297202144319 -0.064106330427998418 0.04043108869756188 -0.061467350611291993 -0.028388677069628467 -0.013392529191535227 -0.052326362407615713
leaf_weight=3.80902147293091 4.4995815306901923 4.6853827685117704 3.9081259369850159 4.2277423143386832 4.8369458615779894 6.3086375296115866 6.3433100134134284 4.0231403708457938 5.479050710797309 3.8636232763528824 4.1946409493684769 5.507505461573599 4.0178548842668533
leaf_count=20 30 20 21 21 27 39 29 24 28 26 25 30 24
internal_value=-0.000257452 0.00347574 0.0412792 -0.00269904 -0.00710233 0.00902687 0.026912 -0.0191175 0.000833271 -0.0241029 -0.00364181 -0.0399976 -0.0298151
internal_weight=65.7046 61.205 8.59351 52.6115 48.3837 20.6556 14.347 27.7281 14.1796 8.70057 8.00366 13.5485 9.52536
internal_count=364 334 41 293 272 113 74 159 81 53 45 78 54
is_linear=0
shrinkage=0.05


Tree=11
num_leaves=15
num_cat=0
split_feature=9 7 9 4 0 3 7 4 3 6 1 4 8 7
split_gain=4.63708 5.1148 4.15219 3.42546 5.27348 5.31444 4.30223 5.02709 4.08888 3.46127 2.03615 1.30164 1.3446 0.631614
threshold=0.93216063548736916 0.0087780374956510452 0.82801187452876246 20.395026498244597 47.707327902845456 -0.455271096038669 0.0075204782542216105 27.470886618530255 -1.1820068451220875 0.0053340359831167139 0.0646530781712258 23.912267170801581 0.047384750366694879 0.0063385747139962272
decision_type=2 2 2 2 2 2 2 2 2 2 2 2 2 2
left_child=1 2 3 4 5 -1 7 8 -5 13 -3 -8 -13 -6
right_child=-2 10 -4 6 9 -7 11 -9 -10 -11 -12 12 -14 -15
leaf_value=-0.0043874006709246488 -0.050090604400119136 0.062063285288343921 0.044401450835797288 -0.060538817262886714 -0.019276809774751661 0.07548151675531356 -0.063242715408388661 0.037709164405573169 0.0087475959706056015 0.018709812862745073 0.013542054797594905 -0.012808347626583073 -0.051224847753463892 -0.04921284379582682
leaf_weight=3.8268347382545471 4.35900705307722 4.5236300379037839 4.3118837475776663 3.960180282592769 3.3327398151159269 4.5700441300869006 3.8778564631938925 5.578148514032363 4.605930417776114 5.1747680902481079 4.1417876780033112 5.4716998189687711 3.9019982069730759 3.7385036796331406
leaf_count=20 30 20 21 28 20 21 24 28 25 28 21 30 24 24
internal_value=-0.000269387 0.00328986 -0.00259989 -0.00681866 0.00856256 0.0390817 -0.0184085 0.000770172 -0.0232841 -0.0123639 0.0388717 -0.0388791 -0.0288 -0.0351037
internal_weight=65.375 61.016 52.3506 48.0387 20.6429 8.39688 27.3958 14.1443 8.56611 12.246 8.66542 13.2516 9.3737 7.07124
internal_count=364 334 293 272 113 41 159 81 53 72 41 78 54 44
is_linear=0
shrinkage=0.05


end of trees

feature_importances:
Column_4=33
Column_9=25
Column_1=19
Column_3=17
Column_2=14
Column_7=14
Column_0=11
Column_8=9
Column_10=9
Column_6=4
Column_5=3

parameters:
[boosting: gbdt]
[objective: binary]
[metric: auc]
[tree_learner: serial]
[device_type: cpu]
[data_sample_strategy: bagging]
[data: ]
[valid: ]
[num_iterations: 100]
[learning_rate: 0.05]
[num_leaves: 31]
[num_threads: 0]
[seed: 0]
[deterministic: 0]
[force_col_wise: 0]
[force_row_wise: 0]
[histogram_pool_size: -1]
[max_depth: -1]
[min_data_in_leaf: 20]
[min_sum_hessian_in_leaf: 0.001]
[bagging_fraction: 1]
[pos_bagging_fraction: 1]
[neg_bagging_fraction: 1]
[bagging_freq: 0]
[bagging_seed: 3]
[bagging_by_query: 0]
[feature_fraction: 0.8]
[feature_fraction_bynode: 1]
[feature_fraction_seed: 2]
[extra_trees: 0]
[extra_seed: 6]
[early_stopping_round: 0]
[early_stopping_min_delta: 0]
[first_metric_only: 0]
[max_delta_step: 0]
[lambda_l1: 0]
[lambda_l2: 0]
[linear_lambda: 0]
[min_gain_to_split: 0]
[drop_rate: 0.1]
[max_drop: 50]
[skip_drop: 0.5]
[xgboost_dart_mode: 0]
[uniform_drop: 0]
[drop_seed: 4]
[top_rate: 0.2]
[other_rate: 0.1]
[min_data_per_group: 100]
[max_cat_threshold: 32]
[cat_l2: 10]
[cat_smooth: 10]
[max_cat_to_onehot: 4]
[top_k: 20]
[monotone_constraints: ]
[monotone_constraints_method: basic]
[monotone_penalty: 0]
[feature_contri: ]
[forcedsplits_filename: ]
[refit_decay_rate: 0.9]
[cegb_tradeoff: 1]
[cegb_penalty_split: 0]
[cegb_penalty_feature_lazy: ]
[cegb_penalty_feature_coupled: ]
[path_smooth: 0]
[interaction_constraints: ]
[verbosity: -1]
[saved_feature_importance_type: 0]
[use_quantized_grad: 0]
[num_grad_quant_bins: 4]
[quant_train_renew_leaf: 0]
[stochastic_rounding: 1]
[linear_tree: 0]
[max_bin: 255]
[max_bin_by_feature: ]
[min_data_in_bin: 3]
[bin_construct_sample_cnt: 200000]
[data_random_seed: 1]
[is_enable_sparse: 1]
[enable_bundle: 1]
[use_missing: 1]
[zero_as_missing: 0]
[feature_pre_filter: 1]
[pre_partition: 0]
[two_round: 0]
[header: 0]
[label_column: ]
[weight_column: ]
[group_column: ]
[ignore_column: ]
[categorical_feature: ]
[forcedbins_filename: ]
[precise_float_parser: 0]
[parser_config_file: ]
[objective_seed: 5]
[num_class: 1]
[is_unbalance: 0]
[scale_pos_weight: 1]
[sigmoid: 1]
[boost_from_average: 1]
[reg_sqrt: 0]
[alpha: 0.9]
[fair_c: 1]
[poisson_max_delta_step: 0.7]
[tweedie_variance_power: 1.5]
[lambdarank_truncation_level: 30]
[lambdarank_norm: 1]
[label_gain: ]
[lambdarank_position_bias_regularization: 0]
[eval_at: ]
[multi_error_top_k: 1]
[auc_mu_weights: ]
[num_machines: 1]
[local_listen_port: 12400]
[time_out: 120]
[machine_list_filename: ]
[machines: ]
[gpu_platform_id: -1]
[gpu_device_id: -1]
[gpu_use_dp: 0]
[num_gpu: 1]

end of parameters

pandas_categorical:null
