tree
version=v4
num_class=1
num_tree_per_iteration=1
label_index=0
max_feature_idx=10
objective=binary sigmoid:1
feature_names=Column_0 Column_1 Column_2 Column_3 Column_4 Column_5 Column_6 Column_7 Column_8 Column_9 Column_10
feature_infos=[0:100] [-0.2765619388695697:0.20832186543459841] [-3.5635562086700916:2.7744748315497394] [-3.9178394826930303:4.2409829567974642] [0:51.922405143420491] [-0.024689293875048906:0.020570695984926429] [-0.045523329129886374:0.021623088754184519] [0:0.0088658412427432675] [0:0.05418114801762431] [-0.28415794424919977:1.2504171578388632] [0:2.5828109418959957]
tree_sizes=1466 1726

Tree=0
num_leaves=13
num_cat=0
split_feature=7 10 1 8 5 4 5 1 8 6 10 1
split_gain=17.6802 18.513 12.4138 8.3534 4.09207 3.80981 2.94898 9.61638 2.85203 2.30604 1.10273 1.77636e-15
threshold=0.0055643471888280885 0.63055291100271893 0.035381444603252994 0.010135498878272241 -0.00087517978940616795 15.511679515307957 0.00010796421183162009 -0.0069455158233093775 0.013031829169195189 -0.01581033498175986 0.69920073915508418 -0.067229803882751668
decision_type=2 2 2 2 2 2 2 2 2 2 2 2
left_child=3 -2 4 5 -3 -1 7 8 -5 -10 -8 -11
right_child=1 2 -4 6 -6 -7 10 -9 9 11 -12 -13
leaf_value=-1.5568278728545439 -1.4807727998665374 -1.5978044836072658 -1.6718691597271587 -1.61337027405554 -1.5191107652298794 -1.633024049874068 -1.6462313872241188 -1.5554309429425195 -1.6306655967758446 -1.6825515649367586 -1.6825515649367586 -1.6825515649367586
leaf_weight=3.5792776942253104 3.7169422209262839 4.1299358010292044 4.6805939078330994 2.8909550607204446 2.7532905340194693 3.0286195874214172 2.7532905340194693 2.7532905340194747 2.8909550607204428 5.3689165413379651 8.6728651821613294 2.8909550607204437
leaf_count=26 27 30 34 21 20 22 20 20 21 39 63 21
internal_value=-1.62268 -1.57784 -1.60905 -1.64236 -1.56633 -1.59175 -1.6542 -1.64087 -1.65763 -1.6691 -1.6738 -1.68255
internal_weight=50.1099 15.2808 11.5638 34.8291 6.88323 6.6079 28.2212 16.7951 14.0418 11.1508 11.4262 8.25987
internal_count=364 111 84 253 50 48 205 122 102 81 83 60
is_linear=0
shrinkage=1


Tree=1
num_leaves=15
num_cat=0
split_feature=7 2 7 8 4 4 5 1 8 0 1 5 0 0
split_gain=15.6472 16.2775 12.1331 7.64575 6.80866 3.24087 2.85029 8.59964 2.70691 2.42729 1.00006 6.69215e-06 4.17512e-06 8.88178e-16
threshold=0.0055643471888280885 0.71711037174548886 0.0065566128236087548 0.010135498878272241 25.410730646107162 15.511679515307957 0.00010796421183162009 -0.0069455158233093775 0.013031829169195189 30.434648811012767 0.079499089899661271 0.0040030605951344193 38.822137180324283 41.539733333247064
decision_type=2 2 2 2 2 2 2 2 2 2 2 2 2 2
left_child=3 2 4 5 -2 -1 7 8 -5 -10 11 -8 -11 -14
right_child=1 -3 -4 6 -6 -7 10 -9 9 12 -12 -13 13 -15
leaf_value=0.059827081652154224 -0.0054820015137344424 -0.031310710538099626 0.16410988107176389 0.0087908234691567669 0.088852436971180532 -0.0098941460408586267 -0.05933294437101503 0.061039038540166457 -0.0047785498351652581 -0.059371452609986546 -0.025291181221867666 -0.05942587483287446 -0.059294947815162938 -0.059294947815162938
leaf_weight=3.7385579943656913 3.6522518545389158 5.189217120409011 2.8917840570211411 2.9090242534875879 4.0160593241453171 3.0076541602611542 4.9040935039520246 2.8784325718879744 2.72908592224121 2.6579287052154523 2.9312607347965232 3.2022572457790375 2.6436972618103027 2.7758821249008179
leaf_count=26 26 37 20 21 28 22 37 20 20 20 22 24 20 21
internal_value=-7.02321e-05 0.0412023 0.076835 -0.0189781 0.043923 0.0287434 -0.0306292 -0.0175322 -0.0340216 -0.0455463 -0.0503194 -0.0593697 -0.0593201 -0.0592949
internal_weight=50.1272 15.7493 10.5601 34.3779 7.66831 6.74621 27.6317 16.5941 13.7156 10.8066 11.0376 8.10635 8.07751 5.41958
internal_count=364 111 74 253 54 48 205 122 102 81 83 61 61 41
is_linear=0
shrinkage=0.05


end of trees

feature_importances:
Column_1=5
Column_5=4
Column_8=4
Column_0=3
Column_4=3
Column_7=3
Column_10=2
Column_2=1
Column_6=1

parameters:
[boosting: gbdt]
[objective: binary]
[metric: auc]
[tree_learner: serial]
[device_type: cpu]
[data_sample_strategy: bagging]
[data: ]
[valid: ]
[num_iterations: 100]
[learning_rate: 0.05]
[num_leaves: 31]
[num_threads: 0]
[seed: 0]
[deterministic: 0]
[force_col_wise: 0]
[force_row_wise: 0]
[histogram_pool_size: -1]
[max_depth: -1]
[min_data_in_leaf: 20]
[min_sum_hessian_in_leaf: 0.001]
[bagging_fraction: 1]
[pos_bagging_fraction: 1]
[neg_bagging_fraction: 1]
[bagging_freq: 0]
[bagging_seed: 3]
[bagging_by_query: 0]
[feature_fraction: 0.8]
[feature_fraction_bynode: 1]
[feature_fraction_seed: 2]
[extra_trees: 0]
[extra_seed: 6]
[early_stopping_round: 0]
[early_stopping_min_delta: 0]
[first_metric_only: 0]
[max_delta_step: 0]
[lambda_l1: 0]
[lambda_l2: 0]
[linear_lambda: 0]
[min_gain_to_split: 0]
[drop_rate: 0.1]
[max_drop: 50]
[skip_drop: 0.5]
[xgboost_dart_mode: 0]
[uniform_drop: 0]
[drop_seed: 4]
[top_rate: 0.2]
[other_rate: 0.1]
[min_data_per_group: 100]
[max_cat_threshold: 32]
[cat_l2: 10]
[cat_smooth: 10]
[max_cat_to_onehot: 4]
[top_k: 20]
[monotone_constraints: ]
[monotone_constraints_method: basic]
[monotone_penalty: 0]
[feature_contri: ]
[forcedsplits_filename: ]
[refit_decay_rate: 0.9]
[cegb_tradeoff: 1]
[cegb_penalty_split: 0]
[cegb_penalty_feature_lazy: ]
[cegb_penalty_feature_coupled: ]
[path_smooth: 0]
[interaction_constraints: ]
[verbosity: -1]
[saved_feature_importance_type: 0]
[use_quantized_grad: 0]
[num_grad_quant_bins: 4]
[quant_train_renew_leaf: 0]
[stochastic_rounding: 1]
[linear_tree: 0]
[max_bin: 255]
[max_bin_by_feature: ]
[min_data_in_bin: 3]
[bin_construct_sample_cnt: 200000]
[data_random_seed: 1]
[is_enable_sparse: 1]
[enable_bundle: 1]
[use_missing: 1]
[zero_as_missing: 0]
[feature_pre_filter: 1]
[pre_partition: 0]
[two_round: 0]
[header: 0]
[label_column: ]
[weight_column: ]
[group_column: ]
[ignore_column: ]
[categorical_feature: ]
[forcedbins_filename: ]
[precise_float_parser: 0]
[parser_config_file: ]
[objective_seed: 5]
[num_class: 1]
[is_unbalance: 0]
[scale_pos_weight: 1]
[sigmoid: 1]
[boost_from_average: 1]
[reg_sqrt: 0]
[alpha: 0.9]
[fair_c: 1]
[poisson_max_delta_step: 0.7]
[tweedie_variance_power: 1.5]
[lambdarank_truncation_level: 30]
[lambdarank_norm: 1]
[label_gain: ]
[lambdarank_position_bias_regularization: 0]
[eval_at: ]
[multi_error_top_k: 1]
[auc_mu_weights: ]
[num_machines: 1]
[local_listen_port: 12400]
[time_out: 120]
[machine_list_filename: ]
[machines: ]
[gpu_platform_id: -1]
[gpu_device_id: -1]
[gpu_use_dp: 0]
[num_gpu: 1]

end of parameters

pandas_categorical:null
