tree
version=v4
num_class=1
num_tree_per_iteration=1
label_index=0
max_feature_idx=10
objective=binary sigmoid:1
feature_names=Column_0 Column_1 Column_2 Column_3 Column_4 Column_5 Column_6 Column_7 Column_8 Column_9 Column_10
feature_infos=[0:78.780640810560072] [-1.5575222804751121:1.228038083671521] [-3.7782034908471611:9.4781577386835227] [-5.4358292046707932:7.7948618139353743] [0:51.158367134249943] [-0.033257717105822419:0.078342135364696142] [-0.058190372267853778:0.056481764077521715] [0:0.016008183421687649] [0:0.11847376405098477] [-0.34839018206371541:1.3676127529811477] [0:2.9306583385486356]
tree_sizes=1464 1729

Tree=0
num_leaves=13
num_cat=0
split_feature=8 9 7 6 5 1 9 10 1 7 1 1
split_gain=31.5728 7.55432 5.73512 9.464 4.85123 11.8239 5.80224 5.13846 1.12494 1.04354 0.246458 1.77636e-15
threshold=0.052482145030088863 0.67583870357190634 0.0073393084498188941 0.0046948250603855964 -0.0075634140656749204 -0.26686991009658095 0.25697517997870739 0.81988982025022838 -0.40584636674167024 0.0067264283942535157 -0.88192283252353565 -0.096681154941542488
decision_type=2 2 2 2 2 2 2 2 2 2 2 2
left_child=2 -2 4 -4 8 7 -7 -6 10 11 -1 -8
right_child=1 -3 3 -5 5 6 9 -9 -10 -11 -12 -13
leaf_value=-1.588313975150013 -1.4114801213961679 -1.5114637859354816 -1.4700139754261863 -1.588313975150013 -1.5562743918914768 -1.525941058628957 -1.6055660584430713 -1.473638362672627 -1.5698720930091579 -1.571061891856955 -1.6055660584430711 -1.6055660584430711
leaf_weight=2.8982007503509513 4.6371212005615225 3.1880208253860474 4.0574810504913321 2.8982007503509521 3.0431107878684989 3.7676609754562405 3.3329308629035905 4.9269412755966187 4.2023910880088797 2.8982007503509513 7.2455018758773795 5.6514914631843594
leaf_count=20 32 22 28 20 21 26 23 34 29 20 50 39
internal_value=-1.5449 -1.45221 -1.56104 -1.51931 -1.56869 -1.55476 -1.58001 -1.50519 -1.59162 -1.59715 -1.60064 -1.60557
internal_weight=52.7473 7.82514 44.9221 6.95568 37.9664 23.6203 15.6503 7.97005 14.3461 11.8826 10.1437 8.98442
internal_count=364 54 310 48 262 163 108 55 99 82 70 62
is_linear=0
shrinkage=1


Tree=1
num_leaves=15
num_cat=0
split_feature=8 0 0 7 3 0 5 2 3 7 7 8 1 2
split_gain=27.0815 6.508 6.12795 16.0658 15.2814 4.38761 10.8169 5.94602 1.23126 1.95911 0.832338 0.249155 0.000292816 2.58308e-05
threshold=0.052482145030088863 58.823500089547579 48.596539753548129 0.0075104535962618136 -1.0000000180025095e-35 37.877026488413939 -0.0035451707866939546 -0.5799120722872968 0.18730038948109065 0.0061708346501080638 0.0050014494090159572 0.038505592493491385 0.096870432931041264 -1.3707364983294166
decision_type=2 2 2 2 2 2 2 2 2 2 2 2 2 2
left_child=2 -2 3 4 5 10 7 -7 12 -10 -1 13 -4 -12
right_child=1 -3 8 -5 -6 6 -8 -9 9 -11 11 -13 -14 -15
leaf_value=-0.029205225691481814 0.11581700233133935 0.023395016787535642 -0.060912132933493603 0.10774324832537074 0.093244463122299975 -0.008891140869887541 -0.060562876454096116 0.092031480446631217 -0.060102800881347798 -0.010753636686035713 -0.060232900284954476 -0.042471564666052682 -0.060198317606020006 -0.060434510283050795
leaf_weight=4.8192025572061565 5.3388247787952405 2.9612305760383606 2.9355078786611548 2.9618676900863639 2.9209699779748979 2.8963475823402405 4.5993252694606763 2.9418119639158249 3.3543429374694806 5.0222610980272293 3.3826330304145822 2.8161632418632507 2.8138318359851837 2.9957960695028278
leaf_count=34 34 20 20 20 20 20 32 20 24 35 24 20 20 21
internal_value=-6.49664e-05 0.0828434 -0.0155428 -0.00287542 -0.0148451 -0.0277576 -0.00321542 0.0419631 -0.0427447 -0.0305151 -0.0460366 -0.0548586 -0.0605628 -0.0603276
internal_weight=52.7601 8.30006 44.4601 30.3341 27.3722 24.4513 10.4375 5.83816 14.1259 8.3766 14.0138 9.19459 5.74934 6.37843
internal_count=364 54 310 211 191 171 72 40 99 59 99 65 40 45
is_linear=0
shrinkage=0.05


end of trees

feature_importances:
Column_1=5
Column_7=5
Column_0=3
Column_8=3
Column_2=2
Column_3=2
Column_5=2
Column_9=2
Column_6=1
Column_10=1

parameters:
[boosting: gbdt]
[objective: binary]
[metric: auc]
[tree_learner: serial]
[device_type: cpu]
[data_sample_strategy: bagging]
[data: ]
[valid: ]
[num_iterations: 100]
[learning_rate: 0.05]
[num_leaves: 31]
[num_threads: 0]
[seed: 0]
[deterministic: 0]
[force_col_wise: 0]
[force_row_wise: 0]
[histogram_pool_size: -1]
[max_depth: -1]
[min_data_in_leaf: 20]
[min_sum_hessian_in_leaf: 0.001]
[bagging_fraction: 1]
[pos_bagging_fraction: 1]
[neg_bagging_fraction: 1]
[bagging_freq: 0]
[bagging_seed: 3]
[bagging_by_query: 0]
[feature_fraction: 0.8]
[feature_fraction_bynode: 1]
[feature_fraction_seed: 2]
[extra_trees: 0]
[extra_seed: 6]
[early_stopping_round: 0]
[early_stopping_min_delta: 0]
[first_metric_only: 0]
[max_delta_step: 0]
[lambda_l1: 0]
[lambda_l2: 0]
[linear_lambda: 0]
[min_gain_to_split: 0]
[drop_rate: 0.1]
[max_drop: 50]
[skip_drop: 0.5]
[xgboost_dart_mode: 0]
[uniform_drop: 0]
[drop_seed: 4]
[top_rate: 0.2]
[other_rate: 0.1]
[min_data_per_group: 100]
[max_cat_threshold: 32]
[cat_l2: 10]
[cat_smooth: 10]
[max_cat_to_onehot: 4]
[top_k: 20]
[monotone_constraints: ]
[monotone_constraints_method: basic]
[monotone_penalty: 0]
[feature_contri: ]
[forcedsplits_filename: ]
[refit_decay_rate: 0.9]
[cegb_tradeoff: 1]
[cegb_penalty_split: 0]
[cegb_penalty_feature_lazy: ]
[cegb_penalty_feature_coupled: ]
[path_smooth: 0]
[interaction_constraints: ]
[verbosity: -1]
[saved_feature_importance_type: 0]
[use_quantized_grad: 0]
[num_grad_quant_bins: 4]
[quant_train_renew_leaf: 0]
[stochastic_rounding: 1]
[linear_tree: 0]
[max_bin: 255]
[max_bin_by_feature: ]
[min_data_in_bin: 3]
[bin_construct_sample_cnt: 200000]
[data_random_seed: 1]
[is_enable_sparse: 1]
[enable_bundle: 1]
[use_missing: 1]
[zero_as_missing: 0]
[feature_pre_filter: 1]
[pre_partition: 0]
[two_round: 0]
[header: 0]
[label_column: ]
[weight_column: ]
[group_column: ]
[ignore_column: ]
[categorical_feature: ]
[forcedbins_filename: ]
[precise_float_parser: 0]
[parser_config_file: ]
[objective_seed: 5]
[num_class: 1]
[is_unbalance: 0]
[scale_pos_weight: 1]
[sigmoid: 1]
[boost_from_average: 1]
[reg_sqrt: 0]
[alpha: 0.9]
[fair_c: 1]
[poisson_max_delta_step: 0.7]
[tweedie_variance_power: 1.5]
[lambdarank_truncation_level: 30]
[lambdarank_norm: 1]
[label_gain: ]
[lambdarank_position_bias_regularization: 0]
[eval_at: ]
[multi_error_top_k: 1]
[auc_mu_weights: ]
[num_machines: 1]
[local_listen_port: 12400]
[time_out: 120]
[machine_list_filename: ]
[machines: ]
[gpu_platform_id: -1]
[gpu_device_id: -1]
[gpu_use_dp: 0]
[num_gpu: 1]

end of parameters

pandas_categorical:null
