tree
version=v4
num_class=1
num_tree_per_iteration=1
label_index=0
max_feature_idx=10
objective=binary sigmoid:1
feature_names=Column_0 Column_1 Column_2 Column_3 Column_4 Column_5 Column_6 Column_7 Column_8 Column_9 Column_10
feature_infos=[0:94.075394616842402] [-0.015704710283630074:0.015850824085875237] [-4.9567269866247008:5.6696795398520905] [-5.2714398111723018:4.9795918367346887] [0:52.53867119840821] [-0.033892023226125285:0.042942297554843724] [-0.049856222915232264:0.05541041458643943] [0:0.014218009478672999] [0:0.08513077600065809] [-0.31604530637130013:1.4062261415277326] [0:3.0254124690718061]
tree_sizes=1360 1501 1506 1727 1718 1609 1617 1509 1719 1610 1621

Tree=0
num_leaves=12
num_cat=0
split_feature=9 6 2 1 5 6 7 9 10 4 2
split_gain=9.99907 21.467 5.84873 5.73556 12.1561 5.33355 6.89814 6.05157 3.84604 5.60692 2.40601
threshold=0.35174120760304445 -1.0000000180025095e-35 -0.83901120558590081 -0.0054392281284627577 -0.010876492065371954 -0.011165786217652008 0.0091262616141193319 0.58763719252850011 0.67063641291860698 24.79315614416948 -0.97680113860743301
decision_type=2 2 2 2 2 2 2 2 2 2 2
left_child=1 3 -3 4 -1 -2 7 -7 -9 -10 -5
right_child=5 2 -4 10 -6 6 -8 8 9 -11 -12
leaf_value=-1.1633821224021443 -1.1943165462042511 -1.0060200534957762 -1.0803476164070163 -1.1401813045505644 -1.0633441873646867 -1.0874706745193434 -1.1861142368627833 -1.1097302311203658 -1.1871934880919239 -1.1153693187926248 -1.1943165462042509
leaf_weight=6.4652895182371157 4.9875090569257727 4.2486188262701035 7.0194571912288648 3.6944511532783508 5.7263992875814438 7.0194571912288728 6.095844402909278 5.911121845245364 7.0194571912288648 4.433341383934021 4.6180639415979403
leaf_count=35 27 23 38 20 31 38 33 32 38 24 25
internal_value=-1.12813 -1.10776 -1.05232 -1.13823 -1.11639 -1.14638 -1.13854 -1.12665 -1.14248 -1.15939 -1.17026
internal_weight=67.239 31.7723 11.2681 20.5042 12.1917 35.4667 30.4792 24.3834 17.3639 11.4528 8.31252
internal_count=364 172 61 111 66 192 165 132 94 62 45
is_linear=0
shrinkage=1


Tree=1
num_leaves=13
num_cat=0
split_feature=9 1 1 1 9 1 2 4 4 3 9 4
split_gain=9.00575 12.0867 7.70894 15.3919 4.65818 4.52163 5.45225 4.8597 4.80175 2.48771 2.39023 2.10421
threshold=0.35174120760304445 -0.0020374410879550049 -0.0049274589455091658 -0.0062935507722772224 0.24996750214446428 0.0071228908103230246 0.45163886777265594 23.765803859742721 17.139093974481536 -0.81845392579931586 0.5676848677506855 16.445883482448483
decision_type=2 2 2 2 2 2 2 2 2 2 2 2
left_child=1 2 3 11 -3 6 9 8 -8 -2 -11 -1
right_child=5 4 -4 -5 -6 -7 7 -9 -10 10 -12 -13
leaf_value=0.013292179968613139 -0.065546822470398822 0.036717710932610038 -0.044725666527483554 0.093532742057326465 0.10557522802529387 -0.066038575903108007 0.019619776766311492 0.046846648484255071 -0.053091035115515155 -0.00061562599578831928 -0.045895105535085579 -0.034081598438687952
leaf_weight=3.7499698251485807 3.9765674918889991 6.2603068798780424 7.1099233180284527 4.6811118125915518 4.0419343560934067 4.2263594120740882 5.272733122110365 5.7447803616523734 3.9879373759031296 6.8509782552719134 5.0726047456264496 6.2517166286706924
leaf_count=20 22 33 39 25 21 23 29 31 22 37 28 34
internal_value=-4.04516e-05 0.0191061 -0.00199067 0.0187031 0.063733 -0.0175319 -0.0108986 0.0107194 -0.0116918 -0.0313001 -0.0198787 -0.0163196
internal_weight=67.2269 32.095 21.7927 14.6828 10.3022 35.132 30.9056 15.0055 9.26067 15.9002 11.9236 10.0017
internal_count=364 172 118 79 54 192 169 82 51 87 65 54
is_linear=0
shrinkage=0.05


Tree=2
num_leaves=13
num_cat=0
split_feature=9 6 1 5 6 10 1 2 10 9 0 2
split_gain=8.12009 16.6982 5.16912 10.2606 5.00699 6.03538 4.614 4.34485 3.83207 2.5857 4.31034 2.26922
threshold=0.35174120760304445 -1.0000000180025095e-35 -0.0054392281284627577 -0.010876492065371954 -0.011165786217652008 0.67063641291860698 0.0033621345997195688 -0.83901120558590081 0.78308574271025555 0.5676848677506855 59.224952426753489 -0.97680113860743301
decision_type=2 2 2 2 2 2 2 2 2 2 2 2
left_child=1 2 3 -1 -2 6 -6 -3 -7 -10 -11 -4
right_child=4 7 11 -5 5 8 -8 -9 9 10 -12 -13
leaf_value=-0.033699124129122286 -0.064658875967105484 0.10257079321560945 -0.011655922489802427 0.05773644759547867 0.06886978231694206 -0.065215962366853272 -0.0074869514643891542 0.040819728119541009 0.013253399510537361 -0.056610794660540635 0.0044837554201462735 -0.064858178163691327
leaf_weight=6.302495673298834 4.7300480008125296 4.6468467563390732 3.6748403757810593 5.9788385182619095 3.7000245004892376 4.2833134382963207 4.2520667463541031 7.3608060479164106 6.2869434803724316 5.8760189414024335 5.6754468828439713 4.4088825583457965
leaf_count=35 27 23 20 31 20 24 23 38 34 33 31 25
internal_value=-7.3703e-05 0.0179509 -0.00962322 0.0108138 -0.0168392 -0.0093181 0.028041 0.0647168 -0.0227476 -0.0125502 -0.0265939 -0.0406726
internal_weight=67.1766 32.3727 20.3651 12.2813 34.8039 30.0738 7.95209 12.0077 22.1217 17.8384 11.5515 8.08372
internal_count=364 172 111 66 192 165 43 61 122 98 64 45
is_linear=0
shrinkage=0.05


Tree=3
num_leaves=15
num_cat=0
split_feature=9 6 1 6 6 1 10 6 1 10 6 10 2 3
split_gain=7.33304 14.5833 4.7682 7.69369 4.7582 5.98162 4.06603 3.96705 5.85832 3.73894 3.63089 2.27595 2.19011 2.14186
threshold=0.35174120760304445 -1.0000000180025095e-35 -0.0054392281284627577 -0.024209624157917119 -0.011165786217652008 -0.00048691535557088267 1.1885888142357481 0.0052864784967681022 0.0071228908103230246 0.9659723570642863 0.00016028253363571933 0.75995899491730234 -0.97680113860743301 1.2315279237328902
decision_type=2 2 2 2 2 2 2 2 2 2 2 2 2 2
left_child=1 2 3 -1 -2 6 -6 -7 9 13 11 -3 -4 -9
right_child=4 10 12 -5 5 7 -8 8 -10 -11 -12 -13 -14 -15
leaf_value=-0.027186851526162382 -0.063741415981488331 0.067304522052747853 -0.011141653455030263 0.051917801325361446 0.066838265724192741 -0.065089768131215586 -0.008024436777032417 0.05504398782486998 -0.064729425104389518 -0.022882773323651889 0.097834421817724782 0.014620228917736487 -0.063925887283463989 0.0012572511551746995
leaf_weight=6.5028685778379431 4.5624704509973517 4.0195370614528638 3.6528136432170868 5.8290127515792838 3.7432122230529812 4.2554332911968258 3.5187550038099289 3.7046816349029559 4.0375889688730231 6.9548087120056152 4.1486011743545523 4.1834909468889236 4.2534614801406887 3.6988731175661087
leaf_count=36 27 20 20 30 20 24 20 20 23 38 20 21 25 20
internal_value=-0.000103929 0.0169012 -0.00922849 0.0102042 -0.0161787 -0.00892433 0.0305639 -0.0215841 -0.0115202 0.00344228 0.0597146 0.0404359 -0.0395388 0.0281717
internal_weight=67.0656 32.5898 20.2382 12.3319 34.4758 29.9134 7.26197 22.6514 18.396 14.3584 12.3516 8.20303 7.90628 7.40355
internal_count=364 172 111 66 192 165 40 125 101 78 61 41 45 40
is_linear=0
shrinkage=0.05


Tree=4
num_leaves=15
num_cat=0
split_feature=1 4 9 5 3 7 5 8 1 7 2 3 3 2
split_gain=6.70682 7.3456 3.78677 5.36546 5.12407 4.58255 5.09423 6.94654 2.99927 7.66609 2.90033 1.9948 4.55765 0.674943
threshold=0.0071228908103230246 30.321741155943538 0.35174120760304445 -0.015023291327528715 -0.96076923076923149 0.0072488690212052084 -0.0029740877500189617 0.022865366107227874 -0.00048691535557088267 0.0070284077337501791 -0.72318491916832328 0.79267192211181825 1.6246964417696141 0.12348866672175428
decision_type=2 2 2 2 2 2 2 2 2 2 2 2 2 2
left_child=1 2 3 -1 -4 6 7 -5 9 -6 -7 -10 -13 -3
right_child=-2 13 4 5 8 10 -8 -9 11 -11 -12 12 -14 -15
leaf_value=-0.028892933012075545 -0.063806846789503505 0.03463302304903252 -0.064381592685122044 -0.064624617414177507 -0.030070058839887955 0.070194104375241345 0.049590344461847208 0.025225261188469551 -0.051769043215958856 0.064712204988357822 0.01538416861522369 0.021724959929296048 -0.051672870618768088 0.063558363292394005
leaf_weight=6.9154863804578772 3.8947888165712348 4.2764158248901349 4.6272456943988827 4.33075203001499 4.3334021717310005 5.685415655374527 3.7880520373582902 4.2742775678634644 3.8537361472845033 4.2019729912281036 4.1941571086645109 5.1231835782527906 3.6020744889974594 3.8166646510362625
leaf_count=39 23 21 27 25 25 28 19 22 22 23 22 28 20 20
internal_value=-0.000132432 0.00380262 -0.00274958 0.00957906 -0.0167289 0.0215243 0.00127469 -0.0199945 -0.00628574 0.0165913 0.0469257 -0.0218088 -0.00857609 0.0482741
internal_weight=66.9176 63.0228 54.9298 29.1881 25.7416 22.2727 12.3931 8.60503 21.1144 8.53538 9.87957 12.579 8.72526 8.09308
internal_count=364 341 300 155 145 116 66 47 118 48 50 70 48 41
is_linear=0
shrinkage=0.05


Tree=5
num_leaves=14
num_cat=0
split_feature=10 3 2 1 4 3 4 1 4 5 3 3 9
split_gain=6.53671 6.70787 5.4157 3.93889 8.16979 6.50939 4.43925 6.53644 4.57508 2.07461 3.08168 1.68183 1.47737
threshold=0.64749552502203467 1.1589912280701766 -0.080841589043719034 0.0034199354917356932 28.831521596469759 0.97528434234685657 15.271383367732875 -0.0049274589455091658 13.585081367673494 -0.0019740874586783642 -1.2320330619993451 2.1464543543979873 0.17814407167078702
decision_type=2 2 2 2 2 2 2 2 2 2 2 2 2
left_child=1 2 -1 4 5 6 7 -2 -9 10 12 -5 -8
right_child=3 -3 -4 11 -6 -7 9 8 -10 -11 -12 -13 -14
leaf_value=0.017219302721405923 0.056970336593179419 -0.028692638574788928 0.084582344147003191 -0.056488665561020591 0.056937916873150134 0.051469664077149563 -0.017402176383911835 -0.043003405752710916 0.025618325181142938 -0.063825666547556337 0.014079820412573272 -0.013508069702296944 -0.056894026145262844
leaf_weight=7.0081912875175485 4.0006554871797553 4.002588912844657 5.1956880837678918 5.3930089920759183 5.0890818983316413 3.7682588547468177 4.2108977138996071 6.6998490095138532 3.8102968335151672 4.5436507612466874 3.7000680118799201 3.9379756152629852 5.4116506576538086
leaf_count=37 21 22 26 30 25 20 24 38 21 27 20 23 30
internal_value=-0.000157096 0.0274764 0.0458985 -0.00901376 -0.00237535 -0.0107264 -0.0179651 0.00257848 -0.0181256 -0.0346505 -0.0247003 -0.0383495 -0.0396121
internal_weight=66.7719 16.2065 12.2039 50.5654 41.2344 36.1453 32.3771 14.5108 10.5101 17.8663 13.3226 9.33098 9.62255
internal_count=364 85 63 279 226 201 181 80 59 101 74 53 54
is_linear=0
shrinkage=0.05


Tree=6
num_leaves=14
num_cat=0
split_feature=1 6 0 4 7 6 2 3 2 7 7 5 7
split_gain=6.10831 6.14515 9.63083 7.38583 5.90683 5.96803 5.86238 4.49135 3.90529 3.59552 2.25926 2.16859 0.171581
threshold=0.0071228908103230246 -0.011165786217652008 51.024830164009224 23.765803859742721 0.0089724758913936505 -1.0000000180025095e-35 -0.32709608614689256 -1.6143827298834112 0.79052123498571947 0.0082185084885911548 0.0081533015752934552 0.0031523890929544859 0.0065792204081672112
decision_type=2 2 2 2 2 2 2 2 2 2 2 2 2
left_child=1 6 4 10 5 -3 7 9 -5 -1 11 -4 -8
right_child=-2 2 3 8 -6 -7 12 -9 -10 -11 -12 -13 -14
leaf_value=-0.054651110480672428 -0.06263652562617518 0.027389045396149475 -0.015427970335318605 -0.013633661962198696 0.005767653568024167 0.099118901399059281 -0.048315288024721598 0.032610092182046989 0.051778740699791451 0.01065531303504386 0.0014611404496460579 -0.064234568530289082 -0.064185306537330025
leaf_weight=4.470021590590477 3.6972842067480078 5.8041059374809274 3.8184614330530184 3.7494062185287458 7.2801320403814307 5.7951876521110544 3.2788393646478644 6.0328011065721521 5.8293517529964447 3.9879009574651718 3.72425453364849 5.6339866667985916 3.5440847128629684
leaf_count=25 23 31 20 20 37 27 20 33 30 23 21 33 21
internal_value=-0.000177466 0.00349107 0.0146685 -0.00723553 0.0410696 0.0632264 -0.0183434 -0.000349818 0.0261744 -0.0238592 -0.0315228 -0.0445184 -0.0565588
internal_weight=66.6458 62.9485 41.6349 22.7555 18.8794 11.5993 21.3136 14.4907 9.57876 8.45792 13.1767 9.45245 6.82292
internal_count=364 341 219 124 95 58 122 81 50 48 74 53 41
is_linear=0
shrinkage=0.05


Tree=7
num_leaves=13
num_cat=0
split_feature=10 3 6 1 6 2 9 5 1 4 9 3
split_gain=5.75894 5.72409 7.57766 3.56062 13.5216 4.62869 2.68773 3.10348 4.05596 2.25257 1.97189 1.64202
threshold=0.64749552502203467 1.1589912280701766 -0.011165786217652008 0.0034199354917356932 0.0028399489907833088 0.23906568178802098 0.34961433236088685 -0.0095349362651273861 -0.0049274589455091658 15.650043524533432 0.12234286410653399 2.1464543543979873
decision_type=2 2 2 2 2 2 2 2 2 2 2 2
left_child=1 2 -1 4 6 -6 7 10 -9 -8 -2 -5
right_child=3 -3 -4 11 5 -7 9 8 -10 -11 -12 -13
leaf_value=-0.010070574915595988 -0.0030830628965330502 -0.027273232819529803 0.071187730710654554 -0.055314695629166848 0.089701752146360822 0.017704933966552004 -0.017822481656276319 0.050517588803839525 -0.012834906010275295 -0.063119897748701012 -0.046985159112849173 -0.012285644057127178
leaf_weight=4.4712130427360544 4.7988544106483406 3.9080274403095236 8.0068365186452866 5.2014667391777021 4.26219594478607 4.6876214891672134 6.3922427892684919 4.1653115600347519 6.4210193753242546 4.8095586448907852 5.4767450094223022 3.8643588572740555
leaf_count=25 27 22 38 30 20 25 37 21 35 30 31 23
internal_value=-0.000197305 0.0255324 0.0420707 -0.00861613 -0.00234792 0.0519922 -0.0175156 -0.00690792 0.0120918 -0.0372712 -0.0264822 -0.0369733
internal_weight=66.4655 16.3861 12.478 50.0794 41.0135 8.94982 32.0637 20.8619 10.5863 11.2018 10.2756 9.06583
internal_count=364 85 63 279 226 45 181 114 56 67 58 53
is_linear=0
shrinkage=0.05


Tree=8
num_leaves=15
num_cat=0
split_feature=1 10 3 7 0 8 1 0 1 0 8 7 10 10
split_gain=5.5809 6.33391 7.38623 5.30637 5.15601 3.79482 3.42706 2.95441 2.53827 4.77806 2.59332 1.98908 1.72367 3.83695
threshold=0.0071228908103230246 0.69146252534836505 1.9486388935321786 0.0082185084885911548 51.692155899272016 0.017671539403092459 0.0034199354917356932 41.765594800337247 -0.0081162911133436638 37.429315036090166 0.036205746969500484 0.0060384225661843398 1.1885888142357481 0.86750024902029133
decision_type=2 2 2 2 2 2 2 2 2 2 2 2 2 2
left_child=1 3 5 4 7 11 8 -1 -7 -10 12 -3 13 -11
right_child=-2 2 -4 -5 -6 6 -8 -9 9 10 -12 -13 -14 -15
leaf_value=-0.0012646429889864373 -0.061599991050015117 -0.0073137545103078476 0.059031207222427308 0.061644991469508942 -0.041202255807115389 -0.051306968687933212 -0.064649951410416059 0.061325578001610086 0.044641014702254733 -0.051783433944796155 0.0078297668766442365 0.041746724276901466 -0.049135662989233671 0.019907361034535966
leaf_weight=3.7246240079402941 3.5063573718070975 4.1891168802976591 3.862551897764205 7.1250001788139334 3.768442764878273 4.1096574366092637 3.9612464904785147 3.818038746714592 3.5648256391286948 3.5334907025098818 6.5737202316522589 4.0763954967260361 6.4799682199954987 3.9558247476816177
leaf_count=20 23 23 20 35 20 25 23 20 19 20 35 22 38 21
internal_value=-0.000211644 0.00321901 -0.00702861 0.0278467 0.00655681 -0.0133375 -0.0210998 0.0304181 -0.0149861 -0.00879447 -0.0180671 0.016882 -0.0302538 -0.0139167
internal_weight=66.2493 62.7429 44.3068 18.4361 11.3111 40.4442 32.1787 7.54266 28.2175 24.1078 20.543 8.26551 13.9693 7.48932
internal_count=364 341 246 95 60 226 181 40 158 133 114 45 79 41
is_linear=0
shrinkage=0.05


Tree=9
num_leaves=14
num_cat=0
split_feature=3 10 3 8 8 9 3 7 2 3 7 7 4
split_gain=5.53574 6.80008 7.58405 5.64477 3.93877 3.29741 2.84397 4.01244 1.98737 1.64814 1.53503 1.4123 1.44086
threshold=2.327374871586942 0.69146252534836505 1.6007659941741399 0.039157463803804575 0.017671539403092459 0.31055094256384408 -1.6143827298834112 0.0085249951105574196 -0.080841589043719034 -0.74380216091945572 0.0060384225661843398 0.0081989941278762784 19.141045543284168
decision_type=2 2 2 2 2 2 2 2 2 2 2 2 2
left_child=1 3 4 8 10 6 7 -6 -1 -7 -3 12 -11
right_child=-2 2 -4 -5 5 9 -8 -9 -10 11 -12 -13 -14
leaf_value=-0.0069581960811036158 -0.046902166844548093 -0.0045063544895473295 0.061242108007514541 0.076626843718797077 -0.053900394017954649 -0.062591115997698329 0.021984301721822218 0.016295390902345538 0.031938416454621497 -0.037757869107236774 0.038881302455831074 -0.052014783616330211 0.0053190371330144913
leaf_weight=6.3482031971216211 5.7956967055797568 4.0013406276702863 3.7476682662963858 4.7762232422828665 4.6431566476821882 4.5326288044452658 6.051907584071162 3.6252066195011139 6.8032737970352182 3.6502149403095263 4.1558344215154648 3.803051620721817 4.1461524814367294
leaf_count=33 35 22 19 25 27 29 32 20 34 21 22 22 23
internal_value=-0.000228464 0.00425868 -0.00666633 0.0300708 -0.0132579 -0.0215233 -0.00406046 -0.0231235 0.0131631 -0.0370249 0.0175983 -0.0270346 -0.0148493
internal_weight=66.0806 60.2849 42.3572 17.9277 38.6095 30.4523 14.3203 8.26836 13.1515 16.132 8.15718 11.5994 7.79637
internal_count=364 329 237 92 218 174 79 47 67 95 44 66 44
is_linear=0
shrinkage=0.05


Tree=10
num_leaves=14
num_cat=0
split_feature=9 1 1 4 10 7 1 1 4 2 8 7 7
split_gain=4.42086 5.09604 6.32838 7.02539 4.30118 3.73923 3.32354 3.39439 3.95695 5.39136 2.6969 1.97087 0.880454
threshold=0.35174120760304445 -0.0020374410879550049 -0.003613055013969801 13.849075036454339 0.84354846837549957 0.0091262616141193319 -0.0030279561608018697 -0.00048691535557088267 20.112203999273614 1.8712510622278662 0.036205746969500484 0.0074823709701728044 0.0078707838025754134
decision_type=2 2 2 2 2 2 2 2 2 2 2 2 2
left_child=1 2 3 -1 12 6 -2 -8 -9 11 -3 -10 -5
right_child=5 10 -4 4 -6 -7 7 8 9 -11 -12 -13 -14
leaf_value=0.064411634620833394 -0.042914487875325133 0.020535093384466116 -0.063555040257268727 0.033687383385823867 -0.039864955655372382 -0.052487722884796931 0.03757805847202924 -0.045283339481085649 0.0075553491994068168 -0.048182484515542717 0.070016870166589584 0.055163765236356535 -0.00041046181383154034
leaf_weight=4.4689417630434063 4.9930595308542278 7.3477545678615552 3.4841785579919842 3.8745896369218809 5.9165516197681427 5.1283539384603491 5.2064766734838512 5.1361549943685558 5.3464140743017179 3.2530105561017981 4.4042345136404037 3.6634069532155991 3.7020777761936188
leaf_count=23 32 34 21 20 34 33 28 30 29 20 20 20 20
internal_value=-0.000240053 0.0126155 -0.00188578 0.0100764 -0.00791937 -0.0132808 -0.00599541 0.00215922 -0.00843952 0.00699212 0.0390791 0.026913 0.0170266
internal_weight=65.9252 33.1983 21.4463 17.9622 13.4932 32.7269 27.5985 22.6055 17.399 12.2628 11.752 9.00982 7.57667
internal_count=364 172 118 97 74 192 159 127 99 69 54 49 40
is_linear=0
shrinkage=0.05


end of trees

feature_importances:
Column_1=24
Column_3=17
Column_7=15
Column_2=14
Column_9=14
Column_4=13
Column_6=13
Column_10=13
Column_5=7
Column_8=6
Column_0=5

parameters:
[boosting: gbdt]
[objective: binary]
[metric: auc]
[tree_learner: serial]
[device_type: cpu]
[data_sample_strategy: bagging]
[data: ]
[valid: ]
[num_iterations: 100]
[learning_rate: 0.05]
[num_leaves: 31]
[num_threads: 0]
[seed: 0]
[deterministic: 0]
[force_col_wise: 0]
[force_row_wise: 0]
[histogram_pool_size: -1]
[max_depth: -1]
[min_data_in_leaf: 20]
[min_sum_hessian_in_leaf: 0.001]
[bagging_fraction: 1]
[pos_bagging_fraction: 1]
[neg_bagging_fraction: 1]
[bagging_freq: 0]
[bagging_seed: 3]
[bagging_by_query: 0]
[feature_fraction: 0.8]
[feature_fraction_bynode: 1]
[feature_fraction_seed: 2]
[extra_trees: 0]
[extra_seed: 6]
[early_stopping_round: 0]
[early_stopping_min_delta: 0]
[first_metric_only: 0]
[max_delta_step: 0]
[lambda_l1: 0]
[lambda_l2: 0]
[linear_lambda: 0]
[min_gain_to_split: 0]
[drop_rate: 0.1]
[max_drop: 50]
[skip_drop: 0.5]
[xgboost_dart_mode: 0]
[uniform_drop: 0]
[drop_seed: 4]
[top_rate: 0.2]
[other_rate: 0.1]
[min_data_per_group: 100]
[max_cat_threshold: 32]
[cat_l2: 10]
[cat_smooth: 10]
[max_cat_to_onehot: 4]
[top_k: 20]
[monotone_constraints: ]
[monotone_constraints_method: basic]
[monotone_penalty: 0]
[feature_contri: ]
[forcedsplits_filename: ]
[refit_decay_rate: 0.9]
[cegb_tradeoff: 1]
[cegb_penalty_split: 0]
[cegb_penalty_feature_lazy: ]
[cegb_penalty_feature_coupled: ]
[path_smooth: 0]
[interaction_constraints: ]
[verbosity: -1]
[saved_feature_importance_type: 0]
[use_quantized_grad: 0]
[num_grad_quant_bins: 4]
[quant_train_renew_leaf: 0]
[stochastic_rounding: 1]
[linear_tree: 0]
[max_bin: 255]
[max_bin_by_feature: ]
[min_data_in_bin: 3]
[bin_construct_sample_cnt: 200000]
[data_random_seed: 1]
[is_enable_sparse: 1]
[enable_bundle: 1]
[use_missing: 1]
[zero_as_missing: 0]
[feature_pre_filter: 1]
[pre_partition: 0]
[two_round: 0]
[header: 0]
[label_column: ]
[weight_column: ]
[group_column: ]
[ignore_column: ]
[categorical_feature: ]
[forcedbins_filename: ]
[precise_float_parser: 0]
[parser_config_file: ]
[objective_seed: 5]
[num_class: 1]
[is_unbalance: 0]
[scale_pos_weight: 1]
[sigmoid: 1]
[boost_from_average: 1]
[reg_sqrt: 0]
[alpha: 0.9]
[fair_c: 1]
[poisson_max_delta_step: 0.7]
[tweedie_variance_power: 1.5]
[lambdarank_truncation_level: 30]
[lambdarank_norm: 1]
[label_gain: ]
[lambdarank_position_bias_regularization: 0]
[eval_at: ]
[multi_error_top_k: 1]
[auc_mu_weights: ]
[num_machines: 1]
[local_listen_port: 12400]
[time_out: 120]
[machine_list_filename: ]
[machines: ]
[gpu_platform_id: -1]
[gpu_device_id: -1]
[gpu_use_dp: 0]
[num_gpu: 1]

end of parameters

pandas_categorical:null
