tree
version=v4
num_class=1
num_tree_per_iteration=1
label_index=0
max_feature_idx=10
objective=binary sigmoid:1
feature_names=Column_0 Column_1 Column_2 Column_3 Column_4 Column_5 Column_6 Column_7 Column_8 Column_9 Column_10
feature_infos=[0:100] [-0.027113386071298207:0.032045103378794959] [-7.1947194719471943:8.6544962812711219] [-9.4398993077407116:9.6938775510203925] [0:67.684412120706583] [-0.057035243475921579:0.049387040280210001] [-0.068058455114822447:0.092990731742005686] [0:0.020791043703864899] [0:0.15478866784628029] [-0.31827971301898667:1.3663117241564287] [0:2.5791272007754293]
tree_sizes=1577 1711 1613 1713 1707 1820 1494 1613 1703 1710 1708 1503 1700 1601 1502 1811 1604 1611 1713 1713 1618 1611 1710 1514 1826 1711 1821 1719 1717 1829 1602 1938 1512 1828 1831 1716 1818 1819 1817 1822 1720 1825 1706 1827

Tree=0
num_leaves=14
num_cat=0
split_feature=1 7 6 8 2 9 9 4 5 7 6 1 4
split_gain=8.5386 11.1417 16.6331 11.0397 7.08524 6.21555 6.13518 5.953 4.31873 3.4859 7.08006 2.83766 1.87321
threshold=-0.022288740781612911 0.010024424856370716 0.011994510801469365 0.03582684744739513 -0.59458115833954805 0.34624921887223642 0.67045233648113023 16.856041947861552 0.030462885316140831 0.012322640118373232 -0.025222576977762211 0.0040334415006231259 28.067077265548928
decision_type=2 2 2 2 2 2 2 2 2 2 2 2 2
left_child=-1 2 7 -3 5 9 11 -2 12 -5 -11 -6 -8
right_child=1 3 -4 4 6 -7 8 -9 -10 10 -12 -13 -14
leaf_value=-0.47606905750513001 -0.50472923535669412 -0.61936994676295032 -0.56425422012532711 -0.59005840123294162 -0.52453847593056924 -0.61936994676295032 -0.58752530470565689 -0.43373015840622853 -0.51619330649731965 -0.49787571456610269 -0.57489725699328198 -0.47606905750513001 -0.54771950213404019
leaf_weight=4.8848266303539267 6.9783237576484698 6.0478805899620047 9.0718208849430066 5.1174374222755494 7.9087669253349322 4.8848266303539267 6.280491381883623 5.1174374222755432 5.8152697980403891 5.3500482141971624 6.7457129657268471 4.8848266303539276 5.5826590061187744
leaf_count=21 30 26 39 22 34 21 27 22 25 23 29 21 24
internal_value=-0.54024 -0.544168 -0.513075 -0.555396 -0.548037 -0.569592 -0.532405 -0.474691 -0.551491 -0.555465 -0.54083 -0.506032 -0.568793
internal_weight=84.6703 79.7855 21.1676 58.6179 52.57 22.098 30.472 12.0958 17.6784 17.2132 12.0958 12.7936 11.8632
internal_count=364 343 91 252 226 95 131 52 76 74 52 55 51
is_linear=0
shrinkage=1


Tree=1
num_leaves=15
num_cat=0
split_feature=1 7 3 8 2 2 0 5 3 4 4 1 7 3
split_gain=7.58978 10.0375 13.108 10.262 6.55835 6.45149 5.85789 5.77496 4.762 6.35254 3.49631 3.09723 2.08084 1.3471
threshold=-0.022288740781612911 0.010024424856370716 0.96106128770034893 0.03582684744739513 1.6333420151062905 -0.59458115833954805 34.29505584148442 1.0000000180025095e-35 2.2883297639962921 28.607201692935018 28.228671551666874 -0.0066093230644045367 0.0093293595313945279 -2.0555675817439663
decision_type=2 2 2 2 2 2 2 2 2 2 2 2 2 2
left_child=-1 2 12 -3 -4 6 -5 -7 11 -10 13 -9 -2 -8
right_child=1 3 4 5 -6 7 10 8 9 -11 -12 -13 -14 -15
leaf_value=0.059970792826190215 0.085404639298884616 -0.076914178673554948 -0.051875840625951089 0.018735551492460794 0.028599390875055232 0.055651011508685504 -0.078174436865049296 0.0068661527878105108 0.063525546135585559 -0.0081254149448306105 -0.01180204850645274 -0.045175689176207345 0.042085708632470978 -0.042791195013472207
leaf_weight=4.9634188413619986 5.4184069335460681 5.9144128262996665 5.5650179237127286 5.1112394928932217 4.6446957290172577 5.1579120010137585 5.0687760859727895 4.6511978209018707 4.8959416747093192 8.4024545252323133 6.0033836066722861 7.4195463508367556 5.6763634234666824 5.7317295074462873
leaf_count=21 23 26 24 22 20 22 22 20 21 36 26 32 24 25
internal_value=-1.78745e-05 -0.00375557 0.0256188 -0.0144794 -0.0152653 -0.00743804 -0.0281361 0.00742095 -0.00238492 0.0182536 -0.0423931 -0.0251225 0.0632416 -0.0593969
internal_weight=84.6245 79.6611 21.3045 58.3566 10.2097 52.4422 21.9151 30.5271 25.3691 13.2984 16.8039 12.0707 11.0948 10.8005
internal_count=364 343 91 252 44 226 95 131 109 57 73 52 47 47
is_linear=0
shrinkage=0.05


Tree=2
num_leaves=14
num_cat=0
split_feature=1 2 9 5 0 8 5 6 9 10 10 1 10
split_gain=6.76569 6.48305 7.12947 8.97514 5.23829 9.60117 4.4473 5.9737 5.45165 4.57644 3.76422 2.11148 1.90194
threshold=-0.022288740781612911 -1.0000000180025095e-35 0.67045233648113023 0.025976492311178601 60.126755554866889 0.044602587117851956 -1.0000000180025095e-35 0.0011409820531612074 0.17402607536914075 0.86989672606694979 0.84956562761139154 -0.011622889123959255 0.68827567240002774
decision_type=2 2 2 2 2 2 2 2 2 2 2 2 2
left_child=-1 6 10 4 5 -4 7 8 11 -10 12 -2 -3
right_child=1 2 3 -5 -6 -7 -8 -9 9 -11 -12 -13 -14
leaf_value=0.056207567162261052 -0.02198395782544724 0.033139955701794115 0.047726209761507599 0.035680160701224005 -0.05490242899245712 -0.044960935501667472 -0.066224493182217375 0.038900873242918022 -0.016506089829173398 -0.076844374024594084 0.0069890897763513291 0.02050297043322993 0.07690388254778048
leaf_weight=5.0291567444801322 5.3103772103786469 5.2218609154224414 5.1069630533456856 8.6558044105768186 8.5352785140275937 6.1690436154603958 4.5535437911748877 4.6436131894588462 6.4549322277307493 6.123976930975914 7.4709735661745063 6.5080484747886711 4.7325528562068939
leaf_count=21 23 22 22 37 37 27 20 20 28 27 32 28 20
internal_value=-3.38904e-05 -0.0035923 0.00862499 -0.00679371 -0.0253511 -0.00298244 -0.020282 -0.0130783 -0.0229717 -0.0458815 0.0338138 0.0014123 0.0539463
internal_weight=84.5161 79.487 45.8925 28.4671 19.8113 11.276 33.5945 29.0409 24.3973 12.5789 17.4254 11.8184 9.95441
internal_count=364 343 197 123 86 49 146 126 106 55 74 51 42
is_linear=0
shrinkage=0.05


Tree=3
num_leaves=15
num_cat=0
split_feature=1 2 9 0 6 8 3 0 0 10 10 1 6 9
split_gain=6.04518 5.88348 6.38623 5.75411 7.44251 8.19134 3.62071 5.70867 3.40098 3.21305 2.88375 2.60864 3.71671 2.28261
threshold=-0.022288740781612911 -1.0000000180025095e-35 0.67045233648113023 68.369108392688915 0.016801316794696496 0.045414388762309708 -1.1394186126666053 54.770047174590552 34.29505584148442 0.66036473729421163 0.97104740751280638 -0.013755421122142673 0.0029274215663758437 0.1611611996504009
decision_type=2 2 2 2 2 2 2 2 2 2 2 2 2 2
left_child=-1 8 6 4 5 -4 -3 -8 -2 -10 -6 -11 13 -13
right_child=1 2 3 -5 10 -7 7 -9 9 11 -12 12 -14 -15
leaf_value=0.052809883118258127 0.018050895114782275 0.067879951222872423 0.046032626632009743 0.032623588013847127 -0.076884746081248109 -0.038615375402448401 -0.019668066006363151 0.048090447233473645 0.009794088031722499 -0.00016240420989220374 -0.022469860575538566 -0.033001783407277843 -0.008943238999920276 -0.075545632100105523
leaf_weight=5.0836068391799918 5.1271408647298804 4.9962949305772808 6.320833578705793 7.0639584064483634 5.22399093210697 5.2167924493551254 5.6584648340940458 6.8977566808462143 5.0808045119047192 4.5473788529634502 4.5602057874202728 5.5152286291122454 5.7396675944328299 7.360449030995369
leaf_count=21 22 21 27 30 23 23 24 29 22 20 20 24 25 33
internal_value=-4.6533e-05 -0.00343456 0.00817246 -0.00648721 -0.0194447 0.00775863 0.03188 0.0175551 -0.0194129 -0.0262138 -0.0515231 -0.0341122 -0.0424055 -0.0573222
internal_weight=84.3926 79.309 45.9383 28.3858 21.3218 11.5376 17.5525 12.5562 33.3707 28.2435 9.7842 23.1627 18.6153 12.8757
internal_count=364 343 197 123 93 50 74 53 146 124 43 102 82 57
is_linear=0
shrinkage=0.05


Tree=4
num_leaves=15
num_cat=0
split_feature=7 8 3 0 2 4 1 5 3 4 1 9 3 9
split_gain=6.28905 11.0977 10.569 6.70389 6.45145 5.8889 5.21309 4.8292 4.16174 5.70463 2.56898 1.95892 1.65481 1.2114
threshold=0.010024424856370716 0.03582684744739513 0.96106128770034893 33.684395418526044 -0.59458115833954805 21.833346632384487 -0.019897658797889958 1.0000000180025095e-35 2.2883297639962921 28.607201692935018 -0.0066093230644045367 0.37054579774053298 -2.9151179981594493 0.29186026807323656
decision_type=2 2 2 2 2 2 2 2 2 2 2 2 2 2
left_child=2 -2 11 -3 6 -4 -5 -6 10 -10 -9 -1 -8 -14
right_child=1 3 5 4 7 -7 12 8 9 -11 -12 -13 13 -15
leaf_value=0.038563467703181614 -0.074450429295857226 0.045837319867517941 -0.055850152268006097 0.013238337694543998 0.050475453767272464 0.020867369186985708 -0.066973873682082519 0.0051537803171380894 0.059440665132436968 -0.0081899022213658187 -0.042375915081261359 0.080597475289182138 -0.015196470593110526 -0.05132982616176366
leaf_weight=6.5083537101745623 5.7177726924419394 6.6409555673599234 4.572143614292143 5.2114586979150799 5.2507254928350475 5.5230654180049896 5.4010382741689691 4.6832572817802429 4.9627358913421622 8.3883538693189603 7.2349012792110461 4.8277938216924667 4.9335641264915431 4.3779625445604324
leaf_count=27 26 28 20 22 22 24 24 20 21 36 32 20 22 20
internal_value=-5.76423e-05 -0.00803859 0.0233298 -0.00138661 -0.00760364 -0.0138782 -0.0297345 0.00684379 -0.00222249 0.0169491 -0.0236991 0.0564647 -0.0449562 -0.0321851
internal_weight=84.2341 62.8027 21.4314 57.085 50.444 10.0952 19.924 30.52 25.2692 13.3511 11.9182 11.3361 14.7126 9.31153
internal_count=364 273 91 247 219 44 88 131 109 57 52 47 66 42
is_linear=0
shrinkage=0.05


Tree=5
num_leaves=16
num_cat=0
split_feature=1 2 8 5 10 5 1 9 10 1 0 1 2 8 0
split_gain=5.10475 5.00269 5.74365 6.46396 4.75203 3.98025 4.77745 6.42329 3.57279 3.4918 2.93487 2.84914 2.61037 2.29258 0.196144
threshold=-0.022288740781612911 -1.0000000180025095e-35 0.068927597410439162 0.0051985261781933396 0.95674340166478467 -1.0000000180025095e-35 0.0017963479108652482 0.17402607536914075 0.79613433942744904 -0.011622889123959255 69.665441842617 0.0022933285855962775 2.1041919588659557 0.048660238941158764 54.770047174590552
decision_type=2 2 2 2 2 2 2 2 2 2 2 2 2 2 2
left_child=-1 5 3 4 14 6 7 9 -9 -2 -4 13 -13 -5 -3
right_child=1 2 10 11 -6 -7 -8 8 -10 -11 -12 12 -14 -15 -16
leaf_value=0.048169367302928617 -0.021488203499040771 0.037440037657166261 0.068434384881808349 0.027134005599424596 -0.016923635554898682 -0.06258553603261767 0.033937904828841084 -0.013840319345227531 -0.067167051202108308 0.035146932317371204 0.013443503201683457 -0.051315835814030278 -0.0042716844519930302 -0.022814962970159381 0.051717640132850663
leaf_weight=5.1482059210538855 5.2794475704431534 4.8417935371398908 4.971442982554434 4.644876495003702 4.6729011237621298 4.3595866411924353 4.8473680913448325 5.4667804390192014 7.382531613111496 5.6172668337822014 4.7393612116575241 8.0635181963443738 4.6486468911170951 4.5452741235494614 4.7805601060390472
leaf_count=21 23 20 21 20 20 20 21 24 34 24 20 36 20 20 20
internal_value=-6.94876e-05 -0.0032186 0.00745082 -0.0017094 0.024444 -0.0180827 -0.0112974 -0.0205315 -0.044479 0.00770726 0.0415961 -0.0187793 -0.0341125 0.00243019 0.0445334
internal_weight=84.0096 78.8614 45.9084 36.1976 14.2953 32.953 28.5934 23.746 12.8493 10.8967 9.7108 21.9023 12.7122 9.19015 9.62235
internal_count=364 343 197 156 60 146 126 105 58 47 41 96 56 40 40
is_linear=0
shrinkage=0.05


Tree=6
num_leaves=13
num_cat=0
split_feature=7 6 0 9 4 4 0 0 6 7 0 9
split_gain=5.60302 10.3898 7.53778 6.5563 5.91478 4.81397 4.57818 4.54697 3.74711 4.77772 7.97753 2.21488
threshold=0.010024424856370716 0.011994510801469365 33.684395418526044 0.12834425086545206 23.105434436678788 16.856041947861552 43.642799841300793 49.559761354899578 0.026659973734330166 0.012633798410204358 59.306784607220045 0.41992108564812941
decision_type=2 2 2 2 2 2 2 2 2 2 2 2
left_child=1 5 -2 -4 11 -1 -6 -8 -9 -10 -11 -5
right_child=2 -3 3 4 6 -7 7 8 9 10 -12 -13
leaf_value=0.024341873554263916 0.04239313682872857 -0.019830842379273642 -0.066342035699013438 -0.057946809377800092 0.033176614828938737 0.086657669988223732 -0.048968081107710323 0.03416182449720271 0.025614636832635186 0.013454399336785248 -0.076837801648170001 -0.017796886416480702
leaf_weight=7.2619767934083956 6.7113641500473014 8.7820694893598539 5.3465232700109473 6.2501613795757276 9.1090080440044385 5.406514048576355 5.3757925927639034 6.5072742998600033 5.6297733634710303 4.8384737521409971 4.9479102045297623 7.6260857731103897
leaf_count=30 28 39 24 29 39 22 24 28 24 21 22 34
internal_value=-7.84049e-05 0.0219635 -0.00766253 -0.0137013 -0.00810422 0.0509363 0.00248243 -0.00775938 0.00234531 -0.0110847 -0.0321965 -0.0358813
internal_weight=83.7929 21.4506 62.3424 55.631 50.2845 12.6685 36.4082 27.2992 21.9234 15.4162 9.78638 13.8762
internal_count=364 91 273 245 221 52 158 119 95 67 43 63
is_linear=0
shrinkage=0.05


Tree=7
num_leaves=14
num_cat=0
split_feature=2 2 0 5 10 5 9 2 10 10 3 5 0
split_gain=4.49143 6.93164 6.54732 6.01001 5.31451 5.00833 5.98181 4.07505 2.82584 3.28609 3.27396 2.08615 1.24714
threshold=-3.115060142359781 -0.75104391132155579 36.197297044604561 -1.0000000180025095e-35 0.79613433942744904 0.025976492311178601 0.8536454153062345 -1.5207896934598426 1.0131563757361111 0.62953520188172984 0.96106128770034893 -0.015688333816335793 57.294539165722661
decision_type=2 2 2 2 2 2 2 2 2 2 2 2 2
left_child=2 7 -1 4 -3 6 8 11 9 -5 -11 -2 -10
right_child=1 3 -4 5 -6 -7 -8 -9 12 10 -12 -13 -14
leaf_value=0.067727317806068291 -0.029339887244272278 0.077645300399232675 -0.012600999278642517 -0.021300167319271493 0.0028603336016907121 0.030853361743153142 -0.053932017437477622 -0.057518541398115901 -0.006407144481423592 0.049286682716834666 -0.00022718517445124932 0.013188848521389475 -0.043119649210598306
leaf_weight=5.5428583920001966 6.7358893007040033 4.8431494385004026 4.6772036105394363 5.9814725518226686 4.6627015769481659 8.8114029020071012 6.6690940707921973 7.9187451153993598 4.8105866312980634 6.355298846960066 7.0332823395729065 5.0418041646480569 4.456081360578537
leaf_count=23 29 20 21 26 20 37 30 36 21 27 31 23 20
internal_value=-8.75615e-05 -0.00441602 0.0309651 0.00490142 0.0409626 -0.00286862 -0.0112847 -0.0297825 -0.00135279 0.00951094 0.0232761 -0.0111342 -0.0240612
internal_weight=83.5396 73.3195 10.2201 53.6231 9.50585 44.1172 35.3058 19.6964 28.6367 19.3701 13.3886 11.7777 9.26667
internal_count=364 320 44 232 40 192 155 88 125 84 58 52 41
is_linear=0
shrinkage=0.05


Tree=8
num_leaves=15
num_cat=0
split_feature=7 8 3 2 4 0 9 2 9 1 3 8 1 9
split_gain=5.23411 9.86705 7.52826 5.71638 5.34339 6.0312 3.61446 3.01745 5.21012 3.5427 2.96465 2.75287 2.8449 1.5427
threshold=0.010024424856370716 0.03582684744739513 0.96106128770034893 1.6333420151062905 21.728955014572474 34.29505584148442 0.41992108564812941 -0.59458115833954805 0.58880187214341528 -0.019897658797889958 -2.0555675817439663 0.067276105534017791 0.011080936608786842 0.37054579774053298
decision_type=2 2 2 2 2 2 2 2 2 2 2 2 2 2
left_child=2 -2 13 -4 6 -6 -3 9 -9 -7 -11 12 -10 -1
right_child=1 4 3 -5 5 7 -8 8 11 10 -12 -13 -14 -15
leaf_value=0.032882088557664828 -0.071714036633201042 -0.05046951251627782 -0.046401295602877903 0.029975337631431866 0.058318503757851782 0.016416174005257807 0.0018991821796167461 0.055088196664809991 0.0084798885578891911 -0.063321466186831876 -0.0067859776257957558 0.018926243844431031 -0.046303257953220649 0.069865627284971532
leaf_weight=6.6027685850858706 5.4480669796466819 7.9013308286666852 5.2646021395921689 4.582114115357399 5.1179953664541236 4.9632562249898902 5.6516283303499222 5.3041878044605317 4.5783672630786914 4.7832551300525656 4.5007089972495988 8.8174645304679853 4.9126334935426712 4.9213980138301849
leaf_count=27 26 36 24 20 21 21 25 22 20 22 21 37 22 20
internal_value=-9.32273e-05 -0.0074507 0.0212446 -0.0108599 -0.00125742 0.00737495 -0.0286316 0.000488273 0.0114529 -0.0176839 -0.035914 -0.00118882 -0.0198764 0.0486759
internal_weight=83.3498 61.9789 21.3709 9.84672 56.5308 42.9779 13.553 37.8599 23.6127 14.2472 9.28396 18.3085 9.491 11.5242
internal_count=364 273 91 44 247 186 61 165 101 64 43 79 42 47
is_linear=0
shrinkage=0.05


Tree=9
num_leaves=15
num_cat=0
split_feature=7 8 3 4 4 0 9 2 9 9 4 8 1 7
split_gain=4.73185 9.21244 6.75477 5.42939 4.86321 5.39653 3.35091 2.73573 4.65359 3.45049 3.01574 2.48989 2.61656 1.48556
threshold=0.010024424856370716 0.03582684744739513 0.96106128770034893 21.833346632384487 21.728955014572474 34.29505584148442 0.41992108564812941 -0.59458115833954805 0.58880187214341528 0.29835428457159546 31.354481357445021 0.067276105534017791 0.011080936608786842 0.0093293595313945279
decision_type=2 2 2 2 2 2 2 2 2 2 2 2 2 2
left_child=2 -2 13 -4 6 -6 -3 9 -9 10 -7 12 -10 -1
right_child=1 4 3 -5 5 7 -8 8 11 -11 -12 -13 -14 -15
leaf_value=0.064213788713799722 -0.070220325606139153 -0.048792593533951364 -0.051821558523235556 0.023047232666490822 0.054992572908770167 -0.029091856119159199 0.0018031948164085035 0.051887409812240097 0.0080368790433557203 -0.052126001080391705 0.027385324634931443 0.017909747614794164 -0.04465852201057937 0.028385619497396781
leaf_weight=5.7010313570499438 5.2897722125053397 7.7676712274551374 4.3748137801885587 5.4235353767871857 5.1551325321197501 4.5268311500549263 5.6547648012638092 5.3486071825027528 4.5889203101396578 4.6675032079219809 4.9464544355869293 8.8511225283145887 4.8407321125268936 5.8744288831949234
leaf_count=23 26 36 20 24 21 21 25 22 20 22 21 37 22 24
internal_value=-0.000101508 -0.00713118 0.0201706 -0.0103805 -0.00120854 0.00700541 -0.027477 0.000455795 0.0108656 -0.0169391 0.000397575 -0.0011366 -0.0190144 0.0460314
internal_weight=83.0113 61.6375 21.3738 9.79835 56.3477 42.9253 13.4224 37.7702 23.6294 14.1408 9.47329 18.2808 9.42965 11.5755
internal_count=364 273 91 44 247 186 61 165 101 64 42 79 42 47
is_linear=0
shrinkage=0.05


Tree=10
num_leaves=15
num_cat=0
split_feature=7 8 4 0 1 4 9 2 5 8 9 1 4 4
split_gain=4.28015 8.61442 4.42781 4.83927 4.17156 5.48999 3.1086 2.48186 5.17156 3.36475 3.19615 2.79693 2.72997 1.01686
threshold=0.010024424856370716 0.03582684744739513 21.728955014572474 34.29505584148442 0.0022933285855962775 21.833346632384487 0.41992108564812941 -0.59458115833954805 0.0050573962233898886 0.067276105534017791 0.29835428457159546 0.011080936608786842 31.354481357445021 16.137144063987581
decision_type=2 2 2 2 2 2 2 2 2 2 2 2 2 2
left_child=4 -2 6 -4 13 -6 -3 10 -9 11 12 -10 -5 -1
right_child=1 2 3 7 5 -7 -8 8 9 -11 -12 -13 -14 -15
leaf_value=0.024931199105582023 -0.068857089426769602 -0.047193751624847062 0.05195893655912897 -0.027946371523281072 -0.044409637073882006 0.02840068931483325 0.0017121137335384625 0.054599730647053271 0.00330588101470495 0.01955450048241119 -0.050534055356108401 -0.051421320868039612 0.025871911160556694 0.055603409787631557
leaf_weight=5.1734513044357318 5.1288545280694953 7.6327492892742139 5.1825524717569342 4.4780264347791618 4.5784873068332654 5.9579669535160065 5.6577360481023788 5.1546002030372682 4.8346538245677966 9.1282939910888654 4.5761549770832053 4.5147585719823837 4.973296731710434 5.6567299515008926
leaf_count=21 26 36 21 21 21 26 25 21 21 38 22 21 21 23
internal_value=-0.000108617 -0.00682923 -0.00116175 0.00665975 0.0191605 -0.00323815 -0.0263746 0.000425902 0.010315 -0.00203883 -0.0162344 -0.0231215 0.000372869 0.0409517
internal_weight=82.6283 61.2617 56.1328 42.8423 21.3666 10.5365 13.2905 37.6598 23.6323 18.4777 14.0275 9.34941 9.45132 10.8302
internal_count=364 273 247 186 91 47 61 165 101 80 64 42 42 44
is_linear=0
shrinkage=0.05


Tree=11
num_leaves=13
num_cat=0
split_feature=7 8 6 4 6 4 6 4 0 7 9 1
split_gain=3.8713 8.06604 7.28182 4.03249 4.48198 3.95852 3.80468 3.03002 4.70061 5.95347 2.88527 2.85819
threshold=0.010024424856370716 0.03582684744739513 0.011994510801469365 21.728955014572474 -0.025222576977762211 16.856041947861552 -0.0013343502612569466 26.674953806936063 43.642799841300793 0.012847187896678432 0.41992108564812941 0.01390386699069346
decision_type=2 2 2 2 2 2 2 2 2 2 2 2
left_child=2 -2 5 10 -5 -1 -6 -8 -9 -10 -3 -11
right_child=1 3 -4 4 6 -7 7 8 9 11 -12 -13
leaf_value=0.018042396341374146 -0.067609374658333402 -0.045664746439747939 -0.017512401788809081 0.038574966894863394 -0.039596909118357886 0.074226383599392889 0.039574136913230716 0.040497309894687479 0.027917039486027074 -0.06591322286978224 0.0016256774307494744 -0.015772201802481085
leaf_weight=7.3370834589004534 4.9664489030838004 7.4973808079957944 8.5603504329919797 8.6085415184497815 5.5705556422471956 5.474116176366806 5.3302042782306733 5.0397714823484447 5.7632750570774105 4.4073868840932837 5.660550981760025 8.0027904212474805
leaf_count=30 26 36 39 36 26 22 23 21 24 20 25 36
internal_value=-0.000114967 -0.00654499 0.0181919 -0.00111782 0.00633623 0.0420493 -0.0017991 0.00557755 -0.00222873 -0.0140773 -0.0253204 -0.0335794
internal_weight=82.2185 60.8469 21.3716 55.8805 42.7225 12.8112 34.114 28.5434 23.2132 18.1735 13.1579 12.4102
internal_count=364 273 91 247 186 52 150 124 101 80 61 56
is_linear=0
shrinkage=0.05


Tree=12
num_leaves=15
num_cat=0
split_feature=2 2 5 0 9 9 7 2 3 4 3 5 4 9
split_gain=3.75899 5.30493 4.85856 4.70714 3.98168 6.09833 6.10932 3.67168 3.59302 3.56353 2.95118 2.28279 1.7056 2.45265
threshold=-3.115060142359781 -0.75104391132155579 -1.0000000180025095e-35 36.197297044604561 0.98563569992368649 0.8536454153062345 0.012043031218894286 -1.5207896934598426 2.4560016796551793 21.504822399146985 0.074294369082936573 -0.015688333816335793 33.654808688129798 0.67204640203136623
decision_type=2 2 2 2 2 2 2 2 2 2 2 2 2 2
left_child=3 7 9 -1 5 6 8 11 10 -3 -4 -2 13 -8
right_child=1 2 4 -5 -6 -7 12 -9 -10 -11 -12 -13 -14 -15
leaf_value=0.059091899737832534 -0.028352430789125267 0.004300696886515196 0.03244219011931148 -0.0095539242848891037 0.039264269118097939 -0.045248929981400961 0.015170038199605152 -0.054226647562399588 0.05776528450400914 0.065992494517255959 -0.02340923349697456 0.016871974239248896 -0.047758567504711677 -0.032401350023241765
leaf_weight=5.591260299086569 6.55131520330906 4.4699815511703473 5.1017269641160983 4.512965977191925 4.9264845103025428 8.7218113839626294 5.1404349356889707 7.444964498281478 5.3509590774774543 4.91428342461586 4.4094502329826355 4.8606078028678903 4.0973853021860114 5.7293294072151184
leaf_count=23 29 20 21 21 21 39 22 36 23 20 20 23 20 26
internal_value=-0.000119931 -0.0041425 0.0039794 0.0284318 -0.00306299 -0.00847204 0.00228119 -0.0269108 0.0249889 0.036607 0.00654907 -0.00909029 -0.0202672 -0.0099043
internal_weight=81.823 71.7187 52.8618 10.1042 43.4776 38.5511 29.8293 18.8569 14.8621 9.38426 9.51118 11.4119 14.9671 10.8698
internal_count=364 320 232 44 192 171 132 88 64 40 41 52 68 48
is_linear=0
shrinkage=0.05


Tree=13
num_leaves=14
num_cat=0
split_feature=7 8 3 2 0 2 2 9 3 7 3 8 7
split_gain=3.42637 7.38817 5.16967 5.14174 3.57613 3.12914 3.7385 3.50554 4.558 3.18741 1.94457 2.06063 1.3639
threshold=0.010024424856370716 0.03582684744739513 0.96106128770034893 1.6333420151062905 32.938596602957894 -0.59458115833954805 -2.0962710588038429 0.67045233648113023 0.13123924639049031 0.01504902224600208 5.4143084401797443 0.051632551383090509 0.0093293595313945279
decision_type=2 2 2 2 2 2 2 2 2 2 2 2 2
left_child=2 -2 12 -4 -3 6 9 8 -7 -6 11 -9 -1
right_child=1 4 3 -5 5 7 -8 10 -10 -11 -12 -13 -14
leaf_value=0.056988430231034837 -0.066095554349895461 0.037889015398276604 -0.044276945238028886 0.028731174849234944 -0.024701845949480449 0.0010519718131365809 -0.047704106637910637 0.0025625044754480409 0.061745902160099952 0.027413077009978901 0.011016235354868231 -0.042341477133567777 0.022717087786098489
leaf_weight=5.7237932682037371 4.7457387596368781 5.3184625655412665 5.1175134778022748 4.5609556138515472 7.1367520987987536 8.0338873565197009 7.7720580250024787 4.417668744921686 5.0300529301166526 4.9821532368659973 6.7433545142412177 6.0589484423398972 5.8909304887056351
leaf_count=23 26 22 24 20 34 34 38 20 21 22 28 28 24
internal_value=-0.000123483 -0.0062175 0.0171167 -0.00987204 -0.00109678 -0.00522922 -0.0206362 0.00489033 0.0244212 -0.00327709 -0.00992674 -0.0234068 0.0396062
internal_weight=81.5323 60.2391 21.2932 9.67847 55.4933 50.1749 19.891 30.2839 13.0639 12.1189 17.22 10.4766 11.6147
internal_count=364 273 91 44 247 225 94 131 55 56 76 48 47
is_linear=0
shrinkage=0.05


Tree=14
num_leaves=13
num_cat=0
split_feature=10 9 7 9 1 3 7 2 2 1 9 10
split_gain=3.2533 3.78924 5.69141 5.52148 4.75814 6.02228 4.16106 3.62619 4.1484 3.66851 4.01847 2.45638
threshold=1.0156873895426271 0.79486515506032263 0.009524670045380863 0.9139073540513335 -0.0082443939248255643 0.072472898128453589 0.013885785038211359 2.2894364624432355 -2.9818083760293779 -0.004695195196866008 0.67204640203136623 0.69524517299701272
decision_type=2 2 2 2 2 2 2 2 2 2 2 2
left_child=1 2 -1 -3 6 -6 -4 8 -2 -10 -11 -7
right_child=7 3 4 -5 5 11 -8 -9 9 10 -12 -13
leaf_value=0.05594841496756793 0.020839851249447334 -0.055542740551734485 0.051012289343251943 0.018347515207638204 -0.042622076376969964 0.040407388543960893 -0.00053689860864619058 0.022780022870772076 -0.062086542593042464 0.0086510325873542775 -0.047775969889325837 -0.0081821384157490309
leaf_weight=6.8149644434452048 4.6146165281534257 5.2464772015809995 8.1620361506938881 4.8798250555992126 8.365347042679792 4.8385840654373151 7.5228772461414328 5.6375568360090247 6.6292477399110874 7.1472795605659414 5.6489527225494385 5.624717116355896
leaf_count=28 20 25 37 21 39 21 32 24 31 33 27 26
internal_value=-0.000127741 0.00747616 0.0141925 -0.0199353 0.00594749 -0.0109969 0.026288 -0.0133113 -0.021775 -0.0318983 -0.0162589 0.0142873
internal_weight=81.1325 51.4548 41.3285 10.1263 34.5136 18.8286 15.6849 29.6777 24.0401 19.4255 12.7962 10.4633
internal_count=364 229 183 46 155 86 69 135 111 91 60 47
is_linear=0
shrinkage=0.05


Tree=15
num_leaves=16
num_cat=0
split_feature=10 2 1 10 9 9 2 0 2 4 8 2 6 2 5
split_gain=2.97147 3.08176 4.7388 3.87916 3.00403 5.74239 2.64962 5.38177 2.67814 2.2331 5.78543 2.20912 2.08465 2.07512 1.12427
threshold=1.0073107869278188 -2.9818083760293779 -0.0057120887570315517 1.1615099408153315 0.79486515506032263 0.9139073540513335 -1.0000000180025095e-35 36.197297044604561 1.0530609658537369 20.36224320881853 0.068927597410439162 0.29250554798000084 0.031208955147667337 0.51819208432952324 0.0098756313200217601
decision_type=2 2 2 2 2 2 2 2 2 2 2 2 2 2 2
left_child=4 -2 -3 -4 6 -6 7 -1 11 -9 -11 -8 13 -5 -10
right_child=1 2 3 12 5 -7 8 9 14 10 -12 -13 -14 -15 -16
leaf_value=0.042638598221600495 0.024089922379584364 -0.054468564364460403 -0.043891033400869611 0.018448222729737895 -0.05388798258268597 0.02277653139132681 0.020703188282823914 -0.042935265516110571 -0.010589700791437414 0.032184467036621867 -0.043350730956330963 0.066967176563864875 0.034762128742217256 -0.028892798772217523 0.024142024543980262
leaf_weight=5.6242079734802273 4.8804631531238583 6.9706734716892305 5.027076542377471 4.4251248985528928 5.139930993318556 4.6543520987033844 5.1007613688707369 4.7763225734233847 4.5648530423641187 5.6768941730260831 4.5803177654743195 5.2219461500644684 4.629555255174636 4.8537651151418686 4.7592248916625977
leaf_count=24 21 33 25 20 25 20 21 23 20 26 21 22 20 22 21
internal_value=-0.000131734 -0.0123569 -0.0192231 -0.00624823 0.00738083 -0.0174562 0.0134164 0.000914106 0.026562 -0.0146955 -0.00154548 0.0441067 0.0073574 -0.00631575 0.00713817
internal_weight=80.8855 30.7867 25.9062 18.9355 50.0988 9.79428 40.3045 20.6577 19.6468 15.0335 10.2572 10.3227 13.9084 9.27889 9.32408
internal_count=364 141 120 87 223 45 178 94 84 70 47 43 62 42 41
is_linear=0
shrinkage=0.05


Tree=16
num_leaves=14
num_cat=0
split_feature=7 8 6 4 0 4 9 5 9 3 9 3 1
split_gain=2.90638 6.75142 5.78159 3.47902 5.27411 3.45473 2.52397 2.14284 5.00711 2.6466 3.58882 2.72599 2.33848
threshold=0.010024424856370716 0.03582684744739513 0.011994510801469365 21.728955014572474 33.684395418526044 16.856041947861552 0.41992108564812941 -0.016128654205904893 0.41992108564812941 1.3553778049931762 0.71616936006144749 5.4143084401797443 -0.01662456372923837
decision_type=2 2 2 2 2 2 2 2 2 2 2 2 2
left_child=2 -2 5 6 -5 -1 -3 12 -9 -10 -11 -12 -6
right_child=1 3 -4 4 7 -7 -8 8 9 10 11 -13 -14
leaf_value=0.014577565361975074 -0.064618149868362174 -0.043408678171197562 -0.01642693437119425 0.055850542788634452 0.0010039341072423939 0.067230233371911349 0.0012808783617925688 0.051995733844449721 -0.03013375226307894 0.040170974361690377 -0.039919852946344821 0.012038273829178419 -0.047894736509315937
leaf_weight=7.3088140934705752 4.5082531571388236 7.1897237300872785 8.3935888111591321 4.7075175940990439 5.6457763761281967 5.4299177229404449 5.6362415999174118 5.0286616384983125 6.4866514801979092 5.5589953511953345 4.3268613368272764 6.0598824322223663 4.312689051032061
leaf_count=30 26 36 39 19 24 22 25 22 30 24 21 25 21
internal_value=-0.000135351 -0.00579582 0.0157918 -0.000970135 0.00597159 0.0370209 -0.0237703 -0.000303376 0.00690195 -0.0032067 0.00774709 -0.0096062 -0.0201725
internal_weight=80.5936 59.4613 21.1323 54.953 42.127 12.7387 12.826 37.4195 27.4611 22.4324 15.9457 10.3867 9.95847
internal_count=364 273 91 247 186 52 61 167 122 100 70 46 45
is_linear=0
shrinkage=0.05


Tree=17
num_leaves=14
num_cat=0
split_feature=1 7 8 6 4 4 6 5 7 1 4 3 4
split_gain=2.65158 3.61963 5.58147 5.22815 3.1549 2.61787 5.04466 5.02188 2.63384 4.56173 2.86498 2.25823 0.946248
threshold=-0.022288740781612911 0.010024424856370716 0.03582684744739513 0.011994510801469365 16.856041947861552 23.105434436678788 -0.019902456069380372 -0.012432142731868113 0.013885785038211359 0.019298945562459483 27.197686782741421 -2.3112326934075753 17.854052825721791
decision_type=2 2 2 2 2 2 2 2 2 2 2 2 2
left_child=-1 3 -3 4 -2 11 -7 -8 9 -9 -10 -4 -13
right_child=1 2 5 -5 -6 6 7 8 10 -11 -12 12 -14
leaf_value=0.034556209514803919 0.013834838683905885 -0.063708363349141803 -0.051667103409013343 -0.015694149886281261 0.064217174235140742 0.037987775487620369 -0.052080832087248591 -0.040268707047568103 0.049890947191560231 0.019303484114754986 -0.0039142027403076349 0.0063368420624057079 -0.025873287153442476
leaf_weight=5.152998834848403 7.3159392625093478 4.3480614125728598 4.6154319494962683 8.347429007291792 5.4011560380458832 7.8259046971797899 5.1392455250024787 6.8351086974144071 4.7756001055240613 6.064978301525116 5.1336719989776611 4.8603577762842161 4.2950724959373474
leaf_count=21 30 26 22 39 22 34 25 32 21 25 23 23 21
internal_value=-0.000137888 -0.00252294 -0.00939206 0.0150517 0.035233 -0.00462531 0.00250546 -0.00742996 0.00263046 -0.0122608 0.0220162 -0.0231499 -0.00877384
internal_weight=80.111 74.958 53.8934 21.0645 12.7171 49.5454 35.7745 27.9486 22.8094 12.9001 9.90927 13.7709 9.15543
internal_count=364 343 252 91 52 226 160 126 101 57 44 66 44
is_linear=0
shrinkage=0.05


Tree=18
num_leaves=15
num_cat=0
split_feature=1 7 6 3 4 7 6 3 6 6 10 7 4 1
split_gain=4.96596 3.5139 4.73548 5.06717 3.06288 2.94955 4.30764 6.33123 5.76946 4.10573 3.24181 3.20331 2.84749 1.16542
threshold=-0.023355240205316426 0.010378292200795359 0.011994510801469365 2.4560016796551793 14.76792956708853 0.011208815692473745 -0.025222576977762211 1.3553778049931762 0.026659973734330166 0.049129247582492097 1.0607767964615362 0.012775969565083669 32.99645254582645 -0.0016013274300049616
decision_type=2 2 2 2 2 2 2 2 2 2 2 2 2 2
left_child=-1 2 4 -4 -2 -3 10 11 -9 -10 -7 -8 -13 -6
right_child=1 5 3 -5 13 6 7 8 9 -11 -12 12 -14 -15
leaf_value=0.05637231329178316 -0.00025446571867283348 -0.050372642089404202 -0.050810439717319668 0.021504569925410479 0.029004864641845037 0.040288598355942291 -0.068244101194936777 0.048586794403306599 -0.050396096846842389 0.014035315177066465 -0.011242735002679355 -0.0047286470655684594 -0.051788543120563559 0.063742399354712945
leaf_weight=3.7064133286476126 5.3219508081674602 4.2263733297586432 4.8431603908538801 4.846492663025856 4.6672188192605963 7.184384346008299 5.2998189628124264 5.5645810514688483 4.4931083023548108 5.4979317039251328 5.3060870170593262 8.5306511968374235 5.1579648703336707 5.0023460388183585
leaf_count=15 23 21 24 21 20 32 28 24 22 24 24 39 26 21
internal_value=-0.000140502 -0.00289865 0.0126014 -0.0146405 0.030209 -0.0103617 -0.0067664 -0.0158652 0.00778466 -0.0149404 0.0183975 -0.0352395 -0.0224611 0.0469756
internal_weight=79.6485 75.9421 24.6812 9.68965 14.9915 51.2609 47.0345 34.5441 15.5556 9.99104 12.4905 18.9884 13.6886 9.66956
internal_count=364 349 109 45 64 240 219 163 70 46 56 93 65 41
is_linear=0
shrinkage=0.05


Tree=19
num_leaves=15
num_cat=0
split_feature=1 9 9 1 4 5 2 2 10 9 2 4 6 9
split_gain=4.49907 3.12038 5.08422 6.02626 4.47247 3.99527 4.32541 3.90518 3.87507 2.51634 2.33111 4.4815 1.2729 0.421143
threshold=-0.023355240205316426 0.98563569992368649 0.8536454153062345 0.017117573800178424 34.658415336930929 0.012005711417213166 -0.70826090049597568 -1.5207896934598426 0.95674340166478467 0.16710469102771272 1.0530609658537369 21.313778033541478 -0.030937525986276571 0.557479435389857
decision_type=2 2 2 2 2 2 2 2 2 2 2 2 2 2
left_child=-1 2 3 4 5 6 7 9 10 12 11 -8 -2 -10
right_child=1 -3 -4 -5 -6 -7 8 -9 13 -11 -12 -13 -14 -15
leaf_value=0.053726212250115306 0.036073802451927366 0.035558316552488763 -0.042310400659159565 0.052106927677050587 -0.042477638042790547 -0.047575268140432711 0.018061263553834122 -0.044943112876248699 -0.019454486276967609 -0.025592189349697647 0.0049199232307490497 0.081829667783985871 -0.0015714793986943741 0.0022787826039863224
leaf_weight=3.6947921961545935 4.6658011674880981 4.9583160728216162 8.2702901214361173 4.9913120865821829 7.0473624765872946 4.0476434975862494 6.4756996333599215 6.4707628488540569 4.4370184838771802 5.2552046477794638 5.2747791409492484 4.7955272346735001 4.3288189470767993 4.4793766736984253
leaf_count=15 20 21 39 21 37 20 28 33 20 26 23 20 20 21
internal_value=-0.000145555 -0.00278198 -0.00547697 -0.000584945 -0.00517661 5.6723e-05 0.00423136 -0.0127312 0.018035 0.00189605 0.0323539 0.0451926 0.0179563 -0.00853623
internal_weight=79.1927 75.4979 70.5396 62.2693 57.278 50.2306 46.183 20.7206 25.4624 14.2498 16.546 11.2712 8.99462 8.9164
internal_count=364 349 328 289 268 231 211 99 112 66 71 48 40 41
is_linear=0
shrinkage=0.05


Tree=20
num_leaves=14
num_cat=0
split_feature=1 7 8 6 2 9 1 3 6 9 1 7 1
split_gain=4.08065 3.17187 4.90822 4.30719 2.58669 3.91407 2.89335 6.15355 6.03243 5.1863 2.29921 2.03991 1.72249
threshold=-0.023355240205316426 0.010024424856370716 0.03582684744739513 0.011994510801469365 -0.59458115833954805 0.29835428457159546 -0.0088380823663084512 0.96106128770034893 0.026659973734330166 0.84624626635707045 -0.011622889123959255 0.009524670045380863 -0.017801122423488299
decision_type=2 2 2 2 2 2 2 2 2 2 2 2 2
left_child=-1 3 -3 11 5 10 -6 -8 -9 -10 12 -2 -4
right_child=1 2 4 -5 6 -7 7 8 9 -11 -12 -13 -14
leaf_value=0.051271732564162224 0.048608322249545532 -0.062108321356752975 -0.0031190035608092311 -0.014295321728118976 0.034661955951037431 -0.056738954294196342 -0.048821421981475349 0.051790380527101221 0.017847708144406619 -0.049963274532748 0.016989248165755977 0.0075207757437260707 -0.046884332398092685
leaf_weight=3.6784906834363928 7.5969951152801531 4.0314608663320533 5.1933893859386444 8.1912286579608899 6.3305425941944149 5.0275187194347373 5.6604948490858105 6.0068595707416561 6.8954461812973005 4.7703396379947662 6.4040127247571954 5.0150151699781418 3.9643938392400742
leaf_count=15 31 26 22 39 27 28 27 25 31 21 31 21 20
internal_value=-0.000146137 -0.00266506 -0.00902673 0.0139352 -0.00476835 -0.0183844 0.00468247 -0.0034513 0.0110806 -0.00988136 -0.00599332 0.0322704 -0.022065
internal_weight=78.7662 75.0877 54.2845 20.8032 50.253 20.5893 29.6637 23.3331 17.6726 11.6658 15.5618 12.612 9.15778
internal_count=364 349 258 91 232 101 131 104 77 52 73 52 42
is_linear=0
shrinkage=0.05


Tree=21
num_leaves=14
num_cat=0
split_feature=1 9 9 1 4 8 6 10 4 1 8 0 3
split_gain=3.70586 2.87563 4.47691 5.19393 3.93228 2.85849 5.33993 3.03341 3.3366 8.17531 3.0846 2.86839 0.551604
threshold=-0.023355240205316426 0.98563569992368649 0.8536454153062345 0.017117573800178424 34.658415336930929 0.055042945271315501 -0.028221594455227886 1.3995101450450944 21.504822399146985 0.007662399423957301 0.026972976721502753 48.598403832653368 -1.956161803886578
decision_type=2 2 2 2 2 2 2 2 2 2 2 2 2
left_child=-1 2 3 4 5 7 -7 8 10 -10 -2 -12 -8
right_child=1 -3 -4 -5 -6 6 12 -9 9 -11 11 -13 -14
leaf_value=0.048984330030860564 0.03237815397778613 0.034195207566989454 -0.040177790379194583 0.048081419050866173 -0.040578349389709611 0.01309983901394945 -0.029064396939833578 -0.02752404895390578 0.071582800272080874 -0.017110596712148943 0.0076803485822423204 -0.043186746202955324 -0.053798280213098626
leaf_weight=3.6582603454589835 5.3585028648376527 4.9674944132566443 8.0780439823865873 5.0335179269313803 6.8019756674766532 8.0639669001102465 4.0738357752561569 4.9155322164297095 6.5979819595813733 4.2857726365327835 6.6164286732673627 4.7690562158823013 5.0465014874935132
leaf_count=15 23 21 39 21 37 35 20 22 29 21 32 24 25
internal_value=-0.000149755 -0.00255893 -0.0051806 -0.000588418 -0.00492209 -4.48559e-05 -0.0165418 0.00866629 0.0151053 0.0366574 0.00109621 -0.0136264 -0.0427502
internal_weight=78.2669 74.6086 69.6411 61.5631 56.5296 49.7276 17.1843 32.5433 27.6277 10.8838 16.744 11.3855 9.12034
internal_count=364 349 328 289 268 231 80 151 129 50 79 56 45
is_linear=0
shrinkage=0.05


Tree=22
num_leaves=15
num_cat=0
split_feature=5 2 2 2 5 3 4 4 3 8 2 5 8 9
split_gain=3.3707 3.14983 4.76725 4.04621 3.26556 3.05071 4.53695 4.8046 2.67098 3.35958 2.65679 2.46409 1.44097 1.38788
threshold=-0.040331702492593532 -4.678553756153776 -3.115060142359781 -0.70826090049597568 -1.0000000180025095e-35 2.4560016796551793 28.403519370897524 40.21890325163745 0.52678091977118136 0.049606932156129206 -1.5207896934598426 -0.015688333816335793 0.02474055003017411 0.72121829427247353
decision_type=2 2 2 2 2 2 2 2 2 2 2 2 2 2
left_child=-1 -2 -3 10 -5 8 -7 -8 9 12 11 -4 -6 -10
right_child=1 2 3 4 5 6 7 -9 13 -11 -12 -13 -14 -15
leaf_value=0.056016305375054601 -0.058533117007532068 0.048004878907766647 -0.028492836039295834 0.032012542925122914 -0.0030012374262477154 0.039756513001168427 -0.05059946993803436 0.022610184467276449 -0.013895057226800914 -0.033765609568971781 -0.04694413452024214 0.019622748510961366 0.036936777378932695 -0.051267957273630517
leaf_weight=2.582494154572486 2.3922041207551947 4.787031263113021 6.2678717076778421 8.4870288223028165 4.2343495786190051 8.583475127816202 4.1454176157712919 4.8785289973020554 4.7444923818111402 4.7043744623661032 7.3664597421884528 4.6238134503364572 4.8400967121124268 5.2142606377601624
leaf_count=11 12 21 29 38 20 38 20 20 23 22 39 23 21 27
internal_value=-0.000151152 -0.00207826 -0.00022512 -0.0036159 0.00376189 -0.00203722 0.0137327 -0.0110208 -0.0137346 0.000524226 -0.0237521 -0.00806648 0.0183008 -0.033463
internal_weight=77.8519 75.2694 72.8772 68.0902 49.832 41.345 17.6074 9.02395 23.7376 13.7788 18.2581 10.8917 9.07445 9.95875
internal_count=364 353 341 320 229 191 78 40 113 63 91 52 41 50
is_linear=0
shrinkage=0.05


Tree=23
num_leaves=13
num_cat=0
split_feature=2 2 2 5 5 9 7 10 10 7 2 5
split_gain=2.35981 3.68363 3.06653 2.94475 2.77395 3.80615 2.72315 3.37072 3.42523 3.68704 2.48195 2.23254
threshold=-3.115060142359781 -0.70826090049597568 -4.5141178086492415 -1.0000000180025095e-35 0.025976492311178601 0.8536454153062345 0.014454698377554804 1.0979784789050373 0.81421881509966787 0.011980607270249589 -1.5207896934598426 -0.015688333816335793
decision_type=2 2 2 2 2 2 2 2 2 2 2 2
left_child=2 10 -1 -3 5 6 7 8 9 -5 11 -2
right_child=1 3 -4 4 -6 -7 -8 -9 -10 -11 -12 -13
leaf_value=-0.009127250105243798 -0.027264330291277707 0.030379218996344465 0.047475841730661134 0.025721697144303425 0.02273379172148202 -0.045826999915069826 -0.038064448581503069 -0.024731910772972071 0.046090950977842493 -0.037394226426926178 -0.045479181732312829 0.018519014539825056
leaf_weight=4.2337011843919754 6.2239229232072839 8.4959150999784452 5.5029902756214124 5.4825376719236463 8.9142931997776014 5.7056957483291617 4.1404974907636634 6.3587007671594611 6.5519263893365851 4.0035515576601028 7.2271406054496756 4.6536312401294717
leaf_count=20 29 38 24 23 37 30 21 30 30 20 39 23
internal_value=-0.00015319 -0.00346068 0.0228637 0.00357896 -0.00195331 -0.00877863 -0.000812956 0.00607375 0.0182875 -0.00091603 -0.0227673 -0.00767732
internal_weight=77.4945 67.7578 9.73669 49.6531 41.1572 32.2429 26.5372 22.3967 16.038 9.48609 18.1047 10.8776
internal_count=364 320 44 229 191 154 124 103 73 43 91 52
is_linear=0
shrinkage=0.05


Tree=24
num_leaves=16
num_cat=0
split_feature=1 7 6 8 2 2 9 7 6 4 1 1 6 7 1
split_gain=3.26552 2.73519 3.66078 3.52286 3.06795 2.69662 2.66265 2.99097 2.81097 2.62203 2.47955 3.61271 4.80809 2.88161 1.03224
threshold=-0.023355240205316426 0.010378292200795359 0.011994510801469365 0.03582684744739513 1.8531737330023583 -0.59458115833954805 0.29835428457159546 0.012322640118373232 -0.025222576977762211 14.76792956708853 -0.0088380823663084512 -0.0025452815178752526 0.026659973734330166 0.012972060873595462 -0.0016013274300049616
decision_type=2 2 2 2 2 2 2 2 2 2 2 2 2 2 2
left_child=-1 2 9 -3 -4 6 7 -5 -9 -2 -7 -12 -13 -14 -11
right_child=1 3 4 5 -6 10 -8 8 -10 14 11 12 13 -15 -16
leaf_value=0.046214000710820546 -0.0014825917962401256 -0.06110180633869338 -0.040778119616911843 -0.04773548029485955 0.01649347312560907 0.031946952408140959 -0.053999642835593144 0.027301100117972724 -0.023234926527926879 0.025635651288242491 -0.047405732339914512 0.046798559636955034 0.020393478816108101 -0.030518992528945982 0.058668489168021656
leaf_weight=3.6191082000732413 5.2194254249334362 3.062112718820571 4.8274002671241742 3.8633024990558651 4.5351393669843674 6.2936317175626781 4.4359570369124404 5.8134912699460983 5.2245420515537244 4.5900037139654151 3.8772066384553936 5.0793158710002926 4.4569928348064405 7.3831498771905899 4.8787196725606909
leaf_count=15 23 21 25 20 20 27 26 25 26 20 19 22 19 35 21
internal_value=-0.000153501 -0.00243536 0.0113969 -0.0091575 -0.0130362 -0.00573153 -0.0199942 -0.00987118 0.0033813 0.0269712 0.00444929 -0.00387225 0.00610374 -0.011354 0.0426557
internal_weight=77.1595 73.5404 24.0507 49.4897 9.36254 46.4276 19.3373 14.9013 11.038 14.6881 27.0903 20.7967 16.9195 11.8401 9.46872
internal_count=364 349 109 240 45 219 97 71 51 64 122 95 76 54 41
is_linear=0
shrinkage=0.05


Tree=25
num_leaves=15
num_cat=0
split_feature=1 7 6 4 4 6 7 9 4 1 9 3 5 4
split_gain=2.97158 2.52929 3.27972 2.34081 2.12522 2.79789 5.87442 4.04786 3.40222 2.67142 4.05085 2.15061 1.84364 1.32114
threshold=-0.023355240205316426 0.010024424856370716 0.011994510801469365 16.856041947861552 21.728955014572474 -0.019902456069380372 0.013885785038211359 0.23964911766220603 25.616158861080017 0.011685466402064916 0.67204640203136623 6.0294757278784283 0.0021694056109398817 16.856041947861552
decision_type=2 2 2 2 2 2 2 2 2 2 2 2 2 2
left_child=-1 2 3 -2 12 6 -6 -7 -9 -10 -11 -12 13 -3
right_child=1 4 -4 -5 5 7 -8 8 9 10 11 -13 -14 -15
leaf_value=0.044240962529787708 0.01038215711225993 -0.020057500750215732 -0.01246239740661231 0.054487053198042139 0.061354885663639648 -0.05498309250372594 -0.01810272966584606 0.037335146296869307 -0.037534154270725019 0.040090155178145667 -0.041339646321074265 0.0052199210289986305 0.00074677230107239741 -0.058181710801363341
leaf_weight=3.592174381017684 7.2339141368865985 4.8108717128634435 7.9277725517749777 5.1502179503440857 4.6681758314371091 4.2253427356481579 4.636446475982666 4.4947233498096493 6.3973887711763409 4.5909386128187171 4.6832649037241918 5.2723326832056046 4.6050995141267768 4.3066567853093147
leaf_count=15 30 26 39 22 21 24 20 21 34 20 24 22 23 23
internal_value=-0.000156125 -0.00234072 0.012649 0.0287242 -0.00811908 -0.00216022 0.0217616 -0.00966369 -0.00213617 -0.010607 0.00123521 -0.0166824 -0.0250407 -0.0380654
internal_weight=76.5953 73.0031 20.3119 12.3841 52.6912 38.9686 9.30462 29.664 25.4386 20.9439 14.5465 9.9556 13.7226 9.11753
internal_count=364 349 91 52 258 186 41 145 121 100 66 46 72 49
is_linear=0
shrinkage=0.05


Tree=26
num_leaves=16
num_cat=0
split_feature=5 10 2 7 4 7 8 8 4 4 8 3 10 8 7
split_gain=3.01365 2.74713 3.73412 2.17217 2.68111 2.06076 5.30383 3.28888 4.50755 3.07095 4.42369 2.97531 2.01979 1.32167 1.10339
threshold=-0.040331702492593532 1.0156873895426271 2.2894364624432355 0.01504902224600208 18.266398704405013 0.0096493384001814699 0.03582684744739513 0.045988104187810012 33.101762814475272 28.116220804272459 0.058951999095609893 0.96106128770034893 0.74474715397589508 0.05382389294321533 0.012043031218894286
decision_type=2 2 2 2 2 2 2 2 2 2 2 2 2 2 2
left_child=-1 5 3 4 -3 11 -7 -8 9 10 14 -2 -10 -6 -9
right_child=1 2 -4 -5 13 6 7 8 12 -11 -12 -13 -14 -15 -16
leaf_value=0.053235611695408615 0.047100431956640564 -0.0092724447464165079 0.021653363288486927 0.0073433131914735486 -0.07110328978031033 -0.057739180556962325 0.046323563356378938 -0.006704872720109673 0.0060535875931543789 -0.048869711520519568 0.035122545669147361 -0.0065136117903261655 0.05302083858670921 -0.033641452477962373 -0.040548499237581782
leaf_weight=2.5542437285184851 6.1609446704387647 6.9713726714253523 5.4991726726293555 4.2176330536603919 4.1878771111369115 3.6366114169359198 4.3630545288324347 5.172414913773542 4.759707495570181 4.7419477105140677 5.0882411897182456 4.4617114216089249 4.4098594039678574 5.3778178244829178 4.5066971555352211
leaf_count=11 26 35 24 21 23 22 19 26 21 22 24 21 20 26 23
internal_value=-0.000155919 -0.00200997 -0.01498 -0.0246864 -0.0328553 0.00518889 -0.00042752 0.00588023 -0.000272607 -0.0138624 -0.0026212 0.0245815 0.0286412 -0.0500423 -0.0224628
internal_weight=76.1093 73.5551 26.2539 20.7547 16.5371 47.3012 36.6785 33.0419 28.6789 19.5093 14.7674 10.6227 9.16957 9.56569 9.67911
internal_count=364 353 129 105 84 224 177 155 136 95 73 47 41 49 49
is_linear=0
shrinkage=0.05


Tree=27
num_leaves=15
num_cat=0
split_feature=5 9 9 1 5 10 9 4 4 9 5 10 10 1
split_gain=2.71957 4.42962 4.995 4.16586 3.0865 3.82545 2.83583 1.86677 6.19703 4.60362 5.12768 1.93342 1.55485 1.53704
threshold=-0.040331702492593532 0.99857065799644207 0.8536454153062345 0.017117573800178424 0.012005711417213166 1.0156873895426271 0.063057434356682887 26.674953806936063 21.504822399146985 0.14265200704683625 -0.0021535435410415505 0.75414466646002698 0.90083173175149212 -0.0021887079940555716
decision_type=2 2 2 2 2 2 2 2 2 2 2 2 2 2
left_child=-1 2 3 4 5 7 -7 8 9 -2 -11 -9 -4 -8
right_child=1 -3 12 -5 -6 6 13 11 -10 10 -12 -13 -14 -15
leaf_value=0.050541357639199452 0.043175276570781108 0.04740070745549177 -0.020248530594303871 0.043712310915544915 -0.045444376197263228 -0.056724437029380875 -0.022772208482867887 -0.023877343593779323 0.059762272278850198 -0.061558845715418233 0.010441569426907937 0.014724711023127904 -0.063366379964972755 0.012026202814838044
leaf_weight=2.5558303147554389 4.450257986783984 4.2842933386564246 4.3027924895286542 5.0023590922355643 4.1426575183868399 3.9979695156216648 7.8135143741965303 6.927396856248377 6.310879334807395 4.0495563745498586 6.3509346395731026 6.1001115813851357 4.0670834183692932 5.3433281332254383
leaf_count=11 19 18 22 21 23 20 39 34 28 22 30 29 20 28
internal_value=-0.000157221 -0.00192877 -0.00499798 1.13484e-05 -0.00392848 -0.000578797 -0.019846 0.00908873 0.0182557 0.000617398 -0.0175927 -0.00580199 -0.0412003 -0.00863969
internal_weight=75.699 73.1431 68.8588 60.489 55.4866 51.3439 17.1548 34.1891 21.1616 14.8507 10.4005 13.0275 8.36988 13.1568
internal_count=364 353 335 293 272 249 87 162 99 71 52 63 42 67
is_linear=0
shrinkage=0.05


Tree=28
num_leaves=15
num_cat=0
split_feature=9 9 1 5 7 2 2 10 2 1 2 3 10 10
split_gain=3.69423 5.06981 3.39436 3.17676 3.33261 3.15594 4.40588 3.34417 3.36509 2.87446 2.83541 2.08578 1.55376 1.4709
threshold=0.99857065799644207 0.8536454153062345 0.017117573800178424 0.012005711417213166 0.0095578248875940654 -3.115060142359781 -0.70826090049597568 1.0073107869278188 -2.0962710588038429 -0.0088380823663084512 -4.5141178086492415 0.96106128770034893 0.85336245711212644 0.90083173175149212
decision_type=2 2 2 2 2 2 2 2 2 2 2 2 2 2
left_child=1 2 3 4 -1 10 7 8 -7 -8 -6 12 -11 -3
right_child=-2 13 -4 -5 5 6 9 -9 -10 11 -12 -13 -14 -15
leaf_value=0.029919937001184935 0.044822833043870774 -0.019373433523829246 0.041414255190620614 -0.044152691224466994 -0.0095651549218173613 0.019223340501623526 0.033814398844897675 -0.062310406876746195 -0.039281160595984993 -0.0040328882611924818 0.045658317902994336 0.013876916652989979 -0.04901010920618807 -0.061630830883290383
leaf_weight=8.7836002707481367 4.303629294037818 4.2730669081211072 5.0155732631683341 4.0529627203941336 4.0841346234083176 4.3895045369863501 6.0005154311656872 5.4259858429431906 5.585306815803043 4.1280038952827685 5.3945830613374621 6.2654332667589188 3.5901433303952217 3.9748860448598862
leaf_count=38 18 22 21 23 20 21 26 32 29 20 24 30 20 20
internal_value=-0.00015822 -0.00288612 0.00196043 -0.00146908 0.0017556 -0.00375855 -0.0106222 -0.03072 -0.0135357 0.00486625 0.0218639 -0.00755573 -0.0249543 -0.0397383
internal_weight=75.2673 70.9637 62.7157 57.7002 53.6472 44.8636 35.3849 15.4008 9.97481 19.9841 9.47872 13.9836 7.71815 8.24795
internal_count=364 346 304 283 260 222 178 82 50 96 44 70 40 42
is_linear=0
shrinkage=0.05


Tree=29
num_leaves=16
num_cat=0
split_feature=9 9 1 5 7 1 2 2 8 8 6 7 6 5 7
split_gain=3.32594 4.64766 3.05901 2.93235 3.01516 3.02105 2.37656 3.43256 2.93919 2.23097 2.6481 2.04741 1.07673 0.518519 0.403904
threshold=0.99857065799644207 0.8536454153062345 0.017117573800178424 0.012005711417213166 0.0095578248875940654 -0.023355240205316426 0.071825962983701919 0.87601453411478991 0.040529996774366549 0.055042945271315501 -0.028221594455227886 0.011932589443089859 -1.0000000180025095e-35 0.0055566466051128471 0.011062856072576115
decision_type=2 2 2 2 2 2 2 2 2 2 2 2 2 2 2
left_child=1 2 3 4 -1 -6 8 -8 -7 11 -11 -10 -12 -9 -3
right_child=-2 14 -4 -5 5 6 7 13 9 10 12 -13 -14 -15 -16
leaf_value=0.028469213552559897 0.042436170175356218 -0.027330213759080249 0.039274104171859246 -0.042898618939805393 0.040961294433631099 -0.050627341687083632 0.044711053061909069 -0.021327297614085805 -0.01460120901095276 0.0035562386882109949 -0.056664936447505893 0.035303181708548806 -0.020227966914116029 0.0034511319445074636 -0.049626841407164377
leaf_weight=8.769976466894148 4.317991003394126 4.1141797900199872 5.0241970866918555 3.9651297479867926 3.5047191530466 4.93790016323329 4.6454955115914336 4.1755048483610135 3.7654067426919955 6.6794166266918138 4.1703899651765761 4.525285080075264 3.9458373636007389 4.2709078341722488 4.0116783827543259
leaf_count=38 18 21 21 23 15 29 21 20 21 30 24 21 21 20 21
internal_value=-0.000160851 -0.00276961 0.00186363 -0.0014134 0.00166754 -0.00360017 -0.00739857 0.0101889 -0.0156148 -0.00812602 -0.0197611 0.012638 -0.0389505 -0.00879815 -0.0383379
internal_weight=74.824 70.506 62.3802 57.356 53.3908 44.6209 41.1161 13.0919 28.0242 23.0863 14.7956 8.29069 8.11623 8.44641 8.12586
internal_count=364 346 304 283 260 222 207 61 146 117 75 42 45 40 42
is_linear=0
shrinkage=0.05


Tree=30
num_leaves=14
num_cat=0
split_feature=9 9 1 7 2 2 0 10 2 2 7 10 0
split_gain=2.99731 4.25919 2.7589 2.64634 3.62099 2.74665 3.50606 3.00323 3.25762 2.5481 1.55845 1.41156 1.1575
threshold=0.99857065799644207 0.8536454153062345 0.017117573800178424 0.0096493384001814699 -3.115060142359781 -0.59458115833954805 48.598403832653368 1.0073107869278188 -2.0962710588038429 -4.5141178086492415 0.012706237685840302 0.90083173175149212 57.294539165722661
decision_type=2 2 2 2 2 2 2 2 2 2 2 2 2
left_child=1 2 3 12 9 7 -7 8 -6 -5 -8 -3 -1
right_child=-2 11 -4 4 5 6 10 -9 -10 -11 -12 -13 -14
leaf_value=0.037575996149459265 0.040218221438543096 -0.016925496130593042 0.037274806480277665 -0.0089237293641056328 0.018653809935426834 0.025299337715990536 -0.035676029773088987 -0.060258885462135127 -0.038806107585994905 0.04365175399124574 -0.001891768408933282 -0.058955661028160966 0.0049503594916346753
leaf_weight=5.292427793145178 4.3280329257249823 4.1877024471759778 5.0288565158843985 4.0383591949939728 4.3749504536390296 7.5484584867954423 6.2040496170520765 5.305429868400096 5.6550953760743061 5.3678362369537265 7.5891932919621468 3.8197569251060486 5.5900530368089676
leaf_count=23 18 22 21 20 21 35 34 33 30 24 38 20 25
internal_value=-0.000161501 -0.00265806 0.00177443 -0.00135949 -0.00659643 -0.0136942 -0.00209551 -0.0298355 -0.013743 0.0210795 -0.0170876 -0.0369749 0.020817
internal_weight=74.3302 70.0022 61.9947 56.9659 46.0834 36.6772 21.3417 15.3355 10.03 9.4062 13.7932 8.00746 10.8825
internal_count=364 346 304 283 235 191 107 84 51 44 72 42 48
is_linear=0
shrinkage=0.05


Tree=31
num_leaves=17
num_cat=0
split_feature=9 9 6 1 7 6 7 8 9 8 0 5 1 8 0 7
split_gain=2.70337 3.90579 2.50973 2.40667 3.05259 2.80529 3.81798 3.10134 2.09109 2.67159 5.5977 1.99015 1.94681 1.07547 1.05453 0.381909
threshold=0.99857065799644207 0.8536454153062345 0.049129247582492097 -0.023355240205316426 0.0096493384001814699 -0.025222576977762211 0.012111244887220181 0.074416597779167634 0.063057434356682887 0.055042945271315501 48.598403832653368 0.0074241041869200384 -1.0000000180025095e-35 0.066455118778364172 57.294539165722661 0.011062856072576115
decision_type=2 2 2 2 2 2 2 2 2 2 2 2 2 2 2 2
left_child=1 2 3 -1 14 6 -6 -8 -7 10 -10 -12 13 -11 -5 -3
right_child=-2 15 -4 4 5 8 7 -9 9 12 11 -13 -14 -15 -16 -17
leaf_value=0.039216257142544501 0.038150186690060768 -0.024879278235351007 0.036560804279319674 0.035880503592594044 -0.03345775248301535 -0.055476043967762623 0.054521562877566467 -0.0028043643391589372 0.047414639001969988 -0.061223092066635967 -0.041659660010092962 0.0064168139093864519 -0.0036214035138712945 -0.024983140378567987 0.0047016369840235869 -0.046887427494818772
leaf_weight=3.4547608047723761 4.3343336433172217 4.0170212984085074 4.7610121071338645 5.2660673260688764 3.7398832738399497 3.3776201903820064 4.781740188598631 4.6571933478116989 4.4951063394546535 4.4306154474616033 5.0495744720101339 3.7520524933934212 4.5134564936161032 3.8056705594062805 5.5914481431245804 3.870541512966156
leaf_count=15 18 21 21 23 21 20 22 21 22 24 27 20 23 20 25 21
internal_value=-0.00016194 -0.00254907 0.00168781 -0.00122935 -0.00384306 -0.00987467 0.00929669 0.0262368 -0.0184614 -0.0136614 0.00201903 -0.0211651 -0.0300146 -0.044478 0.0198239 -0.035679
internal_weight=73.8981 69.5638 61.6762 56.9152 53.4604 42.6029 13.1788 9.43893 29.4241 26.0465 13.2967 8.80163 12.7497 8.23629 10.8575 7.88756
internal_count=364 346 304 283 268 220 64 43 156 136 69 47 67 44 48 42
is_linear=0
shrinkage=0.05


Tree=32
num_leaves=13
num_cat=0
split_feature=9 9 1 5 7 8 1 8 6 4 10 10
split_gain=3.6791 3.78379 2.33724 2.62982 2.33467 2.53346 1.94766 2.59852 3.52326 2.75968 0.78736 0.71321
threshold=1.0092387582261917 0.8536454153062345 0.017117573800178424 0.012005711417213166 0.0095578248875940654 0.03582684744739513 -0.023355240205316426 0.055042945271315501 -0.028221594455227886 21.504822399146985 0.81731461634481795 0.90083173175149212
decision_type=2 2 2 2 2 2 2 2 2 2 2 2
left_child=1 2 3 4 -1 -6 -7 9 -9 -8 -10 -3
right_child=-2 11 -4 -5 5 6 7 8 10 -11 -12 -13
leaf_value=0.025255249865204662 0.048805916141933775 -0.019962145785866674 0.034273039074368412 -0.041263469102303059 -0.033665995836786665 0.037614461931285086 -0.0088127242848985033 0.011179035789300476 -0.017753709079909918 0.033029711504039973 -0.04480503055193942 -0.049000998960600194
leaf_weight=8.7076418995857221 3.6453068256378165 4.3565003201365453 5.0263327211141577 3.8382409662008277 5.8678002059459677 3.4226153641939083 7.5592317432165208 7.7700944542884747 4.8118771091103643 8.2319201081991178 6.0997262448072433 4.1085866987705231
leaf_count=38 15 23 21 23 37 15 39 35 25 37 34 22
internal_value=-0.00016291 -0.00272029 0.00160449 -0.00131161 0.00161087 -0.00309369 0.00164018 -0.0019315 -0.0145525 0.0129997 -0.0328757 -0.0340563
internal_weight=73.4459 69.8006 61.3355 56.3091 52.4709 43.7633 37.8955 34.4728 18.6817 15.7912 10.9116 8.46509
internal_count=364 349 304 283 260 222 185 170 94 76 59 45
is_linear=0
shrinkage=0.05


Tree=33
num_leaves=16
num_cat=0
split_feature=1 7 7 6 6 4 6 1 1 6 3 4 7 4 6
split_gain=1.86852 1.81007 2.30626 3.10723 3.83042 3.93731 5.31601 3.46661 2.77432 2.12535 4.41904 2.16495 2.62586 1.57603 0.999627
threshold=-0.023355240205316426 0.010477259667826833 0.011528529651865948 -0.025222576977762211 -0.0013343502612569466 28.403519370897524 0.037349626994419155 0.011080936608786842 -0.018336578228773878 0.011994510801469365 2.4560016796551793 14.267857719921407 0.0095578248875940654 39.889470408497196 -0.016976323717981519
decision_type=2 2 2 2 2 2 2 2 2 2 2 2 2 2 2
left_child=-1 9 -3 8 14 7 13 -6 -4 11 -11 -2 -13 -7 -5
right_child=1 2 3 4 5 6 -8 -9 -10 10 -12 12 -14 -15 -16
leaf_value=0.036087337445475848 -0.0072492362166591637 -0.039522867271708423 -0.012912270206632851 -0.027085921745361469 0.054149514675017267 -0.05993816443425775 0.026330602514141606 -0.008039277943951777 0.037386231835801177 -0.047126399175036818 0.022474584896899324 0.063672886650136859 0.011773905120944525 -0.017007377609184009 -0.064340095806008565
leaf_weight=3.3899232596158972 4.566667556762698 5.070073537528514 4.4427346885204315 3.9862392693758011 4.5393346101045662 5.073135666549204 4.2426740378141394 4.4256587773561478 7.1593142077326757 4.2199370115995389 4.9622219204902649 4.3145987689495069 5.6012279242277145 3.6947526186704636 3.2841421589255324
leaf_count=15 21 27 20 22 21 29 21 21 34 24 22 19 26 22 20
internal_value=-0.000161517 -0.00192748 -0.00771678 -0.00376899 -0.0124547 -0.00204667 -0.0196149 0.0234494 0.0181256 0.00930586 -0.00951264 0.0212371 0.0343563 -0.0418473 -0.0439142
internal_weight=72.9726 69.5827 45.9181 40.848 29.2459 21.9756 13.0106 8.96499 11.602 23.6647 9.18216 14.4825 9.91583 8.76789 7.27038
internal_count=364 349 237 210 156 114 72 42 54 112 46 66 45 51 42
is_linear=0
shrinkage=0.05


Tree=34
num_leaves=16
num_cat=0
split_feature=2 5 7 2 3 1 5 5 2 6 8 4 7 5 10
split_gain=1.76845 2.82534 3.06095 2.33121 1.67109 2.16152 4.08652 3.49772 2.53099 3.50033 2.5069 1.99891 1.54343 1.30401 0.398263
threshold=-3.115060142359781 -0.016128654205904893 0.013707260416443238 -4.5141178086492415 -3.0927839813179481 -0.003748644670569123 0.0044992610005420734 -1.0000000180025095e-35 2.9858513657881303 0.011994510801469365 0.067276105534017791 16.369116512584256 0.0093293595313945279 0.0059908968345541531 1.050333461687073
decision_type=2 2 2 2 2 2 2 2 2 2 2 2 2 2 2
left_child=3 2 -2 -1 -3 6 -6 11 9 12 13 -7 -9 -11 -15
right_child=1 4 -4 -5 5 7 -8 8 -10 10 -12 -13 -14 14 -16
leaf_value=-0.0088042681700081556 -0.0006271764209490817 0.035780136839332864 -0.061218356647265229 0.042080238150838598 -0.048686262904456816 0.0053626373960608091 0.014416620148398174 0.033280548659854456 0.021080533304036447 -0.012740882945026347 0.0074451745040632891 0.054409295694956276 -0.0078616678264164953 -0.058642925829956886 -0.035932106091818683
leaf_weight=3.9319609552621841 4.2629228755831701 3.2452837899327269 4.0786785557866096 5.2646220922470075 5.9560943171381862 3.728312484920016 4.5071123689413071 4.7003336250782173 7.9706459566950789 3.6031632646918279 4.2030543088912955 4.691303975880146 4.4261712431907654 4.5613043680787086 3.3467751741409302
leaf_count=20 23 16 20 24 34 19 22 20 37 19 18 22 24 26 20
internal_value=-0.000162654 -0.00314007 -0.0302536 0.0203248 0.000976643 -0.00120826 -0.0215042 0.00394223 -0.00343483 -0.0113011 -0.0256047 0.0326908 0.0133274 -0.0376721 -0.0490315
internal_weight=72.4777 63.2812 8.3416 9.19658 54.9396 51.6943 10.4632 41.2311 32.8114 24.8408 15.7143 8.41962 9.1265 11.5112 7.90808
internal_count=364 320 43 44 277 261 56 205 164 127 83 41 44 65 46
is_linear=0
shrinkage=0.05


Tree=35
num_leaves=15
num_cat=0
split_feature=9 9 6 2 7 8 10 8 7 10 2 3 10 2
split_gain=3.1812 3.35266 2.07418 1.85481 2.77631 3.4624 2.39814 3.35261 2.70898 2.1231 2.10186 1.92886 1.75116 0.920032
threshold=1.0092387582261917 0.8536454153062345 0.049129247582492097 -3.115060142359781 0.0099225711835341044 0.03582684744739513 1.4368994037269369 0.055042945271315501 0.013270573078405982 0.75007630394794511 -4.5141178086492415 0.76202621671152526 0.94325627962412606 3.1156858667775649
decision_type=2 2 2 2 2 2 2 2 2 2 2 2 2 2
left_child=1 2 3 10 11 -6 7 8 -7 -9 -1 -5 -11 -3
right_child=-2 13 -4 4 5 6 -8 9 -10 12 -12 -13 -14 -15
leaf_value=-0.0083768365140051339 0.045552105968112107 -0.047545700510461433 0.033266366309246356 0.027808264424867786 -0.061524098807536093 -5.5909003283234588e-05 -0.041534401552791485 -0.045746139372275639 0.050151148920678026 0.017406821525578993 0.039955198987810137 -0.01306865224526799 -0.025984985766564023 -0.013851519962152678
leaf_weight=3.9261146634817123 3.6149260848760596 4.5558438301086408 4.7367935180664054 8.7271315008401853 3.3015043362975112 7.4164582639932686 4.4322330653667441 4.6633340418338767 4.2128244638442993 4.6250016391277295 5.2673084288835508 4.3117442876100531 4.675874762237072 3.64840929210186
leaf_count=20 15 28 21 38 26 38 23 25 20 22 24 21 26 17
internal_value=-0.000161853 -0.00257428 0.00150601 -0.00120175 -0.00526973 -0.0129226 -0.00757858 -0.00169817 0.0181321 -0.0182127 0.0193147 0.0142909 -0.00440775 -0.032562
internal_weight=72.1155 68.5006 60.2963 55.5595 46.3661 33.3272 30.0257 25.5935 11.6293 13.9642 9.19342 13.0389 9.30088 8.20425
internal_count=364 349 304 283 239 180 154 131 58 73 44 59 48 45
is_linear=0
shrinkage=0.05


Tree=36
num_leaves=16
num_cat=0
split_feature=9 9 6 0 7 2 2 2 10 7 6 2 3 2 3
split_gain=2.87815 3.07358 1.87161 1.81158 3.10018 2.03775 2.82377 3.6106 2.23934 3.02984 3.75809 1.89647 1.16621 1.06617 0.778237
threshold=1.0092387582261917 0.8536454153062345 0.049129247582492097 60.126755554866889 0.0095578248875940654 -3.115060142359781 0.071825962983701919 0.95333164216131472 0.62953520188172984 0.012272133851262431 -0.025222576977762211 -4.5141178086492415 -0.75334184100958212 3.330067693654049 -0.67001963210129944
decision_type=2 2 2 2 2 2 2 2 2 2 2 2 2 2 2
left_child=1 2 3 4 -1 11 8 -8 -7 14 -11 -6 -9 -3 -10
right_child=-2 13 -4 -5 5 6 7 12 9 10 -12 -13 -14 -15 -16
leaf_value=0.036535059292927351 0.043352592990389995 -0.047082054277049867 0.03158493233464725 -0.027027030967128024 -0.0079697145659862537 0.017011256767490841 0.040990941874922845 0.0083303432670397241 -0.066826740053077288 0.029107768260726342 -0.033115065891235543 0.037959622865656475 -0.029648976170536162 -0.010369680365684898 -0.032358878721352582
leaf_weight=5.7442195862531653 3.6085668951272956 4.633248493075369 4.7394320368766776 6.0280796736478797 3.9204887747764587 3.4473582804203131 5.462395302951335 3.8510424792766562 4.0928818956017494 3.8433333784341768 6.5832933560013798 5.2670013755559832 4.25400736182928 3.4503272473812103 2.7299938872456577
leaf_count=26 15 29 21 31 20 16 26 17 25 18 39 24 23 16 18
internal_value=-0.000162394 -0.00247001 0.00143161 -0.0011562 0.0020138 -0.00254982 -0.00815667 0.00957161 -0.0197781 -0.0271306 -0.0101793 0.0183606 -0.0116034 -0.031412 -0.0530353
internal_weight=71.6557 68.0471 59.9635 55.2241 49.196 43.4518 34.2643 13.5674 20.6969 17.2495 10.4266 9.18749 8.10505 8.08358 6.82288
internal_count=364 349 304 283 252 226 182 66 116 100 57 44 40 45 43
is_linear=0
shrinkage=0.05


Tree=37
num_leaves=16
num_cat=0
split_feature=9 9 6 7 8 2 8 10 7 4 8 8 2 3 2
split_gain=2.60603 2.81835 1.68959 1.54168 2.64255 1.61973 2.2829 2.22383 4.42938 2.00709 5.75021 2.8812 1.71223 1.3575 1.01178
threshold=1.0092387582261917 0.8536454153062345 0.049129247582492097 0.0096493384001814699 0.03582684744739513 -3.115060142359781 0.055042945271315501 0.65249538543717722 0.012272133851262431 28.403519370897524 0.059567953453330554 0.074416597779167634 -4.5141178086492415 0.28109315977086202 3.330067693654049
decision_type=2 2 2 2 2 2 2 2 2 2 2 2 2 2 2
left_child=1 2 3 13 -5 12 7 -7 -9 10 -8 -11 -6 -1 -3
right_child=-2 14 -4 4 5 6 9 8 -10 11 -12 -13 -14 -15 -16
leaf_value=0.030365293242560317 0.041292203238263325 -0.045855521301758684 0.030001480819892928 -0.040186434002330941 -0.007581964796868697 0.038781568052468407 -0.050735352087712682 -0.040267316318018054 0.026267623760003862 -0.0030278715843132633 0.03739769872790577 -0.061540609691192905 0.036081689062646187 -0.006376649658469357 -0.0098779086057721247
leaf_weight=6.4505264759063703 3.5994219332933417 4.522169090807437 4.7400713711976996 4.8124478161334983 3.9150791466236115 4.1694948524236777 3.2543189525604275 4.6726907417178136 5.3831093311309814 3.7343058288097364 4.2911105379462242 4.8184946179389954 5.2641392052173526 4.1193563789129257 3.4412355273962021
leaf_count=28 15 29 21 34 20 20 21 27 25 19 21 24 24 20 16
internal_value=-0.000162727 -0.00237041 0.00136094 -0.00111256 -0.00520515 -0.000943532 -0.00651399 0.00808028 -0.00464958 -0.0194103 -0.000613797 -0.0359929 0.0174585 0.016046 -0.0303085
internal_weight=71.188 67.5885 59.6251 54.8851 44.3152 39.5027 30.3235 14.2253 10.0558 16.0982 7.54543 8.5528 9.17922 10.5699 7.9634
internal_count=364 349 304 283 235 201 157 72 52 85 42 43 44 48 45
is_linear=0
shrinkage=0.05


Tree=38
num_leaves=16
num_cat=0
split_feature=9 9 1 1 7 6 7 9 7 1 3 9 4 2 2
split_gain=2.36132 2.58368 2.522 1.90214 2.24796 2.85272 3.01142 2.81044 3.491 2.3581 2.3518 1.73905 1.73775 1.22852 0.959751
threshold=1.0092387582261917 0.8536454153062345 0.017963050406033746 -0.023355240205316426 0.010308882411464248 -0.025222576977762211 0.012111244887220181 0.16710469102771272 0.013216338123756244 -0.01662456372923837 0.96106128770034893 0.58010850317638196 14.882226426127501 0.071825962983701919 3.330067693654049
decision_type=2 2 2 2 2 2 2 2 2 2 2 2 2 2 2
left_child=1 2 3 -1 10 6 -6 -7 13 -8 12 -10 -5 -9 -3
right_child=-2 14 -4 4 5 7 9 8 11 -11 -12 -13 -14 -15 -16
leaf_value=0.035227472833865327 0.039356348704384217 -0.044659444243642099 0.038261619163775115 0.00023503051824345941 -0.031597099119903625 -0.064161533834323978 -0.0028645127031538863 -0.063226710101265571 0.020818183424369165 0.047269952800967546 -0.016783392989211037 -0.018417805215818279 0.040739051244229149 -0.023362662977296077 -0.0094086232872609542
leaf_weight=3.2986797988414756 3.5879358798265448 4.4138978719711295 4.2802459597587577 4.4171973988413828 3.5187888368964186 3.3112184554338482 4.610395446419715 3.2716644555330303 6.3575145304203016 4.7743573039770117 5.0139631852507582 5.0813547223806381 6.6118577942252159 4.722274087369442 3.4324634373188019
leaf_count=15 15 29 18 20 21 22 21 23 33 22 26 26 31 26 16
internal_value=-0.000163558 -0.00227625 0.00129316 -0.00158439 -0.00393357 -0.0109286 0.00785006 -0.0215824 -0.0143272 0.0226407 0.0116093 0.00338884 0.024517 -0.0396777 -0.0292386
internal_weight=70.7038 67.1159 59.2695 54.9893 51.6906 35.6476 12.9035 22.744 19.4328 9.38475 16.043 11.4389 11.0291 7.99394 7.84636
internal_count=364 349 304 286 271 194 64 130 108 43 77 59 51 49 45
is_linear=0
shrinkage=0.05


Tree=39
num_leaves=16
num_cat=0
split_feature=0 0 0 7 8 7 7 7 1 10 1 10 10 10 4
split_gain=2.18723 4.65164 1.96987 3.38095 2.17326 1.91281 4.32779 3.62956 2.60502 4.80334 3.7192 2.44758 2.60011 2.24244 2.15805
threshold=75.442599032490662 68.369108392688915 60.126755554866889 0.009081277883646436 0.05302188159440966 0.01504902224600208 0.014454698377554804 0.01768660351254862 -0.0088380823663084512 1.0607767964615362 -0.0039994018905528108 1.2461158543400415 0.66036473729421163 0.70621678651918607 17.128747234012387
decision_type=2 2 2 2 2 2 2 2 2 2 2 2 2 2 2
left_child=1 2 3 -1 -4 6 8 -7 9 13 -10 12 -12 -5 -14
right_child=-2 -3 4 5 -6 7 -8 -9 10 -11 11 -13 14 -15 -16
leaf_value=0.046024476737904156 -0.036330234634031858 0.045926639392838566 -0.04754037981257226 0.0049705776165664258 0.003647220526601107 0.046298833549833919 -0.056093761565193051 -0.016351178966020015 -0.044596147923403828 -0.030004416270003099 0.025475155594047678 0.036390631748689756 -0.050349575261425097 0.055643888590336588 0.00069048332584387649
leaf_weight=3.9584792107343665 3.9454368054866782 5.5218964517116538 4.6097636967897397 3.5575894117355258 3.7689643353223801 5.167482949793337 4.0123106539249411 4.1833299323916435 6.2063858509063659 3.9222479164600363 3.608349829912199 3.7465928718447694 4.2325084656476957 5.6514672338962555 4.0552568808197975
leaf_count=18 18 24 29 19 19 25 18 24 37 21 18 18 26 27 23
internal_value=-0.000164314 0.00199104 -0.00200706 0.00159867 -0.0245149 -0.00203901 -0.00690947 0.0182707 -0.00126795 0.0163326 -0.0118459 0.00114809 -0.00995129 0.0360681 -0.0253753
internal_weight=70.1481 66.2026 60.6807 52.302 8.37873 48.3435 38.9927 9.35081 34.9804 13.1313 21.8491 15.6427 11.8961 9.20906 8.28777
internal_count=364 346 322 274 48 256 207 49 189 67 122 85 67 46 49
is_linear=0
shrinkage=0.05


Tree=40
num_leaves=15
num_cat=0
split_feature=9 9 1 5 10 7 1 10 7 6 9 9 5 10
split_gain=2.17571 2.2933 2.19038 2.22713 1.58809 1.47213 2.37974 5.21946 3.07758 2.05536 1.22759 1.56132 1.49505 0.650126
threshold=1.0092387582261917 0.8536454153062345 0.017963050406033746 0.012005711417213166 1.0156873895426271 0.009081277883646436 -0.0082443939248255643 0.64148936550124624 0.013885785038211359 1.0000000180025095e-35 0.063057434356682887 0.26946946689178025 -0.0015560424401384694 0.90083173175149212
decision_type=2 2 2 2 2 2 2 2 2 2 2 2 2 2
left_child=1 2 3 4 5 -1 8 -8 -7 -9 -6 -12 -13 -3
right_child=-2 13 -4 -5 10 6 7 9 -10 -11 11 12 -14 -15
leaf_value=0.033163327581883714 0.037927770989100967 -0.014057468437364851 0.035764162215501293 -0.036076297818523596 -0.033075057937277177 0.040383529030246543 0.030615123140686418 -0.056019892314222157 -0.006569172395643 -0.0083680116822693312 0.025420413331027826 -0.041194890832995636 0.0012577248860184504 -0.043233097845630258
leaf_weight=4.893093839287757 3.5574768036603919 4.0108448788523665 4.2404045909643164 4.3004027754068366 4.5784837752580669 7.321772232651707 4.8638116121292159 4.8029851838946325 6.668808713555336 4.2789148166775703 3.5200750380754462 3.2163517773151398 5.8386480361223203 3.644309863448143
leaf_count=22 15 23 18 26 24 37 23 29 32 24 18 22 29 22
internal_value=-0.000163825 -0.00221146 0.00115484 -0.00154871 0.00142195 0.00786427 0.00343309 -0.0111835 0.0180029 -0.0335688 -0.0109077 -0.00283673 -0.0138215 -0.0279468
internal_weight=69.7364 66.1789 58.5238 54.2833 49.9829 32.8294 27.9363 13.9457 13.9906 9.0819 17.1536 12.5751 9.055 7.65515
internal_count=364 349 304 286 260 167 145 76 69 53 93 69 51 45
is_linear=0
shrinkage=0.05


Tree=41
num_leaves=16
num_cat=0
split_feature=0 0 0 7 7 7 7 1 10 1 10 7 10 8 2
split_gain=1.97845 4.08754 1.78554 3.11746 2.01662 3.6856 3.2105 2.67347 3.58511 3.3691 3.47123 1.99643 1.9505 1.35966 2.1506
threshold=75.442599032490662 68.369108392688915 60.126755554866889 0.0095578248875940654 0.01504902224600208 0.014454698377554804 0.01768660351254862 -0.0088380823663084512 1.0073107869278188 0.0053882065271393395 0.66036473729421163 0.0095578248875940654 0.75007630394794511 0.048660238941158764 -1.0000000180025095e-35
decision_type=2 2 2 2 2 2 2 2 2 2 2 2 2 2 2
left_child=1 2 3 -1 5 7 -6 8 12 10 -9 -4 -5 14 -12
right_child=-2 -3 11 4 6 -7 -8 9 -10 -11 13 -13 -14 -15 -16
leaf_value=0.034544012212475946 -0.034758632026325655 0.043267906356155586 -0.052821422803494944 0.0057787848522429658 0.044049824053067656 -0.053764254617103158 -0.015065887144568186 0.017273983535970382 -0.022435908286662275 0.023203034086596824 -0.053129264480687381 -0.0027101512013486219 0.053505387217943956 -0.06077252167980747 0.0042623190570453308
leaf_weight=6.2908073961734763 3.8998880088329306 5.4719935059547415 3.4069692268967611 3.7386440485715777 5.1637319549918157 3.9761296510696402 4.1365648731589317 3.480216786265383 4.3500471338629714 4.4916564151644698 3.3640344887971789 4.7707371637225151 5.0087305828928947 4.596767246723175 3.1709090843796801
leaf_count=29 18 24 22 20 25 18 24 18 24 24 22 26 23 29 18
internal_value=-0.000162129 0.00190034 -0.00187578 0.00155395 -0.00300951 -0.00834796 0.0177565 -0.00274002 0.0146595 -0.0146691 -0.0263109 -0.0235873 0.0331069 -0.0399373 -0.0252815
internal_weight=69.3178 65.4179 59.9459 51.7682 45.4774 36.1771 9.3003 32.201 13.0974 19.1036 14.6119 8.17771 8.74737 11.1317 6.53494
internal_count=364 346 322 274 245 196 49 178 67 111 87 48 43 69 40
is_linear=0
shrinkage=0.05


Tree=42
num_leaves=15
num_cat=0
split_feature=9 9 1 5 1 4 0 0 4 3 7 0 0 5
split_gain=1.98586 2.06579 1.91041 2.05667 1.4063 1.946 1.4049 2.15234 1.56135 2.17776 1.95473 1.00948 1.43948 0.627189
threshold=1.0092387582261917 0.8536454153062345 0.017963050406033746 0.012005711417213166 -0.023355240205316426 34.658415336930929 46.163048896638593 48.598403832653368 22.605982743260398 -2.136304176008927 0.013658062675375745 49.99042908136655 56.726035126567616 0.032247344225486967
decision_type=2 2 2 2 2 2 2 2 2 2 2 2 2 2
left_child=1 2 3 4 -1 6 8 -8 9 -6 -10 -9 -13 -3
right_child=-2 13 -4 -5 5 -7 7 11 10 -11 -12 12 -14 -15
leaf_value=0.033414434186926759 0.036375332424149261 -0.040478985009886878 0.033560554303475806 -0.034994764052487845 -0.047810154310481134 -0.029931625536663127 0.043239573164515821 -0.016739924839453441 0.033071045719825859 0.0011255837688314795 -0.01102792420301194 0.027627102059587839 -0.0060568531572485563 -0.011521318872730633
leaf_weight=3.2047816067934027 3.5283635109663001 3.9636605754494658 4.1953062415122977 4.2163793295621863 4.3142816722393036 5.1114293485879889 4.3044409602880505 4.4689478725194958 4.127864867448805 4.8063150048255938 6.4227822870016098 6.3847587779164297 6.3027606830000877 3.5397692918777466
leaf_count=15 15 29 18 26 24 34 22 23 22 27 31 32 30 16
internal_value=-0.000162401 -0.00213473 0.00106627 -0.00147401 0.00138425 -0.000835516 0.00278021 0.0116272 -0.00687164 -0.0220223 0.00622548 0.00369584 0.010894 -0.0268181
internal_weight=68.8918 65.3635 57.86 53.6647 49.4484 46.2436 41.1322 21.4609 19.6712 9.1206 10.5506 17.1565 12.6875 7.50343
internal_count=364 349 304 286 260 245 211 107 104 51 53 85 62 45
is_linear=0
shrinkage=0.05


Tree=43
num_leaves=16
num_cat=0
split_feature=9 9 1 5 2 7 7 5 3 6 4 6 3 5 9
split_gain=1.80151 1.89232 1.73303 1.89011 1.29072 1.65823 2.85912 2.50758 2.36359 2.0097 1.77068 1.64689 2.00294 1.11142 0.896112
threshold=1.0092387582261917 0.8536454153062345 0.017963050406033746 0.012005711417213166 1.8774596386848892 0.010308882411464248 0.011932589443089859 -0.035665549100064142 0.96106128770034893 -0.040158502208664321 16.137144063987581 -0.0013343502612569466 -1.1394186126666053 0.034040210369254746 0.23964911766220603
decision_type=2 2 2 2 2 2 2 2 2 2 2 2 2 2 2
left_child=1 2 3 4 5 8 -7 -8 10 -9 -1 14 -13 -3 -11
right_child=-2 13 -4 -5 -6 6 7 9 -10 11 -12 12 -14 -15 -16
leaf_value=0.0029249866822017648 0.034719271304734255 -0.04238471510231475 0.032034555050435544 -0.033844988396092499 0.027345146193590655 -0.045363536126936166 0.032548738723854234 0.023052182775964238 -0.020025195399302642 -0.051618784675775069 0.04564996023845249 0.028023367698932062 -0.018488012003736953 -0.0031434798356275088 -0.018150384964112257
leaf_weight=4.4182617887854558 3.5122422575950614 4.2812399938702574 4.1758965253829947 4.143519587814807 4.342965140938758 4.3076185137033489 4.5053047388792029 4.1604530215263429 3.8131227642297736 3.4159302338957858 5.3753490820527077 3.5986085608601588 6.4875049591064364 3.1189252436161041 4.8250645250082016
leaf_count=21 15 31 18 26 21 28 21 19 20 20 26 19 37 14 28
internal_value=-0.00015968 -0.00204522 0.00101418 -0.00141191 0.00131675 -0.00120045 -0.00753529 -0.00149852 0.013372 -0.00831977 0.0263751 -0.0154415 -0.00189329 -0.0258458 -0.0320232
internal_weight=68.482 64.9698 57.5696 53.3937 49.2502 44.9072 31.3005 26.9929 13.6067 22.4876 9.79361 18.3271 10.0861 7.40017 8.24099
internal_count=364 349 304 286 260 239 172 144 67 123 47 104 56 45 48
is_linear=0
shrinkage=0.05


end of trees

feature_importances:
Column_9=80
Column_7=75
Column_2=71
Column_1=70
Column_4=57
Column_10=47
Column_6=46
Column_8=45
Column_5=44
Column_3=39
Column_0=38

parameters:
[boosting: gbdt]
[objective: binary]
[metric: auc]
[tree_learner: serial]
[device_type: cpu]
[data_sample_strategy: bagging]
[data: ]
[valid: ]
[num_iterations: 100]
[learning_rate: 0.05]
[num_leaves: 31]
[num_threads: 0]
[seed: 0]
[deterministic: 0]
[force_col_wise: 0]
[force_row_wise: 0]
[histogram_pool_size: -1]
[max_depth: -1]
[min_data_in_leaf: 20]
[min_sum_hessian_in_leaf: 0.001]
[bagging_fraction: 1]
[pos_bagging_fraction: 1]
[neg_bagging_fraction: 1]
[bagging_freq: 0]
[bagging_seed: 3]
[bagging_by_query: 0]
[feature_fraction: 0.8]
[feature_fraction_bynode: 1]
[feature_fraction_seed: 2]
[extra_trees: 0]
[extra_seed: 6]
[early_stopping_round: 0]
[early_stopping_min_delta: 0]
[first_metric_only: 0]
[max_delta_step: 0]
[lambda_l1: 0]
[lambda_l2: 0]
[linear_lambda: 0]
[min_gain_to_split: 0]
[drop_rate: 0.1]
[max_drop: 50]
[skip_drop: 0.5]
[xgboost_dart_mode: 0]
[uniform_drop: 0]
[drop_seed: 4]
[top_rate: 0.2]
[other_rate: 0.1]
[min_data_per_group: 100]
[max_cat_threshold: 32]
[cat_l2: 10]
[cat_smooth: 10]
[max_cat_to_onehot: 4]
[top_k: 20]
[monotone_constraints: ]
[monotone_constraints_method: basic]
[monotone_penalty: 0]
[feature_contri: ]
[forcedsplits_filename: ]
[refit_decay_rate: 0.9]
[cegb_tradeoff: 1]
[cegb_penalty_split: 0]
[cegb_penalty_feature_lazy: ]
[cegb_penalty_feature_coupled: ]
[path_smooth: 0]
[interaction_constraints: ]
[verbosity: -1]
[saved_feature_importance_type: 0]
[use_quantized_grad: 0]
[num_grad_quant_bins: 4]
[quant_train_renew_leaf: 0]
[stochastic_rounding: 1]
[linear_tree: 0]
[max_bin: 255]
[max_bin_by_feature: ]
[min_data_in_bin: 3]
[bin_construct_sample_cnt: 200000]
[data_random_seed: 1]
[is_enable_sparse: 1]
[enable_bundle: 1]
[use_missing: 1]
[zero_as_missing: 0]
[feature_pre_filter: 1]
[pre_partition: 0]
[two_round: 0]
[header: 0]
[label_column: ]
[weight_column: ]
[group_column: ]
[ignore_column: ]
[categorical_feature: ]
[forcedbins_filename: ]
[precise_float_parser: 0]
[parser_config_file: ]
[objective_seed: 5]
[num_class: 1]
[is_unbalance: 0]
[scale_pos_weight: 1]
[sigmoid: 1]
[boost_from_average: 1]
[reg_sqrt: 0]
[alpha: 0.9]
[fair_c: 1]
[poisson_max_delta_step: 0.7]
[tweedie_variance_power: 1.5]
[lambdarank_truncation_level: 30]
[lambdarank_norm: 1]
[label_gain: ]
[lambdarank_position_bias_regularization: 0]
[eval_at: ]
[multi_error_top_k: 1]
[auc_mu_weights: ]
[num_machines: 1]
[local_listen_port: 12400]
[time_out: 120]
[machine_list_filename: ]
[machines: ]
[gpu_platform_id: -1]
[gpu_device_id: -1]
[gpu_use_dp: 0]
[num_gpu: 1]

end of parameters

pandas_categorical:null
