tree
version=v4
num_class=1
num_tree_per_iteration=1
label_index=0
max_feature_idx=10
objective=binary sigmoid:1
feature_names=Column_0 Column_1 Column_2 Column_3 Column_4 Column_5 Column_6 Column_7 Column_8 Column_9 Column_10
feature_infos=[0:100] [-0.35265973873722878:0.3591944136817844] [-10.023130300693913:9.2060810810810807] [-12.027756360832695:13.570822731128088] [0:73.545809475718599] [-0.074747001133122479:0.063993831919814878] [-0.096940996451608613:0.058914021993048869] [0:0.017992247877411202] [0:0.19800271348187423] [-0.39074520809571123:1.312189177833077] [0:2.7868270019222887]
tree_sizes=1590 1814 1499 1600 1609 1501 1598 1703 1709 1502

Tree=0
num_leaves=14
num_cat=0
split_feature=5 2 2 4 4 10 8 6 5 7 7 9 1
split_gain=9.16183 12.0409 14.601 10.4958 9.10703 7.85208 7.81342 3.13296 3.4363 2.44591 3.11972 3.38425 0.121802
threshold=0.030744963102341746 -0.16970728553304429 -2.2906689432113256 28.044446223387769 19.277628809325517 1.2173412189974762 0.048602767817119329 -0.031939329184290141 -0.032657340005434146 0.0084768679402860616 0.0099606105423333483 0.63475840155864482 -1.0000000180025095e-35
decision_type=2 2 2 2 2 2 2 2 2 2 2 2 2
left_child=1 2 7 4 -4 9 -5 8 -1 12 11 -11 -3
right_child=-2 5 3 6 -6 -7 -8 -9 -10 10 -12 -13 -14
leaf_value=-0.91467311779663818 -0.83544899392759919 -0.97313797926149048 -0.86070555336754373 -0.77593507352686952 -0.94502987278800377 -0.88073661775094803 -0.86312345499967158 -0.89931870973516181 -0.97313797926149048 -0.88455485582989613 -0.96376861043699491 -0.94390554852906439 -0.96095779978964613
leaf_weight=5.1312871277332315 4.7207841575145713 4.1050297021865845 8.0048079192638415 4.3102811872959119 5.3365386128425589 5.9522930681705466 6.3627960383892059 6.7732990086078635 4.9260356426239023 4.5155326724052411 5.3365386128425589 5.1312871277332306 4.1050297021865898
leaf_count=25 23 20 39 21 26 29 31 33 24 22 26 25 20
internal_value=-0.902868 -0.907415 -0.889897 -0.86487 -0.894435 -0.931966 -0.827913 -0.925606 -0.943309 -0.945113 -0.933094 -0.916124 -0.967048
internal_weight=74.7115 69.9908 40.845 24.0144 13.3413 29.1457 10.6731 16.8306 10.0573 23.1934 14.9834 9.64682 8.21006
internal_count=364 341 199 117 65 142 52 82 49 113 73 47 40
is_linear=0
shrinkage=1


Tree=1
num_leaves=16
num_cat=0
split_feature=5 2 5 0 0 8 7 3 1 3 7 2 8 2 7
split_gain=8.05496 10.9622 13.0724 14.1296 4.69307 3.73437 3.44281 6.57044 3.71159 3.24004 2.93229 2.84245 4.19456 1.6021 0.540975
threshold=0.030744963102341746 -0.16970728553304429 -0.014311734631759282 43.335346248065498 51.112372529175467 0.029977450439731813 0.012809812427519633 -6.1759366905300981 -0.10042888526626646 2.4835114350086323 0.009171204161892774 1.1270049798506265 0.029800213030545784 0.55132798936131389 0.0092309328689503967
decision_type=2 2 2 2 2 2 2 2 2 2 2 2 2 2 2
left_child=1 2 6 5 10 -4 7 -1 -9 11 -5 12 -3 -14 -13
right_child=-2 9 3 4 -6 -7 -8 8 -10 -11 -12 14 13 -15 -16
leaf_value=0.046363202800890679 0.062259216117140449 -0.049589733150509574 0.055183991118319148 0.013079687630001266 0.048441368191516745 0.12038029628462132 -0.057870817144780179 -0.053025282618652442 0.0041034915646842975 0.01218787004378399 -0.046391373493151367 -0.044597407855475224 -0.020545271287396569 0.023282547977625096 -0.069626184378949393
leaf_weight=4.2928255200386056 4.8528031706809989 7.4847265630960527 4.3606773614883441 4.1617177873849851 4.1792716681957236 4.4253887534141541 4.0898054093122473 6.0548475086688995 5.3598089069128036 4.2675072401762 4.1291970163583755 4.0277547538280469 4.0605957806110364 4.2859676331281662 4.6529825478792191
leaf_count=21 23 37 21 20 20 21 20 30 26 21 20 20 20 21 23
internal_value=-3.05321e-05 -0.00435914 0.0122274 0.0394563 0.00523845 0.0880222 -0.0170083 -0.00636874 -0.0262002 -0.0280195 -0.0165392 -0.0350196 -0.0224115 0.00196035 -0.0580131
internal_weight=74.6859 69.8331 41.0535 21.2563 12.4702 8.78607 19.7973 15.7075 11.4147 28.7795 8.29091 24.512 15.8313 8.34656 8.68074
internal_count=364 341 199 102 60 42 97 77 56 142 40 121 78 41 43
is_linear=0
shrinkage=0.05


Tree=2
num_leaves=13
num_cat=0
split_feature=5 2 2 4 4 10 8 6 5 8 4 10
split_gain=7.10945 9.97938 11.8519 8.23814 8.12289 7.27362 6.02681 2.72082 3.30232 2.00218 4.39466 1.2379
threshold=0.030744963102341746 -0.16970728553304429 -2.2906689432113256 28.044446223387769 19.277628809325517 1.2173412189974762 0.048602767817119329 -0.031939329184290141 -0.032657340005434146 0.029800213030545784 21.790905864835775 0.85532569535345093
decision_type=2 2 2 2 2 2 2 2 2 2 2 2
left_child=1 2 7 4 -4 9 -5 8 -1 -3 -11 -12
right_child=-2 5 3 6 -6 -7 -8 -9 -10 10 11 -13
leaf_value=-0.010040819213097506 0.057720167118346044 -0.061555062229893931 0.038266939363965802 0.10881906170850397 -0.041294037640142486 0.022188841513396299 0.034371006077645566 0.0030686922179978394 -0.068287235944979444 0.0025087433089244948 -0.031391393812492625 -0.068813579148434986
leaf_weight=5.0434065461158761 4.9695293754339209 7.277236193418509 8.1977270692586917 4.6347325593233091 5.2708081752061835 5.9484537392854682 6.5748478025197983 6.7980501204729071 4.7022949457168588 6.2497706711292258 3.9863259494304639 4.9589108973741531
leaf_count=25 23 37 39 21 26 29 31 33 24 31 20 25
internal_value=-5.7929e-05 -0.00418084 0.011535 0.0334864 0.00713136 -0.0269754 0.0651524 -0.0212096 -0.0381447 -0.0399893 -0.0296609 -0.0521369
internal_weight=74.6121 69.6426 41.2219 24.6781 13.4685 28.4207 11.2096 16.5438 9.7457 22.4722 15.195 8.94524
internal_count=364 341 199 117 65 142 52 82 49 113 76 45
is_linear=0
shrinkage=0.05


Tree=3
num_leaves=14
num_cat=0
split_feature=4 6 0 4 4 8 8 10 6 10 4 2 2
split_gain=5.87502 12.6088 13.8276 12.0398 8.42256 6.25759 8.26094 4.9427 4.05099 5.28951 2.65724 1.95808 0.577595
threshold=27.846710361821902 -0.043556304400103975 41.277016491321156 35.551520598616825 58.443826046989876 0.047709517812987039 0.028083948250607119 1.1408038777082548 1.0000000180025095e-35 1.0822405159144506 46.387042028925386 -0.17130649262611383 -1.7338696917916534
decision_type=2 2 2 2 2 2 2 2 2 2 2 2 2
left_child=5 4 -3 -4 10 6 7 11 9 -8 12 -1 -2
right_child=1 2 3 -5 -6 -7 8 -9 -10 -11 -12 -13 -14
leaf_value=-0.023239853658572316 -0.0066625555873607439 0.11442739811422567 -0.031997854082260607 0.064579820536360119 0.039525123886939739 -0.055515374238454596 0.031162015824678688 0.01491186358000935 0.052137101241175633 -0.038640268449904688 -0.068246222118860084 -0.067387709935903595 -0.033465029125860524
leaf_weight=4.17047195136547 3.9786166548728943 5.0311409980058697 6.3986900150775892 6.5105145871639252 4.970680594444274 7.2112403661012641 6.3864971101284045 4.1016841679811469 6.1289431899785987 4.7197792083024979 4.4826858192682257 6.3142702281475094 4.0625913888216036
leaf_count=20 20 23 31 30 24 36 31 20 30 23 23 33 20
internal_value=-7.95862e-05 0.0146602 0.0441131 0.0167093 -0.0155432 -0.0134607 -0.00393046 -0.0316227 0.0195059 0.00149848 -0.0373996 -0.0498272 -0.0202037
internal_weight=74.4678 35.4349 17.9403 12.9092 17.4946 39.0329 31.8216 14.5864 17.2352 11.1063 12.5239 10.4847 8.04121
internal_count=364 171 84 61 87 193 157 73 84 54 63 53 40
is_linear=0
shrinkage=0.05


Tree=4
num_leaves=14
num_cat=0
split_feature=5 2 2 0 5 3 3 2 8 5 9 2 7
split_gain=5.74553 8.59145 10.3023 7.31293 8.86106 5.41044 2.76114 2.73064 3.64827 2.37698 2.07597 1.50739 0.534003
threshold=0.030744963102341746 -0.16970728553304429 -2.2906689432113256 43.335346248065498 -0.014311734631759282 -0.21395247369055362 2.4835114350086323 1.1270049798506265 0.029800213030545784 -0.027920089417415642 0.065633199004768841 0.55132798936131389 0.0092309328689503967
decision_type=2 2 2 2 2 2 2 2 2 2 2 2 2
left_child=1 2 9 4 -4 -5 7 8 -3 10 -1 -10 -9
right_child=-2 6 3 5 -6 -7 -8 12 11 -11 -12 -13 -14
leaf_value=-0.011312894741380858 0.05088740260381959 -0.046076023853291431 -0.0010290751590225488 -0.038612308934128814 0.08809913396908127 0.029179061211460945 0.011528811622654374 -0.041758986826637833 -0.019184069812237622 0.0019263351424469812 -0.05839382909095308 0.023534005494122608 -0.067299331124072562
leaf_weight=4.3483674973249453 5.1418863236904135 7.0407385528087678 4.2183047533035269 4.7015292793512335 8.2281876653432864 7.8699034154415122 4.2861019223928443 3.8460125774145109 3.9952803105115873 6.9224134087562552 5.0728608220815659 4.2745904624462128 4.3742864727973938
leaf_count=22 23 37 20 23 37 37 21 20 20 34 26 21 23
internal_value=-0.000105015 -0.00389517 0.010555 0.0307242 0.0578922 0.00382609 -0.0253814 -0.0321045 -0.0196241 -0.0203187 -0.0366636 0.00289636 -0.0553498
internal_weight=74.3205 69.1786 41.3616 25.0179 12.4465 12.5714 27.817 23.5309 15.3106 16.3436 9.42123 8.26987 8.2203
internal_count=364 341 199 117 57 60 142 121 78 82 48 41 43
is_linear=0
shrinkage=0.05


Tree=5
num_leaves=13
num_cat=0
split_feature=5 2 2 10 0 5 3 5 9 8 4 9
split_gain=5.11093 7.8318 9.24237 6.55097 6.40937 7.64422 4.90004 2.20428 1.97456 1.73428 3.90297 1.27995
threshold=0.030744963102341746 -0.16970728553304429 -2.2906689432113256 1.2173412189974762 43.335346248065498 -0.014311734631759282 -0.21395247369055362 -0.027920089417415642 0.065633199004768841 0.029800213030545784 21.790905864835775 0.56683008732480977
decision_type=2 2 2 2 2 2 2 2 2 2 2 2
left_child=1 2 7 9 5 -4 -6 8 -1 -3 -11 -12
right_child=-2 3 4 -5 6 -7 -8 -9 -10 10 11 -13
leaf_value=-0.010804371094423627 0.047559080273759713 -0.05832200524265984 -0.00097802144502242574 0.021987204930939457 -0.03730915171778075 0.081448100781893476 0.027410375480100842 0.0018284859670175142 -0.05708296859761787 0.0022956754522468078 -0.028149473256082642 -0.067109156999956218
leaf_weight=4.3259642124176043 5.2244148403406134 6.7308673709631028 4.2166177183389655 5.9516022950410834 4.6244473755359641 8.4490190744400042 7.9565186798572531 6.9280695617198935 4.9334410130977631 6.2546941190958014 3.810421556234358 4.718952864408493
leaf_count=22 23 37 20 29 23 37 37 34 26 31 20 25
internal_value=-0.000120271 -0.00373558 0.00998943 -0.0244401 0.0288985 0.054007 0.0036211 -0.0195019 -0.0354618 -0.0372832 -0.0277047 -0.0497043
internal_weight=74.125 68.9006 41.4341 27.4665 25.2466 12.6656 12.581 16.1875 9.25941 21.5149 14.7841 8.52937
internal_count=364 341 199 142 117 57 60 82 48 113 76 45
is_linear=0
shrinkage=0.05


Tree=6
num_leaves=14
num_cat=0
split_feature=4 6 0 4 7 4 1 1 7 7 5 4 2
split_gain=4.70722 9.71825 10.8912 9.84867 8.46184 7.30887 6.74692 12.1797 7.99957 6.91227 6.30203 2.3817 0.537852
threshold=27.846710361821902 -0.043556304400103975 41.277016491321156 35.551520598616825 0.0099147339791055503 58.443826046989876 0.013428850462763544 0.054985860430599949 0.0084768679402860616 0.0090619009914136833 -0.001522379960898763 46.387042028925386 -1.7338696917916534
decision_type=2 2 2 2 2 2 2 2 2 2 2 2 2
left_child=4 5 -3 -4 6 11 8 -8 -1 -10 -11 12 -2
right_child=1 2 3 -5 -6 -7 7 -9 9 10 -12 -13 -14
leaf_value=-0.060697101404726832 -0.006073275592388027 0.098569464829343867 -0.031250931950229231 0.055534555046479354 -0.061228367790488007 0.036420419938738145 0.098852024366278546 -0.017869329438712597 0.046744725747523863 0.023439539897849165 -0.058789772680830271 -0.065926172719973142 -0.032170709350436866
leaf_weight=6.8614741265773835 3.9340451657772073 5.313902601599696 6.31204606592655 6.7810071706771851 7.1762057691812506 5.0372179448604575 4.1169641017913801 4.8892505764961243 5.8932196646928778 4.1915381103754052 5.2466582357883427 4.1575367748737335 3.9631539583206186
leaf_count=36 20 23 31 30 37 24 20 25 28 20 27 23 20
internal_value=-0.000133917 0.0129888 0.0381981 0.013696 -0.012273 -0.01416 -0.00101266 0.0354869 -0.0158247 0.00425759 -0.0222714 -0.0352957 -0.0191701
internal_weight=73.8742 35.4989 18.407 13.0931 38.3753 17.092 31.1991 9.00621 22.1929 15.3314 9.4382 12.0547 7.8972
internal_count=364 171 84 61 193 87 156 45 111 75 47 63 40
is_linear=0
shrinkage=0.05


Tree=7
num_leaves=15
num_cat=0
split_feature=4 6 0 4 4 6 1 1 4 3 4 0 2 2
split_gain=4.26782 8.70109 9.47525 8.79819 6.65161 5.80992 6.58338 4.42478 12.1168 3.85703 2.30015 1.25715 0.636524 0.498295
threshold=27.846710361821902 -0.043556304400103975 41.277016491321156 35.551520598616825 58.443826046989876 1.0000000180025095e-35 0.062173150097331494 -0.010742113971826226 18.965139603540401 1.3716973505309977 46.387042028925386 42.854395800307131 -1.0000000180025095e-35 -1.7338696917916534
decision_type=2 2 2 2 2 2 2 2 2 2 2 2 2 2
left_child=5 4 -3 -4 10 7 9 8 -1 -7 13 -10 -9 -2
right_child=1 2 3 -5 -6 6 -8 12 11 -11 -12 -13 -14 -15
leaf_value=0.052989323376277736 -0.0057856599383601173 0.091473530885997065 -0.030093177601949281 0.05190401188913666 0.034119472899655008 0.0058312571916834177 -0.03408814681544959 -0.069357299102444425 -0.020101627344860561 0.073367168976632396 -0.06492100434154234 -0.053159332635118829 -0.041691373896189626 -0.031011575678782672
leaf_weight=5.1401341259479549 3.9234127402305612 5.4364194273948696 6.2292838692665082 6.8896141201257706 5.1062217503786078 4.0261013507843 4.399369165301322 4.1797668635845184 5.0187903046607953 4.4516051560640335 4.0144397169351578 6.7357882559299469 4.1366416066885012 3.9071707427501687
leaf_count=24 20 23 31 30 24 21 23 21 25 21 23 35 23 20
internal_value=-0.000158564 0.0123121 0.0359696 0.0129691 -0.0135841 -0.011784 0.0155402 -0.0257404 -0.0110439 0.0412941 -0.0341484 -0.0390449 -0.0555961 -0.0183725
internal_weight=73.5948 35.5066 18.5553 13.1189 16.9512 38.0882 12.8771 25.2111 16.8947 8.47771 11.845 11.7546 8.31641 7.83058
internal_count=364 171 84 61 87 193 65 128 84 42 63 60 44 40
is_linear=0
shrinkage=0.05


Tree=8
num_leaves=15
num_cat=0
split_feature=4 1 4 7 2 9 1 2 4 8 7 10 7 10
split_gain=3.88657 11.9665 8.67718 7.67698 8.64381 6.21949 6.45321 5.20719 4.51551 6.64953 4.45173 1.9605 1.36862 0.50723
threshold=35.551520598616825 -0.13396739975628688 58.443826046989876 0.0099147339791055503 -0.1729371654155539 0.074682367878391179 -0.03766581836970672 -0.26362059020434286 25.238591967922151 0.027882550407145552 0.0091238259257316427 0.90551796398005457 0.0079681497971389771 1.0034212598725254
decision_type=2 2 2 2 2 2 2 2 2 2 2 2 2 2
left_child=3 2 13 4 5 -1 -7 -3 9 12 -11 -5 -6 -2
right_child=1 7 -4 11 8 6 -8 -9 -10 10 -12 -13 -14 -15
leaf_value=-0.0229933774484616 -0.065489596085369695 0.09269679172751534 0.032008671198422031 -0.066644960792517957 -0.022273240893433275 0.095108347359139145 0.019663228102293623 0.024821812196165659 -0.06788527152968131 0.045955483482706755 -0.018241538861906281 -0.02428890665974202 -0.065733094111183499 -0.039289429783372048
leaf_weight=4.1186061501503017 3.7101982980966586 4.7854739725589752 5.1691187620162964 5.3990191668272001 3.4850131124258104 4.5561998784542093 7.5000023841857884 6.8998603820800763 3.7746779769659033 5.9680211097002012 4.9322765022516251 5.5304477214813232 3.7725017517805099 3.6791284382343292
leaf_count=20 21 20 24 29 20 20 35 32 20 29 25 28 21 20
internal_value=-0.000174712 0.0162017 -0.0176832 -0.00827123 0.00232374 0.0300533 0.0481749 0.0526185 -0.0181263 -0.00778231 0.016907 -0.0452123 -0.0448639 -0.0524446
internal_weight=73.2805 24.2438 12.5584 49.0368 38.1073 16.1748 12.0562 11.6853 21.9325 18.1578 10.9003 10.9295 7.25751 7.38933
internal_count=364 117 65 247 190 75 55 52 115 95 54 57 41 41
is_linear=0
shrinkage=0.05


Tree=9
num_leaves=13
num_cat=0
split_feature=0 2 4 1 0 7 1 4 7 8 7 10
split_gain=3.74083 7.02497 4.23601 10.3125 9.56949 7.76774 10.4597 7.07533 6.49462 6.06642 2.54288 1.20566
threshold=66.400394415349282 1.1270049798506265 27.846710361821902 -0.13396739975628688 41.277016491321156 0.0099147339791055503 0.024024696764632484 58.443826046989876 0.0084768679402860616 0.027882550407145552 0.0090457668267478631 1.0163483917496983
decision_type=2 2 2 2 2 2 2 2 2 2 2 2
left_child=1 2 5 7 -5 6 8 11 -1 -10 -3 -4
right_child=-2 10 3 4 -6 -7 -8 -9 9 -11 -12 -13
leaf_value=-0.057809152816288872 0.032708853683610005 -0.012056916769293788 -0.065176510895378653 0.090138759963067708 0.0045771471615615967 -0.058393607435125422 0.072204894008556911 0.030065647343659786 -0.034218297349859483 0.033868631200327563 -0.065865008294722568 -0.025086090650818023
leaf_weight=5.6611329764127829 7.7246844023466101 3.6291413754224759 3.860262945294382 6.7320470213890058 6.3507350087165833 6.5386643409728995 4.4543700814247122 5.2264856398105621 5.5419231206178647 7.9853816777467728 5.558920830488205 3.647199958562851
leaf_count=31 35 20 22 28 30 36 21 24 28 38 31 20
internal_value=-0.000191091 -0.00408979 0.00255895 0.0174279 0.0486048 -0.0101597 0.00317986 -0.0146031 -0.0128435 0.00597449 -0.0446117 -0.0457002
internal_weight=72.9109 65.1863 55.9982 25.8167 13.0828 30.1815 23.6428 12.7339 19.1884 13.5273 9.18806 7.50746
internal_count=364 329 278 124 58 154 118 66 97 66 51 42
is_linear=0
shrinkage=0.05


end of trees

feature_importances:
Column_4=24
Column_2=21
Column_7=15
Column_5=13
Column_8=11
Column_0=10
Column_1=10
Column_10=9
Column_6=7
Column_3=6
Column_9=5

parameters:
[boosting: gbdt]
[objective: binary]
[metric: auc]
[tree_learner: serial]
[device_type: cpu]
[data_sample_strategy: bagging]
[data: ]
[valid: ]
[num_iterations: 100]
[learning_rate: 0.05]
[num_leaves: 31]
[num_threads: 0]
[seed: 0]
[deterministic: 0]
[force_col_wise: 0]
[force_row_wise: 0]
[histogram_pool_size: -1]
[max_depth: -1]
[min_data_in_leaf: 20]
[min_sum_hessian_in_leaf: 0.001]
[bagging_fraction: 1]
[pos_bagging_fraction: 1]
[neg_bagging_fraction: 1]
[bagging_freq: 0]
[bagging_seed: 3]
[bagging_by_query: 0]
[feature_fraction: 0.8]
[feature_fraction_bynode: 1]
[feature_fraction_seed: 2]
[extra_trees: 0]
[extra_seed: 6]
[early_stopping_round: 0]
[early_stopping_min_delta: 0]
[first_metric_only: 0]
[max_delta_step: 0]
[lambda_l1: 0]
[lambda_l2: 0]
[linear_lambda: 0]
[min_gain_to_split: 0]
[drop_rate: 0.1]
[max_drop: 50]
[skip_drop: 0.5]
[xgboost_dart_mode: 0]
[uniform_drop: 0]
[drop_seed: 4]
[top_rate: 0.2]
[other_rate: 0.1]
[min_data_per_group: 100]
[max_cat_threshold: 32]
[cat_l2: 10]
[cat_smooth: 10]
[max_cat_to_onehot: 4]
[top_k: 20]
[monotone_constraints: ]
[monotone_constraints_method: basic]
[monotone_penalty: 0]
[feature_contri: ]
[forcedsplits_filename: ]
[refit_decay_rate: 0.9]
[cegb_tradeoff: 1]
[cegb_penalty_split: 0]
[cegb_penalty_feature_lazy: ]
[cegb_penalty_feature_coupled: ]
[path_smooth: 0]
[interaction_constraints: ]
[verbosity: -1]
[saved_feature_importance_type: 0]
[use_quantized_grad: 0]
[num_grad_quant_bins: 4]
[quant_train_renew_leaf: 0]
[stochastic_rounding: 1]
[linear_tree: 0]
[max_bin: 255]
[max_bin_by_feature: ]
[min_data_in_bin: 3]
[bin_construct_sample_cnt: 200000]
[data_random_seed: 1]
[is_enable_sparse: 1]
[enable_bundle: 1]
[use_missing: 1]
[zero_as_missing: 0]
[feature_pre_filter: 1]
[pre_partition: 0]
[two_round: 0]
[header: 0]
[label_column: ]
[weight_column: ]
[group_column: ]
[ignore_column: ]
[categorical_feature: ]
[forcedbins_filename: ]
[precise_float_parser: 0]
[parser_config_file: ]
[objective_seed: 5]
[num_class: 1]
[is_unbalance: 0]
[scale_pos_weight: 1]
[sigmoid: 1]
[boost_from_average: 1]
[reg_sqrt: 0]
[alpha: 0.9]
[fair_c: 1]
[poisson_max_delta_step: 0.7]
[tweedie_variance_power: 1.5]
[lambdarank_truncation_level: 30]
[lambdarank_norm: 1]
[label_gain: ]
[lambdarank_position_bias_regularization: 0]
[eval_at: ]
[multi_error_top_k: 1]
[auc_mu_weights: ]
[num_machines: 1]
[local_listen_port: 12400]
[time_out: 120]
[machine_list_filename: ]
[machines: ]
[gpu_platform_id: -1]
[gpu_device_id: -1]
[gpu_use_dp: 0]
[num_gpu: 1]

end of parameters

pandas_categorical:null
