tree
version=v4
num_class=1
num_tree_per_iteration=1
label_index=0
max_feature_idx=10
objective=binary sigmoid:1
feature_names=Column_0 Column_1 Column_2 Column_3 Column_4 Column_5 Column_6 Column_7 Column_8 Column_9 Column_10
feature_infos=[0:88.937640255644638] [-0.1109425898279941:0.17441447173550717] [-7.2375244900311184:5.8729736779165576] [-6.0659519609173573:8.3444060457082116] [0:71.717770183360614] [-0.051407155989252017:0.042400832755956207] [-0.055586403748284885:0.093187960742730946] [0:0.014507268878611153] [0:0.1003628613178469] [-0.31306973296166485:1.3605985945814925] [0:2.6583614401444402]
tree_sizes=1583 1386 1593 1495 1605 1495 1613 1824 1395 1598 1502 1596 1725 1719 1709 1610 1621 1726 1704 1604 1726 1709 1710 1611 1500 1609 1605 1618 1607 1818 1712 1405 1622 1709 1617 1820 1508 1817

Tree=0
num_leaves=14
num_cat=0
split_feature=4 5 6 7 8 2 5 7 6 4 7 4 1
split_gain=11.3171 10.3537 10.0822 14.21 9.20021 12.3996 14.946 7.10803 6.16819 4.68842 4.61608 4.35414 2.99486
threshold=23.957881242203079 -0.016160744638329252 0.011830564633584216 0.007276676108728535 0.042315688354592949 0.45917460174475172 0.010089827932489968 0.0087558574319711677 -1.0000000180025095e-35 46.223279565908179 0.0077829843051344574 32.082824676777783 -0.0082261441277102759
decision_type=2 2 2 2 2 2 2 2 2 2 2 2 2
left_child=2 -2 3 8 5 -3 -7 9 -1 -6 -5 -9 -12
right_child=1 4 -4 10 7 6 -8 11 -10 -11 12 -13 -14
leaf_value=-0.55897980040719009 -0.47991547515785277 -0.44757097846494215 -0.62432221796862586 -0.62287016424503838 -0.56522994469567522 -0.60390271248067717 -0.49223718818372353 -0.55322966766178372 -0.48453611754255432 -0.49737123527783633 -0.54460446854367417 -0.60874056455012959 -0.59851196303185872
leaf_weight=4.8694526553153992 6.9563609361648551 4.63757395744324 7.6519970297813407 6.260724842548373 5.3332100510597247 5.565088748931883 6.4926035404205322 5.7969674468040457 6.492603540420534 4.8694526553153992 5.7969674468040484 9.043269217014311 4.6375739574432338
leaf_count=21 30 20 33 27 23 24 28 25 28 21 25 39 20
internal_value=-0.552069 -0.53639 -0.573448 -0.559574 -0.545802 -0.517052 -0.543775 -0.56497 -0.516441 -0.532843 -0.588928 -0.587057 -0.568563
internal_weight=84.4038 48.6945 35.7093 28.0573 41.7382 16.6953 12.0577 25.0429 11.3621 10.2027 16.6953 14.8402 10.4345
internal_count=364 210 154 121 180 72 52 108 49 44 72 64 45
is_linear=0
shrinkage=1


Tree=1
num_leaves=12
num_cat=0
split_feature=4 0 4 7 8 8 4 2 8 0 4
split_gain=10.2354 9.75388 8.11314 7.37861 6.49984 5.33746 15.2235 5.1081 4.83957 1.94566 2.65074
threshold=23.957881242203079 42.419297651787765 26.096743744349585 0.007745007872780923 0.022770222629289915 0.036260016376190508 18.206313770430857 -0.6078044799800898 0.038242910976206176 68.311742391122877 34.503487901622755
decision_type=2 2 2 2 2 2 2 2 2 2 2
left_child=4 -2 -3 -4 -1 7 -7 -6 -5 10 -10
right_child=1 2 3 8 5 6 -8 -9 9 -11 -12
leaf_value=0.018720770216623446 0.062769881790307624 0.064914720543684565 0.03472499505099301 0.017354245213379235 -0.01217790582255561 0.058256106075237263 -0.04995167746496082 -0.077418578298082449 -0.023431951106956995 -0.0025244751047740575 -0.068063535682167206
leaf_weight=8.152191683650015 8.7142648547887784 4.8690780699253073 9.1430944949388486 7.2238876223564175 4.5826149433851233 5.1020248085260382 8.9562628567218763 8.6891604810953158 9.0362185835838336 4.614551752805709 5.2652086764574042
leaf_count=35 37 21 39 31 20 22 39 38 39 20 23
internal_value=-2.22538e-05 0.0148195 0.00441272 -0.00393661 -0.0204623 -0.0321501 -0.010681 -0.0548916 -0.0174595 -0.0307546 -0.0398635
internal_weight=84.3486 48.8663 40.152 35.283 35.4823 27.3301 14.0583 13.2718 26.1399 18.916 14.3014
internal_count=364 210 173 152 154 119 61 58 113 82 62
is_linear=0
shrinkage=0.05


Tree=2
num_leaves=14
num_cat=0
split_feature=4 6 0 4 8 10 8 8 6 0 2 8 4
split_gain=9.26607 9.2311 8.76046 7.99961 7.71041 5.99774 4.35739 14.1708 4.21895 3.92059 2.92554 2.22909 1.58838
threshold=23.957881242203079 0.011830564633584216 38.339693563988249 25.697981168481281 0.020921637363013692 0.95678128722992217 0.036260016376190508 0.042709273068830482 0.027178905448319388 69.21753140348865 -0.50591619893698436 0.042315688354592949 34.503487901622755
decision_type=2 2 2 2 2 2 2 2 2 2 2 2 2
left_child=1 4 -2 -4 -1 8 10 -8 -5 12 -6 -10 -7
right_child=2 -3 3 5 6 9 7 -9 11 -11 -12 -13 -14
leaf_value=0.050143076638063992 0.069419775952938467 -0.06917140892506328 0.067355586355609703 -0.00867549669392975 -0.011485378549393329 -0.019078887099122234 0.057328798939527983 -0.05727810661116111 0.058238071261240379 0.01087344484718139 -0.061185743280811014 0.012931580685471764 -0.054898945578009797
leaf_weight=4.9579811096191433 6.2298471778631201 7.4131253808736792 4.7198538780212393 8.5595909506082553 5.2777336537838 5.8136259466409701 5.8331807404756528 5.0169853270053864 6.1183922588825208 6.0704647004604331 6.745016947388649 4.8803793340921402 6.6178373694419861
leaf_count=21 26 33 20 37 23 25 25 22 26 26 30 21 29
internal_value=-3.68156e-05 -0.0195902 0.0140244 0.00595747 -0.0063836 -0.00165651 -0.0186364 0.00433595 0.0176485 -0.0220638 -0.0393683 0.0381347 -0.0381475
internal_weight=84.254 35.244 49.01 42.7801 27.8309 38.0603 22.8729 10.8502 19.5584 18.5019 12.0228 10.9988 12.4315
internal_count=364 154 210 184 121 164 100 47 84 80 53 47 54
is_linear=0
shrinkage=0.05


Tree=3
num_leaves=13
num_cat=0
split_feature=4 0 6 3 4 6 10 4 4 0 2 2
split_gain=8.44096 8.16841 8.05746 12.8068 5.81385 7.47705 5.69674 4.83954 3.79216 3.70018 3.15566 1.77964
threshold=22.918027121163934 42.419297651787765 0.011830564633584216 -0.061676822377263761 25.697981168481281 0.027178905448319388 0.85455746143150801 32.082824676777783 14.003992959406238 69.21753140348865 1.6740168347455702 -1.5658418988571114
decision_type=2 2 2 2 2 2 2 2 2 2 2 2
left_child=2 -2 3 11 -3 7 10 -6 -5 -8 -7 -1
right_child=1 4 -4 8 5 6 9 -9 -10 -11 -12 -13
leaf_value=-0.022147462718326613 0.055034471055828788 0.05265520583376837 -0.067082006355538015 0.049390201875517049 -0.012173334884263674 0.014314515780137059 -0.036549184737899289 -0.075742845803726838 -0.00082367856799731281 0.018461798948520701 0.070039532519690306 -0.062327230295809825
leaf_weight=4.546784520149231 9.3600698560476285 5.2067695111036292 7.0259299129247657 7.2929569035768491 9.0221888422965986 5.2095333784818667 6.1393124908208829 4.4809414893388739 7.7613026946783066 6.0880215018987656 4.9588830918073654 6.9965392649173754
leaf_count=20 39 22 32 31 39 22 27 20 34 26 21 31
internal_value=-5.13852e-05 0.0128792 -0.019459 -0.00687908 0.00328015 -0.0038812 0.0138374 -0.0332685 0.0235022 -0.00915907 0.0414902 -0.0465009
internal_weight=84.0892 50.4657 33.6235 26.5976 41.1057 35.8989 22.3958 13.5031 15.0543 12.2273 10.1684 11.5433
internal_count=364 216 148 116 177 155 96 59 65 53 43 51
is_linear=0
shrinkage=0.05


Tree=4
num_leaves=14
num_cat=0
split_feature=4 0 4 7 3 1 8 2 2 3 8 4 8
split_gain=7.70235 7.08315 5.96611 5.82269 5.24875 10.2462 4.14557 7.91026 2.73543 2.21771 1.19507 3.07342 0.946656
threshold=23.957881242203079 42.419297651787765 26.096743744349585 0.007745007872780923 -0.061676822377263761 0.0057190782218126133 0.041972353909334383 1.0340418902024668 -1.7138160298064931 1.3947690436629798 0.070488783011586342 34.503487901622755 0.036606957597511432
decision_type=2 2 2 2 2 2 2 2 2 2 2 2 2
left_child=4 -2 -3 -4 8 -6 7 -5 -1 -7 11 -8 -10
right_child=1 2 3 6 5 9 10 -9 12 -11 -12 -13 -14
leaf_value=-0.010641174052378702 0.052774795719533862 0.054489345368824028 0.03029884682720136 0.056257144039928167 0.037003909686504619 -0.016876562736846606 -0.018002043759537192 -0.035745668975920637 -0.074149515847809641 -0.061736197338630019 -0.013618456428739718 -0.073401442161702177 -0.041798609278573665
leaf_weight=4.5326690673828116 8.995696619153021 5.0524733811616889 9.2999291419982892 4.7233069241046923 9.2391939461231249 7.5935237854719144 5.9224794358015078 4.6229666620492935 4.5949953347444517 4.3238434940576553 6.2020919024944297 4.3367332965135574 4.4524695128202438
leaf_count=20 37 21 39 20 39 34 26 20 21 20 27 20 20
internal_value=-6.3949e-05 0.0126719 0.00368899 -0.00362191 -0.0180864 -0.00251477 -0.0158455 0.0107496 -0.0423454 -0.0331525 -0.0309454 -0.0414203 -0.0582289
internal_weight=83.8924 49.1557 40.16 35.1075 34.7367 21.1566 25.8076 9.34627 13.5801 11.9174 16.4613 10.2592 9.04746
internal_count=364 210 173 152 154 93 113 40 61 54 73 46 41
is_linear=0
shrinkage=0.05


Tree=5
num_leaves=13
num_cat=0
split_feature=4 0 8 8 1 4 10 2 0 10 0 3
split_gain=6.99817 6.48728 5.61361 7.15685 9.45233 4.97137 4.84652 3.52472 6.63604 3.34885 3.23092 2.50964
threshold=23.808203242997077 38.339693563988249 0.042709273068830482 0.036260016376190508 0.0015736532302241815 25.697981168481281 0.95678128722992217 0.45917460174475172 71.526479642166464 1.036444429966598 69.21753140348865 2.4851903809649749
decision_type=2 2 2 2 2 2 2 2 2 2 2 2
left_child=2 -2 3 4 -1 -3 7 -7 -9 -6 11 -8
right_child=1 5 -4 -5 9 6 10 8 -10 -11 -12 -13
leaf_value=0.015250351972561249 0.056962560085412145 0.050968380381314515 -0.064250448363143559 0.032839311129692079 -0.073189878724287435 0.046464414675973703 -0.017738027790914681 -0.026117322132575727 0.046632395093053565 -0.018297769898085646 0.009435940468995074 -0.064921983101376798
leaf_weight=8.8516622483730369 6.8665957152843466 5.100064978003501 5.4229198098182669 7.5858663469552985 7.5313620120286924 6.2881814688444164 7.6231391876935977 8.3836209177970868 5.0065921545028678 4.4028894454240799 6.1061800122261038 4.4709806442260742
leaf_count=38 28 21 25 33 35 27 34 36 21 20 26 20
internal_value=-7.41218e-05 0.0118347 -0.0176389 -0.00872969 -0.0239004 0.00462469 -0.00161512 0.015585 0.00108375 -0.0529386 -0.0202121 -0.0351811
internal_weight=83.6401 49.8454 33.7947 28.3718 20.7859 42.9788 37.8787 19.6784 13.3902 11.9343 18.2003 12.0941
internal_count=364 213 151 126 93 185 164 84 57 55 80 54
is_linear=0
shrinkage=0.05


Tree=6
num_leaves=14
num_cat=0
split_feature=4 6 7 6 7 3 6 0 5 6 6 0 7
split_gain=6.37883 7.59419 10.1128 6.05923 6.17933 5.90406 5.0137 10.9055 4.9895 4.06228 3.3751 4.05432 1.92837
threshold=23.957881242203079 0.011830564633584216 0.0069702789632342735 -0.0065813204495955178 0.0089600583966526811 -0.061676822377263761 0.048115348902579298 65.585880937232915 0.011870870968959954 -1.0000000180025095e-35 0.024038519116738249 43.925940263756821 0.008217600268622843
decision_type=2 2 2 2 2 2 2 2 2 2 2 2 2
left_child=1 2 9 -2 6 12 7 -5 10 -1 11 -6 -4
right_child=3 -3 5 4 8 -7 -8 -9 -10 -11 -12 -13 -14
leaf_value=-0.0012196847413715455 0.053865138014744143 -0.063731334067385279 -0.07297434834277805 0.052263508113261616 0.011898293613341358 0.0063485376183806041 0.065974931867094452 -0.033964757630821032 -0.053201020571512804 0.061870757078957277 0.027906797358088306 -0.053633291626179871 -0.028613777130518228
leaf_weight=4.5591966211795807 7.1892187148332587 6.8532506674528113 5.5609504282474536 7.3521644473075884 5.0560828149318748 7.0665671229362479 5.3061334192752829 7.315147876739502 5.9487341195344916 5.7937112450599688 6.5831988453865042 4.4266602993011475 4.3789339959621429
leaf_count=20 30 33 26 31 21 31 22 31 26 24 29 20 20
internal_value=-8.41361e-05 -0.0166637 -0.00487371 0.0114502 0.00418795 -0.0285916 0.0243255 0.00925818 -0.0140824 0.0340871 0.000401993 -0.0186927 -0.0534317
internal_weight=83.39 34.2126 27.3594 49.1773 41.9881 17.0065 19.9734 14.6673 22.0147 10.3529 16.0659 9.48274 9.93988
internal_count=364 154 121 210 180 77 84 62 96 44 70 41 46
is_linear=0
shrinkage=0.05


Tree=7
num_leaves=16
num_cat=0
split_feature=5 5 5 5 5 4 4 6 6 9 9 6 9 2 2
split_gain=5.91801 7.13885 4.96298 4.65625 9.18965 7.58006 4.39558 4.68487 8.03791 4.53553 4.06457 3.79101 3.29919 3.12243 1.40058
threshold=-0.016160744638329252 -0.012712013882603535 -0.0087531001515091366 0.0091748524576646603 0.011870870968959954 28.673360558334249 45.014612215149448 0.022968733582716856 0.010947787556867287 0.38099617831709948 0.53228985707979481 0.019844650822159134 0.048804052638110045 2.927638822762614 0.30380470595440073
decision_type=2 2 2 2 2 2 2 2 2 2 2 2 2 2 2
left_child=12 -2 -3 6 -5 11 7 8 9 -4 -11 -6 -1 -7 -12
right_child=1 2 3 4 5 13 -8 -9 -10 10 14 -13 -14 -15 -16
leaf_value=0.0072734029905370456 -0.06487080740202647 0.048620429604744525 0.030760771065234213 0.064071687444778161 -0.0072995822087841295 0.048349257865127414 -0.063519225467487464 0.036020496139020461 -0.071545679143553947 -0.056435477731708872 0.019648822844110396 -0.065984170366740633 0.065821579412610076 -0.0031689772373890744 -0.019888428173203576
leaf_weight=4.775936156511305 4.6520324796438208 4.7178913950920096 6.4714330136776068 6.234799891710284 6.0334529429674166 6.1039102971553785 4.401964157819747 4.6695106625556937 5.5802926421165457 4.9205840975046149 4.5359165966510755 5.0599472373723984 4.8491865247488022 5.6760529428720474 4.4251704066991806
leaf_count=20 21 21 27 27 26 26 20 20 27 22 20 23 20 24 20
internal_value=-9.57678e-05 -0.00492465 -0.000873102 -0.00451519 0.0102613 -0.00440625 -0.0168025 -0.0100827 -0.018384 -0.00380844 -0.0199241 -0.0340669 0.0367703 0.0235257 0.000124509
internal_weight=83.1081 73.483 68.8309 64.113 29.1082 22.8734 35.0049 30.6029 25.9334 20.3531 13.8817 11.0934 9.62512 11.78 8.96109
internal_count=364 324 303 282 126 99 156 136 116 89 62 49 40 50 40
is_linear=0
shrinkage=0.05


Tree=8
num_leaves=12
num_cat=0
split_feature=4 8 8 1 0 4 7 10 2 10 4
split_gain=5.59649 6.44069 7.03098 7.91862 5.15543 5.12214 4.12181 4.72046 3.38207 3.08723 1.88679
threshold=22.918027121163934 0.042709273068830482 0.036260016376190508 0.0015736532302241815 38.339693563988249 25.606438359135236 0.007745007872780923 0.95678128722992217 0.58081481266551549 1.036444429966598 34.503487901622755
decision_type=2 2 2 2 2 2 2 2 2 2 2
left_child=1 2 3 -1 -2 -6 -7 8 -8 -5 -9
right_child=4 -3 -4 9 5 6 7 10 -10 -11 -12
leaf_value=0.013005848725543195 0.050320819536017615 -0.070426467476925103 0.034668501942470765 -0.070234224806287243 0.051178786421797517 0.026513846501029378 0.035981185415411197 -0.012761185082034374 -0.012575800261982531 -0.01656873897267221 -0.048894989459023028
leaf_weight=8.8999953866004997 6.9400045424699774 4.7036371678113928 7.3755644410848609 7.0850214809179288 5.0663539320230475 9.3831404596567136 6.3287654519081142 6.8527519702911359 8.2748707681894285 4.310239166021347 7.6410355716943741
leaf_count=38 28 23 32 35 21 39 27 30 36 20 35
internal_value=-0.000107885 -0.0163349 -0.00714017 -0.022334 0.0102976 0.00391919 -0.00230301 -0.0115957 0.0084673 -0.0499353 -0.0318107
internal_weight=82.8614 32.3745 27.6708 20.2953 50.4869 43.5469 38.4806 29.0974 14.6036 11.3953 14.4938
internal_count=364 148 125 93 216 188 167 128 63 55 65
is_linear=0
shrinkage=0.05


Tree=9
num_leaves=14
num_cat=0
split_feature=4 0 8 3 1 4 4 9 0 2 2 3 8
split_gain=5.12623 4.60032 4.62736 4.15296 7.4137 4.02216 4.33849 3.75623 6.20384 2.33936 2.25459 1.88443 0.944833
threshold=23.957881242203079 42.419297651787765 0.042315688354592949 -0.061676822377263761 0.0057190782218126133 58.577515283846409 28.862137900946632 0.83626540395546234 60.841856117628545 -1.7138160298064931 0.45917460174475172 1.3947690436629798 0.036606957597511432
decision_type=2 2 2 2 2 2 2 2 2 2 2 2 2
left_child=3 -2 7 9 -5 6 -4 8 -3 -1 -8 -6 -11
right_child=1 2 5 4 11 -7 10 -9 -10 12 -12 -13 -14
leaf_value=-0.008208602010756634 0.042134307975227943 0.041112014506057691 0.011012622634115428 0.031515516197836012 -0.01369816833948511 0.028777343550275555 -0.063314838904688919 0.054674903562003489 -0.036706470752317762 -0.069835529188901679 -0.020043917884592179 -0.056613783838679189 -0.036250014555164259
leaf_weight=4.4349399954080573 9.1567537039518339 5.5138966739177722 6.5080320388078752 9.374788627028467 7.3273404687643033 4.9463170170783988 5.4862622022628766 6.0236383378505698 4.7826420068740845 4.2071405053138715 6.6704637408256531 3.9298095405101776 4.1693091094493866
leaf_count=20 37 23 28 39 34 21 26 25 21 21 29 20 20
internal_value=-0.000115279 0.0101702 0.00284047 -0.0152123 -0.0013281 -0.0113104 -0.021934 0.0233132 0.00496609 -0.037572 -0.0395718 -0.0286798 -0.0531186
internal_weight=82.5313 49.088 39.9313 33.4433 20.6319 23.6111 18.6648 16.3202 10.2965 12.8114 12.1567 11.2572 8.37645
internal_count=364 210 173 154 93 104 83 69 44 61 55 54 41
is_linear=0
shrinkage=0.05


Tree=10
num_leaves=13
num_cat=0
split_feature=4 4 2 5 4 9 5 7 7 9 1 1
split_gain=4.81484 8.17436 5.35073 4.45076 3.80752 2.98706 6.39309 4.33978 5.54734 3.84389 3.4277 1.58575
threshold=28.083849333772665 33.71702476636289 0.032443173438459746 0.01785176366899514 45.546060273802119 0.81420950251964819 0.0092643202424988001 0.007276676108728535 0.0077829843051344574 0.44006637379086022 -0.0082261441277102759 0.023221520493693418
decision_type=2 2 2 2 2 2 2 2 2 2 2 2
left_child=5 2 -2 4 -3 6 7 9 -9 -1 -10 -7
right_child=1 3 -4 -5 -6 11 -8 8 10 -11 -12 -13
leaf_value=0.0368338113132732 0.081849098400311862 0.00054928588613596359 0.015144896225215044 0.025163546781392151 -0.05125418866222347 -0.014397390156380321 0.046043285018197801 -0.07111360760992981 0.011999515489916486 -0.018698058893207879 -0.037442633772991472 -0.055386606631380064
leaf_weight=6.4925961792469042 5.7958438545465452 8.9134319722652453 6.2466364353895187 8.5981619954109174 5.8915116488933554 4.5272051990032178 5.3946277499198905 5.3190641403198269 7.4784126877784729 5.9922839850187302 6.5985159277915937 4.9281542301177979
leaf_count=27 24 39 27 36 27 20 23 26 33 28 31 23
internal_value=-0.000121078 0.0137755 0.0472485 -0.00344862 -0.0200655 -0.0106617 -0.00429496 -0.0128128 -0.0276132 0.0101806 -0.0111763 -0.0357611
internal_weight=82.1764 35.4456 12.0425 23.4031 14.8049 46.7309 37.2755 31.8809 19.396 12.4849 14.0769 9.45536
internal_count=364 153 51 102 66 211 168 145 90 55 64 43
is_linear=0
shrinkage=0.05


Tree=11
num_leaves=14
num_cat=0
split_feature=4 6 3 4 8 4 4 5 4 9 4 5 7
split_gain=4.35857 7.38035 8.14303 7.32138 5.98433 7.13884 4.5181 3.79854 7.84434 3.39819 2.88958 1.95716 1.29056
threshold=28.083849333772665 0.012539894601167749 -0.061676822377263761 33.71702476636289 0.035516679530244462 14.003992959406238 38.869999039665466 0.01983404805469768 45.546060273802119 0.38099617831709948 22.36056537221112 0.012967043902442507 0.0075870726525907812
decision_type=2 2 2 2 2 2 2 2 2 2 2 2 2
left_child=1 2 10 9 5 -4 -5 8 -8 -2 12 -3 -1
right_child=3 11 4 6 -6 -7 7 -9 -10 -11 -12 -13 -14
leaf_value=-0.019163866489053771 0.076711760011062252 -0.024651688781724294 0.036004495049635155 -0.043363402186905618 0.063203449217287697 -0.039787045895276638 0.036452827905448251 0.036705466613096809 -0.049543316019058772 0.022763680484295268 0.0073009750073583625 -0.065528806231526085 -0.053931520511019897
leaf_weight=4.5939671993255597 4.9066401124000532 6.0284849405288679 7.2715272456407565 5.405270695686343 6.3081208616495124 5.4246906340122223 4.8905747085809725 7.2546429038047782 5.7927481830120087 7.2058497816324234 4.7565232664346686 5.694006010890007 6.3702217042446136
leaf_count=22 20 29 30 24 26 25 21 30 27 31 20 27 32
internal_value=-0.000126052 -0.0102036 0.00137663 0.0130756 0.0233984 0.00362118 -0.003291 0.00878407 -0.0101763 0.0446175 -0.0252448 -0.0445071 -0.039364
internal_weight=81.9033 46.4475 34.7251 35.4557 19.0043 12.6962 23.3432 17.938 10.6833 12.1125 15.7207 11.7225 10.9642
internal_count=364 211 155 153 81 55 102 78 48 51 74 56 54
is_linear=0
shrinkage=0.05


Tree=12
num_leaves=15
num_cat=0
split_feature=5 5 5 3 1 4 8 1 0 3 2 9 4 1
split_gain=4.20819 6.39012 4.32236 3.75382 4.03682 3.9048 4.60535 4.47318 5.67485 3.44584 3.23135 2.69084 2.01572 0.977733
threshold=-0.016160744638329252 -0.012712013882603535 -0.0087531001515091366 1.0000000180025095e-35 -0.0023744890385541946 23.957881242203079 0.03690716107093308 0.0572620859985098 72.519779798257787 2.6019342777801291 1.0000000180025095e-35 0.048804052638110045 14.43396136173414 -1.0000000180025095e-35
decision_type=2 2 2 2 2 2 2 2 2 2 2 2 2 2
left_child=11 -2 -3 10 -5 6 12 -7 9 -9 -4 -1 -6 -12
right_child=1 2 3 4 5 7 -8 8 -10 -11 13 -13 -14 -15
leaf_value=0.0042019926530598448 -0.062332599076096819 0.045761015811849534 -0.0012729715319235043 0.04905844102878569 -0.020215232288865216 0.046059587491183052 0.016512977670065671 0.0095475301997781908 0.029019815202003443 -0.043447749557479279 -0.0626273515767546 0.057144880333131892 -0.067701022701314159 -0.028891579202263786
leaf_weight=4.7487732619047147 4.4476627409458152 4.7059072554111472 7.8619043827056911 4.3771599531173697 4.3800778537988645 6.3786747157573727 4.741359904408454 5.029013544321062 8.9658323824405652 7.863462820649147 4.2635090500116357 4.8523912280797958 4.562937468290329 4.3278799951076481
leaf_count=20 21 21 35 18 20 27 22 22 37 36 20 20 24 21
internal_value=-0.000132279 -0.00428376 -0.000456447 -0.0039224 0.00336775 -0.00140298 -0.0233234 0.00922021 -0.00153023 -0.0227757 -0.0244364 0.0309591 -0.0444436 -0.0456331
internal_weight=81.5065 71.9054 67.4577 62.7518 46.2985 41.9214 13.6844 28.237 21.8583 12.8925 16.4533 9.60116 8.94302 8.59139
internal_count=364 324 303 282 206 188 66 122 95 58 76 40 44 41
is_linear=0
shrinkage=0.05


Tree=13
num_leaves=15
num_cat=0
split_feature=5 5 5 3 8 8 10 9 2 7 9 0 9 0
split_gain=3.79883 5.91916 3.86307 3.41832 3.68855 4.39009 5.87456 4.8897 2.9969 2.88933 2.42164 1.46492 1.20143 0.764727
threshold=-0.016160744638329252 -0.012712013882603535 -0.0087531001515091366 1.0000000180025095e-35 0.022770222629289915 0.032531729445162361 1.0929616104883593 0.81862756446488405 1.0000000180025095e-35 0.0096087136322521114 0.048804052638110045 70.812231051684009 0.69648277776509959 54.602715181310494
decision_type=2 2 2 2 2 2 2 2 2 2 2 2 2 2
left_child=10 -2 -3 8 -5 -6 7 12 -4 -8 -1 -9 -7 -10
right_child=1 2 3 4 5 6 9 11 13 -11 -12 -13 -14 -15
leaf_value=0.003989728566998859 -0.06067048615950428 0.04298065201833557 -0.001209673392101057 0.048028301495726108 -0.035776494423340292 0.061317503181999224 -0.002756922924112816 -0.025070443235945511 -0.059164560598267552 -0.052290841184552163 0.054184976936171039 0.014350976862463304 0.029583573300744449 -0.02907895635271103
leaf_weight=4.7512839734554273 4.3436852544546118 4.7583970576524726 7.8596860766410854 4.1734577715396872 7.5537865757942191 5.1984436362981814 8.1989888995885831 4.5897233486175519 4.2197536379098874 4.5932215005159369 4.8613169938325882 4.8435668647289276 6.997071161866188 4.2289418280124664
leaf_count=20 21 21 35 18 36 23 36 21 21 22 20 20 30 20
internal_value=-0.000137763 -0.00410221 -0.00044656 -0.00375516 0.00319852 -0.0012588 0.0063162 0.0222018 -0.0234322 -0.0205428 0.0293746 -0.00482933 0.0431104 -0.0441054
internal_weight=81.1713 71.5587 67.215 62.4566 46.1483 41.9748 34.421 21.6288 16.3084 12.7922 9.6126 9.43329 12.1955 8.4487
internal_count=364 324 303 282 206 188 152 94 76 58 40 41 53 41
is_linear=0
shrinkage=0.05


Tree=14
num_leaves=15
num_cat=0
split_feature=4 8 8 8 0 8 10 7 4 9 0 1 8 3
split_gain=3.70578 4.18812 5.00064 6.04323 3.45705 3.97135 3.94862 4.39041 3.45437 3.38505 4.98808 2.54387 1.67821 1.02847
threshold=23.808203242997077 0.042709273068830482 0.036260016376190508 0.024461698661586432 39.886257063299063 0.042315688354592949 0.80982167856865217 0.0087558574319711677 32.462132389974876 0.83626540395546234 60.841856117628545 0.0015736532302241815 0.063110221136118846 0.52801289816247898
decision_type=2 2 2 2 2 2 2 2 2 2 2 2 2 2
left_child=1 2 3 11 -2 9 12 -8 -9 10 -6 -1 -7 -5
right_child=4 -3 -4 13 5 6 7 8 -10 -11 -12 -13 -14 -15
leaf_value=0.025052406244188516 0.039965572201205793 -0.057086860610322525 0.028472606879705171 -0.032034802734017945 0.036653457346048988 -0.0044045505984109208 0.0095292954581505784 -0.012535390145335954 -0.071529314410207684 0.051936424180071473 -0.033706552486910575 -0.024783179936986355 0.03696324749156369 -0.06679625317117531
leaf_weight=6.5409511774778455 7.3865056633949271 4.6942628771066657 7.5929889827966681 3.9500876963138563 5.5380270779132861 5.0715415477752703 5.8891502171754828 4.5271407067775709 5.491174653172493 6.032096952199935 4.6206627190113068 4.2080803066492081 4.7459428310394287 4.6124203503131866
leaf_count=27 30 25 33 20 23 22 25 20 27 25 21 21 20 25
internal_value=-0.000141333 -0.0135082 -0.00590471 -0.0194213 0.00842579 0.00286776 -0.009342 -0.0247312 -0.0448708 0.0222674 0.00465033 0.00554254 0.0155934 -0.05076
internal_weight=80.901 31.5988 26.9045 19.3115 49.3022 41.9157 25.7249 15.9075 10.0183 16.1908 10.1587 10.749 9.81748 8.56251
internal_count=364 151 126 93 213 183 114 72 47 69 44 48 42 45
is_linear=0
shrinkage=0.05


Tree=15
num_leaves=14
num_cat=0
split_feature=4 6 1 4 2 8 8 5 2 2 8 5 4
split_gain=3.59403 6.81707 7.2098 6.52852 4.13346 3.88967 7.89262 3.13498 3.77369 2.51981 2.02703 1.81891 1.41373
threshold=28.083849333772665 0.012539894601167749 0.012039929584341193 32.082824676777783 -0.7154602355393983 0.022770222629289915 0.035516679530244462 0.016736086224038143 -1.5658418988571114 0.032443173438459746 0.044956907831570324 0.012967043902442507 18.206313770430857
decision_type=2 2 2 2 2 2 2 2 2 2 2 2 2
left_child=1 2 4 9 12 -6 -7 8 -5 -2 -10 -3 -1
right_child=3 11 -4 7 5 6 -8 -9 10 -11 -12 -13 -14
leaf_value=-0.013429808974474114 0.068941365408347152 -0.023705494797889779 0.057321362930078001 0.021023613555975169 0.043153833671096778 -0.049069662429487619 0.026784259903244564 0.020830320903023121 -0.010111788363684456 0.020265598688998323 -0.053935039905103101 -0.063722067062229909 -0.050965451861926664
leaf_weight=4.6650042384862882 5.3118868470191938 5.9082768857479078 4.9853149205446234 4.7066720724105826 5.1354708671569886 6.3040490150451642 7.5201032906770706 9.1202368885278684 5.0964356809854525 5.3232562839984894 5.4716974794864655 5.4675741940736771 5.4266044199466705
leaf_count=21 22 29 22 20 21 32 33 38 23 23 27 27 26
internal_value=-0.000147359 -0.00942959 0.00176997 0.0118859 -0.00776288 0.00599685 -0.00780642 -0.00236612 -0.0162162 0.0445775 -0.0328015 -0.0429387 -0.033614
internal_weight=80.4426 45.4124 34.0365 35.0302 29.0512 18.9596 13.8242 24.395 15.2748 10.6351 10.5681 11.3759 10.0916
internal_count=364 211 155 153 133 86 65 108 70 45 50 56 47
is_linear=0
shrinkage=0.05


Tree=16
num_leaves=14
num_cat=0
split_feature=4 6 7 3 6 7 5 1 7 7 4 8 7
split_gain=3.34798 5.32105 6.90958 4.67281 3.38255 4.63142 4.26498 3.42653 3.3194 3.27488 1.76228 1.44652 1.02036
threshold=23.808203242997077 0.011830564633584216 0.0069702789632342735 -0.061676822377263761 -0.0065813204495955178 0.0089600583966526811 0.011870870968959954 -1.0000000180025095e-35 0.008295754731392711 0.0069702789632342735 12.777015944692865 0.041972353909334383 0.0081094028827429967
decision_type=2 2 2 2 2 2 2 2 2 2 2 2 2
left_child=1 2 10 12 -2 8 7 -7 9 -6 -1 -9 -4
right_child=4 -3 3 -5 5 6 -8 11 -10 -11 -12 -13 -14
leaf_value=0.010161505846708923 0.038337239972370887 -0.057015244518814651 -0.066713311734389033 0.0058439357487270324 0.023459032806842604 -0.027283096922808961 -0.050800057643686364 0.038957757349335126 0.050934027179794443 -0.027764934885532774 0.051823689988430038 -0.0015791976800190633 -0.031609698034932375
leaf_weight=5.8449815511703545 7.7341387867927542 5.6212355792522422 4.3475526869297045 6.8283936083316759 9.3336471468210238 6.7094523459672919 5.7294971495866767 4.7307057529687899 5.939293608069419 4.6871749758720389 4.4865279644727707 4.1149637848138809 3.951671689748764
leaf_count=24 32 32 24 31 39 30 26 20 25 21 20 20 20
internal_value=-0.000151352 -0.012987 -0.00326578 -0.0247921 0.00799371 0.00230374 -0.0139215 -0.00033785 0.0196057 0.00633481 0.0282536 0.0201002 -0.0499987
internal_weight=80.0592 31.0804 25.4591 15.1276 48.9789 41.2447 21.2846 15.5551 19.9601 14.0208 10.3315 8.84567 8.29922
internal_count=364 151 119 75 213 181 96 70 85 60 44 40 44
is_linear=0
shrinkage=0.05


Tree=17
num_leaves=15
num_cat=0
split_feature=5 5 5 5 5 7 7 7 6 0 0 5 1 1
split_gain=3.15495 5.17542 4.97404 3.33812 7.30903 7.51278 4.96612 5.6392 4.67359 4.68126 2.26473 2.19278 1.44411 1.04275
threshold=-0.016160744638329252 -0.012712013882603535 -0.0096633527981717249 0.0091748524576646603 0.011870870968959954 0.0089600583966526811 0.01043947294486843 0.0061568289224672125 0.048115348902579298 66.956506203664858 55.086091505264868 0.0020409606989252069 -0.050477693392157789 -0.0023744890385541946
decision_type=2 2 2 2 2 2 2 2 2 2 2 2 2 2
left_child=12 -2 -3 6 -5 8 7 -4 9 -6 11 13 -1 -9
right_child=1 2 3 4 5 -7 -8 10 -10 -11 -12 -13 -14 -15
leaf_value=0.045975097775865156 -0.058235208460768323 0.058367348350731131 0.011796044786831375 0.056583610805791974 0.031109235700610652 -0.051642089389254187 0.026010649367791006 -0.026078849281628482 0.05114393033651763 -0.03581032282596279 -0.0658330002324444 -0.0023109161949010802 0.0069632844304773943 -0.059872539653136915
leaf_weight=4.8509156107902527 4.112699255347251 3.4116004556417456 8.165610224008562 6.2937698513269451 4.7290568053722435 6.1122769415378562 6.288053259253501 4.7218390703201267 5.4460332840681067 5.841373011469841 5.2237056940793982 5.4347195625305167 4.6424146890640241 4.4190181642770812
leaf_count=20 21 15 37 27 21 28 28 22 22 28 25 27 20 23
internal_value=-0.000155349 -0.0038138 -0.000427075 -0.00362742 0.00904005 -0.0044821 -0.0141387 -0.0231665 0.0135153 -0.00587148 -0.0375857 -0.0274622 0.0268976 -0.0424159
internal_weight=79.6931 70.1998 66.0871 62.6755 28.4225 22.1287 34.2529 27.9649 16.0165 10.5704 19.7993 14.5756 9.49333 9.14086
internal_count=364 324 303 288 126 99 162 134 71 49 97 72 40 45
is_linear=0
shrinkage=0.05


Tree=18
num_leaves=15
num_cat=0
split_feature=4 6 7 3 2 0 1 1 0 4 3 7 4 2
split_gain=2.9401 5.39265 5.7908 3.88021 2.91396 4.20516 4.9577 6.75379 4.48181 7.61686 3.18839 1.67139 1.51018 0.307301
threshold=23.957881242203079 0.011830564633584216 0.0069702789632342735 -0.061676822377263761 3.4877178405990183 72.519779798257787 0.0572620859985098 0.0043125714743128549 42.419297651787765 29.780214506949573 2.4851903809649749 0.008217600268622843 12.777015944692865 1.0844324653169763
decision_type=2 2 2 2 2 2 2 2 2 2 2 2 2 2
left_child=1 2 12 11 5 6 7 8 -2 -10 -8 -4 -1 -12
right_child=4 -3 3 -5 -6 -7 10 -9 9 -11 13 -13 -14 -15
leaf_value=0.0096496601060287162 0.032777174199291208 -0.056413962872347879 -0.065385466885756485 0.0062460544000743834 -0.027437514091016003 0.053232485642386113 0.014467647045074762 0.070208529269508921 0.029037038106400154 -0.055281386784772894 -0.047256131514940222 -0.020974030629808092 0.048101542799790953 -0.028074950182888726
leaf_weight=5.8400830328464561 8.5138439685106331 5.626880168914794 4.4919479787349719 6.7929474562406496 5.2781495302915564 5.3885004818439475 4.5871001631021491 5.1343680322170249 5.0391689538955671 5.7170473486185074 4.0680520534515363 4.0094425678253174 4.5373897105455399 4.290299654006958
leaf_count=24 35 33 26 31 23 22 20 21 21 28 20 20 20 20
internal_value=-0.000159956 -0.0120835 -0.00236691 -0.0219279 0.00761218 0.0119408 0.0059836 0.0192511 0.00567388 -0.0157791 -0.019028 -0.0444401 0.0264622 -0.0374105
internal_weight=79.3152 31.2987 25.6718 15.2943 48.0165 42.7384 37.3499 24.4044 19.2701 10.7562 12.9455 8.50139 10.3775 8.35835
internal_count=364 154 121 77 210 187 165 105 84 49 60 46 44 40
is_linear=0
shrinkage=0.05


Tree=19
num_leaves=14
num_cat=0
split_feature=4 6 1 4 4 3 10 2 4 5 2 5 10
split_gain=2.92673 5.68821 5.6757 5.57886 3.95388 3.86842 4.67139 3.07621 2.66988 6.52905 1.78694 1.67641 1.64964
threshold=28.083849333772665 0.012539894601167749 0.012039929584341193 33.71702476636289 38.869999039665466 -0.061676822377263761 0.9886160074354543 0.032443173438459746 45.014612215149448 0.01983404805469768 0.18217143882865311 0.012967043902442507 0.65182183318239406
decision_type=2 2 2 2 2 2 2 2 2 2 2 2 2
left_child=1 2 5 7 -5 6 12 -2 -6 -10 -7 -3 -1
right_child=3 11 -4 4 8 10 -8 -9 9 -11 -12 -13 -14
leaf_value=-0.025738403504523978 0.064777700819568435 -0.021515091743764619 0.050296534704339591 -0.04210525433290007 0.03904350568318915 -0.0087390899517744234 -0.062433323480644932 0.013862798623981158 -0.041907393508015131 0.030188047940171405 0.025850986501439396 -0.060962375880698132 0.019997123953865159
leaf_weight=3.8345602303743345 5.7476353496313077 5.6793394982814771 5.0598069280385962 5.1944141983985928 4.8650422692298916 6.8276603668928173 5.4427583664655685 6.1313410252332687 6.0646962970495206 6.5125388503074646 8.239763677120207 5.1226001083850861 4.0582215934991837
leaf_count=20 24 29 22 24 21 29 28 27 30 27 36 27 20
internal_value=-0.000165051 -0.00867509 0.00150845 0.0107487 -0.00381322 -0.00718283 -0.026797 0.0384979 0.00759038 -0.00457611 0.0101768 -0.0402222 -0.00222263
internal_weight=78.7804 44.2647 33.4628 34.5157 22.6367 28.403 13.3355 11.879 17.4423 12.5772 15.0674 10.8019 7.89278
internal_count=364 211 155 153 102 133 68 51 78 57 65 56 40
is_linear=0
shrinkage=0.05


Tree=20
num_leaves=15
num_cat=0
split_feature=5 5 5 2 5 5 5 7 6 0 7 0 9 9
split_gain=2.53903 4.61193 4.48532 2.82492 2.87095 3.55769 6.44676 6.76694 3.81197 4.00058 2.70941 3.97914 2.55075 1.98492
threshold=-0.016160744638329252 -0.012712013882603535 -0.0096633527981717249 -0.83863140645331213 -0.0025068663465686375 0.0091748524576646603 0.011870870968959954 0.0089600583966526811 0.048115348902579298 66.956506203664858 0.0061568289224672125 57.20905258100391 0.54432147426538491 0.048804052638110045
decision_type=2 2 2 2 2 2 2 2 2 2 2 2 2 2
left_child=13 -2 -3 -4 -5 10 -7 8 9 -8 -6 12 -12 -1
right_child=1 2 3 4 5 6 7 -9 -10 -11 11 -13 -14 -15
leaf_value=0.0011486693489579441 -0.056114293147478969 0.055595755654666693 -0.042783851544973044 0.036277088256399824 0.007503419179631929 0.05273961718526881 0.028628770053517407 -0.049991030817616043 0.046366071556200955 -0.033744517325163294 -0.043084582045500738 -0.071809488533173801 0.0023622387527571132 0.047121525504439661
leaf_weight=4.6778713464736921 3.9260765314102164 3.400053158402442 4.238909885287284 4.8608719706535259 7.3766896426677802 6.3138134479522732 4.7249117940664309 5.9708929955959311 5.44361987709999 5.6388021260499954 5.0387389212846774 4.0839215368032447 7.9726174771785736 4.713888868689537
leaf_count=20 21 15 21 22 34 27 21 28 22 28 26 20 39 20
internal_value=-0.000166962 -0.00348726 -0.000311643 -0.0033943 -0.000486694 -0.00388644 0.00825451 -0.00464235 0.0124872 -0.00530797 -0.0178234 -0.028752 -0.0152374 0.0242233
internal_weight=78.3817 68.9899 65.0638 61.6638 57.4249 52.564 28.092 21.7782 15.8073 10.3637 24.472 17.0953 13.0114 9.39176
internal_count=364 324 303 288 267 245 126 99 71 49 119 85 65 40
is_linear=0
shrinkage=0.05


Tree=21
num_leaves=15
num_cat=0
split_feature=4 6 4 1 3 10 4 1 0 2 4 0 10 9
split_gain=2.72513 5.24493 4.96325 4.92114 3.51106 4.31139 3.46462 2.72017 5.35861 2.63984 2.34327 4.14125 1.46791 1.22187
threshold=28.083849333772665 0.012539894601167749 33.71702476636289 0.012039929584341193 -0.061676822377263761 0.9886160074354543 38.869999039665466 -0.0023744890385541946 51.663126481174011 -0.11002012595663992 45.014612215149448 71.526479642166464 0.65182183318239406 0.81420950251964819
decision_type=2 2 2 2 2 2 2 2 2 2 2 2 2 2
left_child=1 3 9 4 5 12 -4 -6 -9 -2 -8 -12 -1 -3
right_child=2 13 6 -5 7 -7 10 8 -10 -11 11 -13 -14 -15
leaf_value=-0.024738990414294622 0.064343631519824196 -0.023895719288784215 -0.039663540951380437 0.046554894467392631 0.040354566276952233 -0.060801077005657282 0.036708487069943133 -0.04703468485581816 0.026318449857748907 0.016462725621356013 -0.037431348718417135 0.020978763824769295 0.01854366633047649 -0.058063196422157105
leaf_weight=3.7758598178625089 4.9760912656784058 5.9054253697395307 5.0950086712837246 5.097513571381568 4.8743778914213172 5.2562608420848846 4.8548253774642971 4.3524889647960681 5.8175416141748428 6.8296468257904035 5.3475367575883848 7.0157885551452637 4.0708278119564056 4.698404997587204
leaf_count=20 21 30 24 22 20 28 21 20 25 30 27 30 20 26
internal_value=-0.000170084 -0.00841575 0.010427 0.00135056 -0.00683599 -0.0257583 -0.00344441 0.00964439 -0.00507464 0.0366444 0.00727316 -0.00428549 -0.00228413 -0.0390348
internal_weight=77.9676 43.8487 34.1189 33.2449 28.1474 13.1029 22.3132 15.0444 10.17 11.8057 17.2182 12.3633 7.84669 10.6038
internal_count=364 211 153 155 133 68 102 65 45 51 78 57 40 56
is_linear=0
shrinkage=0.05


Tree=22
num_leaves=15
num_cat=0
split_feature=4 6 7 4 3 4 4 4 2 4 5 3 4 7
split_gain=2.52533 4.45412 5.10447 3.66535 3.51892 3.41803 4.48448 3.16363 2.42967 2.10858 5.22622 1.19332 1.08134 1.06198
threshold=23.808203242997077 0.011830564633584216 0.0069702789632342735 25.436515122797214 -0.061676822377263761 28.083849333772665 33.71702476636289 38.869999039665466 -0.11002012595663992 45.014612215149448 0.01983404805469768 1.7996786114477039 12.777015944692865 0.0081781682945913838
decision_type=2 2 2 2 2 2 2 2 2 2 2 2 2 2
left_child=1 2 12 -2 13 11 8 -8 -7 -9 -11 -5 -1 -4
right_child=3 -3 4 5 -6 6 7 9 -10 10 -12 -13 -14 -15
leaf_value=0.0095227368633866369 0.050765043842806272 -0.054153623683014684 -0.063396476267747054 -0.0072831603894705776 0.0039024213688388949 0.061590075094271536 -0.038153630370730537 0.034779964207826683 0.015587779181768714 -0.03863946354434078 0.026646940685157008 -0.043088335364358514 0.041988840938340904 -0.025788464657800537
leaf_weight=5.8108979463577324 4.3420985341072074 5.0944591611623755 3.9882706850767162 4.9199860244989377 6.8071120679378465 4.9395501911640167 5.0333999097347286 4.8674753755331066 6.8517599552869779 5.7937303483486158 6.5093443691730499 4.4154872596263885 4.5910866260528564 3.5462063252925873
leaf_count=24 18 32 25 21 31 21 24 21 30 30 27 21 20 19
internal_value=-0.000171567 -0.0115793 -0.00281363 0.00696842 -0.0221544 0.00257964 0.00993864 -0.00329511 0.0348588 0.00692337 -0.00409755 -0.0242183 0.0238522 -0.0456957
internal_weight=77.5109 29.838 24.7436 47.6728 14.3416 43.3307 33.9953 22.204 11.7913 17.1706 12.3031 9.33547 10.402 7.53448
internal_count=364 151 119 213 75 195 153 102 51 78 57 42 44 44
is_linear=0
shrinkage=0.05


Tree=23
num_leaves=14
num_cat=0
split_feature=10 7 7 8 8 8 8 10 8 5 4 8 8
split_gain=2.63278 3.72807 4.01264 3.94756 3.56007 6.03684 4.44036 3.54573 3.28581 2.50147 2.45504 3.10295 1.49655
threshold=1.0307872871908235 0.0068620015387202598 0.0081094028827429967 0.045778804504707858 0.054446362446880427 0.042315688354592949 0.032531729445162361 0.69100677944098388 0.06675165290841388 -0.016160744638329252 27.755375556114554 0.03690716107093308 0.046113487973125568
decision_type=2 2 2 2 2 2 2 2 2 2 2 2 2
left_child=4 -2 -3 -4 5 6 7 -1 -5 -6 11 -8 -7
right_child=1 2 3 8 9 12 10 -9 -10 -11 -12 -13 -14
leaf_value=-0.037315602822723386 0.017080938240144596 -0.058505414789774807 0.020197363717082677 -0.056361169382293075 0.058573667656514998 -0.061328198477544428 -0.018181661911080765 0.018253588798594244 0.0021137949826433048 0.012749974286687758 0.056451932105926229 0.042369661472898945 -0.019247771685075757
leaf_weight=6.2579617723822611 8.1982464939355868 5.7059903442859676 6.5573130846023586 5.3333513587713224 4.7404294312000266 3.7082481905817968 4.0651474818587285 5.3033952265977859 4.3715033680200577 8.011457294225691 5.4065043032169333 4.4121134579181671 4.9110609591007233
leaf_count=32 37 29 31 27 20 19 22 25 20 36 23 19 24
internal_value=-0.00017309 -0.0116922 -0.0224299 -0.00977195 0.0072493 -0.00118671 0.0110639 -0.011825 -0.0300214 0.0297846 0.0301241 0.0133332 -0.0373519
internal_weight=76.9827 30.1664 21.9682 16.2622 46.8163 34.0644 25.4451 11.5614 9.70485 12.7519 13.8838 8.47726 8.61931
internal_count=364 144 107 78 220 164 121 57 47 56 64 41 43
is_linear=0
shrinkage=0.05


Tree=24
num_leaves=13
num_cat=0
split_feature=10 7 7 8 8 8 8 1 8 9 0 8
split_gain=2.39045 3.39291 3.74444 3.59409 3.2191 5.51195 4.00804 5.99504 3.06405 2.44541 1.65539 1.41861
threshold=1.0307872871908235 0.0068620015387202598 0.0081094028827429967 0.045778804504707858 0.054446362446880427 0.042315688354592949 0.032531729445162361 0.0015736532302241815 0.06675165290841388 0.69648277776509959 42.771009864786713 0.046113487973125568
decision_type=2 2 2 2 2 2 2 2 2 2 2 2
left_child=4 -2 -3 -4 5 6 7 -1 -5 -8 -6 -7
right_child=1 2 3 8 10 11 9 -9 -10 -11 -12 -13
leaf_value=0.029524921134678035 0.016173285032293209 -0.05682686608749004 0.019098155849460702 -0.054727528748843957 0.051160059110327408 -0.05969072660673054 0.051392128859021891 -0.043217000998912278 0.0020073076368223421 0.0092848584902195021 0.014097016858369615 -0.018392687427924378
leaf_weight=5.0469884276390093 8.2247167676687258 5.5839306786656406 6.5871936827898052 5.2208084315061551 4.8948745131492597 3.621687322854994 6.3730199187993986 6.4552307724952698 4.3731943070888519 7.5129052400588989 7.835058182477951 4.8831376880407333
leaf_count=22 37 29 31 27 21 19 29 35 20 35 35 24
internal_value=-0.000172864 -0.011185 -0.0215233 -0.00934049 0.00691062 -0.00114123 0.0105291 -0.011299 -0.0288663 0.0286102 0.0283484 -0.035979
internal_weight=76.6127 29.9898 21.7651 16.1812 46.6229 33.893 25.3881 11.5022 9.594 13.8859 12.7299 8.50483
internal_count=364 144 107 78 220 164 121 57 47 64 56 43
is_linear=0
shrinkage=0.05


Tree=25
num_leaves=14
num_cat=0
split_feature=2 0 5 5 5 1 9 6 2 2 0 4 5
split_gain=2.18577 4.83416 2.24633 6.66131 3.31924 3.24394 3.81409 2.8895 2.79589 2.15251 2.85273 2.50482 1.68049
threshold=3.4877178405990183 72.519779798257787 0.012273376805929062 0.0095500696164646168 0.0040102089120889169 0.024232251436007605 0.39226016747739317 0.011830564633584216 1.6542340825918618 -0.74962477593308574 41.7086537920406 28.862137900946632 0.0011056041473872179
decision_type=2 2 2 2 2 2 2 2 2 2 2 2 2
left_child=1 2 3 4 5 6 9 -6 -4 10 11 -1 -8
right_child=-2 -3 8 -5 7 -7 12 -9 -10 -11 -12 -13 -14
leaf_value=-0.011918630572022373 -0.030796468141819092 0.04796324719901443 -0.052783770113183172 0.054836032274108354 -0.0039498061903275551 0.03795188752447979 -0.051986425948818797 -0.057702323088122093 -0.0009397963403639985 0.028092407670055365 -0.040354222904831781 0.03359896927569473 -0.0088307361362232103
leaf_weight=6.6497916579246468 5.4132725745439521 5.3288670331239691 4.4532714486122114 5.4790731072425833 5.3830641508102399 5.7587587237358084 4.5223810821771604 4.668321430683136 6.2507292851805687 8.3950227797031491 3.9011224657297126 5.5408401787281036 4.5008715242147446
leaf_count=34 24 22 22 24 26 27 23 25 32 37 20 24 24
internal_value=-0.000173284 0.00216706 -0.00155858 0.00253366 -0.00327671 0.00328574 -0.0026717 -0.0289149 -0.0225089 0.00756816 -0.00313929 0.00876986 -0.03046
internal_weight=76.2454 70.8321 65.5032 54.7992 49.3202 39.2688 33.51 10.0514 10.704 24.4868 16.0918 12.1906 9.02325
internal_count=364 340 318 264 240 189 162 51 54 115 78 58 47
is_linear=0
shrinkage=0.05


Tree=26
num_leaves=14
num_cat=0
split_feature=10 7 7 8 8 8 8 8 10 4 8 5 8
split_gain=2.16126 3.04316 3.45261 3.2681 3.58011 2.85914 5.12183 3.54341 3.41964 2.13176 2.72664 2.10457 1.33988
threshold=1.0307872871908235 0.0068620015387202598 0.0081094028827429967 0.045778804504707858 0.067631765804729307 0.054446362446880427 0.042315688354592949 0.032531729445162361 0.69100677944098388 27.755375556114554 0.03690716107093308 -0.016160744638329252 0.046113487973125568
decision_type=2 2 2 2 2 2 2 2 2 2 2 2 2
left_child=5 -2 -3 -4 -5 6 7 8 -1 10 -9 -7 -8
right_child=1 2 3 4 -6 11 12 9 -10 -11 -12 -13 -14
leaf_value=-0.036008185541121306 0.015186276495201257 -0.05502954442663454 0.018161211578232698 -0.054737241367989235 0.007330720737997916 0.05366159953715665 -0.058440084576379683 -0.018010139099629348 0.0191143795544239 0.051852736513919875 0.03872387253778227 0.011348387270788025 -0.017904787841420085
leaf_weight=6.0895918458700198 8.2101129367947596 5.4385124146938351 6.570630848407748 5.3429736793041211 4.1107452660799026 4.6339172273874274 3.5173531323671323 4.0604508370161039 5.2300530672073364 5.3619754761457434 4.4264404624700546 8.0328388512134534 4.8491781875491142
leaf_count=32 37 29 31 28 19 20 19 22 25 23 19 36 24
internal_value=-0.000173181 -0.0107031 -0.0206064 -0.00892356 -0.0277483 0.00658961 -0.00105475 0.0102114 -0.0105397 0.0271728 0.0115802 0.026828 -0.0349461
internal_weight=75.8748 29.673 21.4629 16.0243 9.45372 46.2018 33.535 25.1685 11.3196 13.8489 8.48689 12.6668 8.36653
internal_count=364 144 107 78 47 220 164 121 57 64 41 56 43
is_linear=0
shrinkage=0.05


Tree=27
num_leaves=14
num_cat=0
split_feature=10 8 8 1 8 10 3 5 8 4 8 2 5
split_gain=1.96368 2.5881 4.67819 3.51351 4.81223 2.22387 3.89563 1.94432 1.42349 1.34685 1.27306 0.984034 0.822966
threshold=1.0307872871908235 0.054446362446880427 0.042315688354592949 -0.0023744890385541946 0.032531729445162361 1.5244439299567214 1.0000000180025095e-35 -0.016160744638329252 0.022075067324016921 24.322768941816808 0.046113487973125568 1.0844324653169763 -0.0015594486523785604
decision_type=2 2 2 2 2 2 2 2 2 2 2 2 2
left_child=1 2 3 -1 8 11 -7 -3 -5 -6 -4 12 -2
right_child=5 7 10 4 9 6 -8 -9 -10 -11 -12 -13 -14
leaf_value=0.043141804381027937 -0.025398822637416947 0.051554539748436726 -0.056948659712939921 -0.0050013929242248116 0.0041723145136571939 -0.030499010420941931 0.028593643351800216 0.010757881231593519 -0.044025085295950311 0.041526883398978601 -0.017105282582840789 -0.035248336570609544 0.0031808735254891455
leaf_weight=5.9888558387756339 5.1184470206499126 4.5834334939718238 3.4311975389718992 4.3018879592418724 4.5481862202286703 4.4610015451908094 7.4412969201803207 8.0496322214603406 5.1160622090101242 5.1403060555458069 4.8227288424968719 7.5053419321775428 4.9595540165901211
leaf_count=26 26 20 19 20 24 22 35 36 29 22 24 36 25
internal_value=-0.000172332 0.00628621 -0.0010147 0.0097252 -0.000749127 -0.0102443 0.00644562 0.0255594 -0.0262 0.0239911 -0.0336684 -0.0215418 -0.0113343
internal_weight=75.4679 45.9823 33.3492 25.0953 19.1064 29.4856 11.9023 12.6331 9.41795 9.68849 8.25393 17.5833 10.078
internal_count=364 220 164 121 95 144 57 56 49 46 43 87 51
is_linear=0
shrinkage=0.05


Tree=28
num_leaves=14
num_cat=0
split_feature=2 4 6 1 2 1 9 5 10 5 4 4 2
split_gain=1.8875 2.78145 4.16183 3.58709 3.08273 3.26638 2.92473 3.38292 2.52095 2.18186 1.57039 1.36561 1.16356
threshold=3.4877178405990183 28.083849333772665 0.01210479894146276 0.012039929584341193 -0.7154602355393983 0.0054715034769139423 0.8250456570589475 -0.016554332585318809 0.80982167856865217 0.0031954061683975269 24.322768941816808 18.206313770430857 -0.17479596244623211
decision_type=2 2 2 2 2 2 2 2 2 2 2 2 2
left_child=1 2 3 4 11 9 7 -3 -9 -6 -4 -1 -10
right_child=-2 6 10 -5 5 -7 -8 8 12 -11 -12 -13 -14
leaf_value=-0.0082346383290298752 -0.028789810693074094 0.042998283159226561 -0.054615346516906887 0.043192828724458593 0.036237335059261723 -0.033948978974563629 0.044496990210492873 0.018945076919987522 -0.0002788098185992932 -0.0034217345587776987 -0.014439435335532097 -0.047490134225708094 -0.033500896450091161
leaf_weight=4.2755336761474627 5.3503861576318732 4.7763128280639711 4.9540142118930799 4.6258375644683829 7.7877653688192421 3.7504919841885558 6.1566447913646689 7.0227719545364407 4.5487933903932634 6.2522582337260246 4.778322771191597 4.5980766490101814 6.2662829756736675
leaf_count=21 24 21 32 20 35 21 26 32 23 29 23 25 32
internal_value=-0.000168995 0.0020251 -0.00633412 0.00254782 -0.0045035 0.00750338 0.0139439 0.00562594 -0.00438099 0.0185765 -0.03489 -0.0285758 -0.0195278
internal_weight=75.1435 69.7931 41.0223 31.29 26.6641 17.7905 28.7708 22.6142 17.8378 14.04 9.73234 8.87361 10.8151
internal_count=364 340 206 151 131 85 134 108 87 64 55 46 55
is_linear=0
shrinkage=0.05


Tree=29
num_leaves=16
num_cat=0
split_feature=4 6 4 7 4 4 3 7 2 6 7 2 7 3 4
split_gain=1.76662 4.19342 4.17581 3.51202 2.79681 3.32396 2.61896 2.47439 2.76409 2.74361 1.4607 1.4127 1.29856 0.977485 0.875804
threshold=23.957881242203079 0.011830564633584216 25.436515122797214 0.0069702789632342735 28.083849333772665 32.082824676777783 -0.061676822377263761 0.0083446908351216976 -1.5658418988571114 0.048115348902579298 0.008217600268622843 0.032443173438459746 0.010223443743508549 1.7996786114477039 12.777015944692865
decision_type=2 2 2 2 2 2 2 2 2 2 2 2 2 2 2
left_child=1 3 -2 14 13 11 10 9 -9 -7 -5 -6 -10 -4 -1
right_child=2 -3 4 6 5 7 -8 8 12 -11 -12 -13 -14 -15 -16
leaf_value=0.0078559795633329835 0.057001436437503987 -0.052329434728001049 -0.007704239300454517 -0.06099858228715907 0.051309588802221168 -0.0097605905587576387 0.0051604441593772459 0.015753478120599431 -0.013296064460980892 0.043228682004633832 -0.016375735860988828 0.013929653147359692 -0.052066554737498695 -0.040653449019802529 0.03718294980125323
leaf_weight=5.7817768305540138 3.6851402074098578 4.8323037177324286 4.8029137253761274 3.5979036018252399 4.9193550348281843 4.8947288691997546 6.5965509414672807 4.3798940777778581 4.2485240995883959 4.8764874935150146 3.7406524866819382 5.1988984495401382 4.3927977010607719 4.2362855076789856 4.5484032928943634
leaf_count=24 15 33 21 26 22 23 31 20 22 20 20 23 23 21 20
internal_value=-0.000167576 -0.00979493 0.00597097 -0.00132441 0.00148814 0.00825415 -0.0177022 -0.0023332 -0.0166043 0.0166846 -0.0382532 0.0321033 -0.033005 -0.0231461 0.0207687
internal_weight=74.7326 29.0976 45.635 24.2653 41.9499 32.9107 13.9351 22.7924 13.0212 9.77122 7.33856 10.1183 8.64132 9.0392 10.3302
internal_count=364 154 210 121 195 153 77 108 65 43 46 45 45 42 44
is_linear=0
shrinkage=0.05


Tree=30
num_leaves=15
num_cat=0
split_feature=2 0 2 4 4 2 7 8 8 8 1 7 4 9
split_gain=1.76321 3.77085 1.52853 2.21011 3.33145 4.57932 1.7601 4.79376 3.40719 4.01296 3.36864 5.82429 2.95035 0.786997
threshold=3.4877178405990183 72.519779798257787 1.0844324653169763 17.491124922458201 24.322768941816808 1.6542340825918618 0.0085525476055180478 0.042709273068830482 0.050588629834592128 0.059650768921371451 -0.0023744890385541946 0.0061568289224672125 15.377553525677301 0.59589642594218184
decision_type=2 2 2 2 2 2 2 2 2 2 2 2 2 2
left_child=1 2 6 -4 -5 -6 10 -8 -9 -10 12 -12 -1 -13
right_child=-2 -3 3 4 5 -7 7 8 9 -11 11 13 -14 -15
leaf_value=0.050638327462637758 -0.027982563823798202 0.042638831373452118 0.017844843795132872 -0.065905771318642295 -0.04556797825750112 0.020099764556901503 0.049778468561694683 -0.037056540267463932 0.048860336923126024 -0.011858853817414521 0.013391643742611184 -0.066739247028810886 -0.0081787057412566946 -0.03467232626108159
leaf_weight=3.9018014520406723 5.2912364006042472 5.2638437598943701 4.309541970491412 3.4348210692405692 4.8111045956611616 5.9234817177057266 6.4789395034313229 4.6849640607833853 4.7062757164239866 6.4512191712856293 6.5710869878530502 3.8451582565903664 4.7007962614297867 3.8084866777062416
leaf_count=18 24 22 22 22 24 27 29 24 21 31 31 23 26 20
internal_value=-0.000167859 0.00196846 -0.00139615 -0.0135096 -0.0230459 -0.00933168 0.00356176 0.0135453 -0.00127268 0.0137527 -0.00620047 -0.0211374 0.0184984 -0.0507826
internal_weight=74.1828 68.8915 63.6277 18.4789 14.1694 10.7346 45.1487 22.3214 15.8425 11.1575 22.8273 14.2247 8.6026 7.65364
internal_count=364 340 318 95 73 51 223 105 76 52 118 74 44 43
is_linear=0
shrinkage=0.05


Tree=31
num_leaves=12
num_cat=0
split_feature=2 8 8 8 8 8 4 6 7 7 4
split_gain=1.60074 3.41814 2.53825 3.78801 4.34457 3.36671 3.34648 5.49958 2.39629 2.33654 2.01036
threshold=3.4877178405990183 0.075126350993613575 0.042709273068830482 0.053956148844655737 0.059650768921371451 0.039368183947616063 27.897637545228211 0.011651813451554889 0.0067740079390409902 0.0079140078025878736 30.527795151533905
decision_type=2 2 2 2 2 2 2 2 2 2 2
left_child=1 2 5 10 -5 6 7 8 -1 -10 -4
right_child=-2 -3 3 4 -6 -7 -8 -9 9 -11 -12
leaf_value=0.021818526277212036 -0.026758154624216636 0.037953784755291105 -0.015670379109720117 0.048862841654046696 -0.017671531806759441 0.03777302325323878 0.028230733123976722 -0.054930989149960877 -0.033582657402791774 0.012651953678335458 -0.05651127988464362
leaf_weight=8.9207202196121269 5.2575610578060141 5.9893548488616934 6.7549789324402827 3.9068477004766446 6.5957797169685364 6.9006919413804999 7.6947018802165976 5.2586097493767729 6.141081362962721 4.9233919233083725 5.4395854845643044
leaf_count=38 24 27 39 18 33 30 35 34 34 24 28
internal_value=-0.000170129 0.00186981 -0.0015861 -0.0149318 0.00707843 0.00601719 -0.000635727 -0.00943467 0.00253656 -0.0130095 -0.0338881
internal_weight=73.7833 68.5257 62.5364 22.6972 10.5026 39.8392 32.9385 25.2438 19.9852 11.0645 12.1946
internal_count=364 340 313 118 51 195 165 130 96 58 67
is_linear=0
shrinkage=0.05


Tree=32
num_leaves=14
num_cat=0
split_feature=10 7 10 10 8 8 1 8 7 1 8 8 5
split_gain=1.64149 2.37846 2.6612 2.44353 2.11966 3.80924 2.86451 4.23967 3.42193 1.6632 1.60503 1.22596 1.20471
threshold=1.0307872871908235 0.0065767310642432823 1.2027567015414855 1.3615414034332973 0.054446362446880427 0.042315688354592949 -0.0023744890385541946 0.032531729445162361 0.0069702789632342735 -0.036217199384024561 0.045778804504707858 0.046113487973125568 0.0073924879371567104
decision_type=2 2 2 2 2 2 2 2 2 2 2 2 2
left_child=4 -2 -3 -4 5 6 -1 8 -8 -6 -5 -7 -9
right_child=1 2 3 10 9 11 7 12 -10 -11 -12 -13 -14
leaf_value=0.039113648199076777 0.016135262093226493 -0.047455740025488503 0.025851427415605491 0.0014652684586661951 0.0044935435536582573 -0.054817357077772091 -0.0012062954547341768 0.045051889574376565 -0.064554208891155915 0.041203897157188196 -0.035041479061966842 -0.01473998300726248 0.0083289543573569005
leaf_weight=5.9267067313194266 6.8864043727517155 5.5532970651984241 4.1303825974464443 5.4624589085578901 5.9767008274793625 3.220830909907817 5.6158649399876648 3.6736473739147169 3.4361840486526489 6.3778083473443967 6.7080766335129738 4.682069256901741 5.6961070224642754
leaf_count=26 31 31 20 27 28 19 28 18 21 28 35 24 28
internal_value=-0.000169858 -0.0094884 -0.0175626 -0.00737877 0.00583429 -0.000911684 0.00887808 -0.000849383 -0.0252533 0.0234446 -0.0186563 -0.0310735 0.0227271
internal_weight=73.3465 28.7406 21.8542 16.3009 44.6059 32.2514 24.3485 18.4218 9.05205 12.3545 12.1705 7.9029 9.36975
internal_count=364 144 113 82 220 164 121 95 49 56 62 43 46
is_linear=0
shrinkage=0.05


Tree=33
num_leaves=15
num_cat=0
split_feature=4 4 6 7 4 4 4 3 2 2 7 7 3 4
split_gain=1.5472 3.61833 3.59974 2.82045 2.49871 2.85701 3.1086 2.4127 2.17934 2.14892 2.8667 1.43739 0.900003 0.809701
threshold=23.957881242203079 25.436515122797214 0.011830564633584216 0.0069702789632342735 28.083849333772665 34.503487901622755 38.869999039665466 -0.061676822377263761 0.032443173438459746 3.3742584680851433 0.010223443743508549 0.008217600268622843 1.7996786114477039 12.777015944692865
decision_type=2 2 2 2 2 2 2 2 2 2 2 2 2 2
left_child=2 -2 3 13 12 8 -7 11 -6 10 -8 -5 -3 -1
right_child=1 4 -4 7 5 6 9 -9 -10 -11 -12 -13 -14 -15
leaf_value=0.0056998491882898098 0.053344183138362457 -0.0072495870829581803 -0.050401874521905088 -0.060355346019633466 0.05136962609967103 -0.042413819482472706 0.035354637159699727 0.0054686175277638138 0.008144132506657225 -0.024579519060294722 -0.015234513917027967 -0.015147422228756327 -0.039189782666293423 0.033928671656688482
leaf_weight=5.7773382812738472 3.6477874070405951 4.7351637035608274 4.4866128787398329 3.3820129334926632 5.2661518156528455 4.096402823925021 7.7120770886540431 6.4525180906057313 6.5339836180210114 4.1841274201869956 4.3968423306941986 3.6622107625007629 4.1284041851758957 4.5337137132883072
leaf_count=24 15 21 33 26 24 21 36 31 30 19 23 20 21 20
internal_value=-0.000169891 0.00562156 -0.00931951 -0.00157748 0.00138115 0.00785409 -0.00347798 -0.0166195 0.0274348 0.00631129 0.0169853 -0.0368523 -0.0221264 0.0181119
internal_weight=72.9953 44.7009 28.2944 23.8078 41.0532 32.1896 20.3894 13.4967 11.8001 16.293 12.1089 7.04422 8.86357 10.3111
internal_count=364 210 154 121 195 153 99 77 54 78 59 46 42 44
is_linear=0
shrinkage=0.05


Tree=34
num_leaves=14
num_cat=0
split_feature=10 7 7 8 8 8 8 1 8 7 5 5 4
split_gain=1.47325 2.12994 3.02217 2.67496 3.15132 1.90682 3.48238 2.56038 3.84837 2.16467 1.63492 1.13591 0.829945
threshold=1.0307872871908235 0.0068620015387202598 0.0081094028827429967 0.045778804504707858 0.067631765804729307 0.054446362446880427 0.042315688354592949 -0.0023744890385541946 0.032531729445162361 0.0061568289224672125 -0.016160744638329252 0.0073924879371567104 25.697981168481281
decision_type=2 2 2 2 2 2 2 2 2 2 2 2 2
left_child=5 -2 -3 -4 -5 6 7 -1 9 -9 -7 -10 -8
right_child=1 2 3 4 -6 10 12 8 11 -11 -12 -13 -14
leaf_value=0.037107123371122049 0.012692760748655574 -0.051369588520779753 0.01805128737024448 -0.050951384969576997 0.0088276099227620926 0.046806067627616493 -0.010427003022927468 0.0055272184913749854 0.04338460162570517 -0.044781173277601082 0.0087204744779444555 0.0076182472155603177 -0.043699602735702947
leaf_weight=5.8946056365966824 8.0622991174459475 5.0143290087580707 6.389181710779666 4.9500907734036428 3.9749712646007538 4.374514639377594 3.1753347069025031 3.5963409766554886 3.649940647184847 5.2737162411212921 7.91847015917301 5.6659742146730423 4.5738579407334328
leaf_count=26 37 29 31 28 19 20 20 18 18 31 36 28 23
internal_value=-0.000169053 -0.00905371 -0.0176783 -0.00664685 -0.0243275 0.0055478 -0.000911806 0.00847 -0.000812133 -0.0243838 0.0222734 0.0216314 -0.0300657
internal_weight=72.5136 28.3909 20.3286 15.3142 8.92506 44.1228 31.8298 24.0806 18.186 8.87006 12.293 9.31591 7.74919
internal_count=364 144 107 78 47 220 164 121 95 49 56 46 43
is_linear=0
shrinkage=0.05


Tree=35
num_leaves=16
num_cat=0
split_feature=4 6 4 7 4 4 4 3 2 2 5 7 5 3 4
split_gain=1.42194 3.41022 3.19811 2.4631 2.32425 2.46962 2.78991 2.273 1.97911 1.95679 3.03029 1.37848 1.14644 0.820198 0.711794
threshold=23.957881242203079 0.011830564633584216 25.436515122797214 0.0069702789632342735 28.083849333772665 34.503487901622755 38.869999039665466 -0.061676822377263761 -0.11002012595663992 3.3742584680851433 0.014459499829288147 0.008217600268622843 -0.00033334632451685907 1.7996786114477039 12.777015944692865
decision_type=2 2 2 2 2 2 2 2 2 2 2 2 2 2 2
left_child=1 3 -2 14 13 8 -7 11 -6 10 12 -5 -8 -4 -1
right_child=2 -3 4 7 5 6 9 -9 -10 -11 -12 -13 -14 -15 -16
leaf_value=0.0052127454916380848 0.050444313089742933 -0.0496438355322412 -0.0072057096479835256 -0.059700002618818783 0.052119360481146682 -0.040388975383010992 0.016461654539884064 0.0056632115497228415 0.0097662138146712048 -0.023301949239531258 0.050296283953523202 -0.014710159814817462 -0.022017457727925599 -0.037908884639505001 0.031697282832058006
leaf_weight=5.7728283256292396 3.6193847507238379 4.3566020652651778 4.6935736984014493 3.2049101218581226 4.4657596349716187 3.9881882891058948 4.0068524032831219 6.3990852832794145 7.2140162512660044 4.1504006534814826 4.2776997536420822 3.6321513503789902 3.7448760271072379 4.0538671463727951 4.5258933901786804
leaf_count=24 15 33 21 26 21 21 20 31 33 19 19 20 20 21 20
internal_value=-0.000167775 -0.00900816 0.00540892 -0.00148599 0.00139366 0.00766377 -0.00293197 -0.0157541 0.0259599 0.00630085 0.0165144 -0.0357994 -0.00212768 -0.0214346 0.0168517
internal_weight=72.1061 27.8915 44.2146 23.5349 40.5952 31.8478 20.168 13.2361 11.6798 16.1798 12.0294 6.83706 7.75173 8.74744 10.2987
internal_count=364 154 210 121 195 153 99 77 54 78 59 46 40 42 44
is_linear=0
shrinkage=0.05


Tree=36
num_leaves=13
num_cat=0
split_feature=10 7 10 10 8 8 10 2 8 8 8 2
split_gain=1.31495 1.95453 2.52633 2.20256 1.67381 3.22366 2.1309 2.99104 2.88593 1.62001 1.39792 0.820294
threshold=1.0307872871908235 0.0065767310642432823 1.2027567015414855 1.3615414034332973 0.054446362446880427 0.042315688354592949 0.69100677944098388 0.45917460174475172 0.032531729445162361 0.06675165290841388 0.045778804504707858 0.95411919740833651
decision_type=2 2 2 2 2 2 2 2 2 2 2 2
left_child=4 -2 -3 -4 5 6 8 -8 -1 -6 -5 -7
right_child=1 2 3 10 9 11 7 -9 -10 -11 -12 -13
leaf_value=-0.032954016220170163 0.014603766949911536 -0.046000021348218532 0.025819599341218649 0.0018286214378301171 0.041738554566926725 -0.013367242637070086 0.047942706061532336 -0.0030650006616793268 0.015768725168937594 0.0049557279107102841 -0.03269891530881168 -0.046205105464885224
leaf_weight=5.5497377738356644 6.8440610319376018 5.305535256862643 4.0228935927152625 5.3726618736982328 5.3110956251621229 3.9594566375017157 6.0397446006536466 5.4832221269607544 6.7185147628188133 6.8596279472112656 6.4518973454833031 3.6594707518815994
leaf_count=32 31 31 20 27 24 23 28 28 33 32 35 20
internal_value=-0.000166408 -0.00862168 -0.0161363 -0.00613827 0.0052654 -0.000834169 0.00823043 0.0236706 -0.00627178 0.0210071 -0.0170108 -0.0291397
internal_weight=71.5779 27.997 21.153 15.8475 43.5809 31.4101 23.7912 11.523 12.2683 12.1707 11.8246 7.61893
internal_count=364 144 113 82 220 164 121 56 65 56 62 43
is_linear=0
shrinkage=0.05


Tree=37
num_leaves=16
num_cat=0
split_feature=4 6 4 7 4 4 3 7 2 2 2 7 2 3 4
split_gain=1.33089 3.15231 2.92851 2.2113 2.16847 2.24023 2.05532 2.03925 2.25394 2.79279 2.05293 1.35614 1.08063 0.772537 0.600174
threshold=23.957881242203079 0.011830564633584216 25.436515122797214 0.0069702789632342735 28.083849333772665 32.082824676777783 -0.061676822377263761 0.010223443743508549 3.3742584680851433 1.6124402364190777 -1.439899543769201 0.008217600268622843 -1.0000000180025095e-35 1.7996786114477039 12.777015944692865
decision_type=2 2 2 2 2 2 2 2 2 2 2 2 2 2 2
left_child=1 3 -2 14 13 12 11 8 9 -7 -9 -5 -6 -4 -1
right_child=2 -3 4 6 5 7 -8 10 -10 -11 -12 -13 -14 -15 -16
leaf_value=0.0050259396136422448 0.048544614570627115 -0.048680261529953327 -0.006951028248073996 -0.059145710708873978 0.044796172735802116 -0.0058915750543657901 0.0049738111361793229 0.0029568457841017675 -0.021375958126734429 0.04733684554858171 -0.048551340264619755 -0.013849089447150249 0.011493395807954013 -0.0369058002214026 0.029345843818576457
leaf_weight=5.7714165598154121 3.5866944193840018 4.1950528174638739 4.6672321259975416 3.0667565464973476 4.6570409089326859 4.5715048313140887 6.3874757885932878 3.9863191619515419 4.0729786306619635 5.3461286425590515 3.7582861855626097 3.5828638002276421 5.1072323769330996 3.9946756660938263 4.5264573246240616
leaf_count=24 15 33 21 26 22 25 31 19 19 24 21 20 23 21 20
internal_value=-0.000163582 -0.00877629 0.00525627 -0.00160254 0.00139032 0.00748285 -0.0152821 -0.00145438 0.00994036 0.0228014 -0.0220389 -0.0347396 0.0273771 -0.0207655 0.0157158
internal_weight=71.2781 27.53 43.7481 23.335 40.1614 31.4995 13.0371 21.7352 13.9906 9.91763 7.74461 6.64962 9.76427 8.66191 10.2979
internal_count=364 154 210 121 195 153 77 108 68 49 40 46 45 42 44
is_linear=0
shrinkage=0.05


end of trees

feature_importances:
Column_4=99
Column_8=78
Column_7=56
Column_5=51
Column_2=49
Column_0=32
Column_6=32
Column_1=29
Column_3=28
Column_10=28
Column_9=19

parameters:
[boosting: gbdt]
[objective: binary]
[metric: auc]
[tree_learner: serial]
[device_type: cpu]
[data_sample_strategy: bagging]
[data: ]
[valid: ]
[num_iterations: 100]
[learning_rate: 0.05]
[num_leaves: 31]
[num_threads: 0]
[seed: 0]
[deterministic: 0]
[force_col_wise: 0]
[force_row_wise: 0]
[histogram_pool_size: -1]
[max_depth: -1]
[min_data_in_leaf: 20]
[min_sum_hessian_in_leaf: 0.001]
[bagging_fraction: 1]
[pos_bagging_fraction: 1]
[neg_bagging_fraction: 1]
[bagging_freq: 0]
[bagging_seed: 3]
[bagging_by_query: 0]
[feature_fraction: 0.8]
[feature_fraction_bynode: 1]
[feature_fraction_seed: 2]
[extra_trees: 0]
[extra_seed: 6]
[early_stopping_round: 0]
[early_stopping_min_delta: 0]
[first_metric_only: 0]
[max_delta_step: 0]
[lambda_l1: 0]
[lambda_l2: 0]
[linear_lambda: 0]
[min_gain_to_split: 0]
[drop_rate: 0.1]
[max_drop: 50]
[skip_drop: 0.5]
[xgboost_dart_mode: 0]
[uniform_drop: 0]
[drop_seed: 4]
[top_rate: 0.2]
[other_rate: 0.1]
[min_data_per_group: 100]
[max_cat_threshold: 32]
[cat_l2: 10]
[cat_smooth: 10]
[max_cat_to_onehot: 4]
[top_k: 20]
[monotone_constraints: ]
[monotone_constraints_method: basic]
[monotone_penalty: 0]
[feature_contri: ]
[forcedsplits_filename: ]
[refit_decay_rate: 0.9]
[cegb_tradeoff: 1]
[cegb_penalty_split: 0]
[cegb_penalty_feature_lazy: ]
[cegb_penalty_feature_coupled: ]
[path_smooth: 0]
[interaction_constraints: ]
[verbosity: -1]
[saved_feature_importance_type: 0]
[use_quantized_grad: 0]
[num_grad_quant_bins: 4]
[quant_train_renew_leaf: 0]
[stochastic_rounding: 1]
[linear_tree: 0]
[max_bin: 255]
[max_bin_by_feature: ]
[min_data_in_bin: 3]
[bin_construct_sample_cnt: 200000]
[data_random_seed: 1]
[is_enable_sparse: 1]
[enable_bundle: 1]
[use_missing: 1]
[zero_as_missing: 0]
[feature_pre_filter: 1]
[pre_partition: 0]
[two_round: 0]
[header: 0]
[label_column: ]
[weight_column: ]
[group_column: ]
[ignore_column: ]
[categorical_feature: ]
[forcedbins_filename: ]
[precise_float_parser: 0]
[parser_config_file: ]
[objective_seed: 5]
[num_class: 1]
[is_unbalance: 0]
[scale_pos_weight: 1]
[sigmoid: 1]
[boost_from_average: 1]
[reg_sqrt: 0]
[alpha: 0.9]
[fair_c: 1]
[poisson_max_delta_step: 0.7]
[tweedie_variance_power: 1.5]
[lambdarank_truncation_level: 30]
[lambdarank_norm: 1]
[label_gain: ]
[lambdarank_position_bias_regularization: 0]
[eval_at: ]
[multi_error_top_k: 1]
[auc_mu_weights: ]
[num_machines: 1]
[local_listen_port: 12400]
[time_out: 120]
[machine_list_filename: ]
[machines: ]
[gpu_platform_id: -1]
[gpu_device_id: -1]
[gpu_use_dp: 0]
[num_gpu: 1]

end of parameters

pandas_categorical:null
