tree
version=v4
num_class=1
num_tree_per_iteration=1
label_index=0
max_feature_idx=10
objective=binary sigmoid:1
feature_names=Column_0 Column_1 Column_2 Column_3 Column_4 Column_5 Column_6 Column_7 Column_8 Column_9 Column_10
feature_infos=[0:79.56375659332069] [-0.068441471562345813:0.06493417253219036] [-9.150633505396522:12.806673209028466] [-10.582750582750588:14.677501269680036] [0:56.931204031735405] [-0.073922070397373585:0.079570801343006675] [-0.096657036731324725:0.11415348082095517] [0:0.022681819063007924] [0:0.18842334431227614] [-0.36703794022414815:1.4183579807281677] [0:3.0096351194695443]
tree_sizes=1683 1602 1615 1601

Tree=0
num_leaves=15
num_cat=0
split_feature=2 7 7 8 2 4 7 5 6 8 2 5 8 7
split_gain=12.1787 20.6919 11.8045 10.7055 10.1489 10.0198 3.69437 3.57895 4.72444 4.91506 3.56049 3.1613 1.4978 0.9388
threshold=1.0000000180025095e-35 0.01763169213491678 0.013949306935963735 0.077497913241737049 4.1948230065122649 36.36455162836603 0.015185427161997932 0.00079596888104620852 0.047760806689263226 0.058467215366326049 -3.802267475199367 -0.0016730880203579162 0.043889292398604139 0.016875188888953219
decision_type=2 2 2 2 2 2 2 2 2 2 2 2 2 2
left_child=2 4 11 6 7 10 -4 -2 9 12 -5 -1 -9 -8
right_child=1 -3 3 5 -6 -7 13 8 -10 -11 -12 -13 -14 -15
leaf_value=-0.32310288099547174 -0.49544300951722464 -0.36368158161693709 -0.40603346915631527 -0.3911318790961637 -0.38070076605405756 -0.4432874443066942 -0.47458078343301252 -0.44328744430669415 -0.4954430095172247 -0.40795625497052834 -0.33549927620493114 -0.3750840128775389 -0.47805782111371453 -0.4432874443066942
leaf_weight=5.5123550146818161 5.5123550146818188 9.1073691546916944 5.0330197960138348 4.793352186679841 4.7933521866798392 4.7933521866798392 4.7933521866798383 6.7106930613517815 4.7933521866798392 7.4296958893537512 7.190028280019761 6.2313578426837903 5.7520226240158081 4.7933521866798401
leaf_count=23 23 38 21 20 20 20 20 28 20 31 30 26 24 20
internal_value=-0.412338 -0.430815 -0.39345 -0.409446 -0.448289 -0.382191 -0.440722 -0.459017 -0.450883 -0.440146 -0.357752 -0.350685 -0.459335 -0.458934
internal_weight=87.239 44.0988 43.1402 31.3965 34.9915 16.7767 14.6197 30.1981 24.6858 19.8924 11.9834 11.7437 12.4627 9.5867
internal_count=364 184 180 131 146 70 61 126 103 83 50 49 52 40
is_linear=0
shrinkage=1


Tree=1
num_leaves=14
num_cat=0
split_feature=2 7 3 7 8 4 8 0 0 3 7 1 5
split_gain=10.9983 18.7118 11.3753 10.4839 9.65591 8.94993 8.57496 5.05035 4.3383 4.13737 2.68012 6.02049 0.128948
threshold=1.0000000180025095e-35 0.01763169213491678 3.0741348602148388 0.013949306935963735 0.077497913241737049 36.36455162836603 0.074813238194247275 39.654506157746049 49.095379056971652 -3.4554649779793483 0.013194520330793203 0.0011207879012851143 0.0080661132705139218
decision_type=2 2 2 2 2 2 2 2 2 2 2 2 2
left_child=3 2 10 8 9 7 -4 -6 -1 -5 12 -12 -2
right_child=1 -3 6 4 5 -7 -8 -9 -10 -11 11 -13 -14
leaf_value=0.087440957932346297 -0.070512668552487931 0.04578317418743208 0.051100595519377789 -0.062725201774909353 0.086369147343909922 -0.029599348343604972 -0.030045524643656757 0.021563137746444819 0.026994351371735326 -0.0071356822655858042 -0.073295197910839979 0.001544961597090251 -0.081906663377548178
leaf_weight=6.0700766593217832 4.727350130677225 9.1926693022251111 5.2447277903556815 5.2287461459636679 5.5573337376117724 4.7621965408325186 8.5843209326267225 6.5490559637546539 5.8090654015541077 9.3015840798616427 6.1577238142490369 4.7679229825735092 5.2306673526763916
leaf_count=25 20 38 22 22 23 20 36 27 24 39 26 20 22
internal_value=-1.4815e-05 -0.0176464 -0.0344439 0.0178723 0.00273561 0.0284696 0.0007295 0.0513118 0.0578817 -0.0271396 -0.0577356 -0.0406352 -0.0764976
internal_weight=87.1834 43.9054 34.7127 43.2781 31.3989 16.8686 13.829 12.1064 11.8791 14.5303 20.8837 10.9256 9.95802
internal_count=364 184 146 180 131 70 58 50 49 61 88 46 42
is_linear=0
shrinkage=0.05


Tree=2
num_leaves=14
num_cat=0
split_feature=2 8 4 4 6 6 8 8 4 1 10 5 5
split_gain=9.94429 15.5662 8.54746 7.72938 7.09564 14.084 6.73759 6.32844 6.16798 5.89478 4.04656 2.52636 2.69959
threshold=1.0000000180025095e-35 0.060753814682486536 36.36455162836603 23.952032723251602 -0.026704702793270019 -0.0025464619410335231 0.074813238194247275 0.040379950931551882 27.394545886177337 0.0079805937493671059 0.89577120902344143 0.0029771325508789947 0.0082018494124673179
decision_type=2 2 2 2 2 2 2 2 2 2 2 2 2
left_child=2 11 4 9 6 -6 -1 -7 -9 -3 -5 -2 -13
right_child=1 3 -4 10 5 7 -8 8 -10 -11 -12 12 -14
leaf_value=-0.041388222006297333 -0.078512990923992443 0.0041437742038570452 -0.038925007370744835 -0.036899403350215132 0.1033324794992237 0.053702223105660779 0.036766190770848306 -0.034311786634072944 0.039135879978137819 0.076345328239085561 0.020381301292648712 -0.0096281063452973575 -0.056388808971117477
leaf_weight=6.3602701574563962 5.7813190370798138 5.7383992522954959 5.9144758284091941 8.6156539618968946 6.5762839615344992 7.8170236200094285 4.8684766441583633 6.9903249293565732 4.8358650356531143 5.5717687010765076 4.8015724271535865 4.9364827275276175 8.2364421337842924
leaf_count=27 25 24 25 36 27 32 20 29 20 23 20 21 35
internal_value=-2.87121e-05 -0.0168669 0.0169333 0.00926531 0.0257554 0.0399985 -0.00750261 0.0187951 -0.00427819 0.0397127 -0.0164006 -0.0509586 -0.0388655
internal_weight=87.0444 43.6816 43.3627 24.7274 37.4482 26.2195 11.2287 19.6432 11.8262 11.3102 13.4172 18.9542 13.1729
internal_count=364 184 180 103 155 108 47 81 49 47 56 81 56
is_linear=0
shrinkage=0.05


Tree=3
num_leaves=14
num_cat=0
split_feature=2 8 4 4 6 6 8 4 8 3 3 3 10
split_gain=8.99624 14.277 7.72531 6.93901 6.34936 12.436 6.10863 5.78414 5.68288 5.3247 4.40216 3.58993 0.672401
threshold=1.0000000180025095e-35 0.060753814682486536 36.36455162836603 23.952032723251602 -0.026704702793270019 -0.0025464619410335231 0.074813238194247275 27.005237951903229 0.040379950931551882 2.1058387004328876 6.3010080566782971 1.8984269368451796 0.66295318267014014
decision_type=2 2 2 2 2 2 2 2 2 2 2 2 2
left_child=2 11 4 9 6 -6 -1 8 -7 -3 -5 12 -2
right_child=1 3 -4 10 5 7 -8 -9 -10 -11 -12 -13 -14
leaf_value=-0.039737049324665957 -0.053705228296257602 0.0036218021399790461 -0.03733607743045099 0.016131599839421813 0.096829119130138086 0.034681353714479723 0.034732596259857057 0.053960971695336896 -0.03281980265861139 0.072023338404009388 -0.041549789434868631 -0.019321184152819387 -0.07725490964248706
leaf_weight=6.2950072884559614 6.1972817480564135 5.7481555342674273 5.8592941313982001 6.0049257278442365 6.6645665764808646 5.6593249738216453 4.8951304405927658 7.0830918699502936 6.9438967853784561 5.6335629969835281 7.3643457889556885 6.5647341907024375 5.9328224956989288
leaf_count=27 27 24 25 25 27 23 20 29 29 23 31 28 26
internal_value=-4.06802e-05 -0.0161248 0.0160603 0.00878546 0.0243943 0.0377942 -0.00716027 0.0178086 -0.00250922 0.0374782 -0.0156417 -0.0491047 -0.0652234
internal_weight=86.8461 43.4458 43.4003 24.751 37.541 26.3509 11.1901 19.6863 12.6032 11.3817 13.3693 18.6948 12.1301
internal_count=364 184 180 103 155 108 47 81 52 47 56 81 53
is_linear=0
shrinkage=0.05


end of trees

feature_importances:
Column_8=11
Column_4=8
Column_7=7
Column_2=6
Column_3=5
Column_5=5
Column_6=5
Column_0=2
Column_1=2
Column_10=2

parameters:
[boosting: gbdt]
[objective: binary]
[metric: auc]
[tree_learner: serial]
[device_type: cpu]
[data_sample_strategy: bagging]
[data: ]
[valid: ]
[num_iterations: 100]
[learning_rate: 0.05]
[num_leaves: 31]
[num_threads: 0]
[seed: 0]
[deterministic: 0]
[force_col_wise: 0]
[force_row_wise: 0]
[histogram_pool_size: -1]
[max_depth: -1]
[min_data_in_leaf: 20]
[min_sum_hessian_in_leaf: 0.001]
[bagging_fraction: 1]
[pos_bagging_fraction: 1]
[neg_bagging_fraction: 1]
[bagging_freq: 0]
[bagging_seed: 3]
[bagging_by_query: 0]
[feature_fraction: 0.8]
[feature_fraction_bynode: 1]
[feature_fraction_seed: 2]
[extra_trees: 0]
[extra_seed: 6]
[early_stopping_round: 0]
[early_stopping_min_delta: 0]
[first_metric_only: 0]
[max_delta_step: 0]
[lambda_l1: 0]
[lambda_l2: 0]
[linear_lambda: 0]
[min_gain_to_split: 0]
[drop_rate: 0.1]
[max_drop: 50]
[skip_drop: 0.5]
[xgboost_dart_mode: 0]
[uniform_drop: 0]
[drop_seed: 4]
[top_rate: 0.2]
[other_rate: 0.1]
[min_data_per_group: 100]
[max_cat_threshold: 32]
[cat_l2: 10]
[cat_smooth: 10]
[max_cat_to_onehot: 4]
[top_k: 20]
[monotone_constraints: ]
[monotone_constraints_method: basic]
[monotone_penalty: 0]
[feature_contri: ]
[forcedsplits_filename: ]
[refit_decay_rate: 0.9]
[cegb_tradeoff: 1]
[cegb_penalty_split: 0]
[cegb_penalty_feature_lazy: ]
[cegb_penalty_feature_coupled: ]
[path_smooth: 0]
[interaction_constraints: ]
[verbosity: -1]
[saved_feature_importance_type: 0]
[use_quantized_grad: 0]
[num_grad_quant_bins: 4]
[quant_train_renew_leaf: 0]
[stochastic_rounding: 1]
[linear_tree: 0]
[max_bin: 255]
[max_bin_by_feature: ]
[min_data_in_bin: 3]
[bin_construct_sample_cnt: 200000]
[data_random_seed: 1]
[is_enable_sparse: 1]
[enable_bundle: 1]
[use_missing: 1]
[zero_as_missing: 0]
[feature_pre_filter: 1]
[pre_partition: 0]
[two_round: 0]
[header: 0]
[label_column: ]
[weight_column: ]
[group_column: ]
[ignore_column: ]
[categorical_feature: ]
[forcedbins_filename: ]
[precise_float_parser: 0]
[parser_config_file: ]
[objective_seed: 5]
[num_class: 1]
[is_unbalance: 0]
[scale_pos_weight: 1]
[sigmoid: 1]
[boost_from_average: 1]
[reg_sqrt: 0]
[alpha: 0.9]
[fair_c: 1]
[poisson_max_delta_step: 0.7]
[tweedie_variance_power: 1.5]
[lambdarank_truncation_level: 30]
[lambdarank_norm: 1]
[label_gain: ]
[lambdarank_position_bias_regularization: 0]
[eval_at: ]
[multi_error_top_k: 1]
[auc_mu_weights: ]
[num_machines: 1]
[local_listen_port: 12400]
[time_out: 120]
[machine_list_filename: ]
[machines: ]
[gpu_platform_id: -1]
[gpu_device_id: -1]
[gpu_use_dp: 0]
[num_gpu: 1]

end of parameters

pandas_categorical:null
