tree
version=v4
num_class=1
num_tree_per_iteration=1
label_index=0
max_feature_idx=10
objective=binary sigmoid:1
feature_names=Column_0 Column_1 Column_2 Column_3 Column_4 Column_5 Column_6 Column_7 Column_8 Column_9 Column_10
feature_infos=[0:87.612807190242762] [-1.5795510954412322:1.877330897476881] [-7.4421168687982355:8.1284153005464503] [-8.1753554502369727:9.5123419626730961] [0:70.526257961602525] [-0.059617547806524306:0.054088796598437738] [-0.077198487021299153:0.093417297150364925] [0:0.014369109011586154] [0:0.13171398261485123] [-0.49168323469566355:1.422553809942408] [0:3.9055063372442844]
tree_sizes=2421 2341 2345 2436 2447 2320 2339 2345 2543 2444 2350 2334 2460

Tree=0
num_leaves=22
num_cat=0
split_feature=6 1 7 4 9 6 8 7 9 5 5 1 8 8 9 4 9 6 7 7 4
split_gain=14.208 14.0088 13.1306 11.3505 9.08281 6.31513 9.12576 14.6384 6.04302 9.09683 6.10256 7.66516 5.77036 8.87545 5.14565 3.80835 3.18171 2.79811 1.29941 0.650866 3.55271e-15
threshold=-0.042358987973722222 -0.20317971185432523 0.0091660187185319212 16.804155371901988 0.059700996354186055 -0.003273886438287152 0.02744525691118194 0.0074875457716464576 0.44404977625221426 0.011018835284554695 0.029145480864959553 0.68724826171612119 0.07163689158938677 0.050568319259418751 0.54170954082994494 16.003724320719009 0.37083887312488434 0.017185046387276279 0.0089101554652608536 0.0073990518245015914 23.335565437264297
decision_type=2 2 2 2 2 2 2 2 2 2 2 2 2 2 2 2 2 2 2 2 2
left_child=-1 4 3 -3 -2 -5 16 -8 -9 17 11 -11 13 -4 15 -6 -7 -10 20 -18 -17
right_child=1 2 12 5 14 6 7 8 9 10 -12 -13 -14 -15 -16 18 19 -19 -20 -21 -22
leaf_value=-0.68319909612058871 -0.72987736913166712 -0.68155549495822687 -0.73250713099144615 -0.71106885496063854 -0.77109602784689979 -0.76836751998843333 -0.69790500125751109 -0.82153552728604973 -0.75058674377742718 -0.75716114842687487 -0.74205062161161206 -0.83112320073316093 -0.74828570215012047 -0.63389106124973138 -0.75058674377742718 -0.83112320073316093 -0.83112320073316093 -0.69515255911958451 -0.80405212276484705 -0.80646918329773221 -0.83112320073316093
leaf_weight=6.0842009186744681 5.4323222488164893 4.3458577990531913 4.56315068900585 4.9977364689111701 4.9977364689111772 4.7804435789585105 8.2571298182010633 5.2150293588638297 4.3458577990531939 6.0842009186744717 6.7360795885324469 8.2571298182010633 5.4323222488164893 4.5631506890058517 4.3458577990531913 6.7360795885324496 4.7804435789585096 4.7804435789585114 7.3879582583904257 6.084200918674469 4.3458577990531921
leaf_count=28 25 20 21 23 23 22 38 24 20 28 31 38 25 21 20 31 22 22 34 28 20
internal_value=-0.757686 -0.761577 -0.750617 -0.759762 -0.789013 -0.765046 -0.769594 -0.757856 -0.771833 -0.763251 -0.781307 -0.799745 -0.707485 -0.683199 -0.800562 -0.809817 -0.80236 -0.72155 -0.820295 -0.817317 -0.831123
internal_weight=122.553 116.469 83.2232 68.6646 33.2458 64.3187 59.321 43.6759 35.4187 30.2037 21.0774 14.3413 14.5586 9.1263 27.8135 23.4676 15.6451 9.1263 18.4699 10.8646 11.0819
internal_count=564 536 383 316 153 296 273 201 163 139 97 66 67 42 128 108 72 42 85 50 51
is_linear=0
shrinkage=1


Tree=1
num_leaves=21
num_cat=0
split_feature=4 0 5 7 5 2 2 0 5 1 5 4 0 4 8 7 3 1 4 1
split_gain=13.0007 15.2793 16.1046 11.1589 10.8553 15.0088 11.5272 10.851 7.88762 5.52819 3.89572 7.72876 5.29638 2.73548 2.55889 1.47084 1.37577 1.18675 0.176085 0.000941159
threshold=28.268091728590907 65.314222365628524 0.031356157544733636 0.0068162687476707217 -0.016689388485496753 0.87044100610795672 2.1934412397438141 60.683711156939161 0.011018835284554695 -0.90274836170716799 -0.0049614390704308892 34.095995972940038 54.824775933386185 16.316798392610341 0.022858526110537125 0.0082193384508846921 -0.12088333607321117 0.12636922354969474 17.844693899666122 -0.19503865814895957
decision_type=2 2 2 2 2 2 2 2 2 2 2 2 2 2 2 2 2 2 2 2
left_child=3 7 8 14 -5 13 -7 9 -3 -2 11 -11 -12 -6 -1 -10 18 -18 -15 -20
right_child=1 2 -4 4 5 6 -8 -9 15 10 12 -13 -14 16 -16 -17 17 -19 19 -21
leaf_value=0.061004120534798402 0.065857822481741615 0.018639310243737654 0.047011240448396732 0.036377771039152726 -0.018974886669576946 0.071467483408595892 -0.029708453805096242 0.085961083422751494 -0.072674053779779993 -0.061488921275863299 0.059337431645481935 0.023429511490747013 0.00028700793887058033 -0.060701171587628527 0.0069850918414397986 -0.039922297316174006 -0.026196050003232347 -0.062473065611463541 -0.072142487596259089 -0.073047136749040079
leaf_weight=4.4220761656761152 5.709420144557952 4.3420442342758241 7.4412780851125708 5.89701223373413 4.5743126720190075 4.8136556744575483 6.7809938937425613 8.1173863261938077 7.9305440336465818 4.4981059879064542 7.1574010401964214 6.6271361708641052 8.0886094123125059 4.2709104567766216 4.3477033823728561 6.0377956628799438 4.2960512936115283 4.7438122779130936 7.8682783991098413 4.5304294973611805
leaf_count=20 26 20 34 27 21 22 31 37 37 21 33 30 37 20 20 28 20 22 37 21
internal_value=-2.79922e-05 0.0150549 -0.0150138 -0.0176195 -0.0271359 -0.0360795 0.0122959 0.0343176 -0.0402206 0.0212502 0.0115926 -0.0109043 0.0280089 -0.0546008 0.0342237 -0.0585172 -0.0609394 -0.045233 -0.069457 -0.072473
internal_weight=122.495 65.9497 25.7517 56.5452 47.7755 41.8784 11.5946 40.1981 18.3104 32.0807 26.3713 11.1252 15.246 30.2838 8.76978 13.9683 25.7095 9.03986 16.6696 12.3987
internal_count=564 303 119 261 221 194 53 184 85 147 121 51 70 141 40 65 120 42 78 58
is_linear=0
shrinkage=0.05


Tree=2
num_leaves=21
num_cat=0
split_feature=4 0 5 0 2 2 9 6 5 8 6 0 6 4 1 1 8 6 4 8
split_gain=11.7559 13.6336 14.598 9.33107 8.32785 14.7243 12.2945 8.11231 7.34883 5.09682 8.57804 5.40141 4.83309 3.97509 1.51655 4.76466 1.16305 0.934262 0.467971 0.000848004
threshold=28.268091728590907 65.314222365628524 0.031356157544733636 60.683711156939161 0.87044100610795672 2.4756896951215031 0.071475295872706415 -0.039601802412372461 0.011018835284554695 0.056767010174952635 -0.00042167301754667577 51.833051385044421 -0.0051582791347939269 15.629812580032672 -0.18427022650746491 0.068446330275243397 0.058029372617649538 -0.024615568167306052 22.696768597854511 0.04339581050010511
decision_type=2 2 2 2 2 2 2 2 2 2 2 2 2 2 2 2 2 2 2 2
left_child=4 3 8 7 6 -6 12 -2 -3 10 -9 -12 -1 -8 17 -16 -10 -15 -17 -19
right_child=1 2 -4 -5 5 -7 13 9 16 -11 11 -13 -14 14 15 18 -18 19 -20 -21
leaf_value=-0.010519318424191675 0.077202456483512746 0.017586717222376702 0.043928874327949043 0.079322320404655866 0.06368430618198738 -0.040781327442973352 -0.00062625369038139637 0.077396550912000359 -0.071325743923289039 -0.024258726046746344 -0.036509517001666235 0.027617350742605365 0.059606821303039452 -0.045132018050710897 0.0029844676704505694 -0.048220607189873699 -0.042139458078372549 -0.070579550851577674 -0.071754405528052997 -0.071552652837913497
leaf_weight=5.4892002046108246 5.2046960145235053 4.3710559308528962 7.5619876384735099 8.3505125492811185 7.5616029351949674 6.0895021855831146 4.7931203097105017 5.271908417344096 6.9068095088005048 8.0669153928756696 5.4136244207620647 8.3463618457317335 4.4479185044765455 5.6765492260456041 4.6630070507526424 4.2283245772123319 6.7484420984983444 4.5427411943674105 4.2212644070386887 4.4144171476364136
leaf_count=25 23 20 34 37 34 28 22 24 33 37 25 38 20 27 22 20 32 22 20 21
internal_value=-5.32177e-05 0.0142121 -0.0143795 0.0322081 -0.0168892 0.0170841 -0.0278076 0.020029 -0.0388397 0.009048 0.0231655 0.00238776 0.0208696 -0.042673 -0.0499365 -0.0375875 -0.0569018 -0.0610018 -0.0599777 -0.0710591
internal_weight=122.37 66.2423 25.5883 40.654 56.1276 13.6511 42.4765 32.3035 18.0263 27.0988 19.0319 13.76 9.93712 32.5394 27.7463 13.1126 13.6553 14.6337 8.44959 8.95716
internal_count=564 303 119 184 261 62 199 147 85 124 87 63 45 154 132 62 65 70 40 43
is_linear=0
shrinkage=0.05


Tree=3
num_leaves=22
num_cat=0
split_feature=4 0 2 0 2 2 9 6 1 9 9 0 6 0 4 3 4 3 2 1 4
split_gain=10.6401 12.1888 13.1974 8.09481 7.60554 13.1252 11.3286 7.09266 4.59352 6.4722 7.7497 4.99797 4.26279 4.09066 3.73338 1.54695 5.05044 1.30269 1.18895 0.143653 0.000358573
threshold=28.268091728590907 65.314222365628524 3.4692879275487498 60.683711156939161 0.87044100610795672 2.4756896951215031 0.071475295872706415 -0.039601802412372461 -0.60886935268531051 0.13995583158260394 0.33947329956169287 54.824775933386185 -0.0051582791347939269 67.61445449037025 15.629812580032672 -0.25814392521810364 21.646412532487577 4.2899739160354766 -1.1630147994450382 -0.22743967303517817 19.564073917079458
decision_type=2 2 2 2 2 2 2 2 2 2 2 2 2 2 2 2 2 2 2 2 2
left_child=4 3 13 7 6 -6 12 -2 -9 -10 -11 -12 -1 -3 -8 18 -17 -15 -16 20 -20
right_child=1 2 -4 -5 5 -7 14 8 9 10 11 -13 -14 17 15 16 -18 -19 19 -21 -22
leaf_value=-0.010031093849105143 0.071676746134590727 -0.003116146703032458 0.040491045550701245 0.073583691358327583 0.059260779733302009 -0.039342871751997827 -0.0005950793187942784 -0.038675241221371309 0.071783586705872565 -0.051089886089006643 0.057563438609650401 -0.0032336902532988081 0.055542127942665144 -0.070433302753001803 -0.035409907940568371 0.0071833192699592239 -0.062706302789081722 -0.037292351165488118 -0.070153743676262592 -0.058361965698543433 -0.069489395138206692
leaf_weight=5.4690747410058975 5.3224174231290808 5.7561546862125459 7.7738622426986685 8.5462980121374112 7.7155528813600522 5.998875230550766 4.7920454442501095 4.3277351111173621 4.4276124536991182 4.6827828288078335 6.0150416791439039 7.7176377177238464 4.5324623882770521 6.157747954130171 4.3014589399099377 4.4316786676645261 6.2029226571321487 5.719205766916275 4.0918982625007647 4.1196424961090079 4.0328161269426346
leaf_count=25 23 27 35 37 34 28 22 20 20 22 27 35 20 30 21 21 30 27 20 20 20
internal_value=-7.55043e-05 0.0134349 -0.013782 0.0302845 -0.0161959 0.0161302 -0.0267581 0.0188961 0.00855701 0.0175054 0.00445534 0.023396 0.0196852 -0.0377092 -0.0412863 -0.0484604 -0.0335817 -0.0544747 -0.0580234 -0.0659676 -0.069824
internal_weight=122.135 66.4465 25.407 41.0395 55.6884 13.7144 41.974 32.4932 27.1708 22.8431 18.4155 13.7327 10.0015 17.6331 31.9725 27.1804 10.6346 11.877 16.5458 12.2444 8.12471
internal_count=564 303 119 184 261 62 199 147 124 104 84 62 45 84 154 132 51 57 81 60 40
is_linear=0
shrinkage=0.05


Tree=4
num_leaves=22
num_cat=0
split_feature=5 5 0 5 7 8 4 4 2 5 4 4 4 7 7 4 5 3 1 0 1
split_gain=9.66512 10.5069 7.81617 10.5859 9.45197 13.0009 11.5619 9.35902 6.93222 5.16711 4.77149 4.71517 5.36844 3.84648 3.61204 1.90725 1.68273 1.32931 1.59192 0.461303 0.00588238
threshold=-0.019565732473102258 -0.0019565409939687113 66.47328481655039 0.029145480864959553 0.0076446135368843753 0.02744525691118194 27.554055475710694 37.732334703559054 -3.4135226378939705 0.010514555519306823 42.450234581461729 15.629812580032672 31.8676353476293 0.0088444097446638056 0.0082979663264365674 20.158284282214201 -0.015203572062255899 -0.25814392521810364 -0.57674254979172435 69.370562456496131 -0.22743967303517817
decision_type=2 2 2 2 2 2 2 2 2 2 2 2 2 2 2 2 2 2 2 2 2
left_child=8 11 4 9 5 -3 15 14 -1 -4 -5 -2 16 -9 -8 -6 -13 18 -18 -11 -20
right_child=1 2 3 10 6 -7 7 13 -10 19 -12 12 -14 -15 -16 -17 17 -19 20 -21 -22
leaf_value=0.012334387359238664 0.016898330902639976 0.013558559136583815 0.0035291755870592192 -0.017202029309112233 -0.06047435007268686 0.11769532294256867 0.022662057999562675 -0.04239658376027336 0.088570638471150223 -0.048208233229690887 0.050773073915553649 -0.016590769253150055 0.0033963182969543228 0.022507844358118919 0.080012960222166724 -0.018962483794259979 -0.032264669238600087 -0.031455119783989398 -0.068377494561599889 -0.069110010962469451 -0.070805611353423878
leaf_weight=7.8619883507490158 5.4843109250068656 7.3006879240274412 4.4393734037876156 4.3739003688096982 4.4067346304655057 5.0843925029039383 4.5155277848243731 4.6079183071851713 4.803869500756262 4.4984747916460019 6.3002677857875824 4.4741786718368521 7.6765601485967627 4.5237842947244644 7.0036556571722031 7.4359651505947113 4.0203276276588467 6.3815014660358456 5.8903822749853143 6.3885890692472458 4.3263607770204517
leaf_count=35 25 33 20 20 21 22 20 21 21 22 28 21 35 20 31 35 20 31 30 32 21
internal_value=-9.49826e-05 -0.00489333 0.00650408 -0.0153099 0.0191421 0.0563094 0.00497564 0.0275618 0.041249 -0.0419348 0.0229193 -0.0260113 -0.0331928 -0.0102434 0.0575314 -0.0344093 -0.0443864 -0.0504179 -0.0589176 -0.0604735 -0.0694057
internal_weight=121.799 109.133 70.8793 26.0006 44.8787 12.3851 32.4936 20.6509 12.6659 15.3264 10.6742 38.2536 32.7693 9.1317 11.5192 11.8427 25.0928 20.6186 14.2371 10.8871 10.2167
internal_count=564 508 325 122 203 55 148 92 56 74 48 183 158 41 51 56 123 102 71 54 51
is_linear=0
shrinkage=0.05


Tree=5
num_leaves=21
num_cat=0
split_feature=4 0 5 0 2 2 9 5 1 3 3 9 4 4 0 3 4 2 3 4
split_gain=8.73042 9.82452 11.4581 6.85352 6.6486 12.172 9.8617 6.43031 4.33246 3.7829 3.69866 3.28824 5.63073 3.10938 3.01299 1.66474 3.78019 1.15524 1.14651 0.159194
threshold=28.268091728590907 65.314222365628524 0.031356157544733636 60.683711156939161 0.91631625494186442 2.4756896951215031 0.071475295872706415 0.011018835284554695 -0.90274836170716799 -2.3664360126196313 -0.56711907340639856 0.44404977625221426 34.533200426999002 15.629812580032672 36.059473768436455 -0.25814392521810364 21.646412532487577 -1.1630147994450382 4.2899739160354766 18.090075303122365
decision_type=2 2 2 2 2 2 2 2 2 2 2 2 2 2 2 2 2 2 2 2
left_child=4 3 7 8 6 -6 14 -3 -2 -10 -11 -12 -13 -8 -1 17 -17 -15 -9 -19
right_child=1 2 -4 -5 5 -7 13 18 9 10 11 12 -14 15 -16 16 -18 19 -20 -21
leaf_value=0.043882308481307045 0.054977701632379299 0.016802599205284249 0.037574000449888602 0.066185254644314503 0.059852691213267133 -0.037249209789108215 -0.0013595865364548051 -0.067881502408459152 -0.02971305300682231 0.055201437142394574 -0.021203234203512857 0.065010566958518715 -0.010544660541276519 -0.032811409147648081 -0.011028594489411916 0.0044740864324905993 -0.054770152597974686 -0.055548060135000465 -0.038009740902566286 -0.067824155902059091
leaf_weight=5.4052601903676969 5.9688698500394812 4.3882385790348115 7.8001390844583502 8.7716071158647519 7.1871165335178357 5.8577426075935364 4.818276152014735 6.5787561982870084 5.3565247952938071 4.9439331442117718 6.6748394072055879 4.5629503279924375 5.365529477596283 4.158905327320098 4.64490906894207 4.6093233823776227 6.4747713208198547 4.0642953366041201 6.2769287377595901 7.5404331684112549
leaf_count=24 26 20 34 37 31 28 22 34 24 22 31 20 24 21 21 22 32 21 31 39
internal_value=-0.000112059 0.0120358 -0.0127114 0.0269183 -0.0149058 0.0162495 -0.0246483 -0.0354575 0.0164405 0.00789063 0.0172387 0.0059346 0.0241792 -0.0383439 0.018504 -0.0449814 -0.0301334 -0.0554217 -0.0532963 -0.0635247
internal_weight=121.449 66.6883 25.0441 41.6443 54.761 13.0449 41.7162 17.2439 32.8726 26.9038 21.5473 16.6033 9.92848 31.666 10.0502 26.8477 11.0841 15.7636 12.8557 11.6047
internal_count=564 303 119 184 261 59 202 85 147 121 97 75 44 157 45 135 54 81 65 60
is_linear=0
shrinkage=0.05


Tree=6
num_leaves=21
num_cat=0
split_feature=5 5 0 5 7 3 4 4 2 4 4 7 6 7 4 5 0 3 6 5
split_gain=8.18479 8.94474 6.44624 12.2601 10.1916 10.7537 8.70578 9.11152 6.06317 4.08794 4.69017 4.06531 4.03249 2.6655 2.40424 1.52088 1.42985 1.26708 1.64735 0.00481853
threshold=-0.019565732473102258 -0.0019565409939687113 67.61445449037025 0.029145480864959553 0.0076446135368843753 1.3739590124709815 27.554055475710694 37.732334703559054 -3.4135226378939705 15.629812580032672 31.8676353476293 0.0090978894733608554 0.0061969219384130142 0.0082979663264365674 44.32673285915083 -0.015203572062255899 69.63139580524988 -0.25814392521810364 -0.024615568167306052 -0.0096954940253431241
decision_type=2 2 2 2 2 2 2 2 2 2 2 2 2 2 2 2 2 2 2 2
left_child=8 9 4 16 5 -3 12 13 -1 -2 15 -9 -6 -8 -5 -11 -4 18 -17 -20
right_child=1 2 3 14 6 -7 7 11 -10 10 -12 -13 -14 -15 -16 17 -18 -19 19 -21
leaf_value=0.010493854553631343 0.015293231586940306 0.014802788764228889 -0.032715415615039427 -0.0059707025533596832 -0.0046872795668846589 0.10316011791000937 0.019355703131219825 -0.04116006246929136 0.081088717433340896 -0.015579569234452223 0.0027290426712198806 0.021497462168731937 -0.063168796142771655 0.067844062679630932 0.042441118568807674 -0.028844383814941643 -0.067990380749860566 -0.029309691023469094 -0.068772791243453729 -0.066531715603313529
leaf_weight=7.9272493124008179 5.535551205277442 8.2301972806453687 5.2544150054454821 4.369848817586897 5.9910027980804426 5.9209837019443503 4.5835537761449832 6.0415197610855085 4.9350106418132764 4.4278619736433056 7.7026059329509726 4.5296317934989929 5.8026206642389297 7.4265884757041931 6.2078087627887726 3.8401383161544862 6.3378060758113861 6.2179470509290686 4.3114450126886412 5.4058620184659896
leaf_count=35 25 37 26 20 29 25 20 28 21 21 35 20 28 32 27 20 33 31 22 29
internal_value=-0.00012626 -0.00461116 0.00585397 -0.0164834 0.0160591 0.0517723 0.00135704 0.0195416 0.0375798 -0.0243712 -0.0312528 -0.0143119 -0.033461 0.049339 0.0224412 -0.0420674 -0.0520013 -0.0479982 -0.0565695 -0.0675261
internal_weight=121 108.137 70.696 22.1699 48.5261 14.1512 34.3749 22.5813 12.8623 37.4414 31.9059 10.5712 11.7936 12.0101 10.5777 24.2033 11.5922 19.7754 13.5574 9.71731
internal_count=564 508 325 106 219 62 157 100 56 183 158 48 57 52 47 123 59 102 71 51
is_linear=0
shrinkage=0.05


Tree=7
num_leaves=21
num_cat=0
split_feature=6 1 6 9 5 0 9 6 5 0 5 6 3 2 0 4 9 10 0 4
split_gain=7.83799 9.33538 6.3275 5.97964 5.30588 4.35883 4.12361 7.3645 7.71317 6.46775 11.3623 6.05549 5.09153 4.04284 3.63679 2.87564 2.44017 2.13506 0.508324 0.0311115
threshold=-0.042358987973722222 -0.20317971185432523 -0.00042167301754667577 0.059700996354186055 -0.0043952952846448385 47.05934386535511 0.13995583158260394 0.0013840171698646852 -0.0033404191418423238 67.61445449037025 0.029145480864959553 0.044002200840617588 2.4579897592958173 0.97684503058791272 64.187717489402644 16.003724320719009 0.9717718023981049 0.43504100379716437 70.238856796513446 27.681411278279878
decision_type=2 2 2 2 2 2 2 2 2 2 2 2 2 2 2 2 2 2 2 2
left_child=-1 3 4 -2 -3 15 -4 -8 -9 11 18 12 13 -10 -14 -5 -12 -17 -11 -19
right_child=1 2 6 5 -6 -7 7 8 9 10 16 -13 14 -15 -16 17 -18 19 -20 -21
leaf_value=0.052603279896011025 0.019940306742630205 0.004251413993976748 0.036707210451474868 -0.013130582530287411 0.075082026479124181 0.0096137388874712494 -0.051434177758149471 -0.04776515332248582 -0.029062357540468133 -0.04202933706303405 -0.00042144306892484719 0.074365924104690548 0.066272400726380895 0.021088537110883206 0.0073132434842517191 -0.028737677525201667 0.04772128898425404 -0.066207381505498694 -0.066075748921659669 -0.071638354394897422
leaf_weight=6.6552086025476447 5.6661313176155117 5.0107027739286423 7.008079081773757 5.064812481403357 5.5976217687129957 4.2161176055669776 7.1767264306545249 6.7991728931665341 8.0916350930929344 3.9598665088415164 5.8639588207006437 4.84277419745922 5.9721011072397214 7.9832952320575705 4.6535373032093048 4.9104747325181988 4.7756555378437042 7.1689310967922193 4.9388737976551056 4.1713219285011292
leaf_count=28 25 23 31 24 25 20 34 34 39 21 26 21 25 35 21 25 21 39 27 20
internal_value=-0.000138837 -0.00322134 0.00557305 -0.0265264 0.0416261 -0.0368386 0.000265904 -0.0036596 0.00226404 0.00892312 -0.0136829 0.0229256 0.0135957 -0.00415591 0.040451 -0.0460266 0.0211877 -0.0562792 -0.0553753 -0.0682051
internal_weight=120.527 113.872 82.674 31.1978 10.6083 25.5317 72.0657 65.0576 57.8809 51.0817 19.5384 31.5433 26.7006 16.0749 10.6256 21.3155 10.6396 16.2507 8.89874 11.3403
internal_count=564 536 383 153 48 128 335 304 270 236 95 141 120 74 46 108 47 84 48 59
is_linear=0
shrinkage=0.05


Tree=8
num_leaves=23
num_cat=0
split_feature=4 7 0 7 8 8 0 3 3 7 7 1 10 3 2 7 0 8 0 3 7 1
split_gain=6.67446 7.72209 9.6348 7.69017 6.00416 13.9714 4.36783 3.55885 9.62627 7.79579 9.0568 3.42476 2.63158 2.83202 3.26195 2.92518 2.54164 1.8064 1.78108 0.813528 0.47783 0.018262
threshold=28.268091728590907 0.0089101554652608536 67.61445449037025 0.0068162687476707217 0.047413710016753381 0.061220198073937505 74.549648200645038 2.8072375241671108 1.3478740552824957 0.0073788927381533585 0.008133885539440713 0.6498529359209898 0.35188392066230129 1.0991462453244787 -1.4384984783039771 0.0077459487581168929 56.320148875111151 0.022858526110537125 34.823502759470486 -1.8890642371730018 0.0081713272900975718 -0.083550989470893441
decision_type=2 2 2 2 2 2 2 2 2 2 2 2 2 2 2 2 2 2 2 2 2 2
left_child=3 2 7 17 12 -6 20 8 9 -2 -11 16 -5 14 -14 -16 18 -1 -3 -7 -4 -17
right_child=1 11 6 4 5 19 -8 -9 -10 10 -12 -13 13 -15 15 21 -18 -19 -20 -21 -22 -23
leaf_value=0.050711567562242613 -0.05255473517365894 0.010920813166512852 -0.066372925943748093 -0.069040581742499982 0.049726393037133408 -0.023565020730012279 0.0041430450358621168 -0.022418810782479346 0.07115776874257787 0.072508682046784956 -0.013985031580781612 0.05875975345043704 0.00075048491767761537 0.0064555811369936718 -0.020007793818325018 -0.065968370365752038 -0.012082930053742839 0.0057801286993990168 0.052673243224965666 -0.053191845585277564 -0.043247962016618208 -0.070643159593665392
leaf_weight=4.6189527809619886 4.7603838741779425 4.8675903528928774 5.3207162022590619 5.0684508979320553 7.9863262623548534 4.1283559948205957 4.3558600544929496 5.519318312406539 7.0716636031866065 5.2583978474140149 7.1306968182325363 8.5563193410634977 4.1245734095573487 4.468589022755622 5.0408549308776847 4.3300618082284963 4.5491086393594733 4.3376452326774597 5.3743943721055984 5.2812431156635258 3.8503620326519012 4.0367177575826592
leaf_count=20 22 21 29 26 37 20 20 25 30 23 32 37 20 22 26 24 20 20 24 26 20 20
internal_value=-0.000151279 0.010407 -0.00209817 -0.0133171 -0.0218312 0.00108803 -0.0370834 0.0138143 0.0220708 0.00182955 0.0227262 0.0335817 -0.0365602 -0.0290775 -0.0381341 -0.0500961 0.0190167 0.0289514 0.03283 -0.0401934 -0.0566642 -0.0682238
internal_weight=120.037 66.6148 43.2674 53.4218 44.4652 17.3959 13.5269 29.7405 24.2211 17.1495 12.3891 23.3474 27.0692 22.0008 17.5322 13.4076 14.7911 8.9566 10.242 9.4096 9.17108 8.36678
internal_count=564 303 201 261 221 83 69 132 107 77 55 102 138 112 90 70 65 40 45 46 49 44
is_linear=0
shrinkage=0.05


Tree=9
num_leaves=22
num_cat=0
split_feature=0 4 7 0 7 2 8 2 3 1 7 7 0 3 8 7 8 8 3 8 2
split_gain=6.34927 8.25557 6.95537 7.55136 6.02613 14.4319 7.91554 4.7747 4.5883 7.53637 4.89303 4.7785 4.55446 7.01308 4.65492 5.24139 3.20385 4.28735 1.44953 0.235948 0.0048324
threshold=27.956147525123129 30.296541014347564 0.0089101554652608536 67.61445449037025 0.0078151145931421671 -0.47905582972577104 0.03182197877582265 2.6190316860173288 2.9767728571070209 0.63303323968594338 0.0073788927381533585 0.0081079377710011561 58.796126423864997 1.145024689328485 0.047413710016753381 0.0092494757242381122 0.050807213567550268 0.084864778136655536 -1.9571830403680865 0.032416755971795087 -0.48735936174011735
decision_type=2 2 2 2 2 2 2 2 2 2 2 2 2 2 2 2 2 2 2 2 2
left_child=-1 4 3 8 5 19 -7 -5 9 10 -3 -12 13 14 18 -16 -4 -18 -6 -2 -20
right_child=1 2 16 7 12 6 -8 -9 -10 -11 11 -13 -14 -15 15 -17 17 -19 20 -21 -22
leaf_value=0.044323032303131192 -0.058198163299490027 -0.038615974856052532 0.0082159229665106168 -0.065335655097773213 -0.030123474487228241 0.0011529131987539438 0.077080357055845927 -0.0038556908262985185 -0.031566520661297864 0.078536336191020059 0.061010831118148791 -0.0062541553520479298 -0.067146816131941345 0.03056378222365911 0.034464575467077756 -0.040602636691819946 0.076102267635058438 0.017092212858840317 -0.068563501653725364 -0.041051267245633447 -0.066078612236653317
leaf_weight=7.5163535773754111 4.1980908811092394 4.2730484753847184 7.5038067102432278 6.1901673227548581 3.9426916539669046 7.9176657199859601 6.0596974343061447 6.4472556561231613 4.5494191795587531 4.8128674775362006 4.8963613957166654 5.7302975505590439 6.714509814977645 5.2728496342897406 4.137415483593939 5.3093046694993973 6.8493854105472547 5.5902953743934631 3.8447054624557504 3.8426302671432495 3.9839305579662359
leaf_count=32 21 20 33 35 21 37 27 31 21 20 21 26 31 25 20 27 29 24 20 21 22
internal_value=-0.000163836 -0.00314759 0.0102285 -0.00262976 -0.016916 0.0033675 0.0340702 -0.0339703 0.0136947 0.0241404 0.00656959 0.024739 -0.0303657 -0.0210429 -0.0338676 -0.00772517 0.0340189 0.0495836 -0.0548474 -0.0500037 -0.067299
internal_weight=119.583 112.066 56.8429 36.8994 55.2235 22.0181 13.9774 12.6374 24.262 19.7126 14.8997 10.6267 33.2054 26.4909 21.218 9.44672 19.9435 12.4397 11.7713 8.04072 7.82864
internal_count=564 532 260 174 272 106 64 66 108 87 67 47 166 135 110 47 86 53 63 42 42
is_linear=0
shrinkage=0.05


Tree=10
num_leaves=21
num_cat=0
split_feature=5 5 2 1 9 8 7 8 0 4 7 4 2 4 5 8 8 1 7 8
split_gain=6.00052 7.02258 4.80924 4.39762 4.13922 8.71684 12.0566 4.538 5.68716 4.45796 6.08469 6.52287 4.10116 4.01243 3.45038 3.98196 2.28823 1.03931 0.626275 0.222953
threshold=-0.019565732473102258 -0.0059427033216386252 -3.4135226378939705 -0.5654755828368464 0.24406142156062491 0.02744525691118194 0.0074875457716464576 0.021935710274599594 54.647484313446107 27.554055475710694 0.0089101554652608536 33.27234611647841 1.0763744320341739 45.764445203992771 0.029145480864959553 0.046417749462496244 0.047413710016753381 -0.026054162675471556 0.0073396288147349218 0.033586909498618589
decision_type=2 2 2 2 2 2 2 2 2 2 2 2 2 2 2 2 2 2 2 2
left_child=2 3 -1 -2 -3 7 -7 8 -6 12 11 -11 -8 -12 15 -13 17 19 -9 -5
right_child=1 4 -4 16 5 6 9 18 -10 10 13 14 -14 -15 -16 -17 -18 -19 -20 -21
leaf_value=0.0075798733251480664 0.0078712682508472048 0.041997397804988568 0.06973404067094216 -0.069701710387664234 0.031427218331206742 0.067783540548828444 -0.057627701454805703 -0.07042304018628591 -0.047748021127093476 0.030109221266486366 0.058401300682295237 -0.00019394397146754115 -0.0019725688699611787 0.0025354177220489093 0.01197121919918759 -0.062441463256171087 -0.012850108183390399 -0.031450911870556347 -0.042925351377778996 -0.053270202585309671
leaf_weight=8.001957029104231 6.2566193640232113 6.2224005907773963 5.0932029634714118 4.755680128932001 4.6767180263996142 7.5521724373102179 5.506600707769393 4.5904746204614622 4.4037698358297348 8.1773423701524752 8.0363662242889387 4.0238880515098554 8.2981718480586988 5.356239140033721 4.4937420934438697 7.1065647155046463 5.1108224093914023 3.9419109076261512 3.7722910940647125 3.6480047851800919
leaf_count=35 31 28 21 24 22 34 30 23 22 36 34 20 39 23 20 37 25 20 20 20
internal_value=-0.000176026 -0.00412325 0.031754 -0.0280948 0.00279065 -0.000419595 0.00882324 -0.0314447 -0.00697045 9.21071e-05 0.00909817 -0.0060717 -0.0241729 0.0360583 -0.025008 -0.0399377 -0.0409855 -0.052633 -0.0580193 -0.0625689
internal_weight=119.025 105.93 13.0952 23.713 82.2167 75.9943 58.5511 17.4433 9.08049 50.9989 37.1941 23.8015 13.8048 13.3926 15.6242 11.1305 17.4564 12.3456 8.36277 8.40368
internal_count=564 508 56 120 388 360 273 87 44 239 170 113 69 57 77 57 89 64 43 44
is_linear=0
shrinkage=0.05


Tree=11
num_leaves=21
num_cat=0
split_feature=6 1 7 7 0 8 8 8 6 9 9 9 9 8 8 8 6 4 7 4
split_gain=6.25358 7.92679 6.49883 7.0786 10.7028 7.06265 9.87421 6.30773 7.20521 3.86194 6.13358 3.76795 4.08165 3.70022 3.49243 5.47856 3.32403 2.78583 1.20107 0.0235176
threshold=-0.04069100588872878 -0.20317971185432523 0.0091660187185319212 0.0076901328193513174 68.419376256280231 0.02744525691118194 0.018927212882311244 0.050807213567550268 0.040000668403056529 0.77658343458161927 0.35821885338017417 0.059700996354186055 0.55340744769763262 0.036373166626209104 0.07163689158938677 0.050568319259418751 0.017185046387276279 16.003724320719009 0.0089101554652608536 23.335565437264297
decision_type=2 2 2 2 2 2 2 2 2 2 2 2 2 2 2 2 2 2 2 2
left_child=-1 11 3 4 5 6 -3 9 16 10 -5 -2 17 -7 15 -4 -9 -13 19 -19
right_child=1 2 14 7 -6 13 -8 8 -10 -11 -12 12 -14 -15 -16 -17 -18 18 -20 -21
leaf_value=0.044547423169578271 0.01208792392962681 0.060217326299016855 0.013856179257368144 -0.060467052028415326 -0.056614913305449426 0.093182952006471864 -0.034555912853642019 0.0025872005887282706 -0.035930511869446534 -0.06321688502777835 0.010310153479233213 -0.010376405206801756 0.012254559949949577 0.035203409238092377 0.002364465796618686 0.08833482638446212 0.054728304112953902 -0.063405679851576663 -0.037136811548274709 -0.068629016915479277
leaf_weight=7.3299099057912818 5.4800963997840908 4.593068212270742 4.8281920850276929 5.1088395714759844 4.0891150236129752 4.693265497684477 6.8429258614778519 6.2232886850833911 6.8243758976459494 7.533252924680709 7.6365929692983627 4.9224905222654405 4.0017303377389899 6.652188315987587 5.544947236776351 5.0534464716911316 6.0070898681879044 4.9665986597537977 6.3615626543760291 3.8065904378890991
leaf_count=31 24 20 21 26 22 20 34 28 34 39 37 24 19 29 25 21 27 30 33 20
internal_value=-0.000184735 -0.00313413 0.00489739 -0.00191272 0.0178681 0.0312373 0.00350811 -0.0154259 0.00522995 -0.0348351 -0.01806 -0.0253291 -0.0338518 0.0591878 0.0341233 0.0519444 0.0281969 -0.0430507 -0.0536779 -0.065672
internal_weight=118.5 111.17 81.6306 66.204 26.8706 22.7814 11.436 39.3334 19.0548 20.2787 12.7454 29.5391 24.059 11.3455 15.4266 9.88164 12.2304 20.0572 15.1348 8.77319
internal_count=564 533 383 316 125 103 54 191 89 102 63 150 126 49 67 42 55 107 83 50
is_linear=0
shrinkage=0.05


Tree=12
num_leaves=22
num_cat=0
split_feature=5 5 1 1 9 8 7 3 0 9 8 8 9 4 8 0 8 5 5 7 2
split_gain=5.07333 6.07288 4.50451 4.03921 3.67385 7.47062 10.009 4.45846 6.33484 11.173 7.14791 4.23903 7.92355 6.4735 4.15401 5.10433 3.60547 2.23529 2.32269 0.619702 0.00580902
threshold=-0.019565732473102258 -0.0059427033216386252 -0.61489543620909604 -0.5654755828368464 0.24406142156062491 0.02744525691118194 0.0074875457716464576 -1.8890642371730018 58.796126423864997 0.55967920043633346 0.055784075486853248 0.061220198073937505 0.84374906100114544 40.769853865504466 0.021935710274599594 54.647484313446107 0.042104579487306178 -0.014320448475285364 -0.0082628934786733183 0.0073396288147349218 -1.2154255836103161
decision_type=2 2 2 2 2 2 2 2 2 2 2 2 2 2 2 2 2 2 2 2 2
left_child=2 3 -1 -2 -3 14 -7 -8 9 -9 16 -12 -13 -14 15 -6 -10 -5 20 -16 -19
right_child=1 4 -4 17 5 6 7 8 10 -11 11 12 13 -15 19 -17 -18 18 -20 -21 -22
leaf_value=0.005102979500420976 0.0079316321761129429 0.039306799687954787 0.064782363627922626 -0.011211083685998654 0.029564597393048217 0.061254241348315586 -0.053243101753164795 -0.01204231062286696 -0.0070953505124744833 0.077369870336550225 0.054674660292136058 -0.043604807324927809 -0.016662152172296711 0.06704079829880126 -0.068519471524906714 -0.045875874249665965 -0.060344214212182751 -0.068251438804924722 -0.02026325772994568 -0.0405903378166797 -0.06552687860637485
leaf_weight=7.8731473088264465 6.2292881608009365 6.2721742987632743 5.2837841808795911 5.0239814370870635 4.7100132405757922 7.6591334939002982 3.6579643040895453 7.0484413206577283 5.6746389269828779 6.9284211993217468 4.3154509663581875 6.4969556629657736 4.2934894114732725 4.9998986721038818 4.3807012289762479 4.2793343216180801 7.2281474769115448 3.9541796445846593 4.0511255413293767 3.6334930062294006 3.8721483051776886
leaf_count=34 31 28 22 25 22 34 20 34 27 30 20 32 20 21 23 22 35 21 21 20 22
internal_value=-0.000194188 -0.00387131 0.02907 -0.0264848 0.00254053 -0.000521694 0.00798301 -7.35442e-05 0.00406587 0.0322799 -0.00788082 0.0107584 -0.0012438 0.0283705 -0.029683 -0.00634846 -0.0369254 -0.0391695 -0.0509955 -0.0558569 -0.0669034
internal_weight=117.866 104.709 13.1569 23.1307 81.5783 75.3061 58.3025 50.6434 46.9854 13.9769 33.0086 20.1058 15.7903 9.29339 17.0035 8.98935 12.9028 16.9014 11.8775 8.01419 7.82633
internal_count=564 508 56 120 388 360 273 239 219 64 155 93 73 41 87 44 62 89 64 43 43
is_linear=0
shrinkage=0.05


end of trees

feature_importances:
Column_4=40
Column_0=32
Column_8=32
Column_7=31
Column_5=30
Column_1=21
Column_2=21
Column_9=21
Column_3=19
Column_6=18
Column_10=2

parameters:
[boosting: gbdt]
[objective: binary]
[metric: auc]
[tree_learner: serial]
[device_type: cpu]
[data_sample_strategy: bagging]
[data: ]
[valid: ]
[num_iterations: 100]
[learning_rate: 0.05]
[num_leaves: 31]
[num_threads: 0]
[seed: 0]
[deterministic: 0]
[force_col_wise: 0]
[force_row_wise: 0]
[histogram_pool_size: -1]
[max_depth: -1]
[min_data_in_leaf: 20]
[min_sum_hessian_in_leaf: 0.001]
[bagging_fraction: 1]
[pos_bagging_fraction: 1]
[neg_bagging_fraction: 1]
[bagging_freq: 0]
[bagging_seed: 3]
[bagging_by_query: 0]
[feature_fraction: 0.8]
[feature_fraction_bynode: 1]
[feature_fraction_seed: 2]
[extra_trees: 0]
[extra_seed: 6]
[early_stopping_round: 0]
[early_stopping_min_delta: 0]
[first_metric_only: 0]
[max_delta_step: 0]
[lambda_l1: 0]
[lambda_l2: 0]
[linear_lambda: 0]
[min_gain_to_split: 0]
[drop_rate: 0.1]
[max_drop: 50]
[skip_drop: 0.5]
[xgboost_dart_mode: 0]
[uniform_drop: 0]
[drop_seed: 4]
[top_rate: 0.2]
[other_rate: 0.1]
[min_data_per_group: 100]
[max_cat_threshold: 32]
[cat_l2: 10]
[cat_smooth: 10]
[max_cat_to_onehot: 4]
[top_k: 20]
[monotone_constraints: ]
[monotone_constraints_method: basic]
[monotone_penalty: 0]
[feature_contri: ]
[forcedsplits_filename: ]
[refit_decay_rate: 0.9]
[cegb_tradeoff: 1]
[cegb_penalty_split: 0]
[cegb_penalty_feature_lazy: ]
[cegb_penalty_feature_coupled: ]
[path_smooth: 0]
[interaction_constraints: ]
[verbosity: -1]
[saved_feature_importance_type: 0]
[use_quantized_grad: 0]
[num_grad_quant_bins: 4]
[quant_train_renew_leaf: 0]
[stochastic_rounding: 1]
[linear_tree: 0]
[max_bin: 255]
[max_bin_by_feature: ]
[min_data_in_bin: 3]
[bin_construct_sample_cnt: 200000]
[data_random_seed: 1]
[is_enable_sparse: 1]
[enable_bundle: 1]
[use_missing: 1]
[zero_as_missing: 0]
[feature_pre_filter: 1]
[pre_partition: 0]
[two_round: 0]
[header: 0]
[label_column: ]
[weight_column: ]
[group_column: ]
[ignore_column: ]
[categorical_feature: ]
[forcedbins_filename: ]
[precise_float_parser: 0]
[parser_config_file: ]
[objective_seed: 5]
[num_class: 1]
[is_unbalance: 0]
[scale_pos_weight: 1]
[sigmoid: 1]
[boost_from_average: 1]
[reg_sqrt: 0]
[alpha: 0.9]
[fair_c: 1]
[poisson_max_delta_step: 0.7]
[tweedie_variance_power: 1.5]
[lambdarank_truncation_level: 30]
[lambdarank_norm: 1]
[label_gain: ]
[lambdarank_position_bias_regularization: 0]
[eval_at: ]
[multi_error_top_k: 1]
[auc_mu_weights: ]
[num_machines: 1]
[local_listen_port: 12400]
[time_out: 120]
[machine_list_filename: ]
[machines: ]
[gpu_platform_id: -1]
[gpu_device_id: -1]
[gpu_use_dp: 0]
[num_gpu: 1]

end of parameters

pandas_categorical:null
