tree
version=v4
num_class=1
num_tree_per_iteration=1
label_index=0
max_feature_idx=10
objective=binary sigmoid:1
feature_names=Column_0 Column_1 Column_2 Column_3 Column_4 Column_5 Column_6 Column_7 Column_8 Column_9 Column_10
feature_infos=[0:100] [-0.028695875315889241:0.030203208562730621] [-9.2364991164653638:13.214013767271926] [-10.797950202778097:15.67885664020033] [0:49.493064714759136] [-0.071371413508825865:0.081564912270980935] [-0.091932743982414133:0.13601684116180171] [0:0.024060527333360865] [0:0.18457066493022506] [-0.24627955085705561:1.4611632238270702] [0:2.5435965052203691]
tree_sizes=1478 1591 1697 1594

Tree=0
num_leaves=13
num_cat=0
split_feature=8 2 7 2 6 2 1 10 8 1 1 7
split_gain=13.1569 12.7632 10.4462 17.4996 7.52109 7.94981 4.70298 4.28561 4.12491 3.56856 2.74176 1.90477
threshold=0.063328237691870418 0.9713905090985796 0.016482541038841052 -0.47266320808174095 0.0015342914392363586 5.1402885470978879 0.015143394544626989 0.65675991208103479 0.03939527492031409 0.0017103719154072385 -0.0093889469898767435 0.014666721011326737
decision_type=2 2 2 2 2 2 2 2 2 2 2 2
left_child=1 2 3 -1 7 6 9 -2 -5 -6 -9 -3
right_child=4 11 -4 8 5 -7 -8 10 -10 -11 -12 -13
leaf_value=-0.28963186155651566 -0.37252475764127013 -0.46232539506642084 -0.43374163779581582 -0.41495802587513253 -0.41051733501344922 -0.33369848734869834 -0.42778668836443978 -0.34651914318330795 -0.35870927496047766 -0.35536681947318921 -0.30533127369377971 -0.4208789470240436
leaf_weight=5.7906049489975002 7.2382561862468746 6.514430567622183 6.996980980038642 8.444632217288019 4.8255041241645866 6.996980980038642 7.2382561862468711 8.2033570110797918 5.3080545365810385 7.479531392455101 7.9620818048715565 4.8255041241645813
leaf_count=24 30 27 29 35 20 29 30 34 22 31 33 20
internal_value=-0.378066 -0.400288 -0.381316 -0.362547 -0.361212 -0.379432 -0.395806 -0.34055 -0.393248 -0.376994 -0.326233 -0.444689
internal_weight=87.8242 37.8802 26.5403 19.5433 49.944 26.5403 19.5433 23.4037 13.7527 12.305 16.1654 11.3399
internal_count=364 157 110 81 207 110 81 97 57 51 67 47
is_linear=0
shrinkage=1


Tree=1
num_leaves=14
num_cat=0
split_feature=8 2 7 2 0 5 9 9 0 0 1 8 7
split_gain=11.8993 11.7383 9.51213 15.5541 8.92776 9.53205 8.52589 9.69765 8.51245 8.61948 4.08375 3.74744 1.79348
threshold=0.063328237691870418 0.9713905090985796 0.016482541038841052 -0.47266320808174095 53.239871594160398 0.024413618832976547 0.7840733505723515 0.91767350040024953 46.286576213403187 40.379739878878375 -0.0114897689711953 0.03939527492031409 0.014666721011326737
decision_type=2 2 2 2 2 2 2 2 2 2 2 2 2
left_child=1 2 3 -1 8 -6 -7 -8 9 10 -2 -5 -3
right_child=4 12 -4 11 5 6 7 -9 -10 -11 -12 -13 -14
leaf_value=0.082759496808048491 0.079910522835376918 -0.08149086753887172 -0.053499846996281686 -0.035307826477666025 -0.05916557834771724 0.065705789414530466 -0.048976909608713613 0.039307715626877376 0.084471830509183499 -0.026024398692958237 0.021054044231411426 0.018322579676360681 -0.041025785459288505
leaf_weight=5.8759084939956692 4.847260862588886 6.401776582002638 6.9194246530532828 8.3838857710361498 6.2342786937952068 5.3177319318056133 7.0079322010278684 5.5930953323841095 6.7818653285503379 6.7798504382371894 7.5186461359262484 5.3268015682697287 4.7849529981613159
leaf_count=24 20 27 29 35 26 22 29 23 28 28 31 22 20
internal_value=-1.2004e-05 -0.0212325 -0.0031056 0.0146974 0.0159594 -0.00591329 0.0126142 -0.00979087 0.036335 0.0192838 0.044125 -0.0144716 -0.0641825
internal_weight=87.7734 37.6928 26.506 19.5866 50.0807 24.153 17.9188 12.601 25.9276 19.1458 12.3659 13.7107 11.1867
internal_count=364 157 110 81 207 100 74 52 107 79 51 57 47
is_linear=0
shrinkage=0.05


Tree=2
num_leaves=15
num_cat=0
split_feature=8 2 0 5 9 9 0 0 8 5 1 8 4 2
split_gain=10.7712 10.8168 7.99797 8.70349 7.60609 8.7909 7.5114 7.73173 4.80851 13.5076 3.60119 2.61771 1.38871 0.580783
threshold=0.063328237691870418 0.9713905090985796 53.239871594160398 0.024413618832976547 0.7840733505723515 0.91767350040024953 46.286576213403187 40.379739878878375 0.054246112187450853 -0.0023275384871252417 -0.0114897689711953 0.040813810630012028 20.629422854092279 1.6921546055373404
decision_type=2 2 2 2 2 2 2 2 2 2 2 2 2 2
left_child=1 8 6 -4 -5 -6 7 10 9 -1 -2 12 -11 -3
right_child=2 13 3 4 5 -7 -8 -9 -10 11 -12 -13 -14 -15
leaf_value=0.074367917419371085 0.074953505792004313 -0.048641540961767094 -0.056948242357495883 0.061730715965398086 -0.046982339619426688 0.037108884473936198 0.079176656309128998 -0.024844073482345144 -0.045741421504176032 -0.013968619279502967 0.019929365437567119 0.01320613761951878 -0.050493483693702879 -0.071850140709272356
leaf_weight=5.5866896957159069 4.9077639728784597 4.7046320438384992 6.1551799327135113 5.375566482543948 6.9418617933988553 5.6273552924394608 6.8711691051721564 6.7476923465728751 5.2629138678312293 5.7494273781776446 7.545095235109331 5.0837688297033301 4.754424661397934 6.3124286383390427
leaf_count=23 20 20 26 22 29 23 28 28 22 24 31 21 20 27
internal_value=-2.6068e-05 -0.0203153 0.0151203 -0.00564354 0.0119543 -0.00933392 0.0343138 0.018259 -0.00296948 0.00766157 0.0416148 -0.0162464 -0.0305011 -0.0619393
internal_weight=87.626 37.4543 50.1717 24.1 17.9448 12.5692 26.0717 19.2006 26.4372 21.1743 12.4529 15.5876 10.5039 11.0171
internal_count=364 157 207 100 74 52 107 79 110 88 51 65 44 47
is_linear=0
shrinkage=0.05


Tree=3
num_leaves=14
num_cat=0
split_feature=2 8 4 3 8 3 0 10 2 2 4 2 2
split_gain=9.82747 10.9169 8.89708 9.26264 6.96345 7.94361 5.2725 7.38136 4.76174 4.14903 3.34137 3.00238 0.627786
threshold=-0.41506108137342707 0.067909136006718301 34.810095687177999 -0.51037223779312935 0.081776097375831275 -2.8367794462414579 53.239871594160398 1.3996988454601758 0.9713905090985796 6.1907191052487516 26.169505880894771 0.15475434542831909 1.6921546055373404
decision_type=2 2 2 2 2 2 2 2 2 2 2 2 2
left_child=2 8 3 4 5 -1 -3 9 11 10 -8 -2 -10
right_child=1 6 -4 -5 -6 -7 7 -9 12 -11 -12 -13 -14
leaf_value=-0.048762800429799052 -0.043241599994081607 0.051419403354538484 -0.028374529757170877 0.093180272113227561 0.054152779154486623 0.033375968889111485 -0.0073382873750629345 0.05069318376221419 -0.046797725136056414 0.020621756054500395 -0.058285467334805989 0.0024778354965655585 -0.070735572456930212
leaf_weight=5.5429803580045718 6.4213479906320599 5.6628924161195782 7.0010580867528907 5.4336532056331661 8.5197996199130994 6.2764753103256226 6.4892616719007545 5.0973644703626624 4.64697217941284 5.1162221133708945 6.384723037481308 8.1465780884027463 6.670596569776535
leaf_count=23 27 23 29 22 35 26 27 21 20 21 27 34 29
internal_value=-3.71361e-05 -0.0130219 0.0216092 0.035187 0.0196941 -0.00514472 0.00818536 -0.00241903 -0.0365765 -0.0174679 -0.032605 -0.0176747 -0.0609067
internal_weight=87.4099 54.636 32.774 25.7729 20.3393 11.8195 28.7505 23.0876 25.8855 17.9902 12.874 14.5679 11.3176
internal_count=364 229 135 106 84 49 119 96 110 75 54 61 49
is_linear=0
shrinkage=0.05


end of trees

feature_importances:
Column_2=12
Column_8=9
Column_0=7
Column_1=5
Column_7=4
Column_9=4
Column_4=3
Column_5=3
Column_3=2
Column_10=2
Column_6=1

parameters:
[boosting: gbdt]
[objective: binary]
[metric: auc]
[tree_learner: serial]
[device_type: cpu]
[data_sample_strategy: bagging]
[data: ]
[valid: ]
[num_iterations: 100]
[learning_rate: 0.05]
[num_leaves: 31]
[num_threads: 0]
[seed: 0]
[deterministic: 0]
[force_col_wise: 0]
[force_row_wise: 0]
[histogram_pool_size: -1]
[max_depth: -1]
[min_data_in_leaf: 20]
[min_sum_hessian_in_leaf: 0.001]
[bagging_fraction: 1]
[pos_bagging_fraction: 1]
[neg_bagging_fraction: 1]
[bagging_freq: 0]
[bagging_seed: 3]
[bagging_by_query: 0]
[feature_fraction: 0.8]
[feature_fraction_bynode: 1]
[feature_fraction_seed: 2]
[extra_trees: 0]
[extra_seed: 6]
[early_stopping_round: 0]
[early_stopping_min_delta: 0]
[first_metric_only: 0]
[max_delta_step: 0]
[lambda_l1: 0]
[lambda_l2: 0]
[linear_lambda: 0]
[min_gain_to_split: 0]
[drop_rate: 0.1]
[max_drop: 50]
[skip_drop: 0.5]
[xgboost_dart_mode: 0]
[uniform_drop: 0]
[drop_seed: 4]
[top_rate: 0.2]
[other_rate: 0.1]
[min_data_per_group: 100]
[max_cat_threshold: 32]
[cat_l2: 10]
[cat_smooth: 10]
[max_cat_to_onehot: 4]
[top_k: 20]
[monotone_constraints: ]
[monotone_constraints_method: basic]
[monotone_penalty: 0]
[feature_contri: ]
[forcedsplits_filename: ]
[refit_decay_rate: 0.9]
[cegb_tradeoff: 1]
[cegb_penalty_split: 0]
[cegb_penalty_feature_lazy: ]
[cegb_penalty_feature_coupled: ]
[path_smooth: 0]
[interaction_constraints: ]
[verbosity: -1]
[saved_feature_importance_type: 0]
[use_quantized_grad: 0]
[num_grad_quant_bins: 4]
[quant_train_renew_leaf: 0]
[stochastic_rounding: 1]
[linear_tree: 0]
[max_bin: 255]
[max_bin_by_feature: ]
[min_data_in_bin: 3]
[bin_construct_sample_cnt: 200000]
[data_random_seed: 1]
[is_enable_sparse: 1]
[enable_bundle: 1]
[use_missing: 1]
[zero_as_missing: 0]
[feature_pre_filter: 1]
[pre_partition: 0]
[two_round: 0]
[header: 0]
[label_column: ]
[weight_column: ]
[group_column: ]
[ignore_column: ]
[categorical_feature: ]
[forcedbins_filename: ]
[precise_float_parser: 0]
[parser_config_file: ]
[objective_seed: 5]
[num_class: 1]
[is_unbalance: 0]
[scale_pos_weight: 1]
[sigmoid: 1]
[boost_from_average: 1]
[reg_sqrt: 0]
[alpha: 0.9]
[fair_c: 1]
[poisson_max_delta_step: 0.7]
[tweedie_variance_power: 1.5]
[lambdarank_truncation_level: 30]
[lambdarank_norm: 1]
[label_gain: ]
[lambdarank_position_bias_regularization: 0]
[eval_at: ]
[multi_error_top_k: 1]
[auc_mu_weights: ]
[num_machines: 1]
[local_listen_port: 12400]
[time_out: 120]
[machine_list_filename: ]
[machines: ]
[gpu_platform_id: -1]
[gpu_device_id: -1]
[gpu_use_dp: 0]
[num_gpu: 1]

end of parameters

pandas_categorical:null
