tree
version=v4
num_class=1
num_tree_per_iteration=1
label_index=0
max_feature_idx=10
objective=binary sigmoid:1
feature_names=Column_0 Column_1 Column_2 Column_3 Column_4 Column_5 Column_6 Column_7 Column_8 Column_9 Column_10
feature_infos=[0:72.993323084292072] [-12.289304429894571:7.1474900564543873] [-10.821207559792599:9.8080967402733972] [-12.287302880697881:8.8264392096045317] [0:43.40038628842526] [-0.078089430475582269:0.069315694749485263] [-0.058515366063690559:0.076689668673224742] [0:0.027803044300103438] [0:0.22785870998441732] [-0.37278482196812207:1.3423501204190644] [0:2.6998861519712656]
tree_sizes=1580 1497 1600 1598 1592 1706 1709 1602 1713 1705

Tree=0
num_leaves=14
num_cat=0
split_feature=9 4 8 1 10 7 8 2 5 10 8 5 7
split_gain=13.6194 5.54221 10.6743 10.5197 7.71864 3.7861 7.4217 3.72424 4.61012 5.79808 2.69329 6.23762 1.78192
threshold=0.071887813173842088 21.321086056195259 0.07587204757335371 -0.14365301639375613 0.60793177181694535 0.012616307935331932 0.045792539712376193 1.1042756428793656 0.0018021770364940613 1.0311356902171827 0.049876716250034626 -0.0069753041744106152 0.016541814496498056
decision_type=2 2 2 2 2 2 2 2 2 2 2 2 2
left_child=-1 4 5 -4 -2 6 -3 8 9 10 11 -6 -5
right_child=1 2 3 12 7 -7 -8 -9 -10 -11 -12 -13 -14
leaf_value=-0.46892377188038287 -0.49184902537199693 -0.45791965020440817 -0.49103731783210247 -0.5569015867835394 -0.47934872925762212 -0.45485835319680612 -0.53879714211492546 -0.58411311574000158 -0.50077780831083607 -0.58955542153129403 -0.5610470931480005 -0.55922075118323789 -0.59860621268420433
leaf_weight=8.6331288218498212 5.599867343902587 4.666556119918825 5.1332117319107065 4.8998839259147609 4.6665561199188241 4.8998839259147635 7.233161985874176 8.3998010158538801 4.6665561199188224 8.1664732098579389 7.4664897918701163 5.1332117319107136 5.3665395379066467
leaf_count=37 24 20 22 21 20 21 31 36 20 35 32 22 23
internal_value=-0.528447 -0.535182 -0.519412 -0.54948 -0.546697 -0.491849 -0.50708 -0.554675 -0.54646 -0.554842 -0.538423 -0.521186 -0.578702
internal_weight=84.9313 76.2982 32.1992 15.3996 44.099 16.7996 11.8997 38.4991 30.0993 25.4327 17.2663 9.79977 10.2664
internal_count=364 327 138 66 189 72 51 165 129 109 74 42 44
is_linear=0
shrinkage=1


Tree=1
num_leaves=13
num_cat=0
split_feature=9 3 8 2 1 9 7 0 3 4 4 1
split_gain=12.1323 5.69437 17.5182 9.42257 11.3804 6.62029 3.87377 7.19656 7.51484 6.45903 12.0447 2.09494
threshold=0.071887813173842088 0.86470908949294978 0.084515890931025489 1.3520087008356376 2.2011121862271641 0.65319524231381221 0.013844590002569874 40.363502091524936 -0.6274948644978865 26.246428063585203 19.323812154930582 0.83944833642175365
decision_type=2 2 2 2 2 2 2 2 2 2 2 2
left_child=-1 5 3 11 -5 6 7 -2 -9 10 -8 -3
right_child=1 2 -4 4 -6 -7 9 8 -10 -11 -12 -13
leaf_value=0.055709158400200888 0.014873863977901899 0.09009895463746416 -0.069272028131861202 -0.042653889655861331 0.049160353556764624 -0.069658116003234363 -0.011807896116569357 -0.073173610700251912 -0.0027455192572529486 -0.036320859148730213 0.090531468273324422 0.044841329703834976
leaf_weight=8.7595765739679319 7.9367110431194332 4.6957103312015587 5.5377632528543463 6.9419067502021772 6.5685152262449265 5.3402425497770301 7.4342048764228839 9.0313082039356214 6.5235257595777503 5.8175662308931342 4.6881736665964127 5.6140008270740509
leaf_count=37 34 20 24 30 28 23 32 39 28 25 20 24
internal_value=-1.59507e-05 -0.00642776 0.0108324 0.0294553 0.00198448 -0.0172617 -0.0105082 -0.0238688 -0.0436368 0.00698697 0.0277705 0.0654546
internal_weight=84.8892 76.1296 29.3579 23.8201 13.5104 46.7717 41.4315 23.4915 15.5548 17.9399 12.1224 10.3097
internal_count=364 327 126 102 58 201 178 101 67 77 52 44
is_linear=0
shrinkage=0.05


Tree=2
num_leaves=14
num_cat=0
split_feature=0 4 4 2 8 10 10 0 6 8 5 5 6
split_gain=11.4907 5.48144 5.9237 8.97876 5.1852 4.63723 3.52341 2.77575 3.09287 3.01691 3.97106 2.24738 3.58702
threshold=33.083699755386554 12.882924563269659 22.016408844112657 4.2157781485475816 0.077905456082439012 0.60793177181694535 0.86182374189612887 40.363502091524936 -0.021966588984559325 0.045374872629712522 0.01759281037253458 0.00092334901199251881 0.025382950795467801
decision_type=2 2 2 2 2 2 2 2 2 2 2 2 2
left_child=-1 -2 5 4 11 -3 -6 -7 -9 -10 -11 -4 -13
right_child=1 2 3 -5 6 7 -8 8 9 10 -12 12 -14
leaf_value=0.071894118112881364 0.03224753664447854 0.020841089313952774 0.010668399048450287 -0.057262943833859319 -0.035077012906473186 -0.004417323107074436 0.022632085869047351 -0.064116198525515908 -0.050757713547513052 0.016601811223802155 -0.044687123393054723 0.079261805150083381 0.019949863259716635
leaf_weight=5.2111837714910498 8.8947138637304288 5.4152372330427161 5.435741111636168 4.6205083131790152 5.7633236944675428 8.637030214071272 4.8882834166288376 7.5338616073131517 7.3440457135439017 6.2660155445337278 4.5708028823137283 5.251238137483595 4.9538793563842773
leaf_count=22 38 23 23 20 25 37 21 33 32 27 20 22 21
internal_value=-3.43801e-05 -0.00474483 -0.00940013 0.00701746 0.0183138 -0.0221624 -0.00859289 -0.0289415 -0.0371786 -0.0260161 -0.00924892 0.0366375 0.05047
internal_weight=84.7859 79.5747 70.68 30.913 26.2925 39.767 10.6516 34.3518 25.7147 18.1809 10.8368 15.6409 10.2051
internal_count=364 342 304 132 112 172 46 149 112 79 47 66 43
is_linear=0
shrinkage=0.05


Tree=3
num_leaves=14
num_cat=0
split_feature=0 4 4 2 8 3 10 10 0 3 0 0 2
split_gain=10.2222 4.92925 5.38654 8.1853 4.63374 5.22905 4.22552 3.2002 2.56294 3.03815 4.65619 2.34391 0.654552
threshold=33.083699755386554 12.882924563269659 22.016408844112657 4.2157781485475816 0.077905456082439012 2.7902418310248911 0.60793177181694535 0.86182374189612887 40.363502091524936 -0.59766974409729834 51.616044429108605 48.720561392847507 -0.90786269633102534
decision_type=2 2 2 2 2 2 2 2 2 2 2 2 2
left_child=-1 -2 6 4 5 11 -3 -6 -8 12 -11 -4 -10
right_child=1 2 3 -5 7 -7 8 -9 9 10 -12 -13 -14
leaf_value=0.067253545116355118 0.030391786392300814 0.019699961235045547 0.036789238003211391 -0.055309993015668628 -0.033665246751308504 0.072465879543516354 -0.0042013422659516585 0.021375012796175111 -0.067641753496718929 0.0059448322860931758 -0.049596477768419855 -0.01163907764944113 -0.042239568333564514
leaf_weight=5.2900633066892615 8.9640843123197538 5.4417651593685141 5.0154404789209419 4.5463666766881934 5.7062361091375333 5.7633280307054511 8.627241834998129 4.9162329137325287 5.8537047654390335 7.6520571410656011 7.4445977210998535 4.9787467569112778 4.4743495583534205
leaf_count=22 38 23 21 20 25 24 37 21 26 33 33 21 20
internal_value=-4.4694e-05 -0.00452937 -0.00897464 0.00665239 0.0173311 0.0345366 -0.0212117 -0.00819182 -0.0277497 -0.0357402 -0.0214442 0.012664 -0.0566369
internal_weight=84.6742 79.3842 70.4201 30.9264 26.38 15.7575 39.4937 10.6225 34.052 25.4247 15.0967 9.99419 10.3281
internal_count=364 342 304 132 112 66 172 46 149 112 66 42 46
is_linear=0
shrinkage=0.05


Tree=4
num_leaves=14
num_cat=0
split_feature=9 3 8 2 1 9 1 3 0 2 7 1 2
split_gain=9.45944 4.86641 14.8485 7.69036 9.44656 5.89055 3.18428 4.6691 4.29771 7.82532 3.9024 1.91876 0.801127
threshold=0.071887813173842088 0.86470908949294978 0.084515890931025489 1.3520087008356376 2.2011121862271641 0.65319524231381221 -5.7211533479025425 -3.1390612482352283 43.47002301351683 -0.31464190876706716 0.012723157891759859 0.83944833642175365 -2.1927843957961248
decision_type=2 2 2 2 2 2 2 2 2 2 2 2 2
left_child=-1 5 3 11 -5 6 -2 12 10 -10 -9 -3 -8
right_child=1 2 -4 4 -6 -7 7 8 9 -11 -12 -13 -14
leaf_value=0.048518630801427688 0.027852555579716654 0.08213139574672558 -0.065501069015936289 -0.039800393462589637 0.044012822336010338 -0.066285343563216609 -0.0582717342167621 0.050192289532313986 -0.053659680475587147 0.02143479294508405 -0.0076057982472407916 0.039304160258102044 -0.030082192588577385
leaf_weight=8.9608337283134443 4.9878654032945624 4.8117486387491279 5.313341721892356 6.7710345983505231 6.6773395985364914 5.1572609096765509 4.8507946580648422 5.3752259016037041 8.2412244677543587 5.9911914914846447 6.3947515934705734 5.7292703241109848 5.2461984008550591
leaf_count=37 21 20 24 30 28 23 21 23 36 26 28 24 23
internal_value=-5.36619e-05 -0.00581493 0.010127 0.0268776 0.00181425 -0.0159165 -0.00959423 -0.0147683 -0.0035629 -0.0220484 0.01879 0.0588539 -0.043625
internal_weight=84.5081 75.5472 29.3027 23.9894 13.4484 46.2445 41.0873 36.0994 26.0024 14.2324 11.77 10.541 10.097
internal_count=364 327 126 102 58 201 178 157 113 62 51 44 44
is_linear=0
shrinkage=0.05


Tree=5
num_leaves=15
num_cat=0
split_feature=0 2 3 0 2 8 8 2 8 3 5 9 2 4
split_gain=8.58102 4.45526 6.09543 5.79614 10.24 5.09641 7.92317 6.96713 6.02525 5.18274 3.01486 2.88398 2.34343 2.33321
threshold=33.083699755386554 4.8150570192222331 -0.59766974409729834 40.363502091524936 -1.4439467860288473 0.037532844850210793 0.02888551781310859 0.74696814326826899 0.066779191647205013 2.7902418310248911 -0.0036194748821401636 0.83280892667563944 -1.4039986406265286 20.653252186690274
decision_type=2 2 2 2 2 2 2 2 2 2 2 2 2 2
left_child=-1 2 3 4 13 6 -4 8 -7 -9 12 -11 -5 -2
right_child=1 -3 5 10 -6 7 -8 9 -10 11 -12 -13 -14 -15
leaf_value=0.061049951421211203 -0.048094980709311452 -0.053003542058010424 0.018443229535545405 -0.029519851714103231 0.066076394589986029 0.072549787824172429 -0.06673555385425449 -0.036566794339927655 0.0032764708717186197 -0.0083555546467857008 -0.010677440048742047 0.042785196499369807 -0.075798225919735937 0.00074919306808393388
leaf_weight=5.3770361840724936 4.8569678813219053 4.4199519455432883 6.4126269519329053 5.3625245243310919 4.7339473068714133 8.9061928391456622 4.7540588974952698 6.1124635189771679 4.8473751395940772 4.8608197271823865 6.7693548202514675 6.3686671406030655 5.5839247554540625 4.9232364594936371
leaf_count=22 21 20 27 24 20 37 21 27 21 21 30 27 25 21
internal_value=-6.59189e-05 -0.00423033 -0.00133639 -0.0177145 0.00571131 0.0111538 -0.0178204 0.0215588 0.0481348 0.000481874 -0.0369067 0.0206483 -0.053127 -0.0235074
internal_weight=84.2891 78.9121 74.4922 32.23 14.5142 42.2622 11.1667 31.0955 13.7536 17.342 17.7158 11.2295 10.9464 9.7802
internal_count=364 342 322 141 62 181 48 133 58 75 79 48 49 42
is_linear=0
shrinkage=0.05


Tree=6
num_leaves=15
num_cat=0
split_feature=9 7 7 4 1 6 7 5 4 4 1 6 0 7
split_gain=8.01639 4.3627 7.24899 8.07806 5.65937 13.698 6.31773 4.47321 6.5893 11.159 9.33653 4.19389 3.43854 0.814389
threshold=0.071887813173842088 0.010183118155457306 0.011086778759740184 13.233120311188665 2.1727403374118244 0.048549086515163979 0.013362994622104033 0.018648969647803257 26.246428063585203 20.31109463361658 -1.1349461376540544 -0.009215487098044383 40.363502091524936 0.012359695816950848
decision_type=2 2 2 2 2 2 2 2 2 2 2 2 2 2
left_child=-1 11 -3 -4 6 -6 12 8 9 10 -8 -2 -5 -14
right_child=1 2 3 4 5 -7 7 -9 -10 -11 -12 -13 13 -15
leaf_value=0.044376033809444992 -0.002374950180418309 0.050413447874758738 0.056677865189600489 -0.011482661663674334 0.058224272734408548 -0.05226664102741424 -0.046182929892146903 -0.051476575831464033 -0.043313617555473485 0.08420231824919315 0.043709988268904688 -0.068562643598443621 -0.075706175350811283 -0.048181663157855742
leaf_weight=9.0500340759754163 4.5841570049524307 6.2444619983434668 4.6980022042989722 5.1270318925380698 7.7816728800535184 4.3861680626869202 6.5466822832822773 4.3753556907176963 5.5378083288669577 4.7691985666751853 5.16930563747884 5.007871747016905 5.1075095981359464 5.6716150790452957
leaf_count=37 20 26 20 22 33 20 29 20 24 20 22 22 23 26
internal_value=-7.66584e-05 -0.00544015 -0.000822569 -0.00622969 -0.0116552 0.0183954 -0.0202985 -0.00529987 0.00387415 0.0197258 -0.00652055 -0.0369307 -0.0451907 -0.0612237
internal_weight=84.0569 75.0068 65.4148 59.1704 54.4723 12.1678 42.3045 26.3984 22.023 16.4852 11.716 9.59203 15.9062 10.7791
internal_count=364 327 285 259 239 53 186 115 95 71 51 42 71 49
is_linear=0
shrinkage=0.05


Tree=7
num_leaves=14
num_cat=0
split_feature=0 2 3 0 2 0 3 2 3 6 4 4 9
split_gain=7.44696 4.06156 5.26961 5.24597 9.00787 3.91992 7.62011 4.78993 4.35814 2.78434 2.09732 2.00596 0.601412
threshold=33.083699755386554 4.8150570192222331 -0.59766974409729834 40.363502091524936 -1.4439467860288473 46.193552005027506 0.80087795641961224 0.74696814326826899 3.8346144633529042 -0.0034943342980426634 20.653252186690274 15.811877806291973 0.27788872567194517
decision_type=2 2 2 2 2 2 2 2 2 2 2 2 2
left_child=-1 2 3 4 10 12 -7 -8 -9 11 -2 -5 -4
right_child=1 -3 5 9 -6 6 7 8 -10 -11 -12 -13 -14
leaf_value=0.056598095652926006 -0.045787432558475283 -0.051148597192694094 0.048295696639808511 -0.030943198785835055 0.061652902288930014 -0.042911417139607964 0.049050065983036892 -0.025108321311501727 0.02518488233934886 -0.0055917451119351612 0.00076980737490611956 -0.072415357190218091 0.024014509016889094
leaf_weight=5.4185379892587653 4.7636514604091627 4.3180112093687049 5.5754058361053449 6.8131225258111971 4.7961318194866207 7.3678817898035076 7.2901332229375866 8.3920192867517489 8.8500477671623212 5.4673717319965354 4.9145835191011429 5.097112849354744 4.6999331265687943
leaf_count=22 21 20 23 31 20 33 30 37 38 24 21 24 20
internal_value=-9.06269e-05 -0.00401134 -0.00126183 -0.0166124 0.0056212 0.0103313 0.00168003 0.0150724 0.00070629 -0.0351315 -0.0221458 -0.0486917 0.0371895
internal_weight=83.7639 78.3454 74.0274 31.852 14.4744 42.1754 31.9001 24.5322 17.2421 17.3776 9.67823 11.9102 10.2753
internal_count=364 342 322 141 62 181 138 105 75 79 42 55 43
is_linear=0
shrinkage=0.05


Tree=8
num_leaves=15
num_cat=0
split_feature=9 7 7 4 1 8 7 1 4 8 0 4 1 7
split_gain=6.69891 4.06415 9.49043 7.23133 4.97094 12.6357 5.56076 4.36093 6.67849 3.36106 3.12914 2.71435 1.64641 0.801755
threshold=0.071887813173842088 0.010325914282642358 0.011086778759740184 13.233120311188665 2.1727403374118244 0.084515890931025489 0.013362994622104033 -0.33016455514618309 20.31109463361658 0.068520384786267818 40.363502091524936 17.103777748866531 -0.61613742910969893 0.012359695816950848
decision_type=2 2 2 2 2 2 2 2 2 2 2 2 2 2
left_child=-1 12 -3 -4 6 -6 10 8 11 -9 -5 -8 -2 -12
right_child=1 2 3 4 5 -7 7 9 -10 -11 13 -13 -14 -15
leaf_value=0.040374956532247944 -0.013207953532029457 0.06712535665083777 0.053431787977753199 -0.010827260329311661 0.055816417931480691 -0.050018650815656519 0.0082879431284491947 -0.0032326807143384026 0.046318335710251228 -0.064380470867873713 -0.073286653659184617 -0.043796144180791717 -0.052081948776217704 -0.045486109775014688
leaf_weight=9.1085358560085279 5.2826439291238785 4.8343688398599616 4.7422102093696585 5.1008266955614081 7.7201927751302701 4.4433878660202026 5.193291679024691 4.5614226013422101 7.2044828236103049 4.4295867681503296 4.9207331687211973 4.826066255569458 5.6227948516607267 5.4834398031234741
leaf_count=37 23 20 20 22 32 21 23 20 30 20 23 22 25 26
internal_value=-9.73498e-05 -0.00505454 -0.000209012 -0.00576152 -0.010971 0.0171546 -0.0191712 -0.00513244 0.00960171 -0.0333583 -0.042907 -0.0167996 -0.0332512 -0.0586346
internal_weight=83.474 74.3654 63.46 58.6256 53.8834 12.1636 41.7198 26.2149 17.2238 8.99101 15.505 10.0194 10.9054 10.4042
internal_count=364 327 279 259 239 53 186 115 75 40 71 45 48 49
is_linear=0
shrinkage=0.05


Tree=9
num_leaves=15
num_cat=0
split_feature=0 2 3 0 2 7 8 4 2 8 3 9 4 1
split_gain=6.28768 3.7224 4.72243 4.60342 7.89999 6.04767 4.23926 6.892 5.20368 4.92406 3.97246 2.43935 1.90565 0.571789
threshold=33.083699755386554 4.8150570192222331 -0.59766974409729834 40.363502091524936 -1.4439467860288473 0.01397182286789434 0.037532844850210793 14.702841727511364 0.74696814326826899 0.066779191647205013 2.7902418310248911 0.83280892667563944 20.653252186690274 -2.7800141935526024
decision_type=2 2 2 2 2 2 2 2 2 2 2 2 2 2
left_child=-1 2 3 4 12 13 7 -4 9 -8 -10 -12 -2 -5
right_child=1 -3 6 5 -6 -7 8 -9 10 -11 11 -13 -14 -15
leaf_value=0.051811503668976015 -0.04411228299046438 -0.049483542281749691 0.01558710752139035 -0.04656073376961023 0.056937224406483369 -0.00064826944603354228 0.063767635104998513 -0.065409567191872603 -0.032440451231476382 0.0013687027721245551 -0.0086308798234241545 0.038398972899360007 0.00044253571935792938 -0.071533259004477642
leaf_weight=5.4493078291416159 4.6898236721754056 4.2081366926431647 6.5403484255075437 4.0938178449869183 4.8564275503158596 7.7055966258049002 9.0576266199350375 4.3886449038982391 5.8892308473587063 4.8569641560316077 4.8257741481065732 6.4322488456964493 4.9150467664003372 5.2085301876068106
leaf_count=22 21 20 28 20 20 34 37 20 27 21 21 27 21 25
internal_value=-0.000106714 -0.00374937 -0.0011295 -0.0157736 0.00496551 -0.0334073 0.00984521 -0.0169379 0.0192688 0.0419869 0.000833473 0.0182395 -0.0213125 -0.0605432
internal_weight=83.1175 77.6682 73.4601 31.4692 14.4613 17.0079 41.9908 10.929 31.0618 13.9146 17.1473 11.258 9.60487 9.30235
internal_count=364 342 322 141 62 79 181 48 133 58 75 48 42 45
is_linear=0
shrinkage=0.05


end of trees

feature_importances:
Column_2=18
Column_4=18
Column_0=17
Column_8=15
Column_3=13
Column_7=13
Column_1=12
Column_9=10
Column_5=6
Column_10=6
Column_6=5

parameters:
[boosting: gbdt]
[objective: binary]
[metric: auc]
[tree_learner: serial]
[device_type: cpu]
[data_sample_strategy: bagging]
[data: ]
[valid: ]
[num_iterations: 100]
[learning_rate: 0.05]
[num_leaves: 31]
[num_threads: 0]
[seed: 0]
[deterministic: 0]
[force_col_wise: 0]
[force_row_wise: 0]
[histogram_pool_size: -1]
[max_depth: -1]
[min_data_in_leaf: 20]
[min_sum_hessian_in_leaf: 0.001]
[bagging_fraction: 1]
[pos_bagging_fraction: 1]
[neg_bagging_fraction: 1]
[bagging_freq: 0]
[bagging_seed: 3]
[bagging_by_query: 0]
[feature_fraction: 0.8]
[feature_fraction_bynode: 1]
[feature_fraction_seed: 2]
[extra_trees: 0]
[extra_seed: 6]
[early_stopping_round: 0]
[early_stopping_min_delta: 0]
[first_metric_only: 0]
[max_delta_step: 0]
[lambda_l1: 0]
[lambda_l2: 0]
[linear_lambda: 0]
[min_gain_to_split: 0]
[drop_rate: 0.1]
[max_drop: 50]
[skip_drop: 0.5]
[xgboost_dart_mode: 0]
[uniform_drop: 0]
[drop_seed: 4]
[top_rate: 0.2]
[other_rate: 0.1]
[min_data_per_group: 100]
[max_cat_threshold: 32]
[cat_l2: 10]
[cat_smooth: 10]
[max_cat_to_onehot: 4]
[top_k: 20]
[monotone_constraints: ]
[monotone_constraints_method: basic]
[monotone_penalty: 0]
[feature_contri: ]
[forcedsplits_filename: ]
[refit_decay_rate: 0.9]
[cegb_tradeoff: 1]
[cegb_penalty_split: 0]
[cegb_penalty_feature_lazy: ]
[cegb_penalty_feature_coupled: ]
[path_smooth: 0]
[interaction_constraints: ]
[verbosity: -1]
[saved_feature_importance_type: 0]
[use_quantized_grad: 0]
[num_grad_quant_bins: 4]
[quant_train_renew_leaf: 0]
[stochastic_rounding: 1]
[linear_tree: 0]
[max_bin: 255]
[max_bin_by_feature: ]
[min_data_in_bin: 3]
[bin_construct_sample_cnt: 200000]
[data_random_seed: 1]
[is_enable_sparse: 1]
[enable_bundle: 1]
[use_missing: 1]
[zero_as_missing: 0]
[feature_pre_filter: 1]
[pre_partition: 0]
[two_round: 0]
[header: 0]
[label_column: ]
[weight_column: ]
[group_column: ]
[ignore_column: ]
[categorical_feature: ]
[forcedbins_filename: ]
[precise_float_parser: 0]
[parser_config_file: ]
[objective_seed: 5]
[num_class: 1]
[is_unbalance: 0]
[scale_pos_weight: 1]
[sigmoid: 1]
[boost_from_average: 1]
[reg_sqrt: 0]
[alpha: 0.9]
[fair_c: 1]
[poisson_max_delta_step: 0.7]
[tweedie_variance_power: 1.5]
[lambdarank_truncation_level: 30]
[lambdarank_norm: 1]
[label_gain: ]
[lambdarank_position_bias_regularization: 0]
[eval_at: ]
[multi_error_top_k: 1]
[auc_mu_weights: ]
[num_machines: 1]
[local_listen_port: 12400]
[time_out: 120]
[machine_list_filename: ]
[machines: ]
[gpu_platform_id: -1]
[gpu_device_id: -1]
[gpu_use_dp: 0]
[num_gpu: 1]

end of parameters

pandas_categorical:null
