tree
version=v4
num_class=1
num_tree_per_iteration=1
label_index=0
max_feature_idx=10
objective=binary sigmoid:1
feature_names=Column_0 Column_1 Column_2 Column_3 Column_4 Column_5 Column_6 Column_7 Column_8 Column_9 Column_10
feature_infos=[0:100] [-0.048719806186897863:0.043058234683936547] [-3.4828036569438425:3.7985865724381762] [-4.1336474619832861:4.4091710758377465] [0:79.987296439415417] [-0.026577926657263856:0.023976770501953647] [-0.04156751556883196:0.03842114949497144] [0:0.009351634628886038] [0:0.057809268208059456] [-0.20833967940400222:1.2741414367008812] [0:2.8805215527074686]
tree_sizes=1575 1614 1609 1603 1714 1702 1723 1716 1603 1615 1718 1611

Tree=0
num_leaves=14
num_cat=0
split_feature=5 9 7 9 1 5 7 1 7 4 10 5 4
split_gain=20.2593 6.64705 11.5561 7.32791 5.98555 7.20736 6.54975 4.49458 7.70307 13.996 8.84822 3.76894 1.26794
threshold=-0.014576346777933071 0.39338534654462826 0.0053469175464341276 0.92181637847165565 -0.0017431976388460055 -0.0077329207695979963 0.0070709811237850764 -0.0074160974604038357 0.005594704217942466 15.036588365909472 1.0302484426502012 0.0049024831556253963 21.008924242737869
decision_type=2 2 2 2 2 2 2 2 2 2 2 2 2
left_child=-1 2 -2 7 5 -4 -7 -3 12 -10 11 -11 -9
right_child=1 3 4 -5 -6 6 -8 8 9 10 -12 -13 -14
leaf_value=-0.89367579054886848 -0.91225880960223449 -1.0669498871275513 -1.0259603158938844 -0.96529575046805738 -1.0474010146930333 -0.90962800896404872 -0.99764024849607824 -1.0341582301406178 -1.0592488161684988 -0.90176191505587366 -1.01988778682223 -0.970136423642319 -1.0669498871275513
leaf_weight=4.3284023106098166 4.5251478701829937 5.5088756680488578 6.0991123467683837 5.9023667871952048 5.1153845489025089 4.1316567510366422 4.3284023106098175 6.099112346768381 6.4926034659147289 3.9349111914634687 5.3121301084756842 4.131656751036644 5.7056212276220322
leaf_count=22 23 28 31 30 26 21 22 31 33 20 27 21 29
internal_value=-0.998529 -1.00527 -0.984304 -1.01705 -1.00087 -0.984528 -0.954658 -1.02527 -1.01802 -0.999013 -0.96978 -0.936783 -1.05001
internal_weight=71.6154 67.287 24.1997 43.0873 19.6746 14.5592 8.46006 37.1849 31.676 19.8713 13.3787 8.06657 11.8047
internal_count=364 342 123 219 100 74 43 189 161 101 68 41 60
is_linear=0
shrinkage=1


Tree=1
num_leaves=14
num_cat=0
split_feature=5 9 7 9 1 4 1 7 4 2 1 4 8
split_gain=17.4839 6.03058 9.97015 6.65992 5.63263 8.66382 4.285 7.18801 12.8348 5.55191 1.24431 1.23516 0.531284
threshold=-0.014576346777933071 0.39338534654462826 0.0053469175464341276 0.92181637847165565 -0.013717232843706737 19.33022784748584 -0.0074160974604038357 0.005594704217942466 15.036588365909472 0.60840969166930969 0.0063641238441398693 21.008924242737869 0.025825480246176893
decision_type=2 2 2 2 2 2 2 2 2 2 2 2 2
left_child=-1 2 -2 6 -4 -6 -3 11 -9 -10 -11 -8 -7
right_child=1 3 4 -5 5 12 7 8 9 10 -12 -13 -14
leaf_value=0.094994120596436665 0.078792661400702901 -0.067202817807663143 0.037528144085393157 0.031085168124607505 0.026015527411431091 -0.041722310474928956 -0.034432643328874843 -0.059410167629241999 0.065128909948722002 -0.019483603632724104 0.020046256636479614 -0.067202817807663129 -0.06792131175235025
leaf_weight=4.5330483913421622 4.7019797712564495 5.3327672481536856 6.1229574531316802 5.9922882914543143 5.785218939185139 3.8564448207616806 5.9981465339660662 6.3086421936750439 5.5884341448545438 4.0149164348840714 3.9486374109983444 5.5232232213020325 3.8839384764432907
leaf_count=22 23 28 31 30 29 20 31 33 28 20 20 29 20
internal_value=-4.23407e-05 -0.00646674 0.0133906 -0.0177889 -0.00226038 -0.0202724 -0.0257658 -0.0187243 -0.000498398 0.0269259 0.000116827 -0.0501423 -0.0548683
internal_weight=71.5906 67.0576 24.3505 42.7071 19.6486 13.5256 36.7148 31.382 19.8606 13.552 7.96355 11.5214 7.74038
internal_count=364 342 123 219 100 69 189 161 101 68 40 60 40
is_linear=0
shrinkage=0.05


Tree=2
num_leaves=14
num_cat=0
split_feature=5 9 9 6 1 1 1 9 1 1 4 1 6
split_gain=15.2144 5.47659 6.05814 5.96778 8.64329 4.09153 5.15701 4.32299 7.49745 3.95956 8.85174 2.34415 0.605804
threshold=-0.014576346777933071 0.39338534654462826 0.92181637847165565 -0.011231391236283035 -0.0079326824776444465 -0.0074160974604038357 -0.0013076285275306352 0.76798212397393573 0.018446799868380829 0.00077895050206455718 11.072879160979818 0.006594054920971538 0.01183847788678925
decision_type=2 2 2 2 2 2 2 2 2 2 2 2 2
left_child=-1 3 5 -2 -5 -3 -7 8 11 10 -6 -8 -9
right_child=1 2 -4 4 9 6 7 12 -10 -11 -12 -13 -14
leaf_value=0.086794723065992452 -0.037521645092738469 -0.066084730712190662 0.029117194023054717 0.081763814630833334 0.042577961680866069 0.020865629439606459 -0.01780881265991607 -0.041146901822871035 0.03569700522262536 0.045492055766668843 -0.050939399514606354 -0.066758030711301458 -0.06742401941441227
leaf_weight=4.7083694934844962 4.7749686986207989 5.1563162803649893 6.0752119123935691 4.9745722562074706 4.3926131725311226 6.6981874108314505 5.9918083995580727 3.8154601007699949 5.2812556326389304 4.362395018339158 5.9685796052217484 4.1329673528671265 5.1593426614999771
leaf_count=22 24 28 30 25 21 34 31 20 27 22 31 22 27
internal_value=-7.50231e-05 -0.0061995 -0.0170891 0.012627 0.0247834 -0.024836 -0.0179924 -0.028668 -0.0125984 0.00553173 -0.0112928 -0.03779 -0.0562528
internal_weight=71.492 66.7837 42.3105 24.4731 19.6982 36.2353 31.079 24.3808 15.406 14.7236 10.3612 10.1248 8.9748
internal_count=364 342 219 123 99 189 161 127 80 74 52 53 47
is_linear=0
shrinkage=0.05


Tree=3
num_leaves=14
num_cat=0
split_feature=8 0 6 9 8 8 4 8 8 2 0 6 1
split_gain=11.773 6.69783 10.6159 5.43251 5.06339 3.37478 3.27718 3.691 3.90601 2.39668 2.54898 1.88457 0.202234
threshold=0.051906996065057547 46.820553825741491 -0.011231391236283035 0.92181637847165565 0.013138942182352646 0.033451296103602222 28.351366283963468 0.027045382985310961 0.028500250605018655 -0.4190883355479777 42.929117275076628 0.00026535621748097741 0.012099523522153712
decision_type=2 2 2 2 2 2 2 2 2 2 2 2 2
left_child=1 2 -1 4 -3 6 7 11 -9 10 -4 -6 -13
right_child=-2 3 9 -5 5 -7 -8 8 -10 -11 -12 12 -14
leaf_value=-0.033484697328565578 0.075400832598524814 0.018066714285616445 0.086338531913233096 0.027308132312444795 -0.024251871024935624 -0.066514590717714622 0.0180047178003357 0.030572229706225321 -0.03587777722640751 0.013512267073011536 0.034020309272693089 -0.067432796482311305 -0.052035013396796032
leaf_weight=6.8481790274381664 4.8146334886550894 6.2442937642335883 4.1298766434192657 6.1517424881458274 5.7563191056251588 5.5703473836183539 3.9992707520723334 4.0585825294256193 4.8592188656330109 4.8132978677749607 5.3362565636634827 5.1490905880928022 3.6398673057556152
leaf_count=34 24 31 20 30 30 30 20 21 26 24 27 27 20
internal_value=-0.000102416 -0.00556426 0.0176943 -0.0163811 -0.023224 -0.0310293 -0.0238316 -0.0309626 -0.0056357 0.0422389 0.0568457 -0.0464907 -0.0610559
internal_weight=71.371 66.5563 21.1276 45.4287 39.277 33.0327 27.4623 23.4631 8.9178 14.2794 9.46613 14.5453 8.78896
internal_count=364 340 105 235 205 174 144 124 47 71 47 77 47
is_linear=0
shrinkage=0.05


Tree=4
num_leaves=15
num_cat=0
split_feature=5 9 7 5 3 1 5 7 8 8 9 7 8 2
split_gain=12.7493 4.60314 6.2252 5.34214 4.66075 4.55816 5.63809 4.99639 4.13296 4.35217 3.41963 2.45663 1.2947 0.604466
threshold=-0.014576346777933071 0.4172373787603712 0.0053469175464341276 0.010847901244869897 2.5626535954040128 -0.0017431976388460055 -0.0077329207695979963 0.0070709811237850764 0.028500250605018655 0.022575749873035202 0.70281870507016297 0.0063937334830859224 0.016284667434268599 0.57941559794200514
decision_type=2 2 2 2 2 2 2 2 2 2 2 2 2 2
left_child=-1 2 -2 8 -5 6 -4 -8 9 11 -11 12 -3 -10
right_child=1 3 5 4 -6 -7 7 -9 13 10 -12 -13 -14 -15
leaf_value=0.077692285489547958 0.058365683124203739 0.0021357598122731217 -0.026503352543815056 0.04873785189921917 -0.02206468487470125 -0.04045596910867439 0.074276369246632917 0.0031180822259005009 -0.039520322531106794 0.03767320880725758 -0.022075295493535155 -0.068110494087328069 -0.039758143832193962 -0.065740723492742098
leaf_weight=4.9019036442041388 5.3431449085474041 3.6617540270090156 6.0133455693721833 5.0587998330593091 4.3000478297472 5.6605388969182924 4.4438919723033923 5.5449428856372833 3.6914022415876371 5.149721831083296 4.4764710515737534 3.8799378573894501 3.7154452502727509 5.4331954121589661
leaf_count=22 25 20 31 25 22 30 21 28 20 26 24 20 20 30
internal_value=-0.00012181 -0.00586871 0.0100291 -0.0167747 0.0162067 -0.00189314 0.0117479 0.0347754 -0.027061 -0.0147953 0.00988835 -0.0359028 -0.0189636 -0.0551331
internal_weight=71.2745 66.3726 27.0059 39.3668 9.35885 21.6627 16.0022 9.98883 30.0079 20.8833 9.62619 11.2571 7.3772 9.1246
internal_count=364 342 135 207 47 110 80 49 160 110 50 60 40 50
is_linear=0
shrinkage=0.05


Tree=5
num_leaves=15
num_cat=0
split_feature=5 9 9 2 10 4 9 5 3 2 9 3 4 4
split_gain=11.248 4.18615 4.99981 4.87229 3.32501 5.2283 4.42511 7.15107 3.13057 2.69062 3.17359 4.17275 1.88039 0.164041
threshold=-0.014576346777933071 0.4172373787603712 0.92181637847165565 -1.5056330961503279 1.0302484426502012 15.195384679162302 0.76798212397393573 0.0034419411013486933 0.098170354528108808 0.10573067408057442 0.26693535350276892 -0.97121165316691083 18.828700909971118 26.844011596718062
decision_type=2 2 2 2 2 2 2 2 2 2 2 2 2 2
left_child=-1 3 4 -2 5 -3 7 -7 9 10 11 -5 -6 -14
right_child=1 2 -4 8 12 6 -8 -9 -10 -11 -12 -13 13 -15
leaf_value=0.071999240803454698 -0.041795368718116573 -0.055547627180290299 0.024861090179130046 -0.021622634330868435 -0.021509715221277564 -0.020493306420534024 -0.040832069558123851 0.061323813458359258 0.054375603295702013 0.04284788793548 -0.036172865267103081 0.045350718731456643 -0.051998582140396502 -0.066766930433717023
leaf_weight=5.0217455774545661 3.955003663897517 4.9063100665807751 6.2536122053861609 4.2855176329612785 5.636014595627783 5.2842182815074903 3.9935297966003409 5.3997665047645569 4.7639503628015509 4.424866944551467 4.5498260259628287 5.0857145637273788 3.6086661219596863 3.9259032160043716
leaf_count=22 21 27 30 22 31 28 22 28 23 22 23 24 20 21
internal_value=-0.000140404 -0.00562324 -0.0161064 0.00948589 -0.0239281 -0.0108638 0.00407283 0.0208577 0.0182621 0.0088844 -0.00191103 0.0147234 -0.0433538 -0.0596937
internal_weight=71.0946 66.0729 39.008 27.0649 32.7544 19.5838 14.6775 10.684 23.1099 18.3459 13.9211 9.37123 13.1706 7.53457
internal_count=364 342 207 135 177 105 78 56 114 91 69 46 72 41
is_linear=0
shrinkage=0.05


Tree=6
num_leaves=15
num_cat=0
split_feature=5 9 6 1 7 3 9 9 3 1 3 7 7 1
split_gain=9.96541 3.80824 5.08127 6.19982 11.358 4.8355 3.29019 6.10854 3.25752 2.51876 3.99841 2.26604 2.61173 1.60577
threshold=-0.014576346777933071 0.4172373787603712 -0.011231391236283035 -0.0079326824776444465 0.0062206534214736325 1.5052159024336553 0.92181637847165565 0.76798212397393573 -0.38412634800349305 -0.0074160974604038357 -0.11633648979071744 0.0063937334830859224 0.0058583968399870236 0.012733635872231199
decision_type=2 2 2 2 2 2 2 2 2 2 2 2 2 2
left_child=-1 2 -2 -4 -5 9 7 -7 -6 -3 -11 12 13 -12
right_child=1 5 3 4 8 6 -8 -9 -10 10 11 -13 -14 -15
leaf_value=0.067013563609779211 -0.036946621557803545 -0.063736514585157569 0.065437094667702034 0.051777679263846466 9.3532501880492486e-05 0.030597397671674555 0.041545766157582487 -0.053060584528787591 -0.058365029642880421 0.016166615243980793 -0.019030476348274591 -0.067671020696611794 0.010677908401005279 -0.064230999239132197
leaf_weight=5.1228258162736884 4.9303616732358959 4.2165314853191367 5.4593809247016933 7.1507727950811413 4.4131540656089845 4.5196814835071546 4.8549828827381125 4.2188394367694855 5.1803548336028973 5.2942433953285244 4.3064421117305773 3.8058640956878653 3.8207761198282242 3.6136992126703262
leaf_count=22 26 25 26 33 23 23 23 24 27 27 24 20 20 21
internal_value=-0.000157025 -0.00538774 0.00897019 0.0191661 0.0040797 -0.0154674 0.00854382 -0.00979154 -0.0314732 -0.0284932 -0.0213629 -0.034143 -0.0232748 -0.039654
internal_weight=70.9079 65.7851 27.134 22.2037 16.7443 38.6511 13.5935 8.73852 9.59351 25.0576 20.841 15.5468 11.7409 7.92014
internal_count=364 342 135 109 83 207 70 47 50 137 112 85 65 45
is_linear=0
shrinkage=0.05


Tree=7
num_leaves=15
num_cat=0
split_feature=5 10 4 0 9 4 6 6 1 0 4 9 5 1
split_gain=8.86188 3.97475 5.71232 6.60312 5.34142 3.21021 3.14927 2.75941 3.99278 3.61783 2.55595 6.74421 2.36995 0.551313
threshold=-0.014576346777933071 1.0545113876837033 25.335785967715264 51.233735504765242 0.70281870507016297 19.33022784748584 -0.0011086320774503823 0.0036513541287324261 -0.0095766103273446906 56.969523370503552 15.195384679162302 0.36386553121984139 -0.0017383040676162583 0.021510287169812962
decision_type=2 2 2 2 2 2 2 2 2 2 2 2 2 2
left_child=-1 2 7 -4 -5 6 -3 8 -2 -9 11 -10 -7 -14
right_child=1 5 3 4 -6 12 -8 9 10 -11 -12 -13 13 -15
leaf_value=0.06260063445176875 -0.041425488361894851 -0.034057728345061794 0.080438402306873422 -0.039141652629669982 0.044888077610756957 -0.011220415487404541 0.02054687317817664 -0.065258149036525936 0.04232507353796125 -0.0030341899042220506 0.038747493314224044 -0.044795031800115091 -0.066127756605132954 -0.040076680516495961
leaf_weight=5.2074463367462149 3.9950211793184289 4.380859449505806 4.5856392979621869 3.6482393741607666 3.9266843646764755 5.2180642634630194 6.6469242274761218 4.0980958193540555 4.3031031340360659 5.4328077435493469 6.4194931685924539 4.5920315831899643 4.4840182811021787 3.7122316360473633
leaf_count=22 22 23 22 20 20 27 34 23 20 29 32 25 25 20
internal_value=-0.000175527 -0.00517075 0.00434327 0.0330844 0.00441763 -0.0211303 -0.00114516 -0.00777536 0.0030903 -0.0297892 0.0147028 -0.00264988 -0.0375599 -0.0543287
internal_weight=70.6507 65.4432 41.0011 12.1606 7.57492 24.4421 11.0278 28.8406 19.3096 9.5309 15.3146 8.89513 13.4143 8.19625
internal_count=364 342 213 62 40 129 57 151 99 52 77 45 72 45
is_linear=0
shrinkage=0.05


Tree=8
num_leaves=14
num_cat=0
split_feature=8 0 7 8 7 8 4 7 3 7 9 2 10
split_gain=8.84319 4.42199 5.39607 8.42112 5.57879 4.69713 5.46415 5.0862 4.47607 7.97313 3.40971 3.31884 1.36249
threshold=0.051906996065057547 46.820553825741491 0.0066593025182047428 0.014691636313952936 0.0052079919816544586 0.034354146160627215 15.036588365909472 0.0058908145794376856 -1.1539724054584048 0.0065155739576042765 0.62867264223228492 -1.0148379756813917 0.77614900753897875
decision_type=2 2 2 2 2 2 2 2 2 2 2 2 2
left_child=1 8 3 -3 12 6 -6 -8 9 -1 -4 -10 -5
right_child=-2 2 10 4 5 -7 7 -9 11 -11 -12 -13 -14
leaf_value=-0.066123076036354797 0.063528325694635943 0.052911528161201288 -0.065463280401337628 -0.025076528935488885 -0.03695373124647431 -0.043408113167140536 0.078519443551178847 0.0044622549416652732 0.073034356192818659 0.020920330370715057 -0.012537290322488476 0.013056768827398769 -0.065522621992486083
leaf_weight=3.8438974469900158 5.0545106381177893 5.508397281169894 6.9329104125499708 3.623225003480913 3.52690261602402 4.4332228749990454 4.0321446657180768 5.4551201462745667 4.1165501922369003 8.3366685807704908 5.4238768666982651 5.2454609274864179 4.895569920539856
leaf_count=21 24 26 39 20 20 25 20 28 20 39 29 25 28
internal_value=-0.000189841 -0.00511633 -0.0142329 -0.00324061 -0.0151526 0.00104164 0.0161833 0.035937 0.0134327 -0.0065485 -0.042232 0.0394294 -0.04832
internal_weight=70.4285 65.3739 43.8314 31.4746 25.9662 17.4474 13.0142 9.48726 21.5426 12.1806 12.3568 9.36201 8.51879
internal_count=364 340 235 167 141 93 68 48 105 60 68 45 48
is_linear=0
shrinkage=0.05


Tree=9
num_leaves=14
num_cat=0
split_feature=8 0 7 8 7 8 4 1 7 10 9 8 10
split_gain=7.82675 4.0164 5.0216 7.52023 5.20522 4.30234 5.13087 4.01219 5.74795 4.8424 3.29267 2.95366 1.33041
threshold=0.051906996065057547 46.820553825741491 0.0066593025182047428 0.014691636313952936 0.0052079919816544586 0.034354146160627215 21.701966775261109 -0.0037319927118173442 0.0066496119987082087 0.82650146271550662 0.62867264223228492 0.027137538401659143 0.77614900753897875
decision_type=2 2 2 2 2 2 2 2 2 2 2 2 2
left_child=1 7 3 -3 12 6 11 8 -1 -10 -4 -6 -5
right_child=-2 2 10 4 5 -7 -8 -9 9 -11 -12 -13 -14
leaf_value=-0.04259700813013155 0.059040823402042211 0.049330794625860042 -0.064492236014889556 -0.024139804493604797 -0.040712840682292646 -0.042221062856576452 0.053965969465068708 0.046470800414958095 0.060015900752045492 -0.010057768743821518 -0.011984643825701488 0.020389810618870206 -0.064561156387403715
leaf_weight=5.3977620601654079 5.1637864410877219 5.6100717931985882 6.6915506571531278 3.5768339484930056 3.9425772875547427 4.3325553834438315 5.1763534545898438 6.2508748769760123 4.4820854067802411 5.4794517755508423 5.3911432176828384 3.9686808437108994 4.7243916839361191
leaf_count=28 24 26 39 20 22 25 25 30 21 26 29 21 28
internal_value=-0.000208409 -0.00491358 -0.0136808 -0.00312076 -0.0145609 0.000966062 0.0152628 0.0126996 -0.00104453 0.0214711 -0.041064 -0.0100607 -0.0471444
internal_weight=70.1881 65.0243 43.4142 31.3315 25.7214 17.4202 13.0876 21.6102 15.3593 9.96154 12.0827 7.91126 8.30123
internal_count=364 340 235 167 141 93 68 105 75 47 68 43 48
is_linear=0
shrinkage=0.05


Tree=10
num_leaves=15
num_cat=0
split_feature=5 7 4 1 4 10 5 4 8 4 9 0 1 8
split_gain=7.03477 3.98165 3.91719 5.27417 4.48883 4.56284 5.28481 5.0532 3.80791 3.2903 3.26646 3.07156 2.22955 0.652925
threshold=-0.014576346777933071 0.0045772920534636538 15.195384679162302 -0.0013076285275306352 36.44040785753343 1.0302484426502012 0.011601734678431582 22.962268732386502 0.028500250605018655 19.33022784748584 0.43877625453372016 53.069576676738777 -0.0054256114793038704 0.030557565158568327
decision_type=2 2 2 2 2 2 2 2 2 2 2 2 2 2
left_child=-1 -2 3 12 5 6 7 8 -4 -7 -11 -9 -3 -12
right_child=1 2 4 -5 -6 9 -8 11 -10 10 13 -13 -14 -15
leaf_value=0.054990182691082294 0.042485934257288492 -0.029890139248695526 0.006701565231187482 -0.064711012282319541 -0.053285771362816453 0.019536165719885812 0.067177318494070756 0.053539584526525352 -0.053611337674778971 0.0010538502676378768 -0.065694744249654366 -0.00079375865035628324 0.024331384515274029 -0.035624299813685527
leaf_weight=5.3294602036476126 4.1685849875211707 3.8303277343511581 6.5680928677320534 6.390440955758093 3.7791854143142691 4.5406599342823055 4.3208325058221808 6.2708068042993528 4.3504132628440857 4.9348628968000394 3.8724287152290344 4.4449280500411987 3.7540133446455002 3.3815571069717407
leaf_count=22 19 20 34 37 21 24 21 30 25 25 22 24 20 20
internal_value=-0.000222833 -0.00477737 -0.00803723 -0.0312478 -0.00105626 0.00356801 0.0166925 0.00660958 -0.0173297 -0.016794 -0.030328 0.0310019 -0.00305217 -0.0516769
internal_weight=69.9366 64.6071 60.4385 13.9748 46.4638 42.6846 25.9551 21.6342 10.9185 16.7295 12.1888 10.7157 7.58434 7.25399
internal_count=364 342 323 77 246 225 134 113 59 91 67 54 40 42
is_linear=0
shrinkage=0.05


Tree=11
num_leaves=14
num_cat=0
split_feature=8 7 0 6 9 7 7 9 9 0 6 6 5
split_gain=6.80636 3.58487 4.75435 7.61681 4.73513 3.27522 7.04313 4.94274 2.21281 4.32423 1.53954 1.32891 0.188547
threshold=0.051906996065057547 0.0045772920534636538 46.820553825741491 -0.011231391236283035 0.92181637847165565 0.0063578821065802859 0.005594704217942466 0.7612681882258584 0.30759406494353442 42.661776529632782 -1.0000000180025095e-35 0.010171256046645193 0.0036188841518075641
decision_type=2 2 2 2 2 2 2 2 2 2 2 2 2
left_child=1 -1 3 -3 5 6 11 -8 9 -5 -7 -4 -12
right_child=-2 2 4 8 -6 10 7 -9 -10 -11 12 -13 -14
leaf_value=0.039850306904710073 0.05452624036725915 -0.033568558580998324 -0.025050361147019334 0.055316576324052097 0.02116879440653005 -0.022105858067765646 0.043726503842553659 -0.027841113692708426 0.060623291755945066 -0.010316109965051425 -0.064566448832577505 -0.062257720803205879 -0.049223068407543799
leaf_weight=4.2206733524799338 5.2469996511936179 6.5567553043365505 4.7546670138835925 4.4630303233861905 6.3902340680360785 4.5260120481252661 6.2062149941921216 3.946768507361412 4.463467225432395 5.7338383942842484 4.9421108663082105 4.8454258739948273 3.3659211248159409
leaf_count=19 24 34 27 20 30 26 33 22 21 28 29 31 20
internal_value=-0.000234256 -0.00469483 -0.00781821 0.0112276 -0.0181857 -0.025903 -0.0131259 0.015906 0.0312625 0.0184104 -0.0455684 -0.0438299 -0.0583502
internal_weight=69.6621 64.4151 60.1944 21.2171 38.9774 32.5871 19.7531 10.153 14.6603 10.1969 12.834 9.60009 8.30803
internal_count=364 340 321 103 218 188 113 55 69 48 75 58 49
is_linear=0
shrinkage=0.05


end of trees

feature_importances:
Column_9=25
Column_7=22
Column_1=21
Column_4=19
Column_8=19
Column_5=16
Column_6=10
Column_0=9
Column_3=7
Column_10=7
Column_2=6

parameters:
[boosting: gbdt]
[objective: binary]
[metric: auc]
[tree_learner: serial]
[device_type: cpu]
[data_sample_strategy: bagging]
[data: ]
[valid: ]
[num_iterations: 100]
[learning_rate: 0.05]
[num_leaves: 31]
[num_threads: 0]
[seed: 0]
[deterministic: 0]
[force_col_wise: 0]
[force_row_wise: 0]
[histogram_pool_size: -1]
[max_depth: -1]
[min_data_in_leaf: 20]
[min_sum_hessian_in_leaf: 0.001]
[bagging_fraction: 1]
[pos_bagging_fraction: 1]
[neg_bagging_fraction: 1]
[bagging_freq: 0]
[bagging_seed: 3]
[bagging_by_query: 0]
[feature_fraction: 0.8]
[feature_fraction_bynode: 1]
[feature_fraction_seed: 2]
[extra_trees: 0]
[extra_seed: 6]
[early_stopping_round: 0]
[early_stopping_min_delta: 0]
[first_metric_only: 0]
[max_delta_step: 0]
[lambda_l1: 0]
[lambda_l2: 0]
[linear_lambda: 0]
[min_gain_to_split: 0]
[drop_rate: 0.1]
[max_drop: 50]
[skip_drop: 0.5]
[xgboost_dart_mode: 0]
[uniform_drop: 0]
[drop_seed: 4]
[top_rate: 0.2]
[other_rate: 0.1]
[min_data_per_group: 100]
[max_cat_threshold: 32]
[cat_l2: 10]
[cat_smooth: 10]
[max_cat_to_onehot: 4]
[top_k: 20]
[monotone_constraints: ]
[monotone_constraints_method: basic]
[monotone_penalty: 0]
[feature_contri: ]
[forcedsplits_filename: ]
[refit_decay_rate: 0.9]
[cegb_tradeoff: 1]
[cegb_penalty_split: 0]
[cegb_penalty_feature_lazy: ]
[cegb_penalty_feature_coupled: ]
[path_smooth: 0]
[interaction_constraints: ]
[verbosity: -1]
[saved_feature_importance_type: 0]
[use_quantized_grad: 0]
[num_grad_quant_bins: 4]
[quant_train_renew_leaf: 0]
[stochastic_rounding: 1]
[linear_tree: 0]
[max_bin: 255]
[max_bin_by_feature: ]
[min_data_in_bin: 3]
[bin_construct_sample_cnt: 200000]
[data_random_seed: 1]
[is_enable_sparse: 1]
[enable_bundle: 1]
[use_missing: 1]
[zero_as_missing: 0]
[feature_pre_filter: 1]
[pre_partition: 0]
[two_round: 0]
[header: 0]
[label_column: ]
[weight_column: ]
[group_column: ]
[ignore_column: ]
[categorical_feature: ]
[forcedbins_filename: ]
[precise_float_parser: 0]
[parser_config_file: ]
[objective_seed: 5]
[num_class: 1]
[is_unbalance: 0]
[scale_pos_weight: 1]
[sigmoid: 1]
[boost_from_average: 1]
[reg_sqrt: 0]
[alpha: 0.9]
[fair_c: 1]
[poisson_max_delta_step: 0.7]
[tweedie_variance_power: 1.5]
[lambdarank_truncation_level: 30]
[lambdarank_norm: 1]
[label_gain: ]
[lambdarank_position_bias_regularization: 0]
[eval_at: ]
[multi_error_top_k: 1]
[auc_mu_weights: ]
[num_machines: 1]
[local_listen_port: 12400]
[time_out: 120]
[machine_list_filename: ]
[machines: ]
[gpu_platform_id: -1]
[gpu_device_id: -1]
[gpu_use_dp: 0]
[num_gpu: 1]

end of parameters

pandas_categorical:null
