tree
version=v4
num_class=1
num_tree_per_iteration=1
label_index=0
max_feature_idx=10
objective=binary sigmoid:1
feature_names=Column_0 Column_1 Column_2 Column_3 Column_4 Column_5 Column_6 Column_7 Column_8 Column_9 Column_10
feature_infos=[0:100] [-0.56997695304059448:1.5933290151818369] [-4.774897680763984:9.2920353982300892] [-6.4538514920194192:10.599078341013835] [0:58.33300823521958] [-0.042239511172688336:0.069812300615772441] [-0.040459498268434889:0.09807641339675531] [0:0.013774633709686323] [0:0.14781879883234428] [-0.25829817433472235:1.4118087821351333] [0:3.5129192095689095]
tree_sizes=2416

Tree=0
num_leaves=22
num_cat=0
split_feature=1 10 7 8 5 2 4 4 4 7 6 10 7 5 7 6 2 1 6 4 7
split_gain=17.386 12.8522 10.8919 18.2739 9.91171 12.1145 8.03756 5.8193 7.51119 15.2824 5.74553 4.9626 5.86433 5.04506 4.88315 8.39426 5.10396 4.79543 4.78552 4.67325 2.69251
threshold=1.0609880345143845 0.66278054520676921 0.0082295751386499399 0.028880248028493236 -0.0024033688658267821 3.4784632034632055 18.472985369817312 17.782389004709398 26.578438498029232 0.0096343970277118791 -0.0082703654323165211 0.61160872366550179 0.0082295751386499399 0.0030411390755210035 0.0093966289407896881 0.014657707162947156 1.1698141013495065 0.140862587988309 -0.0019098302096502335 26.401423087726315 0.0098702032066715854
decision_type=2 2 2 2 2 2 2 2 2 2 2 2 2 2 2 2 2 2 2 2 2
left_child=1 10 3 6 7 14 -3 -4 18 -10 -1 12 -12 17 15 -6 -17 -14 -9 -16 -15
right_child=-2 2 4 -5 5 -7 -8 8 9 -11 11 -13 13 20 19 16 -18 -19 -20 -21 -22
leaf_value=-0.7613825879518038 -0.77593763400900095 -0.74370860345377876 -0.71519830719339006 -0.5942017117114986 -0.75713736618512129 -0.64578193368983483 -0.65373589315378389 -0.59135318628363809 -0.75445161363885282 -0.63155157712160603 -0.65288133552542571 -0.75631996323625705 -0.65288133552542571 -0.76568294246870294 -0.71013669662542245 -0.71276873412076569 -0.64262664398512781 -0.71771744978021268 -0.66313602706572361 -0.77000070732777581 -0.71519830719339006
leaf_weight=6.870469704270362 7.3137258142232886 4.6541891545057315 5.7623294293880489 7.9786099791526786 5.3190733194351223 5.7623294293880454 5.3190733194351196 4.875817209482193 4.6541891545057279 5.5407013744115829 4.8758172094821957 5.0974452644586554 4.8758172094821948 4.8758172094821912 5.3190733194351187 5.5407013744115812 4.875817209482193 6.8704697042703629 4.4325610995292681 8.4218660891056043 5.7623294293880463
leaf_count=31 33 21 26 36 24 26 24 22 21 25 22 23 22 22 24 25 22 31 20 38 26
internal_value=-0.701137 -0.696488 -0.684804 -0.650603 -0.694952 -0.712088 -0.695723 -0.671052 -0.658009 -0.687658 -0.719855 -0.711038 -0.702571 -0.713394 -0.72505 -0.706032 -0.679936 -0.690804 -0.625535 -0.746828 -0.738337
internal_weight=124.998 117.684 78.4563 17.9519 60.5045 35.2389 9.97326 25.2656 19.5033 10.1949 39.2282 32.3577 27.2603 22.3844 29.4765 15.7356 10.4165 11.7463 9.30838 13.7409 10.6381
internal_count=564 531 354 81 273 159 45 114 88 46 177 146 123 101 133 71 47 53 42 62 48
is_linear=0
shrinkage=1


end of trees

feature_importances:
Column_7=5
Column_4=4
Column_6=3
Column_1=2
Column_2=2
Column_5=2
Column_10=2
Column_8=1

parameters:
[boosting: gbdt]
[objective: binary]
[metric: auc]
[tree_learner: serial]
[device_type: cpu]
[data_sample_strategy: bagging]
[data: ]
[valid: ]
[num_iterations: 100]
[learning_rate: 0.05]
[num_leaves: 31]
[num_threads: 0]
[seed: 0]
[deterministic: 0]
[force_col_wise: 0]
[force_row_wise: 0]
[histogram_pool_size: -1]
[max_depth: -1]
[min_data_in_leaf: 20]
[min_sum_hessian_in_leaf: 0.001]
[bagging_fraction: 1]
[pos_bagging_fraction: 1]
[neg_bagging_fraction: 1]
[bagging_freq: 0]
[bagging_seed: 3]
[bagging_by_query: 0]
[feature_fraction: 0.8]
[feature_fraction_bynode: 1]
[feature_fraction_seed: 2]
[extra_trees: 0]
[extra_seed: 6]
[early_stopping_round: 0]
[early_stopping_min_delta: 0]
[first_metric_only: 0]
[max_delta_step: 0]
[lambda_l1: 0]
[lambda_l2: 0]
[linear_lambda: 0]
[min_gain_to_split: 0]
[drop_rate: 0.1]
[max_drop: 50]
[skip_drop: 0.5]
[xgboost_dart_mode: 0]
[uniform_drop: 0]
[drop_seed: 4]
[top_rate: 0.2]
[other_rate: 0.1]
[min_data_per_group: 100]
[max_cat_threshold: 32]
[cat_l2: 10]
[cat_smooth: 10]
[max_cat_to_onehot: 4]
[top_k: 20]
[monotone_constraints: ]
[monotone_constraints_method: basic]
[monotone_penalty: 0]
[feature_contri: ]
[forcedsplits_filename: ]
[refit_decay_rate: 0.9]
[cegb_tradeoff: 1]
[cegb_penalty_split: 0]
[cegb_penalty_feature_lazy: ]
[cegb_penalty_feature_coupled: ]
[path_smooth: 0]
[interaction_constraints: ]
[verbosity: -1]
[saved_feature_importance_type: 0]
[use_quantized_grad: 0]
[num_grad_quant_bins: 4]
[quant_train_renew_leaf: 0]
[stochastic_rounding: 1]
[linear_tree: 0]
[max_bin: 255]
[max_bin_by_feature: ]
[min_data_in_bin: 3]
[bin_construct_sample_cnt: 200000]
[data_random_seed: 1]
[is_enable_sparse: 1]
[enable_bundle: 1]
[use_missing: 1]
[zero_as_missing: 0]
[feature_pre_filter: 1]
[pre_partition: 0]
[two_round: 0]
[header: 0]
[label_column: ]
[weight_column: ]
[group_column: ]
[ignore_column: ]
[categorical_feature: ]
[forcedbins_filename: ]
[precise_float_parser: 0]
[parser_config_file: ]
[objective_seed: 5]
[num_class: 1]
[is_unbalance: 0]
[scale_pos_weight: 1]
[sigmoid: 1]
[boost_from_average: 1]
[reg_sqrt: 0]
[alpha: 0.9]
[fair_c: 1]
[poisson_max_delta_step: 0.7]
[tweedie_variance_power: 1.5]
[lambdarank_truncation_level: 30]
[lambdarank_norm: 1]
[label_gain: ]
[lambdarank_position_bias_regularization: 0]
[eval_at: ]
[multi_error_top_k: 1]
[auc_mu_weights: ]
[num_machines: 1]
[local_listen_port: 12400]
[time_out: 120]
[machine_list_filename: ]
[machines: ]
[gpu_platform_id: -1]
[gpu_device_id: -1]
[gpu_use_dp: 0]
[num_gpu: 1]

end of parameters

pandas_categorical:null
